-0.361 0.8 0 -0.705 0 0 0 0 -0.289 -0.573 0.977 -0.371 0 -0.166 0 -0.318 0.483 -0.412 -0.025 0.976 -0.852 0 0.647 0.068 0 0.491 -0.481 -0.582 0.477 0.132 0.167 0 -0.698 0 0 0 0.815 0 0 0 -0.598 -0.073 0 -0.888 0 0.423 0 -0.891 0 0 0 0.901 -0.609 0.736 0 -0.445 0 0.628 -0.949 -0.358 0 0.456 0 -0.744 -0.317 0 0.484 0.031 0 0 0.191 0.001 0 -0.75 0.97 -0.548 0 0.654 0 0 0 -0.66 0.04 -0.491 0 -0.284 0.763 0 0 0 0.439 0 0 0 0.361 -0.736 0 0 0 -0.757 0 0 -0.289 0 -0.207 -0.949 0.452 0.979 -0.156 -0.186 0.499 -0.155 0 -0.071 0.546 -0.252 -0.787 0 -0.77 -0.019 0 0 0.941 0.503 -0.733 -0.405 0 0 -0.384 0 -0.503 0 -0.614 0 -0.375 0 0 0 0 -0.167 0 -0.284 0 0 0 0 -0.037 -0.829 0.955 0 0 0.718 0.017 -0.38 -0.599 0.213 -0.682 0.808 0 0 0 -0.255 0.201 -0.515 0 -0.906 0.501 -0.806 0 0.599 0 0 0.601 0.255 -0.998 0.528 -0.728 0.333 0 0 -0.809 0 0 0 -0.812 0 0 -0.624 0 0 0 -0.409 0 0 0 0.838 0.041 0 0.388 0.422 0 -0.664 0.009 0 -0.279 0 0 0.505 0 -0.921 -0.015 0.319 0 -0.322 -0.356 0 0 -0.228 0.715 0 0 0 0 0 0 0.118 0.801 -0.351 0 -0.681 0 -0.135 0 -0.75 0 0 -0.239 0.376 0 0 -0.286 0 -0.044 0 0 0.203 0 0 0 0.886 -0.613 0 0 0 0 -0.187 0.385 0 0 0 0.532 -0.203 0 0 0 0 0 0 0 0 -0.468 0 0 -0.075 0.354 0.021 0.084 0.424 0 -0.585 0.294 0 0 0 0 0.837 -0.321 0 0 0 0 0 -0.881 -0.358 -0.064 -0.948 0 -0.575 0 0 0 0 -0.375 -0.844 -0.124 0.722 0.621 0.116 0 -0.388 0 0 0.422 0 -0.756 0 0 -0.025 0 0.497 0 -0.91 0 -0.317 0.763 0.47 0 0 0 0.127 0 0 0 0 0 0 0 0.799 0 0 0 0 0 0 -0.867 0 -0.091 -0.559 0 0.727 -0.963 0.182 0 0 0.604 -0.382 0 0 0 -0.854 0.451 0.333 0 -0.244 -0.404 -0.224 0 0 0 -0.353 -0.458 0.716 -0.832 0 -0.761 0 0 -0.249 0 -0.933 0 -0.458 -0.02 0 0 0 0 0.144 0.12 0 0 0.527 0.093 0 -0.67 -0.803 0.397 0 -0.654 0.016 0.772 0.516 -0.578 0.937 0 0 0 -0.523 0.634 0 0.834 0 0 -0.034 0 0.609 -0.6 0.862 0.166 -0.586 0.655 0 0 0 0 -0.136 0.611 0 0 0 0.991 0 0 -0.082 0 0.085 -0.679 0 0 -0.858 0 0 -0.219 -0.604 0 0.995 0 0 0 -0.346 0 0 0 0.987 0.389 0 -0.244 0.823 0.444 0.913 0 0.343 0.675 0 0.243 -0.062 0 -0.447 0 -0.289 -0.362 0 0 0 -0.744 0 -0.999 0 -0.838 0.624 0 0 -0.2 0 0 0 0.138 0 0 0.946 -0.592 0 0.16 0.131 -0.792 0.574 0 0.864 0 0.578 -0.742 0.491 0 0 0.061 0.802 0 0 0 0.88 0 0 -0.374 -0.225 0 0 0 0 -0.196 0 0.62 0 0.917 0.228 0.414 -0.458 -0.95 -0.11 0.114 0 0.349 0 0 0 0.38 -0.917 0 0 0 0 0.577 0.448 0.574 0 0.96 0 -0.279 -0.324 0 -0.633 0 -0.134 -0.313 -0.123 0 0 -0.548 0.321 0 0.316 0 0 -0.016 -0.511 0 0 0 -0.187 0 0 0 -0.476 -0.186 0 0.37 0 0.341 0.244 0.054 -0.36 0.44 -0.41 0 0 0.397 0.175 0.845 0 0.91 0 0 0 0.207 0 0.928 -0.424 0 0 0 -0.178 -0.97 0.702 -0.382 0.774 -0.792 0.762 0 0 0.98 -0.734 0 0 0 0.266 0.229 0 0 0 0 0.254 0.914 0 -0.568 -0.324 0 0 -0.158 0.482 0 0 0.86 0 0 -0.158 0 0.554 0 0 0 -0.073 0.255 -0.592 0 0.897 0.087 0 0 0 0 0.783 0.994 0 -0.856 0 0 0 1 0 0 -0.203 0.833 0 0 0 0.54 0.831 0.818 0 0 0 0 0 0 0 0 0 0 -0.648 0.612 0.206 0 -0.449 0.737 -0.558 0 0 0 0.958 0.775 0.309 0.353 0 -0.409 -0.043 0 0 -0.545 0.202 0 0.867 -0.018 0 0.16 -0.634 -0.057 -0.046 -0.799 0 0.397 0.306 0 -0.707 0 0 0 0 0.745 -0.637 0 0 0 0 -0.427 0 0.744 -0.401 -0.112 -0.143 0.569 -0.767 0 0.436 0 0.896 0.84 0.257 0 0 0 0 0 -0.093 0 0 0.73 0 0.734 0.062 0 0.469 -0.196 0 -0.727 0 -0.367 -0.429 -0.751 0 0 -0.387 0 0.789 0 0 0 0.816 0 0.882 -0.043 0 0 0.215 0.153 -0.043 0 0 0 -0.754 0 0 0 -0.777 0 0 0 0 0 0.735 0.772 -0.443 0 0 0 -0.072 0 -0.875 -0.773 0 0 0.929 0 0.418 0 0.085 -0.72 0 0 0.029 0.592 -0.959 0 0 0 0 -0.568 0 0.922 0 0 -0.688 0 0.999 0 0.068 0 0.286 0 0 -0.745 0 0 0.364 -0.49 0 0.396 0 0 0 0.586 0 -0.044 0 0 0 0.515 -0.364 0 0.528 -0.982 0.961 -1 0 0 0 0.334 0 0 -0.928 0 0 0 0 0.832 -0.457 0 0 0.326 0.18 -0.569 0.752 0.893 0.496 0 0 0.478 0.543 -0.069 0 -0.399 0 0 -0.406 -0.189 0 0 -0.639 0 0.91 0 0.707 -0.629 0 0.425 0.622 0.796 0.131 0.499 0 0 0 0 -0.806 0 -0.673 0 -0.085 0 -0.281 -0.118 0 0 0 -0.462 -0.859 0 -0.699 0 -0.824 -0.627 -0.821 0 -0.662 -1 0 0 0.187 0 0 0 -0.444 -0.598 0 -0.322 0 -0.64 0.17 -0.673 0.31 0 -0.879 0.023 0.059 -0.424 0 0.841 -0.568 0 0.527 0.877 -0.5 -0.848 0.241 0.88 0 0.439 0.892 0.167 0.428 0.104 0 0 0 0 0 0.688 0 -0.239 -0.691 0 0.734 0 -0.11 0 -0.2 0.133 -0.029 0 0 0 0.022 -0.279 0 -0.325 -0.509 -0.501 0.495 0.786 0 0.137 0 0 -0.566 -0.969 -0.62 0 0 0 0 0.631 0 0 -0.158 -0.953 0 0 0 0 0 0 0 0 0.733 -0.876 -0.392 0 0.332 0 0 0 0 0.93 -0.276 0.895 -0.2 0 -0.143 0.218 -0.502 0.906 -0.744 0 0 0 0.519 0.327 0.355 0.464 0.056 0.347 0.341 0.582 -0.864 -0.524 0.5 0 0.356 -0.311 0 0.763 0 0 0.765 0 -0.348 0 0.249 -0.13 0.567 -0.392 -0.337 -0.826 0.541 0 0 0 -0.568 -0.578 -0.186 -0.027 0 0.122 0 0 0.053 0 0 0 0 0 -0.005 0 0 0.799 0 -0.248 0.381 0 -0.238 0 0 0.148 -0.61 0 0 -0.765 0 0 0 0 -0.999 0.738 0 -0.451 0.16 0.853 0 -0.222 -0.104 0 0 -0.423 0 0.084 -0.734 -0.455 0.318 -0.91 -0.81 0 0.258 -0.909 0 0.193 0 0 0 0.652 -0.521 -0.511 0 0.356 0 -0.197 0.846 0 0 0 0 0 0.431 0.192 0 -0.538 0.44 0 0 0.374 0 0 0 0 0 0 0 0 0.074 0 0 -0.383 0 0 0 -0.645 0 -0.588 0.56 0.805 0.611 -0.894 0 0 0.784 -0.787 0 -0.882 0 0 -0.914 -0.517 0.578 0 0 0 -0.986 -0.174 0.818 0.602 -0.93 -0.037 0 0.721 0 0 0.187 0 0.811 0.19 -0.533 0 0 0.457 -0.602 0 0 0.879 0 0 -0.731 -0.773 0 0.359 0 -0.736 0.746 0 0.151 -0.138 -0.339 0 -0.316 0.466 0 0 -0.459 0 0 -0.024 0.018 0 -0.177 0.535 0 -0.008 0.743 -0.644 0.563 0 0.013 0.889 -0.611 -0.676 0 0 0.872 0 0 -0.612 0 0.417 0 0 -0.05 -0.3 0 0.923 -0.88 0.898 0 -0.756 -0.409 -0.214 0 -0.806 0.552 -0.2 0.925 -0.903 0 -0.209 0 0 0 0 0 0 -0.471 0 0 0.916 0 0.4 -0.562 0.218 0 0 0.194 -0.965 0.756 0.992 0.01 0.008 0.988 0 0 -0.212 0 0 0 0 0 0 0 0 -0.347 0.118 0.22 0.877 0 -0.426 0 0.9 0 0 0 0 0.872 0.68 -0.393 0.307 0 0.494 0 0 -0.748 -0.421 -0.028 0 0 0.121 -0.243 -0.675 0 -0.126 0 0 0.531 0 0 0.726 -0.707 -0.612 -0.071 -0.722 0 0 -0.35 -0.796 0.755 0.093 0.975 0.95 -0.336 0.128 0.632 -0.236 0 0.477 0.363 0.883 0 0.381 0 0 0 0 0 0.81 -0.579 0.948 0 0.964 0.475 -0.884 0 -0.644 0 0 0 0 -0.731 0.097 0 0.583 0.94 0 0.257 -0.685 0 -0.634 -0.537 0.811 0.404 0.729 0.111 0 0.968 0 0 0 0 0 -0.479 0.365 -0.679 0 -0.847 0.768 0 0.161 -0.949 0.747 -0.383 0 0.234 -0.961 0 0 0 0.888 -0.31 0.911 0 0.894 -0.974 0 0.31 -0.559 -0.903 0.815 -0.153 0 0 0.966 0 0.951 0 0 -0.073 0.685 0 -0.246 -0.045 0 -0.627 0 0 0.36 0 0 0 0.598 -0.237 0.557 0.254 0 0 -0.247 0 0 0.753 -0.65 0.079 0.87 0 0.892 -0.558 0.292 0 -0.867 -0.289 0.142 0.871 0 0.87 0.254 0 0.91 0.494 0 -0.198 -0.457 -0.125 0 0 0 0 0.241 0 -0.882 0 -0.023 0 0 0.561 -0.579 0.161 0 -0.653 -0.841 0 0.324 0.435 -0.2 -0.333 0 -0.157 0.001 -0.64 0 0 0.474 0.321 0 0 0.942 0 0.708 0 0 0.979 -0.258 0.021 0.304 0 -0.985 -0.117 0 0 0 0 0 0.707 0 -0.789 0.723 0 0 0 0.523 -0.265 0.828 0.309 0.681 0.036 0 -0.572 0.743 0 0 0.974 0 0 0.215 0.938 0 0 0.108 0 -0.069 -0.449 0.629 -0.256 0 0 0.987 -0.477 -0.718 0 0 0.028 0.48 -0.352 -0.84 0 -0.786 0.504 0.861 -0.174 0 0 0.723 -0.185 0.443 0 0.79 0.006 0 0 0 0 0 0.289 -0.9 0 -0.984 0 0.573 0.635 -0.339 0.015 0 0.893 0 -0.176 0 0 0.72 0 0.97 0 0 -0.198 -0.032 0 0 0 0 0 0 -0.205 0 -0.738 -0.213 0 0.946 0.154 0 0 0 0.195 0.014 0 0 0.173 -0.078 0 0 0.966 0 0 -0.874 0 -0.296 0 0 0 0 0 0 0.465 0 0 0 0 0 0 0.406 0 0 0 -0.791 -0.883 -0.308 0 -0.362 -0.847 0.99 -0.38 0.536 0 -0.238 -0.712 0.212 0 0 -0.481 -0.564 -0.822 0 0.77 0 0.53 0 0 -0.025 0 0.28 0 -0.403 0 -0.75 -0.133 0 0 -0.583 0.755 -0.093 0 0 0 0.341 0 0 0 0 0 0 0 0 0 0 0 0 0 0 0.43 0 0 -0.979 0 0 -0.691 0 -0.44 0 -0.109 0 0.349 -0.411 0 -0.486 0 0 0 -0.158 -0.819 -0.755 0 -0.363 0.794 -0.953 0 0.225 0.408 0 0 -0.978 0 0 0 -0.8 0 0 0 0 -0.351 0 0 0.627 0 0.291 -0.315 0.222 0 -0.392 -0.043 0 0.225 0.268 0.184 -0.254 -0.293 -0.577 -0.353 0.93 0 0.452 0 0 -0.815 0.627 0.423 0 -0.011 0 -0.072 0 0 -0.46 -0.673 0 0 0 0 0 0 -0.35 -0.16 0 -0.606 0.34 -0.738 0 0 0.835 0.716 0 0.692 0 -0.89 0 0 -0.41 0 -0.777 -0.939 0.525 0 0 -0.87 0 0 0 0 -0.175 0 0 0.733 0 0 -0.353 0 0 0 -0.632 0 0.088 0 0.287 -0.797 0.931 0 0 0 0 -0.169 0 0.101 0.216 0 0.453 0 0.372 0 0 0.699 0 0.444 0.952 0.639 0 0 -0.794 0.733 0 0.44 0 0.006 0.632 -0.214 0 0 0.391 -0.6 0 -0.673 0 -0.904 0 0 0 -0.889 0.245 0 -0.922 0 0 0.133 -0.858 0.246 0 -0.23 0 -0.462 0 0 0.737 0 0 0.324 0.212 0 -0.927 -0.509 0 -0.766 0.41 0 0.078 0.235 0.45 0 0.953 0 0 0.268 -0.009 0.969 -0.868 0 0.004 -0.842 -0.642 0.582 -0.284 0 0 0.607 -0.23 -0.947 0.826 -0.236 0 0 0 0 0.352 0.195 -0.857 0 0 0.123 0 -0.301 0.083 -0.51 -0.776 -0.163 0.394 0 0 0.843 0 -0.741 0 0.636 0 0 0 -0.272 0 0 -0.964 -0.371 -0.12 -0.15 0 0 0.173 -0.941 0 -0.639 0.236 0 0.142 0.61 0 0 0.994 0 0 0.667 0.643 0.302 0.005 -0.805 0.205 0 0.723 0 0.12 0.589 0.062 0.903 0 -0.542 0 0 -0.221 -0.99 -0.26 -0.348 -0.773 0.319 -0.098 -0.806 0.636 0 0 0 0.538 -0.753 0 0 0.422 0 0.926 0 0.786 0 0.3 0.13 0 0.217 0.099 0.004 0 0.102 0 -0.573 0 -0.419 0 0.605 0 0 0.726 0.985 0.128 0 0.683 -0.712 0 0.621 0 0 0.342 -0.513 0.799 0 0 0 -0.039 0.25 0 0 -0.483 0.193 0.812 0 0.009 0 0 -0.631 -0.838 0 -0.669 0.264 0 -0.31 0.915 0 -0.958 0.731 -0.498 0 0 0.72 0.088 0 -0.909 0.408 0 0.919 0 0 0 0 -0.537 0 0 0 0.413 0 0 0 0 0 0 -0.26 0 0 0 0 0.539 0 0 0.427 0.366 0 0 0 -0.485 0 -0.612 0 0.319 0 0.204 0.408 0 0 -0.617 0 0 0 0.056 -0.235 0 -0.911 -0.81 0 0 0 0 0.14 -0.763 0.343 0 0.536 0 -0.784 0 0.21 -0.46 0.523 0 0 0 0 0.278 0 0.074 -0.765 0 -0.793 0.636 0.699 0.382 0 -0.176 0.166 0.761 -0.582 0.666 0 0.466 0.203 -0.832 0 0.675 -0.146 0.99 0.16 0.048 0 -0.764 0 0 0 -0.241 0.395 0.049 0 -0.759 -0.227 0 0.783 0 -0.481 0.979 0.327 0 -0.774 0 0.038 0 0.161 0.388 0 0 0 -0.032 0 0 0 -0.225 0.061 0 0 -0.149 -0.87 0 0 0.243 0 0.74 0.643 -0.75 0.091 0 0.902 0.204 0 0 0.466 0.076 0.997 -0.386 -0.663 0.887 0.933 0 0 0.944 0 -0.76 -0.407 0 0 0 0.137 0 0 0.16 -0.754 0 0 0 -0.286 -0.106 0 -0.191 0 0 -0.064 0 0 0 0 0 0 0 0 -0.427 0 0.462 0 0 0.213 0 0.83 0.175 0 0.729 0 -0.193 0 -0.421 0 -0.438 0.42 -0.983 0 0.055 0.586 0 0 0.565 0.589 0.73 0 0 0.872 0 -0.883 0 -0.137 0.356 -0.255 0 0 0.518 -0.907 -0.81 0 0.609 0 -0.344 0 0.802 -0.275 0 -0.445 -0.844 0 0 -0.969 -0.462 0 0.72 0 0 0.842 0 -0.472 0.328 -0.599 0 0 0.137 0.418 -0.319 0 0 0.069 -0.702 -0.283 0 0 0.284 0 0.495 0 0.686 0.648 0.013 -0.246 0 0 0 -0.878 0 0 -0.933 0 0 -0.578 0 0.546 0.867 -0.574 0.812 0 -0.123 0 0 -0.616 0.691 0.23 0 0 0 0.754 -0.735 0 -0.205 0.992 0 0 0.72 0 -0.497 0.145 0 -0.107 -0.693 0.329 0 0 0 0.748 -0.794 0 0 0.103 -0.406 0.334 0.819 0.045 0 0 0 0 0.642 0 -0.099 0 0 -0.333 -0.03 -0.064 0.005 0 0.812 -0.095 0.464 0 -0.448 0 0.532 0 0 0 0 0.661 0 0 -0.177 0 0 0 0 0 0 0.009 0 -0.453 -0.358 0.207 0 0 -0.29 0 -0.276 0 0 0.859 0 0 0 0 -0.843 0 0 0.554 -0.643 -0.928 0.768 0 0 0.314 0 0 0 0 0 0 0 0.555 0 0.337 0 0 0 0 0 -0.212 0 0 0 -0.888 0 0 0.824 0.323 0.145 0.701 -0.705 0 0 0 0 0.027 0 0 0 0 -0.409 0.549 0.702 0.315 -0.477 0.54 0 -0.263 0 0 0.701 0 0.622 0.601 0.729 0 -0.185 0 0 0 -0.342 0.123 0 -0.163 0.253 0 0.444 0 -0.781 -0.071 0.649 -0.753 -0.761 0 -0.062 -0.094 0 0 -0.698 0 0.489 0 -0.357 -0.516 0 0 0.529 0 0 0 0 0 0.068 0 -0.284 -0.038 0 0 0 0 0.067 0 0 0 0 0 0.567 0 0 -0.423 0.675 0.997 -0.111 0.433 -0.698 -0.502 0 0 -0.205 -0.393 0 0.005 0 -0.928 0.126 0 0 0.256 0 -0.23 0.655 -0.091 0 0 0 0.614 0.789 0 0.258 -0.344 0 0 0.09 -0.736 0.475 0.365 0 0.35 0 -0.858 0.432 0 0 0 -0.012 0 0.857 0 0 -0.596 -0.601 0 0 -0.427 -0.85 0 -0.96 -0.074 0 -0.579 0 0 -0.516 0 0 0 0 0.092 -0.159 -0.809 0 0 0 0 0 0 0 0 0 0 0.086 0 0.254 0.694 -0.981 0 0 0 0 0 -0.82 0 -0.764 -0.591 -0.909 0 0 0.208 -0.345 0.301 0 0 0 0 -0.58 0 -0.032 0.116 0.536 0.155 0 0 0 -0.981 0 0 -0.838 0 0 -0.794 0.273 0 0.702 -0.825 -0.672 -0.895 -0.276 0.206 0 0.374 0.69 0 0 -0.905 0 0.534 -0.588 -0.163 0 0 0 0 -0.595 0.931 -0.56 0.228 0.536 0 0.586 0 0 0.525 0 0 0.86 0 -0.248 0 0 0 -0.802 0 0 0 0 0 -0.79 0 0 0 0 0 -0.554 -0.613 0 0 0.824 0.927 0.218 0.324 0.502 0 0.621 0.463 0 0 -0.934 0 -0.435 -0.347 -0.848 0.566 -0.093 -0.777 0.965 0.752 0 0 0 0.692 -0.257 0 0 0.644 0.766 -0.936 -0.75 -0.862 -0.795 0.189 0 0.204 0 0 -0.871 0.91 -0.236 0.685 0 0 0 0.388 0.045 0 0 0.167 0 0 0.6 -0.569 0 -0.698 -0.937 0 0 0 0 -0.417 0 0 -0.651 0 -0.594 0 -0.44 0.88 -0.001 0 0 0 -0.833 0 -0.231 0 0.908 0 0 -0.846 0 -0.903 0 0 0 0 0 0 0 0 -0.953 0 0 -0.065 0 0 -0.932 -0.468 0.389 0 0 0 0 0 0 -0.134 -0.647 0.413 0.072 0 -0.617 0.987 -0.111 0 0.672 0 0 0 -0.435 0 0 0.496 0 -0.001 0.365 -0.575 0.685 0.57 0.279 0 0 0 0.462 0 0 -0.534 0 0 0 0 0.903 0.012 0 -0.203 -0.831 0.496 0.972 0.851 0.317 0.691 0 0 0 -0.207 0.759 0 0 0.439 0 -0.561 0 0.074 0.592 0.793 0 0.437 -0.882 0 0 -0.73 0 0.839 0 -0.387 0.221 0 -0.606 -0.493 0.26 0 0.229 0.79 0 0 0 0.167 0 0 -0.481 0 0 0 0 0 0.421 0.439 -0.684 0.551 0 0 -0.164 -0.737 0 -0.871 0 -0.706 0 0 -0.334 -0.822 0.372 0.064 0 -0.777 -0.067 0 0.751 0.173 0 0 -0.688 -0.108 0 0.697 0 0.435 -0.58 -0.754 -0.581 0.224 -0.005 -0.186 0 0 0 -0.583 0 0 -0.62 0 -0.4 0 0 0 0.012 0.999 0 -0.873 0 0 0.762 0 0 0.063 -0.807 0.918 0 0.243 0 0 0.329 0 0.271 0.414 0.427 0 -0.738 0 0.8 0.01 0.155 0 0 0.09 -0.198 0 0 0 -0.005 -0.446 0.208 -0.588 0 0.035 0.519 0 0 0 -0.274 0.218 0.255 0 0.12 -0.425 0 -0.16 0 0 0.762 0 0 0 0 0 0 0.714 0 0 0.311 0.871 -0.72 0 0 0.509 -0.031 0.991 0 -0.176 0 0 -0.457 0 0 0 -0.428 -0.09 -0.507 0 -0.103 0.529 0 0 0 0 0 0.043 0 -0.079 -0.247 -0.96 0 -0.521 -0.11 0 -0.191 0 0 0 1 0.918 0.744 0 -0.631 0 0 0 0 -0.589 0 0.544 -0.149 0.367 0 0 0 0.343 0 0 -0.177 0 -0.069 -0.53 0.703 0 0 -0.673 0 -0.318 0 0 -0.048 -0.17 0 -0.152 0 0 0 0 0 0.051 0 0 0 -0.075 0 0.469 0.43 0 0.522 -0.06 0 0.965 -0.692 0.833 0 -0.062 0 0.144 0 -0.028 0.971 0 0 0 -0.456 0.313 -0.697 0 -0.364 0 0 0 0.524 0 -0.01 -0.86 0.251 0.908 0 -0.57 0.614 0 0 0.45 0 0 0.37 0 0 0 0 0 0 0 0 -0.871 0 0 0 0 0 0 0 0 0 0 0 0 0.973 0.416 0 0 0 0 -0.669 -0.617 0.958 0.351 0 0.474 0 0.424 0 0 0.469 -0.469 0 -0.298 0.413 0 -0.543 0 0.252 -0.126 -0.561 0 0.791 0 0.395 -0.007 0.204 -0.318 0 0 0 0 0 -0.163 0 0 0.445 0 0.814 0 0 0 0.071 -0.356 0 0.534 0 0.501 0 0.15 0 0.081 -0.212 0 0.668 0.031 0.473 0 0.294 -0.388 -0.929 0.02 0 -0.13 -0.329 0.352 0 0 0 -0.641 0 0 0 0 0 0 -0.749 0 0 0.015 0.243 -0.615 0 0.21 0 -0.121 -0.028 0 0 -0.4 -0.986 0 0 0 0 -0.873 -0.549 -0.279 0 0 0 0 0 0.471 0 -0.898 0 0 -0.654 0 -0.986 0 -0.975 0 0 -0.093 0 0.641 -0.035 0 0 0 0.375 -0.268 0.755 0.574 0 0 0 0 0 0 -0.543 -0.346 0 -0.839 0 0 -0.071 0 0 0.481 0.859 0 0.538 -0.618 0.532 0 0 0 0.197 -0.815 -0.293 0.202 0.447 0 0.508 0.569 -0.154 0 0 0 0 0 0 0 0 0 -0.683 -0.346 -0.927 0.735 0 0.768 0.501 0.423 -0.299 0.009 0.009 0 0.119 -0.223 0.606 -0.684 0 0 0 -0.691 -0.815 -0.47 0 0.999 -0.301 0.173 0.357 0.299 0 -0.537 0 0.846 0.15 0.907 0 -0.969 0 0 0 0.447 0 0 0 -0.123 -0.437 0 0.421 0 0 0 0.114 0 0 -0.766 -0.739 -0.996 -0.59 0 0.185 0 -0.98 0.456 -0.699 0 -0.238 0 0 0.627 0 0 0.044 -0.602 0.955 0.952 -0.691 0 0 0 0 0 0.382 0 0.238 0 0 0.155 0 0 0 0.929 0 0.468 0 0.525 0 0 0 0.544 0 -0.669 0.981 0.652 -0.323 0 0.388 0 0.261 0.263 0 0 0 0 0 -0.731 0.357 -0.622 0 0 0 0.331 0 0 0 0 0 0 0 -0.264 0.67 0 0 0 0 0 0 -0.79 0 0 -0.882 0 0.61 0 -0.12 0.5 0.936 0 0.303 -0.098 -0.32 0 0 0 -0.147 -0.338 0 0 0.959 -0.273 0.586 0 0 0.567 0.779 0.207 -0.237 -0.817 0 0 0 0.413 0.245 0.97 -0.649 0 0 0 -0.407 0.728 0 0.391 -0.78 -0.766 -0.7 -0.588 0 0 0.415 0 0 0 -0.71 0 -0.888 0 0.157 0 -0.462 -0.018 -0.116 0.74 -0.778 -0.689 0 0 0 -0.096 0 0 0 -0.56 -0.557 -0.602 0 0 0.295 0.172 0.895 -0.885 0 0 0.557 0 0 0.817 0 0 -0.059 -0.41 0 0.463 0 0 0.496 0.184 0.377 0.132 0 0 0 0.764 0 0 0 0.855 0.881 0.459 0.418 -0.571 0 0.727 0.136 -0.518 -0.095 0 0 0.368 -0.286 0 0 0 0 0.83 0 0 -0.852 0 -0.317 0 0 0 0 0 0.023 0 -0.703 -0.982 -0.163 0 0 0 -0.982 0 0.714 -0.975 0.965 0.062 0.037 0 0 0 0 0 -0.019 0 0 0.487 0.488 0.442 -0.012 0 0 0 0.159 0 0 0 0 0.537 -0.512 -0.719 0 0 0.566 0 0 -0.705 -0.134 0 0.498 0 -0.935 0 0 0.472 0 0.401 -0.89 -0.862 0.121 0 0 -0.918 0.871 0 0 -0.472 -0.996 -0.074 0 0 -0.435 0.271 0 0.66 0 0.798 0 0 0 0.49 -0.851 -0.744 0 0.193 -0.683 0 -0.941 0 0 0 0.54 0 0 0.944 0 0 0 0 0 0 0 -0.282 0 0.927 0 -0.105 0.559 0 0.423 0.439 0 0 -0.082 0 0 -0.511 -0.111 -0.301 0.818 0 0 0 0 0.382 0 0 0 0.898 0 0.278 -0.978 0 -0.669 -1 -0.286 0 0 0 -0.134 0 0 -0.056 0 0 0.664 0 0 0 0 0.699 -0.312 0.229 0 0 0 0.46 0 -0.751 0 0.074 -0.462 0 0.517 -0.122 -0.072 -0.028 0 0 0 0 0 -0.258 1 0 0.958 -0.715 0 -0.399 0 -0.618 -0.582 0 0 0 -0.657 -0.131 -0.553 0 0 0.853 0 -0.319 0 0.431 0 0.269 0 0 0 0.188 0 -0.072 0.779 0 0 0 0.345 0 0 0 0 0 0 0.372 0 -0.318 0 -0.354 0.95 -0.765 0.276 0.229 -0.135 -0.537 0.172 0.103 0.159 -0.007 -0.063 0 0 -0.03 0 0.226 0 0 -0.137 0.678 0 0 0 0.901 0 0.189 0 0 0.816 0 0 0.496 0.267 0 0 0.731 0 0.777 -0.314 0.251 0 0 0 0 0.672 -0.829 -0.344 0.23 0 0 -0.029 0.532 -0.085 0.932 -0.635 -0.132 0 -0.707 0 0 0 -0.017 0.104 -0.155 0 0.816 0.873 -0.025 0 0.37 -0.435 0 0.662 -0.965 0.926 0 0 0.608 0.783 -0.217 0 0.056 0.062 0 -0.036 0 0 0.903 -0.584 0 0 0 0 0 -0.968 -0.336 0 0 0 0 0.999 0 0 0.041 0 0 -0.35 -0.687 0.405 0 0 0 0.171 0 0 -0.373 0.723 0.278 -0.357 0.288 0.921 0 -0.914 0.527 -0.747 0.191 0 -0.973 0 0 -0.141 -0.817 0 0 0.826 0.336 0 0.61 0 0 0 0 0 -0.231 0 0 0 -0.421 -0.238 -0.789 0 0 0 0 -0.038 0 0 0 0 0.099 0 0 0 0 0 0 0 0.377 -0.641 -0.924 -0.797 0 0 0 0.183 0 0 0 0.536 0.709 0 0 0 0 0 -0.532 0.166 0.199 -0.778 0 0 -0.356 0.866 0 0.593 0 0 0 -0.532 0 -0.236 0 0.178 0 0 0.582 0.041 -0.268 0 0 0 -0.863 0 0 -0.053 0 0.417 0 0.579 0 0 0.157 -0.344 0.547 -0.489 0 0 -0.145 -0.022 0 0 0 -0.994 0 -0.973 -0.626 -0.459 0.312 -0.759 0 0.774 0.422 0 -0.277 0.617 0.514 0.709 -0.251 0 0 0.283 0 0.891 0.638 -0.695 0 0 0 0 0.377 0.144 0.322 0.522 0 -0.022 0.13 0.634 0.86 0 0 0 -0.845 0 0 -0.89 0 0.959 0.28 -0.415 0 -0.372 0.991 0.018 0.418 0.131 0 0.806 0.632 0 0 -0.038 0 0.574 -0.651 0.29 -0.747 -0.771 0 0 -0.471 0 0.578 0 0 0.079 0 -0.635 -0.703 0 -0.956 0 0 0 0 -0.689 0.883 -0.135 -0.744 0 -0.116 0.844 0.832 -0.694 0.235 0 0.683 -0.127 0 0 0 0 0 0 0 -0.562 0.42 0 0 0.505 -0.282 0 0.268 0 0 0 0 -0.378 -0.791 0.226 -0.869 0 0 0 -0.299 0 -0.332 0 0 0.506 0 0 0 0 -0.362 0.62 0 -0.675 0.953 0 0 0 0 0.218 0 -0.375 0.613 0 0 0 0.384 -0.603 0 0 0 -0.748 0.383 0 0.734 0.154 0.364 0 0 -0.801 0.406 0 0.337 0 0 0 0 -0.649 0.522 -0.74 0 -0.794 0.158 0 0.416 0 0 -0.589 0.073 0.295 -0.953 0 0 -0.685 0.054 0 0 0 -0.629 0 0 0.441 0.132 0 0 0 0 0 -0.783 0 -0.615 0 0 -0.943 0 0 -0.687 -0.173 -0.801 0.591 0 0 -0.255 0 0.859 0 0 0 -0.791 0.104 0 -0.206 -0.379 0.332 -0.3 0 0 0.34 0.605 0 0.588 0 -0.003 0.168 0 0 -0.967 -0.7 0.612 0 0 -0.419 0.999 -0.13 0 0 0.914 -0.842 0.12 0.502 0 0.326 -0.325 0.376 0 0 0 -0.808 -0.932 -0.371 0.972 -0.388 -0.328 0.87 -0.373 0 -0.277 0.58 0.173 0 0 0 0.27 0.371 0 0 0.298 0 -0.857 -0.685 0 0 -0.185 0.948 0 -0.988 0 -0.416 0.769 0 -0.773 0 0 0 0 0 0.974 0.915 0.215 0 -0.948 0 0.488 -0.296 -0.673 -0.096 0 0.746 -0.621 -0.608 0 0 0 0 0 0.077 0 0.257 0 0 -0.664 -0.517 0 0 0 0 0 0.179 -0.658 0 -0.469 0 0 -0.702 0 0 0 0 0.911 0.435 0 0.319 0 0.326 0 0 -0.777 -0.45 0 -0.512 0 0 0 0 0 -0.249 -0.335 0 -0.392 -0.436 -0.285 -0.349 -0.488 0 0.675 0.619 -0.815 -0.875 -0.379 -0.3 0 0 0 -0.141 -0.441 -0.237 0.572 0 0 -0.437 0.984 0 0.108 0.317 0 -0.386 -0.365 0 0 0 0.128 0 0 0.372 0.145 0 -0.929 -0.915 -0.52 0 0 0.611 0 0 0.014 0 0.33 -0.089 0 0 0.115 0 -0.101 0 -0.063 0 0 0.263 0 0 0.141 0 -0.001 0 -0.015 0.384 0 -0.745 0.922 0.762 0.998 -0.566 -0.851 0 0.262 0.585 0.209 0 -0.146 -0.085 0 0 -0.435 0.445 0 0 0 0.409 0 0 -0.103 0 0.825 0 0.497 -0.139 0 0 -0.389 0 0.308 0 0 0 0 0.303 0 0 -0.489 0.815 -0.744 0 0.447 -0.816 0 -0.591 0 -0.472 0 -0.279 0 0.954 -0.309 0 0.19 -0.027 0 0.735 0 0.239 0 0 -0.919 0.488 0 0 0.327 0 -0.186 0.901 0.82 0.198 0 0 0 0.01 0 0.435 -0.877 0 0.502 -0.361 0.927 -0.749 0 0.672 0 0 0.886 0.231 0 0 0.077 -0.882 0.038 -0.823 0 0.207 0 -0.653 -0.872 -0.301 0.848 -0.33 -0.208 0 -1 0 0 0 -0.577 -0.542 0.063 0 0 0 0 0 -0.52 0.747 0 0 -0.516 0.161 0 -0.47 0 0.296 0.3 0 0 -0.6 0 0.92 0 0 0.822 0 0 0.622 0.25 -0.525 0 0.613 0 -0.994 -0.748 0.55 -0.295 0.832 0 0 0 0 0 0 -0.602 0 0 0 0 -0.487 -0.879 0.534 0.871 0 0 -0.906 0.391 0 -0.112 0 0.895 0.32 -0.369 0 0.271 -0.315 0.01 -0.721 0 0 0.847 -0.023 -0.261 0 0 0 0 0 -0.53 0 -0.098 0.869 -0.194 0.924 0.195 0 0 0.597 0 0.699 0 0 0.729 0.053 0 0 0 -0.739 -0.424 -0.325 0 0 0 0 0.792 0 0.224 0.878 0 0 0 -0.518 0 0 -0.04 0 0 0 0 0 0.778 -0.111 -0.487 0 -0.514 -0.727 -0.767 0 0 -0.311 -0.08 0 0 0 0 -0.535 0 0 0 0 0.843 0 0 0 0 0.932 0 0.773 -0.845 0 0 0 0 -0.814 0 -0.158 -0.429 0 -0.743 -0.646 0 -0.853 0 0.995 0 0 0 0 -0.4 0 0.232 0 0 0.002 0.11 -0.591 -0.092 -0.867 0.879 -0.365 -0.242 0.615 -0.456 -0.611 0 -0.473 0 0 0.137 -0.818 0.139 0.942 0 0.725 0 0.421 0 0.926 0 -0.842 -0.287 -0.022 0.885 0 -0.617 0.617 0 0.491 0 -0.034 -0.661 0.143 0 0 0 -0.457 0 0 0 0.707 0.728 -0.609 0 0 0 0 0.217 -0.376 0.942 0 -0.318 0 -0.97 0.837 0.228 0 0 0 0 0.797 0 0 0 -0.443 0 0 0.848 0 0.242 -0.505 0 -0.923 0 0 0.548 0 0.559 0 0 -0.556 -0.922 -0.389 0.793 0 0 0 0 -0.407 0.356 -0.069 0 -0.147 0.12 0 0 -0.576 0 0.137 -0.721 0 -0.38 -0.92 0.64 0 0 0 -0.845 0 0.865 0 0 0 -0.516 0.371 0 0 0 0.734 -0.36 0 0 -0.386 0 0 0.175 0 0 0 0 0 0.728 0 0 0 -0.626 -0.712 0.068 0 0.16 -0.189 0.735 0 0.408 0 0.213 0 0.193 0.981 0.58 0 0.134 -0.822 0 0.528 0 -0.156 0 0.829 -0.568 0 0 -0.245 0.039 0.833 0 0 0 0 0 0.668 0.181 0 -0.089 0.4 0 0 0 0 0.486 0.333 0 -0.957 -0.802 0 0.312 0 0 0 -0.138 0.963 0 0 -0.387 0 0 0.272 -0.18 0.497 -0.254 0 -0.164 0 0 0.126 0 0.24 0 0 0 0 0 0 0.66 0 0 0 0 -0.859 0.515 -0.158 0 0.636 0.448 -0.855 0.132 0.464 0 -0.269 0 0.236 0.395 -0.537 0 0 0.889 0 -0.695 0 0 0 -0.429 -0.434 -0.439 -1 -0.166 0.183 0 -0.34 -0.282 0.399 0 0.336 0.048 0 0.536 0.09 0 -0.419 0 0 0 0.718 0.821 0 0.881 -0.429 0.588 0 -0.044 -0.598 0.841 0.687 -0.393 0 -0.594 -0.628 0.763 0 -0.247 0.617 0.891 0.702 0 0 -0.577 -0.564 0.208 0 0 0 -0.706 0 0 -0.562 0 -0.45 0 -0.441 0 0.088 0.409 0.332 0 0 -0.938 0 0 0 0 0 0 0 0.875 0.889 -0.451 -0.664 0 0 -0.351 -0.248 -0.41 -0.746 0 -0.518 0 0 0 0 0.416 0 0 0 0 -0.664 0.655 0 0.809 0 0 0 -0.308 0 -0.119 0 0 0.23 0 0 -0.678 0.983 0.775 0 0 -0.724 0 0 0.93 0.352 0 0.038 0 0 0 -0.763 0 -0.237 -0.12 0 -0.68 -0.83 -0.379 0 0 0 -0.496 -0.638 0 0 -0.612 -0.029 -0.968 0 0 0.569 0 -0.655 -0.109 0.187 0.168 0 0 -0.557 0.959 0 0.307 0.19 0 0.644 -0.119 0 0 0 -0.41 0.703 -0.375 0 -0.207 0 0 0 0.904 0.775 0.112 0 -0.2 0.319 0.121 0 0 0 0 0 -0.873 0 0.103 0.896 0 0 0 0 0 0.099 -0.324 0 0 0 0.311 0 -0.117 -0.446 0.103 0 0 0 0 0 0 0 0 0 0 0 -0.406 0 0 0 -0.634 0.684 -0.714 0 0 0.698 0 0 0 -0.269 0 0 0.843 0 -0.527 0.003 -0.113 0 0.392 0 0 -0.55 0 0.289 0 0.753 0 0 0 0 0 0 0 -0.934 0 0 0 -0.887 0.434 0 -0.543 0 -0.455 0.75 -0.33 0 0 0 0 -0.363 0.624 0.371 0 0 0.653 -0.649 -0.278 0.479 0 0 -0.698 0.478 0.201 -0.461 0.429 0.701 0.564 0 -0.965 0 0 0 -0.811 0.555 0.878 0 -0.127 0 0 0.38 0 0.706 0 -0.814 -0.812 0 0 -0.608 0.365 -0.378 0 0 0 -0.055 -0.446 0 0 0 0 0.255 0 0 -0.195 0 0 0 0 -1 0.263 0 -0.825 0.248 0 0 0 0 0 0 0.197 0 0 0 0 -0.862 0.625 0.253 0 0 -0.396 -0.24 0 -0.167 0 0 0.91 0 0 0 0.163 0 0.865 0.444 -0.661 -0.6 0 -0.288 0 -0.209 0.581 0.663 -0.867 0.264 0.191 -0.996 0 0 0 0.091 0.574 0.647 0 0.776 -0.796 0.723 0.049 -0.556 -0.459 0.838 -0.307 0 0 0 0.652 -0.181 0.768 0 0 0.726 0 0.824 0 0 0 0 0 0 -0.278 0 0 0 0.261 -0.481 0 -0.675 0 0.039 0 0 0.186 -0.824 0.548 0 0.319 -0.698 0.23 0 0 0.359 0 0.603 -0.309 0 0 0 0.62 0.552 0 0 0 0 0.458 -0.457 -0.395 0 0 0 0 0 0.263 0 0 0 0 0 -0.146 -0.752 -0.053 0.301 -0.983 0 0.377 0.143 0 0 0.425 0 0 0 -0.464 -0.897 -0.212 0 -0.13 0 0.458 0 0 0 0 0.727 -0.815 0 0 0 0 0 -0.267 0 -0.925 0 0.732 -0.525 0 -0.554 0 0.971 -0.432 0.613 0 0 -0.033 0 0 0.126 0 0 0.404 0 -0.58 0 0.864 0.775 0 0 -0.41 0 0 0 -0.965 0 0 0.356 0 -0.382 0.643 -0.004 -0.32 0 -0.89 0.847 -0.2 0.73 0 -0.487 -0.909 0 0 0 -0.48 0 -0.445 0.825 -0.047 -0.895 0.642 0 -0.316 0 0 -0.21 0 0.475 -0.96 0 0.868 0 -0.862 0 -0.54 0 0 -0.727 0 0 -0.638 0.552 0 0.3 -0.54 0.389 0 0.338 0 0 -0.902 0 0 0.664 0 0.06 0 -0.215 0 0 -0.661 -0.864 0 0 0 0.365 0 0 0.6 0 0 -0.764 0.479 0 -0.337 -0.731 0 0 -0.684 0.095 0 0.807 -0.284 0.085 0 0 -0.551 0 0.607 0 0.154 -0.16 -0.721 0 0.374 -0.704 -0.85 0 -0.519 0.542 0 0 0 0 0 0.15 0 0 -0.825 0 0 0 0.102 0 0.629 0 -0.626 0 0 0.057 0.053 0 0 0 0 -0.572 0.743 0 0 -0.49 0.65 -0.146 0.381 -0.833 0 0 -0.938 0 0 0 0 0 -0.043 -0.176 -0.214 0 0 0.72 0.722 0 0 0.345 0.136 0 0.888 0 0 -0.181 0.381 -0.579 -0.628 0 0.494 0 0 0.746 -0.981 0.728 -0.488 0.359 0 0 0 0 0.863 0 0.661 0 0 -0.93 0.852 0 0 0.675 0 -0.296 -0.642 0 0.76 0 0 0.755 0 0.854 -0.717 -0.078 0.37 0 -0.223 0 -0.205 0.484 0 -0.841 0.091 0 0 -0.463 0 0 0 -0.069 -0.151 0 0.891 -0.276 0 -0.479 0 -0.895 -0.755 0 0 0 -0.806 0 0 0 -0.669 -0.698 0 -0.418 0 0 0 -0.216 -0.853 0 0 0 0.102 0 0 -0.075 0 0 0.839 0.077 0 0 0.354 0.834 0 0 0 0 0 0 0 -0.681 -0.358 0 -0.148 0 0 0 0 0 0 0 0 0 0.973 0 0 -0.12 -0.012 0.62 -0.954 0 -0.751 -0.268 0 0 0 0 -0.462 0 -0.6 0.349 0 0 0 0.926 0 -0.581 0.06 0 0 0 0 0 0 0 0.663 0.943 0 -0.968 0 0 -0.613 -0.115 0.658 0.858 0 0 -0.504 0.041 0 0 0 0 0.216 0 0.994 -0.374 0.015 0 0 -0.645 0 0 0 0 -0.247 -0.13 0 0 0 -0.178 0.465 0 0.647 -0.364 -0.816 0 0.457 -0.774 0 -0.406 0 0 0 0 0 0 -0.186 0.903 -0.858 0 0 0 0 0.114 0.574 0 0 0 0 0.169 0.356 0 0 0 0.684 0 -0.408 0.761 0 0 -0.346 0.194 0 0.067 0 0.348 0.634 0 0.699 -0.627 0 0 0.847 -0.34 0 -0.104 0 0.913 0 -0.617 0 0.423 0 0.53 0.752 0 0 -0.282 0 -0.404 0.849 -0.855 -0.63 -0.799 0.661 0 0 0 -0.918 0 0.273 0 0 -0.054 0.755 0 -0.491 0 0 -0.462 -0.72 -0.879 0.187 -0.371 0 -0.31 0.754 0 0.735 0.471 0.69 -0.839 0 0 0 0 0 0 0 0 0 -0.408 0 0 0.301 0 0.939 0 0 0 0 -0.944 -0.229 0 -0.344 0 0 0 -0.035 0 0 -0.388 0 0.674 0 0 0 0 0 0 0 -0.297 0 0 -0.482 0 -0.437 0 0 -0.726 0.552 -0.741 0 0 0 0.449 0 0.419 -0.018 0.68 -0.151 0.718 0 0.344 0.159 0 0 0 0.887 0 0 0 0.408 -0.593 0 0 -0.549 0 0 0.866 0 0.371 0.189 0 0 0 0.311 0 0.177 -0.316 -0.522 -0.751 0.268 -0.716 -0.492 0 0 0 0 -0.467 0.094 0 0 0.641 0 0 0 0 0.919 -0.782 0 0 0.199 0.25 0 0 0.968 0 -0.008 0 0.673 0 -0.607 0 -0.519 0.613 0 -0.026 0 0.249 0.524 -0.084 0.529 0.39 0 0 0 -0.053 -0.555 0.327 0 -0.255 0 0 0 0 -0.677 0 -0.029 0 -0.232 0 -0.782 0 0 -0.865 0 0.47 0 0 0 -0.482 0.757 -0.959 0 0 -0.318 0 -0.736 0.861 0 0.672 0 -0.775 0.848 0 0 -0.541 0 0.699 0 0.942 0 0 0.422 0.786 0 0.469 0 0.528 0 -0.128 0 -0.119 0.287 0.075 0 0 0.817 0 0 -0.857 -0.142 0.775 0.453 -0.928 0 0 0 -0.345 0.549 0 0.381 0 0 0 0.003 0.255 0 -0.51 0 0.783 -0.938 -0.682 -0.188 0.877 0 0.384 -0.186 0 0 -0.842 -0.253 -0.599 0 0.541 0 0 0.829 -0.653 0 -0.204 -0.897 0 0 0 -0.409 0 -0.174 0 0.1 0 0.768 0 0 0.29 -0.893 0 0 0 0.317 0.334 0.075 -0.484 0 0 0 -0.62 0.893 -0.707 0.112 0 -0.318 0 0 -0.749 -0.444 0 0 0.582 0 -0.608 0 0 0 0 0 0 0 -0.774 0 0.593 0.715 0 -0.513 0 0 0 0 0 0 0.094 -0.84 0.125 0.659 -0.726 -0.738 0.126 0 0.423 0.703 0 0.636 0 0 0.305 -0.544 0.041 0 -0.794 0 0 0.297 0 -0.98 0.393 0 -0.58 -0.699 0.311 0 0 0.295 0 0.767 0 -0.679 0.785 0 -0.035 0 0.483 0 0.226 -0.846 0.579 -0.688 0 0.892 0 0.171 -0.013 0 -0.084 -0.356 0.415 -0.505 0.109 -0.617 -0.329 0.374 0 0 0 -0.404 0 0 0 0.123 -0.224 0 0.371 -0.734 -0.948 0 -0.076 -0.897 0 0.313 0 -0.076 -0.643 0.253 -0.067 0.414 0 -0.801 0 0 -0.466 0 0 -0.787 0.4 0 0 0 0.46 -0.659 0 0.781 0.19 0 0.905 0 0.675 0 0 0.823 0 -0.941 0 0.364 0 0 0 -0.943 0 -0.782 0 0.591 -0.435 0.612 0 -0.833 0 -0.619 -0.023 0 0.229 0.937 0.475 -0.763 0 0 0 0 0 0 0.945 0 0 0 -0.99 -0.842 0.015 0.917 0 0 0 -0.576 0.126 0.949 -0.118 0 -0.616 0 0.464 0 0 0 0 0 0 -0.348 0 0 -0.649 0 0 0 0 0.778 0 0.58 0.218 -0.543 0 0 -0.553 0 0 0.005 0 0 0 0.049 0 -0.145 -0.546 0.538 0 0.652 0.673 0 0 0.23 0.467 -0.891 0.421 0.639 -0.055 -0.79 0.049 -0.913 0 0 0 0 0 0.001 0.029 0 0 0 0 0 0.509 0 -0.8 0 0.614 -0.838 0.79 -0.925 0 0 -0.543 0.52 0 0.556 -0.02 -0.685 0 0.846 0 0.039 -0.55 0.159 0.775 0 0 0 0 -0.812 0 0 0 0 -0.779 -0.012 -0.96 0 0 0 -0.01 0.409 -0.297 0.428 0.375 0.98 -0.439 0.727 -0.806 -0.076 0 0.487 0.669 0 0 0 0 0 0 0 -0.967 0 0 0.973 0 -0.481 0 0 0.35 0 0.445 0.965 0 0.348 0 0 -0.136 -0.559 0.898 -0.578 0 0 0.522 0 0 -0.925 0 0 0 -0.52 0.708 -0.549 -0.058 0 0.267 0 0.04 -0.402 -0.372 -0.12 -0.443 0.814 0 -0.296 0 0 0 0.083 0.3 0 0.579 -0.599 0 0 0 -0.598 0 0 0.326 0.961 0 0 0 0.532 0.656 0 0 0.344 -0.596 0 0 0 0 0.441 -0.641 0.996 0 0 -0.539 -0.121 0 0 -0.828 0.533 -0.117 0.785 -0.791 0.161 -0.115 0.247 0.896 -0.102 0.514 0 0 0 0.299 0 0 0 0 0 -0.294 0 0 0 0 0.662 0 0.63 -0.288 -0.641 0 0 0 -0.97 0 -0.647 0 0.419 0.751 -0.359 0 0.686 -0.278 -0.537 -0.851 0 0 0.208 -0.544 -0.513 0 0 0 0 -0.016 0 -0.327 0 0 0 0 0 -0.888 0.464 -0.29 -0.323 0 0 0 0.546 0 0 0.899 0.229 0.322 0 0 0 0 -0.367 0 0 -0.022 -0.121 -0.02 -0.249 0 0 -0.235 0.608 0 0.03 0 0 0.792 0 0 -0.207 0 0.765 0 0 -0.094 0.313 0 0 0 0 0 -0.348 0.959 0 0 -0.562 0.694 -0.572 -0.491 0 0 0 0 -0.445 0.229 -0.088 0 0.891 0.522 0.549 0 -0.5 0 -0.376 0 0 -0.253 0 -0.872 -0.282 -0.782 0 0 -0.966 0.17 0 0.52 0.84 0.421 0.654 0.911 -0.853 0 0 -0.997 0 0.928 0 0 0 0 -0.63 0 0 0 -0.432 -0.263 0 0 -0.706 0.539 -0.026 0.434 0.768 0 0 0 0 0 0 0 0 -0.969 0.34 -0.957 0.49 -0.114 0 0 0 0.279 -0.262 0 -0.362 0 0 0 -0.229 0 0 0 0 0 0 -0.758 0.736 -0.248 0 0 0 0 -0.804 0 0 -0.296 -0.659 0 0 0 0 0.36 -0.878 -0.813 0.069 -0.398 0 -0.311 0 0 0 0.913 0 0.438 -0.39 0 -0.846 0 0.046 -0.399 0.39 0 0.803 0.321 0 0 0.012 0 0.811 0 -0.319 0 0.335 -0.248 0 0.626 -0.964 0 0 -0.6 0 0 -0.696 -0.025 0.238 0 0.745 0 0 0 0.999 0.111 0 0.573 0.622 0 0.059 -0.694 0 0.809 0.52 -0.308 0 -0.057 0 0 -0.795 0.23 0 0.82 -0.304 0 0 0 0 0.691 0.768 0 0 0 0.555 0 0.479 -0.922 0 0 0.632 -0.373 0.236 -0.623 0 -0.926 0 0 -0.364 0 0 0 0 0.715 -0.22 0.363 0 0.903 0 -0.849 -0.171 -0.427 0.342 -0.927 -0.903 0.089 0 0 0.749 0 0 0 -0.153 0 0 0 0 0 0.652 -0.931 0 -0.646 0 -0.864 0 0 0.633 0.053 0 0.091 0 0 0 0.956 0 0 0 0 0.358 0 0 0.791 -0.707 0 0 0.168 -0.739 0 0 0.612 0 0 0 0 -0.701 -0.368 -0.999 0 0 0 -0.481 0.985 0 -0.371 0 0 0 -0.328 -0.931 0.725 -0.583 0 0 -0.677 0.436 0 -0.186 0 0 0 -0.962 0.693 0 0 0.866 -0.548 0.999 0 0 -0.875 -0.516 0 0.186 0 0 -0.811 0 0.587 0.192 0.766 0 0 -0.104 -0.02 0.745 0 0 -0.283 0.201 0.03 0.989 0 0 0.33 0 0.727 0.16 0 0 -0.071 0 0 0 0 0 0 -0.006 0 0 0 0.016 0.03 0.667 0 -0.226 0 -0.569 0 0.164 0 0.113 -0.791 0.272 0.446 0.587 0 0.713 -0.133 0.197 0.593 0 0.741 0.937 -0.736 -0.404 0 0 0.432 -0.886 0 0 0 0 0.898 0 0 0 -0.991 0 0 0 0 -0.594 0.596 0 -0.895 -0.043 0 -0.581 -0.21 0 0 0.03 0.002 -0.109 0 0 0 0 -0.157 0 0 0 0 0 0 0 0 0.102 0 0.978 -0.168 0.394 0.626 0.535 0.66 0 0 -0.051 0 -0.004 0.115 0 0 0 -0.426 0.546 0.058 0.23 0 0 0 0 -0.04 0.556 0 0 -0.731 -0.144 -0.014 0.628 0 0 0 0 0.672 -0.651 0 0 0.528 -0.434 0 0.117 0.392 0.218 0 0.043 0 0 0.321 0 -0.577 0 -0.573 -0.497 0 0 -0.955 0 -0.651 0.054 0.513 0 0 0 0 0 -0.942 0 0.626 0.757 0.287 -0.817 -0.313 0 0 -0.465 0 0.824 -0.46 0.129 -0.396 0 0 0.449 0.819 0.867 0 0 0 0 0.442 -0.572 0.602 -0.343 0 0.045 0 0 -0.586 -0.519 0.176 0 0.388 0.932 0.57 0 -0.587 0.995 0 0 0 -0.623 -0.799 0 0 0 0 0 0.695 0 0 0 0 -0.962 0 0.038 0 0 0.99 -0.406 0 0 0.145 0 0.18 -0.167 0 0 0.554 0 0.408 0 0 0 0.251 0 0 0 0 0 0 0 0.787 0 0.112 0 -0.987 0 0.445 0 -0.537 0.28 0.671 0.069 0 0 -0.794 -0.984 -0.1 0.33 0 0 0 -0.416 0 0 0.026 0 0.164 0.92 0 0.709 -0.397 0 -0.697 0 0 0 0 0 0 0 0 0 0 0.641 -0.302 0 0 0 0 -0.536 0.647 0 0.482 -0.296 -0.991 0 0 -0.446 0.886 -0.248 -0.857 0 0 0 -0.098 0.413 -0.008 0 0.291 -0.92 0 -0.81 -0.186 0 -0.413 0 0.711 0 0 0.049 0 0.848 0.575 -0.985 0 0 0 0.891 0.187 0 -0.614 0 -0.49 0 0 -0.027 0 0.59 0 0 0.244 -0.135 0.303 0 0 0 0 0 0 0 0 0 0.327 0.08 0 0 0 -0.294 0 0.767 0 -0.783 0 -0.487 -0.25 0 -0.299 0.047 0 0.478 0 -0.097 0.194 0 0 0 -0.629 0 0.848 0 0 0.404 0 -0.876 0.027 0.406 -0.204 0 0.943 0.966 0.688 0 0.915 0 0.075 0 0 0 0 0 0 0.152 0 -0.996 0.703 0.213 -0.646 0 0.734 -0.322 -0.883 0 0 -0.508 0.266 0 0 0.279 -0.022 0.47 0 0 0.123 0 0 0 0 0.299 -0.56 0 0 0.644 -0.003 0 0 -0.409 0 0 0 -0.996 0.377 0 -0.038 0.304 0.347 0.453 0.413 0 0 -0.39 0 0.494 0.284 0.318 0 0.841 0 0.478 0.077 0 0 0 0.548 0.831 0 -0.65 -0.832 -0.938 0.705 -0.452 0 0 0.731 0.04 0.2 -0.647 0.937 0.775 0.923 -0.803 0 -0.493 -0.578 0.118 0 0.166 -0.668 -0.358 0 0 0 0 0 0 0.276 0 -0.132 0 -0.484 0.929 -0.074 0.323 -0.783 0.726 0.439 0.501 -0.105 0 -0.903 0.792 -0.419 0 0 0.335 0 -0.077 0 0 -0.447 0 0.229 0 -0.294 0.514 0 0 0 0 0 0 0 0 0 -0.206 0 -0.713 0 -0.052 0.802 0.976 0 0 0.611 0 0 -0.293 0 0 0.693 -0.439 0.349 0.532 0 0 -0.661 -0.331 0 0.041 0 0 0.981 -0.769 0.266 0 0 -0.034 0 -0.223 0 -0.52 0 0 0 0 -0.5 0 -0.86 0.025 0.831 0.84 0 0 -0.049 0.814 0 -0.492 -0.266 0 -0.782 0 0 0 0.503 0 -0.497 0 0 0.616 0 -0.801 0 0 0.323 0.439 -0.687 -0.238 -0.715 0 0 -0.899 0.013 0.416 0 0 0 -0.777 -0.088 0 -0.246 -0.039 0 0.025 -0.004 0.55 0 -0.895 -0.351 0.735 0 0 -0.342 0 0.512 -0.332 0.207 0 0 -0.096 0 0 -0.599 0 0 -0.524 -0.047 0.127 0 0 -0.874 0.187 0.647 -0.506 -0.418 0 -0.228 0 0 -0.409 -0.058 0 0.407 0.582 -0.256 0.509 -0.241 -0.547 0.174 0.204 0 0 0.573 0.469 0 1 -0.724 0.487 0.385 0 0 0 -0.653 0 0 -0.559 0.182 -0.879 0.723 -0.455 0 0 0.212 -0.261 0 0 0 -0.059 0 -0.723 0 0 0 -0.872 -0.549 -0.912 0 0 0.69 -0.073 -0.322 0.673 -0.919 0.507 0.946 0 -0.832 0.421 -0.105 0 -0.198 0 0.909 0 0 0 0.506 0.392 -0.465 0 -0.318 -0.873 -0.613 0 0 0 0 0 0.526 0 0 -0.581 0 -0.461 0 0 0 0.126 -0.327 0 0 0 0 -0.168 0 0 -0.55 -0.862 -0.024 -0.427 0 0 0 0 0 0 0 -0.874 0 0 -0.752 -0.382 0.293 -0.884 0 0.194 -0.719 0 -0.223 0 0 0 0.923 -0.344 0 0 0 0 -0.868 0 0 -0.33 0.68 -0.848 0 0 -0.989 0.31 0.681 0.705 0.346 0.269 0 0.567 0 0.41 -0.298 0.807 0 0 -0.12 -0.887 0.534 -0.508 0 0 -0.712 -0.795 0 0 0.189 0 0 -0.077 0 0.621 0.125 0 0 0.439 0 0.251 0.604 -0.56 0 0 0 0.679 0 0 0 0 0.214 -0.149 0 0.223 0 0.378 0 0.758 0 -0.853 0 0 0 -0.025 0 0.725 0 0 0.33 0 0 0 0 -0.916 -0.687 0.022 -0.871 -0.063 0 0 0 0 0 0 -0.937 0 -0.224 0 0.832 0 0.228 0.728 -0.685 -0.788 0 0 0.293 0 0 0 -0.14 0 0 0 0 0 0 -0.811 0.247 0 0 0 0 -0.213 0 0 0 0 0 0 0 0.058 0.533 0 0 0 0.794 0 0 0 0.057 0 0.1 0.33 -0.06 0.07 0 -0.597 0 0.411 0 0 -0.242 0.253 0 0 0.556 -0.899 0 0 0 0.512 0 0.45 0 0.803 -0.065 0 0.361 0 0 0.708 0 0.107 0 0 0.31 0 0.029 -0.635 -0.122 -0.571 0 0.658 0.721 0 0 0 0 0 0.947 -0.964 -0.384 -0.302 0 0.157 0.991 0 0 -0.03 0.086 -0.627 -0.174 -0.713 0 0.07 -0.188 0.174 -0.993 0.866 -0.121 0 0 0.59 0 0 0 0 0 0.705 -0.816 0 -0.962 0 0 0 0 -0.693 0 0.687 -0.369 0.568 -0.405 0 0 0 0 0 0 0 0 0 0 -0.819 0.693 0 0 0.29 0 -0.855 -0.517 0 -0.821 -0.877 -0.754 0 0 0 0.215 0 -0.211 -0.547 0 0.809 -0.263 0 -0.096 0.615 0 0 0.197 0 -0.32 -0.839 0.893 0.054 0.863 0.777 0 0 -0.987 0.998 0.903 0 0 0 0 0.016 0 -0.182 -0.64 0 -0.965 -0.151 0 -0.985 0 0 0 0 0.033 0.871 0.465 0 0.185 0.163 0 -0.381 0 0 0 0 0 -0.272 0 0.066 0.327 0 0.79 0.545 0 0 -0.082 -0.943 0 0 0 0.901 0.059 0.548 0.86 0 0 0 0 0 0 0.39 0 0 0 0 0.24 0 0 0.233 0 0.458 0.79 0 0 0.562 0.131 -0.699 0 0.87 0 -0.655 0 0 0.068 -0.84 0.122 0 0.713 -0.649 0 0.129 0 0.756 -0.043 -0.916 0.7 -0.087 -0.814 0 -0.233 0 0 0.297 0 0 0.235 0.035 0 -0.248 0 0.682 -0.309 -0.22 0.243 -0.737 0 0 -0.169 -0.72 0 0.524 0 0 -0.293 0.547 0.43 0.695 0 -0.413 0 0 -0.291 0 0.874 0.49 0 0 0 0 -0.089 0 0 0 -0.907 -0.472 0.982 0 0 0 0.516 0 -0.077 -0.008 0 0 -0.59 0 0 0.705 0.989 0.174 0 0.983 0 0 0 0 0 0 -0.294 0 0 0 -0.305 -0.455 0.357 0.889 0 0.43 0 0.568 0.956 0 -0.534 0 0 0 0.102 0 0 -0.278 0 0.289 0 -0.583 -0.504 0 0 0 0 0 -0.685 0 0.293 0 0 0 -0.039 0.529 -0.148 0.468 -0.732 0.185 0 0 -0.039 0.613 -0.569 0.136 0.369 -0.056 0.131 0 0 0 0.116 0.903 0 0.12 0 0 0 0.626 -0.121 0 0 0 0 0 0 0.056 0.794 0 0 0 0 -0.032 0.975 0 0 0 0.032 0 0.376 -0.493 0 0.182 -0.869 0 0 0 0 0 -0.664 0 0 0 0 0 0 0 0 0.297 -0.286 0 0 0 -0.314 -0.47 -0.803 0 0 0.759 0 -0.889 0.509 -0.517 -0.634 0.025 0.56 -0.301 0 0 -0.442 0 -0.226 0 0 -0.764 0 0 -0.208 0.842 -0.965 0.583 0.335 0.793 0 0 0.762 0.297 0.216 -0.375 0.917 0.223 0.241 0 -0.851 0 0.454 0 0.976 0.01 0.082 -0.076 0.503 0 0 -0.578 0 -0.719 0 -0.366 0 0 0 -0.056 0 -0.833 0.404 -0.008 0.797 0.162 -0.557 0 -0.799 -0.054 0 0 -0.454 -0.41 -0.895 -0.142 0.275 -0.853 0 0 0.231 0 0 0 0 0 0 0 0 0 0 0 0.282 -0.248 -0.932 -0.213 0 0 -0.848 -0.036 0 0 0 0 -0.793 0.51 0.793 0 0 -0.779 0 -0.368 0 -0.808 0 0 0.339 -0.631 -0.456 0 -0.358 0 -0.386 0.42 0.459 -0.201 0 0.933 0 0 -0.064 0 0.601 -0.471 0.128 0.315 -0.217 -0.739 0.172 0.613 0.798 0 0 0 0 0.143 -0.961 -0.117 0.125 0.504 0 -0.796 -0.003 -0.03 0 0 0 0.452 0.555 -0.497 0 0 -0.366 0.328 -0.57 0.958 0 0.665 0 0 0 -0.854 0 0 0 0 0.917 -0.677 0 -0.3 0 0 0 -0.579 0 0 0 0 0.97 -0.193 -0.728 0 0 0 0 0.366 0 0.731 -0.96 0.986 0.292 0.478 0 -0.536 0 -0.649 -0.018 0.532 0 0.575 0 0 0 0 0.462 0 0.121 0 0 -0.632 0.986 -0.549 -0.306 -0.049 0 0.758 0 0 0 0 0.976 0.869 0 0 -0.285 0 0.359 -0.878 -0.017 0 0 0 0 0.903 0.075 0 0 0 0 -0.679 0 -0.066 0 0 -0.019 0 0 -0.983 -0.006 0 -0.274 -0.521 0.02 0 0 0 0 0.21 0 -0.585 0.426 0 0 0 0 0 0 0 0.176 0 0 -0.91 -0.103 0 0 -0.148 0 -0.427 0 0 0 0 -0.036 -0.674 -0.242 -0.278 0 0 0 0 -0.412 0.688 0 0 0 0.214 0 0 -0.211 -0.599 -0.756 0.273 0.92 0 0 0 -0.678 0 0 0.753 0 0 0.631 -0.294 -0.19 0.077 0 0.071 -0.85 -0.491 -0.806 0.781 0.239 0 0 0.446 0 -0.888 0.174 0 0 0 0.219 0.962 0.57 -0.351 0.224 0 0.749 0.297 0.214 0 -0.95 -0.81 0 0 0 0.239 0 0 0 0.335 0 0.359 0 0 0.835 0.329 0.711 0 0 0.225 -0.743 0.599 0.518 0 0.317 0.809 0.537 0 -0.486 -0.383 0 0.086 0 0 0 0 0.898 0 -0.75 0.987 0 0 0.65 0 0 0.626 0.641 0.238 -0.773 0 -0.662 0.734 -0.788 -0.974 -0.468 0.052 0.165 0 0.828 -0.005 0.701 0 -0.803 0 -0.715 0 0 0 0 0.027 0.838 0 0 0 -0.524 -0.88 0 0.962 0 0.923 0 -0.548 -0.962 -0.026 0 0.435 0 0.17 0.936 0.829 0.189 0.711 0.251 0 -0.179 0 0 -0.356 0 0 0 0 0 0 -0.271 -0.86 0 -0.484 -0.794 0 -0.869 0.567 0.941 0.157 0 -0.181 -0.814 -0.744 0 0.721 0 0 0.646 0.673 0 0.616 0.719 0 0 0 0 0 -0.544 0 0 -0.869 0 -0.246 0 0 0 0.547 0 0 0 0.403 0 0 0 0.82 -0.513 0 -0.214 0.074 0.396 0.73 0 0 0 0 0 0.117 0.19 0 0 0 0.849 -0.193 0.847 0 0.115 -0.283 0 0 -0.5 0.062 0.201 0 0.521 0 0.724 0 -0.42 -0.462 -0.655 0.037 -0.098 -0.626 -0.85 0.758 0 -0.335 0 0.519 0 0.379 0 -0.12 0.309 0.396 0 -0.137 0 0.299 -0.253 0 0 0.109 0 0.553 -0.36 0.793 0.987 -0.533 0.076 0 0 -0.883 0 0 -0.086 0 0 0.167 0 0 0.967 0 0.359 0.468 0 0 0.887 -0.084 0 0.179 0 0.023 0.135 0 0 0.504 0 0 0 0.601 0 0.749 -0.377 0 0 0.08 -0.441 0 0 0.309 0 0.315 -0.464 0 -0.682 -0.943 -0.884 -0.786 -0.55 0 0 0 0.553 0 -0.148 0 0 -0.831 -0.964 0.512 0 0 0 0 -0.975 -0.647 0 0 0 0.207 0 -0.942 0.299 0.7 0 0 0 0.211 0 -0.285 -0.107 0.672 0 0.019 -0.308 -0.368 -0.634 0 0 0 0 -0.913 -0.446 0 0 -0.951 -0.335 0.916 -0.514 0 0.037 0 0 -0.977 0 0 0 0 0 0.422 0 0.826 -0.077 0 -0.148 0.034 0 0.46 0 -0.008 0 -0.724 -0.298 0 0.578 -0.839 0.528 0 -0.222 0 0 0 0 -0.646 -0.54 -0.701 0 0 -0.876 0.971 0 0 0.64 0 -0.94 0.251 0 -0.456 0.959 0 0.356 0 0 0.299 -0.393 0 0.263 -0.5 0.964 0 0 0.752 0.507 0 0.215 0 0.81 0 0.66 0 0.969 0 0 0 0 0 0.238 0.569 -0.777 0.503 0.894 0 0.894 0 0.55 -0.213 0 0.027 0 -0.288 0 -0.043 -0.747 -0.001 -0.701 0.312 0 -0.841 -0.673 -0.961 -0.935 0.944 -0.233 -0.38 0 -0.185 0.425 0 0 0 0 0 0.767 -0.285 0 0 0 -0.888 0 0.029 -0.688 -0.693 -0.606 0 0.123 0.142 0 0.839 0.753 0 0 -0.991 0.407 -0.75 -0.878 0.791 -0.401 0.749 0 0.719 0.915 0 0 0 0 0 0 0.567 0 0 0.016 0 -0.916 0 0 0 0.932 0 0.336 0.261 0 0.451 0.336 -0.699 0 0.2 -0.354 0 0.026 -0.136 0 0.136 -0.906 0.129 -0.315 -0.928 0 -0.357 -0.259 0 0.689 0 0 -0.311 0 0 0.23 0.302 0 -0.692 0.898 0 -0.526 0 0 0 -0.331 -0.083 0.129 -0.142 -0.196 0.301 0 0.101 0 0 -0.134 0 -0.017 0 0 0 0 0 0 -0.238 0 -0.095 0 -0.857 -0.076 0 -0.507 0 0.759 -0.013 -0.394 0.315 0.413 -0.897 -0.105 -0.95 0 0.312 0.035 0 -0.5 0.145 0 0.884 0 0.365 0.915 0 0 0 -0.074 0 0 -0.864 0 0 0.923 0.798 0.62 0.698 0 -0.896 0 0.852 -0.809 0 -0.12 0 0 -0.319 0 0 -0.474 -0.627 -0.762 0 -0.949 -0.224 -0.882 0 0.279 0 0.685 0 0 0 0 0 0 -0.316 -0.674 0 -0.809 -0.324 0 0 -0.208 0 0.006 0.862 0 0 -0.326 -0.114 -0.89 0 0 0.384 0 0.587 -0.608 0 0 -0.732 0.514 0 0.86 0 0.752 0.986 -0.632 0 0.687 0 0 0 -0.315 0.077 0 0 0 0 0.433 0 0.556 0 0 0 -0.051 -0.275 0.09 -0.322 -0.116 0 -0.995 0 -0.714 -0.127 0 -0.789 -0.989 0 0 0.78 0 0.788 0 -0.408 0.011 0.922 0 -0.543 0 0 0.7 -0.418 0 -0.768 0 0.049 0.633 0 0.202 0 0.218 0 0.053 -0.63 0 0 -0.766 -0.26 -0.293 0 0.136 -0.6 -0.267 -0.62 -0.576 0.659 0 -0.098 0 0.132 0 0 0 0 0.9 -0.483 0 0 0.96 0 0 0 -0.741 -0.224 0 -0.88 0 0.955 -0.235 0 0 0 0 -0.848 0.287 -0.462 0 0 0 0.584 0 -0.72 0 0 -0.802 0.422 -0.313 -0.679 0 0.284 0.222 0 0.396 0 0 -0.715 0 0 0 0.835 0 0 0 0 0.931 0.744 0.517 -0.383 0 0 0 0.329 0 0.354 0 0 0.61 -0.438 0 0 0.499 0.822 -0.773 0.239 0.951 0 0 -0.954 0.718 0 0 -0.442 0 0.451 -0.388 0 -0.11 -0.344 -0.319 0 0.687 0.482 -0.247 0 0 0 0 0.126 0 0 0 0.948 -0.241 0 0 0.617 0 0 0.892 0 -0.708 -0.701 0 0.431 0 0 -0.808 0 -0.018 0.113 0.474 0 0 0 -0.973 0 -0.18 0 0 0.064 0.165 0 -0.743 0 0 -0.504 0 -0.371 0 0 0 0.225 -0.567 0 0 -0.424 0.406 -0.578 0.822 0 0 -0.544 0.118 0 0 0 0 0.686 0 0.966 0 0.927 0 -0.63 0 -0.824 0 0 -0.945 0 0.972 -0.726 -0.793 0.477 -0.731 -0.897 0 0.018 0 0.271 0 0.707 -0.687 0.474 0 0 -0.244 0 0 0 0 -0.115 0 0 0.495 0 0.397 0.102 -0.804 0 0.43 0 0.338 0 0 0 0 0 0.541 0 -0.484 0.194 -0.703 0 -0.466 0 -0.36 0 0.466 -0.773 0 -0.713 0 -0.104 0 0 0 0 0 -0.317 -0.799 -0.795 0 0.584 0.289 0 0 0 -0.995 0.651 0 0 -0.02 0 0 0 -0.695 0 0 0 0.011 -0.295 -0.469 -0.81 0 0.575 -0.464 -0.909 -0.875 -0.879 0 -0.857 0.07 -0.347 0.896 0 0 0 0.861 0 -0.792 0 -0.53 0.328 0 0.607 0.19 -0.128 0.472 0 0.626 0 0 0.332 0 -0.158 0 0 0.333 0 0 -0.809 0 0.24 -0.562 0 -0.238 0 0.259 -0.05 0 0 -0.074 0.728 0 0 -0.314 0.395 0 0 0 -0.962 0.062 0 0.132 0.505 0.841 -0.514 0 -0.759 0 0 0 -0.284 0.312 0 0 0.664 0.725 0.209 0.177 0 0 0.784 0.825 0 -0.277 -0.325 0 -0.725 0 0.657 0 0.627 0 -0.035 0 -0.522 0 0.894 0.928 0.69 0 0 0 0 0 0.857 0 -0.969 0 0 0 0 -0.676 0 -0.724 0.271 0.236 -0.215 -0.163 0.902 0 0.888 0 0 0 0 0 0 0 -0.009 -0.111 0 0 0 0 0 0.644 -0.44 0.555 0 0 -0.777 0 0.377 -0.768 -0.095 -0.974 0 0 0.14 0.425 -0.308 0 0 0 0 0 -0.469 0.147 0 0.142 0.181 0.372 -0.664 0.821 0 0.125 0 -0.692 0.117 -0.558 0 -0.373 0 0 0 0 -0.255 0 0 -0.57 0 0.919 0 0 -0.527 -0.126 0 -0.735 -0.924 0.394 0 0.365 -0.251 0 0 -0.269 0 0.229 0.415 0 0 0 -0.331 0 -0.557 -0.86 0 -0.083 0 0.2 0 0.254 0 0.474 -0.528 -0.234 0 0 0 0 0 0 0 0 0 -0.941 0 -0.871 0 0 0.529 0 0 0 0 -0.952 0 0.07 0 0.943 0 -0.535 -0.65 0 -0.444 0 0.201 -0.216 -0.323 0 -0.483 0 -0.487 0 0.198 -0.385 -0.223 0 0.353 -0.634 0.977 0 0.066 0 0 0.021 0 -0.172 0 0.636 0 0.1 -0.887 0 -0.566 -0.927 -0.46 0.112 -0.03 -0.293 0 0 0 0 -0.195 0.641 0.126 0 0 0 -0.699 0 0 0.747 0 0 0 0.477 0 -0.896 0 0 0 -0.166 0 0 -0.641 0 0 0.84 0.928 0.314 0.824 0 0 0 0 0 -0.016 -0.752 -0.595 0 0 0.581 0 0 0 0 0 0 0 0.335 0 0.916 0.702 0.464 0 0 0.564 0.927 -0.56 0 -0.86 0 0 0 0.27 0.998 0 0.141 0.845 0 0 0.677 -0.278 0 -0.434 0.504 0 -0.984 -0.56 0.357 0.038 0.009 0 -0.69 0.246 -0.72 0.141 -0.902 0 0 0.535 0.691 -0.404 -0.486 0.327 0 0 0.884 0.278 -0.601 0 0.741 0 -0.148 -0.568 0 0 -0.836 0.739 -0.508 0 0 0.992 0.428 0 -0.885 0 0 0 0 0 -0.138 0 0 0.183 -0.893 -0.775 0.467 0 0 0 -0.384 -0.826 0 0.748 -0.322 -0.106 0.065 0 0 0 -0.74 0 0 -0.285 0 0.507 0.638 0 0 0 0.564 0 0 0 0 0.323 0 0.272 -0.126 0 0.081 -0.546 0 -0.942 0.336 0 0.262 0 0 0 -0.311 -0.169 -0.774 0.949 0.165 0.555 -0.989 -0.309 0 0 -0.588 0 -0.425 0 0 -0.571 0.602 0.369 0.66 -0.615 0 0 -0.682 -0.894 -0.03 -0.855 -0.503 -0.644 0 0 0 -0.8 0 0 -0.877 0 -0.065 -0.024 0.155 0 0.948 -0.057 0 0.611 0 0 0.993 0 0.507 0 -0.294 0 0 -0.358 0 0 0 -0.667 0 0 -0.349 -0.018 -0.981 0 0.697 0 0 0.169 -0.787 -0.224 0 0.088 0.52 -0.08 -0.464 -0.724 0.149 0 0 -0.644 0 0.43 0 -0.118 -0.962 0 0 -0.531 0 0.895 0 -0.585 0 0 0.538 -0.828 0 0.207 -0.081 0 0 0 0 0 0 0.232 0 0.725 -0.832 0.735 -0.991 0.332 -0.072 0.687 0 0 -0.122 -0.959 0 0 -0.654 -0.784 0 0 -0.467 -0.071 0.816 0.969 0 0 0 0 0 0 -0.888 0 0 0 0 0 0 -0.144 0 0 0 0 -0.175 0 0 0 0 0 0.143 0 0 0.428 0.932 0 0.013 0.962 0.525 -0.969 0 0 0.452 0 0 0 -0.105 -0.888 0.772 0.858 0 0 0.504 0.474 0 -0.024 0 -0.948 0 0.067 0 -0.298 0 0.125 0 0 0 0.87 0 0 -0.269 -0.782 0 0 0 0 0 0 0 0 0 0 0 -0.196 -0.141 0 0 0 0 0.576 -0.617 0.902 0 0 0 0 0 0 0 0.911 0.884 0 0 0 0 0 0 -0.19 0 -0.646 0.154 0 0 -0.937 0 0 0.697 0 -0.782 0.935 -0.099 -0.542 0.373 -0.852 0 0 -0.552 0 0 0 0.086 -0.719 -0.823 0 -0.405 0.876 -0.574 -0.819 0 0 0 0.886 0 0.823 -0.745 0 0 0.497 -0.935 0 0 -0.974 0.958 0.163 0 0 0 0.476 -0.937 0.072 0.188 0 0.224 0 0 0 -0.657 -0.495 0 -0.758 0 0 -0.22 -0.842 0 0 0 0 0.361 -0.301 0 -0.973 -0.252 0 0 0.386 0.41 0 0.892 0 0 0 -0.387 0 0.551 0 0.37 -0.828 0.985 0 0 -0.567 0 -0.174 0 0 0 0.491 0 0 0 0 0 0 -0.303 0 -0.858 0 0.091 0 0 0.41 0 0 -0.952 0 0.313 0.884 0.233 0.849 0.368 0 0.362 0 -0.857 0 -0.411 0.91 -0.122 0.393 0.848 0 -0.693 0 0.898 0.514 0.625 0.747 0 0 0 0.747 -0.74 0.849 0 0.673 0 -0.199 0 0.576 0.322 0 -0.23 0 0 -0.963 -0.021 -0.995 0 0.857 0 0 -0.428 0 0.256 -0.014 0 0 0 0 0 0.319 0 0 -0.508 0 0 -0.788 0 0 0 0 0.073 0.893 0.802 0 0 0 0 0 0 0.145 -0.144 0 0 0 -0.863 0.289 0 0.341 0.784 0 0.353 0 -0.849 0.439 -0.887 0.268 0 0 0 0.198 0 -0.257 0 -0.595 0 0.844 -0.551 0 -0.722 0.594 0 -0.102 0 0 -0.304 0 0.632 -0.085 0.76 0 0.001 0.342 0 0 -0.796 0 0.897 0 0 0.613 0.892 0 0 0 0 -0.644 0 0 -0.789 0 -0.147 -0.688 -0.455 0 0 -0.271 0 0 -0.375 0 -0.121 0.023 0 -0.46 0.295 0.743 0 0 0 0 0.876 0.369 0 0 0 0 0 -0.811 0 0.271 0 0 -0.907 0 -0.807 0 -0.14 0 -0.437 0 0 -0.061 0.253 -0.254 -0.461 0 0 0.884 0 0.219 0.739 -0.796 0 0 -0.039 0.872 0 0 0.705 0 0.706 -0.954 0 0.781 -0.2 0 0 0.122 -0.415 -0.412 0.074 0.021 -0.213 -0.014 -0.938 -0.849 0 0 0 0 0.999 0 -0.294 -0.473 -0.674 -0.633 0.05 -0.289 0 0.306 0.33 0 -0.367 -0.402 -0.927 -0.028 -0.473 -0.689 0 0 0.268 0 0.443 -0.482 0.4 0 0 0 0.916 -0.535 -0.476 0 -0.342 0.652 0 0 0 0 0 0 0.134 0 0 -0.125 -0.956 0.162 0 0 0 -0.393 0 0.506 0 0.126 0 -0.515 0 0.672 -0.986 -0.802 0 0.41 0 0 -0.95 0.693 -0.374 0 0 0 0 0.909 0 0 0.14 0 0 0.015 -0.118 -0.813 0 -0.809 -0.644 0.331 0 0 0 0 0 0 0 0 0.331 -0.803 0.771 0.112 0 0.755 0 0.825 0.704 0.96 0.214 -0.08 0.534 0 0 0 -0.919 0.997 0 0.103 0 0.563 -0.049 0 0 0 0 0 0 0.218 0.858 0 0.067 0 -0.092 0 0.584 -0.785 0.14 0 0.421 -0.252 0 0 -0.697 0.027 0.392 0.151 0 -0.883 -0.317 0.876 0 0.669 0.968 0 0.477 0 0 0 0 0 -0.587 0 -0.083 0 0 0.315 -0.073 0.4 0 0 -0.306 -0.76 0.63 0 -0.541 0 -0.625 -0.918 -0.607 0 0.414 0 0.299 0 -0.975 0.603 0 0 0.38 0.631 0.107 0.72 0 -0.904 0 0 0 0 0 0 0 0 0 0 0.01 0 0 0 0 0.807 0.527 0 0 -0.905 0.078 -0.098 -0.906 0.951 0.815 0 -0.983 0 0.874 0.377 0.753 0.959 -0.642 0 0 0.537 0 0 0 0 0.142 0 0 0 0 0 0 -0.495 0.432 0 -0.624 0.854 -0.011 0.189 -0.175 0.315 0 0 0.854 -0.663 0 0 -0.414 0.121 0 0.596 0.871 0 0 0 -0.182 0 0.939 0 0.848 0 -0.471 0 0 0 0.792 0 0 -0.038 0 0 0 -0.274 0 0 0.855 0 -0.327 0.606 0.722 -0.678 0.21 0 0 0 0 0 0.33 0.121 0.537 -0.432 0.456 0 0 0.752 0 0 -0.583 0 0.293 0 0.966 0 0 0 0 -0.11 0.721 0 0 -0.038 0.16 -0.973 0.6 0 0 0 -0.196 0 -0.339 -0.761 0 0 -0.891 0.287 -0.561 -0.56 -0.597 -0.029 0.76 0 0.552 0.045 0.008 0.83 0.448 0.045 0.489 -0.194 0.91 -0.076 -0.819 0.978 0 0 -0.858 0.737 0 0 -0.579 0 0 0 0.719 0.046 0.72 -0.04 -0.289 0.291 -0.16 0.341 -0.768 0 0.927 0 0 0 0.011 -0.271 0 0 0 0.553 0 0 0 0 0 0 0 0 0.03 -0.552 0 0 0 -0.881 0.449 -0.036 0.118 0.629 -0.749 0 0 0.921 0.148 0 0 0 0 0.663 0.958 0.3 0 0.746 0.171 0 0.669 0.281 0 -0.35 0 0 -0.266 -0.697 0.278 0 0 0.591 0 0 -0.078 -0.466 -0.083 0 -0.932 0.906 0.483 0.496 0.301 0 0 0.967 0 -0.735 0 -0.218 -0.202 0 -0.449 0 0 0.561 0 0.987 0.737 -0.45 0 0.953 -0.312 -0.238 0.164 -0.074 -0.764 0 0.224 0 0 0 0 0 0 0 0.454 0 0 0 0 0 0 -0.261 -0.608 0 0 0 -0.007 0 0.85 -0.562 0.915 0.179 0.459 0 -0.72 -0.64 -0.198 0 -0.858 0 0 0 0 0 -0.642 -0.213 0 -0.267 -0.41 0.963 -0.754 0 0 0 0 0 0 0.602 -0.729 0 0.503 0 -0.529 0 0 0 0.819 0 0.359 -0.953 -0.663 -0.048 0 0.016 0 0 0 -0.519 0.515 0.545 -0.364 0 -0.202 -0.721 0 0 0.081 0 0 0.019 -0.916 -0.664 0 0.171 -0.432 0.774 0 -0.866 0 0 0.79 0 0 0 0.377 -0.468 0.879 0 0 -0.178 0 0 -0.092 -0.84 -0.059 -0.726 0 0 0.296 0 -0.099 0 0 0 0.724 0.176 -0.369 -0.686 0 0 0.265 0 0.696 0.373 0 -0.488 0 -0.293 -0.752 0.69 0 -0.872 0.23 0.181 0 0 0 -0.618 0 0 -0.772 0 0.808 0.345 -0.831 0 0 0 -0.595 0.917 0 0 0.914 0 -0.542 -0.305 0 -0.282 -0.804 0 0 -0.75 0.215 -0.267 -0.532 -0.712 0 -0.569 -0.603 -0.312 0 0 0 0 0 -0.529 -0.737 0.465 0 0.906 0 -0.398 0.39 0 0 -0.839 0 -0.112 0.814 -0.574 0 0 0 0 -0.004 -0.729 0.767 0 0.303 0.006 0 0.971 0 0 -0.526 0.388 0.193 0 -0.65 -0.984 0 0.488 0.309 -0.408 -0.314 0 0.064 -0.238 0 -0.248 -0.455 -0.919 -0.897 0 0 0 0 0 -0.565 0 0.607 0 0 0.42 0 0 0.646 0.318 0 0 -0.815 0.911 -0.975 0.252 0.596 0 -0.441 0 0 -0.4 0 0 0 0 0 -0.13 0 0 0 0 0 -0.064 0 -0.328 0 0 0 0 0.032 0.375 0 0 -0.449 0 0 0 0 0.922 0 0 0.164 -0.946 -0.393 0.662 -0.122 0.617 -0.987 0 0 0 0 0 0.379 -0.798 0 0.635 0 -0.166 0.691 -0.393 0.604 0.179 0 0 0.855 0 0 0.61 0 0 0.411 -0.312 -0.016 0.29 0 0.627 0.83 0 0 0 0 0 0 0 0 0.65 0 0 -0.19 0 -0.484 0 0.528 0 0 0 0.848 0.258 0.498 -0.527 0.646 0 -0.965 0.765 0 0 0 0 0.68 0.475 0.401 0 0 0.302 0.738 0 0 0.093 0 0.96 0 0.24 0.147 0 0 0 -0.201 0.218 -0.503 -0.284 -0.275 0.442 0.637 0 0.181 0 0 0 -0.217 0 0 -0.217 0 0.84 0 -0.85 0.196 0 -0.614 0 0.026 0 0 0 -0.815 0 0.717 0 0 0.071 0 -0.058 0 -0.791 0 -0.988 0 -0.651 0 -0.437 0.712 0.453 0 0 -0.304 0 0 0 0 0 0.833 0 0 0 0.485 0 0 -0.118 -0.655 -0.717 0 -0.867 0 -0.488 0.662 0 -0.115 0 0.481 -0.316 -0.469 -0.466 0 0 0 0.485 0 0 0.066 0.345 0.9 0.12 0 0.737 0.778 -0.86 -0.828 0 0 -0.765 -0.118 0 -0.515 -0.406 0.591 0.904 0.628 0 0 -0.438 0 0.791 0 0 0 0 0.434 0 0 0 0 0.751 0 0 -0.296 0 0 0 0.486 0 0 0 -0.474 -0.778 -0.774 0 -0.753 0 -0.532 0 -0.903 0 0 0 0.71 0.676 -0.755 -0.578 0.141 0 -0.886 0.363 0 0 0 0.423 0.261 0.519 0 0 0 0 0 -0.032 0.193 -0.97 0.229 0 -0.483 0.267 -0.375 0.481 0 0 0 0 0.233 0 0 0 0.805 0 0 -0.569 0 0.773 0 0 0.271 0 0 0 -0.811 0 0.863 -0.875 0 0.997 0.246 0 0 0.883 -0.97 0.547 -0.722 0 0 -0.251 0 0 0 -0.89 0 0 -0.33 0 0.594 0 0.995 -0.18 0 0 0 0.822 0 0 0 0 0.7 0 -0.152 0.541 0.417 0.173 0.329 0.547 0 0 0.691 -0.086 0 0 0 0 0 0 0.948 0 0.123 0 -0.074 0.997 -0.005 0.904 0 -0.208 0 0 0 0 0 0 0 0 0 0 0 0.653 0 0 -0.291 0 0 0 0.167 0.556 0.423 -0.532 0 -0.21 0 0.915 -0.353 0 0 0 0.587 0 0.289 0 0 0 0 0 0.916 -0.314 0 -0.011 0 0 0.361 0.402 0.681 0 0 0 -0.056 -0.527 0 0 -0.878 0 0.764 0 0 -0.756 0.546 -0.741 0 0.845 0 0.143 0.906 0.926 0.727 0 -0.493 0 0 -0.514 0.68 0 -0.005 0 0 -0.432 0 0 0 0 0 -0.332 0 0 0 -0.821 0.034 0.507 0 -0.312 -0.672 0.981 0 -0.931 0 0 0 0.6 0 -0.379 0.921 0 -0.545 -0.74 0 0 0 0.103 -0.527 0 -0.604 -0.53 0.393 0 0.568 0.863 0 0 -0.68 -0.397 0 0 0 0.486 0.655 0 0.431 -0.186 0 -0.299 0 0 0.353 0.435 0 0.545 0 0 0 0 0 -0.21 0.998 0.053 0.846 0.126 0 0 0 0 -0.087 0 0 -0.036 -0.14 0.458 0.22 -0.114 0 0.515 0 0 0 -0.92 -0.583 0 0 -0.682 0 0 0 -0.401 -0.192 0 0.253 0 -0.852 0 -0.683 0 -0.871 0 0.732 0.445 0 0.722 0 -0.608 0 0.091 0.417 -0.017 0.605 0.663 0.97 0.537 0 0.454 0 0 0 0 0 0 0 0 -0.897 0.314 0.705 0.109 0 0 0 -0.683 0 0 0 0.95 0 -0.736 0 0.339 0.615 0 0.854 0 -0.895 -0.143 0 -0.493 0.439 0.55 0.389 0 0 0.052 0 -0.066 0.556 0.53 -0.064 0 0.028 -0.256 0 0.508 0 0 -0.825 0 -0.74 0 -0.492 0.438 0 0 0 -0.98 0 0 0 0.429 -0.92 -0.586 -0.719 -0.047 0 0 0.678 -0.368 -0.456 -0.631 0 0 0 0 0 0.229 0 0 0 0 0 0 0.077 0 0 0.161 0 -0.264 -0.876 0.62 0 0.348 0 0.545 0 -0.474 -0.032 -0.777 0 -0.412 0.024 0 0 0 0 -0.997 0 -0.715 0.133 0.981 0 0 0 0 0 0 0 0.586 0 -0.424 0 0 0 0 0 0.97 0 0 0.044 0.966 0 0 -0.984 -0.761 -0.565 -0.614 0 0 -0.608 0.598 -0.821 0 -0.215 0 -0.149 0 0 -0.538 0.444 0.661 0.298 0 0 0 -0.714 0 0.644 0 0 0 0 0 0 0 -0.796 0.345 0 0 -0.616 -0.641 0 -0.462 0.723 -0.225 0 0 -0.127 0 0 0 0 0 -0.264 0 0 0 0.861 -0.698 0 -0.238 -0.196 0 -0.829 0.554 -0.077 0.049 -0.635 -0.091 0 0 0 0.14 0 -0.362 0 0 -0.571 -0.142 0 0 -0.904 0.139 0 0 0 0 0.932 0 0 -0.095 0.699 0 -0.125 -0.579 0 0 -0.462 0 0 0 0.719 0.117 0 -0.908 -0.41 -0.097 0 0.081 0 0 0 0.049 0 -0.507 0 0 0 -0.533 0 0 -0.22 0 0.89 0 -0.726 0 0 0 0.765 0 -0.813 0 -0.613 0 0.482 0 -0.365 0 0 -0.479 0 0 0.951 0 0.69 0.701 0 0 -0.909 -0.98 0 0 -0.975 0.732 0 0 0.874 0 0.321 0 0.49 0.816 -0.676 0 -0.82 0 -0.618 0.112 0 0.265 -0.772 0 -0.266 0 0.69 0.438 0 0 0 0 -0.049 0 -0.886 0 -0.338 0 0.854 0 0 -0.385 -0.799 0.519 0 0.392 0 0 -0.446 0 -0.306 0 0 0.615 0.18 0 0.792 -0.418 0.906 0 -0.736 0.029 0 0 -0.236 0 0 -0.164 0 0 0.747 0.948 -0.792 0 0 0 0.768 0 0 0.375 -0.523 -0.368 0 0 0 -0.603 0 0.167 0 0 0.996 -0.486 0.901 0 -0.829 -0.657 0 0 0.269 -0.576 0 0.004 0 -0.259 0 0 0 -0.509 0 0.683 0 0.715 -0.905 0.48 0.835 -0.465 -0.338 -0.225 0 -0.409 0 0 0 0 0.387 -0.682 0.467 0.738 0 -0.652 0 0 0.835 0 0 0 0 -0.955 0 0.56 0.47 0 0 -0.54 -0.355 0.016 0 -0.009 -0.29 -0.175 0 0 -0.569 0 0 0 -0.421 -0.971 0 0 0.54 0 0 -0.668 0 0.345 0 -0.273 0 0.402 0 0 -0.82 -0.415 0.603 0 0 -0.788 -0.487 0.773 -0.753 -0.295 0 -0.423 -0.435 -0.211 0 0 0.07 0 0.094 -0.522 0 -0.692 0.947 0 0.564 0 -0.311 0.749 0 0 0.199 0 0 0 -0.6 0 0 0 0.542 0 -0.603 0 -0.531 0 0 0.571 0.636 0 -0.514 -0.894 0 -0.245 0.586 0.661 -0.908 0 0 0 0.144 0 0 0 0.3 0 -0.589 -0.892 0 0.004 0.924 0.126 0 -0.385 0 0 0 0 0 0.089 -0.75 0 -0.12 -0.559 0 -0.974 0.082 0.328 -0.454 0 0 0.021 0 0 0 0 0 0 -0.032 0 0 0 0.357 -0.606 0 0.35 -0.428 -0.8 0.025 0 0 -0.373 0.47 0 0 0 0 -0.548 -0.781 -0.204 0 0 -0.641 0 -0.993 0.814 0 0 0 0 0.476 0.821 0.071 0 -0.397 0 0.962 0 0.832 0 0 0.767 -0.084 -0.13 0 0 0 0.029 -0.734 0 0 0 0 -0.717 -0.572 0 0.562 0 0.085 0.504 -0.156 -0.771 0 0 0 0.436 0 -0.838 0 0.273 0.646 -0.889 0.772 0.909 0 0 -0.129 0.687 0 0 0 0 0 -0.959 0 0 0 0 -0.477 -0.234 -0.148 0.95 0 0 0 0 0.645 0.849 -0.954 0 -0.142 0 0 0.344 0.544 0.918 0.457 0.233 -0.925 0.367 0.142 -0.964 0 0 0.955 0.777 -0.268 -0.565 0 0.973 0 -0.447 0 0.743 0 0 0 0 0 0 0.747 -0.813 -0.25 0 0.899 0 0.421 0 0.191 0 -0.52 0 -0.094 0.015 -0.369 0.906 -0.26 0 0 0 -0.948 0 -0.992 0 0.12 0.377 -0.461 -0.421 0 0.519 0 0 -0.921 0 0 0 0.019 0.103 0 0 0.881 -0.684 0 0 0 0 0 0.308 0.734 0 0 0.41 0.102 0.489 -0.465 0.479 0 0 -0.483 0 0 0 0 0 0.495 0.688 0 0 0 -0.449 0 0 0 0.555 0 0 0 0 0.037 0 0.23 -0.92 0.255 -0.564 0.98 0 0.241 0 0 -0.754 0 -0.85 -0.19 -0.016 -0.768 0 0.068 -0.503 0 -0.83 0.505 -0.888 0.59 0 -0.883 0 0.441 0 0 0.27 0.562 0 -0.243 -0.732 0 0 -0.343 -0.164 0 0 0 -0.467 -0.842 0.228 -0.111 0 -0.413 0 0 0 0 -0.367 0 -0.044 -0.342 0.671 0 0.235 0 0 0 0 0 0.696 0.436 0.057 0 0.389 0.865 -0.562 -0.735 0 -0.327 0.744 -0.227 0 0.221 0.263 0.808 0 0 0 -0.54 0 0 0 0.359 0 0 0 0 0 0 0.475 0.701 -0.937 0 0 -0.225 0 0.005 0.089 0 0 0 0 -0.819 0 0.304 0 -0.369 0.334 -0.367 0 -0.581 -0.302 0 0 0 0.641 0 -0.474 0.344 0.438 0.75 0.752 0.455 0 0 0 0 0 0 0.9 0.268 0 0 0.691 0 0.24 0 0 0.316 0.104 0 0 0.381 0.332 0 0 0.677 0.361 0 0 0 0.2 0.634 -0.803 0 -0.978 0 0.543 -0.223 -0.388 0 0 0 0.018 0 -0.978 0 0 0 0 0 0.584 0.417 0 0 0 -0.039 0 0.235 -0.21 0.046 0 0.643 0 0.696 -0.595 0 0 0.863 0 0.4 0 -0.984 -0.258 -0.853 0 0.242 -0.626 0.225 0.68 0.39 -0.488 -0.064 0.284 0.033 0.113 0.98 0 0 0 0 -0.558 0.918 0.596 0.901 -0.325 0 0 0 0.166 -0.341 -0.6 0 -0.165 0 0 0 -0.331 -0.127 0.049 -0.23 0 0.744 0 0 -0.412 0 0 0.143 -0.576 0 0 -0.755 0 0 -0.926 0 0 0 0.682 0.196 -0.301 -0.655 0 0 0 0 0.382 0 0 0 0.823 0.548 0.225 -0.982 0 -0.739 0.449 0.588 0 0 0.984 0 0 0 0 0 0.727 0.754 0 -0.084 0 0.701 -0.498 0 0 0.814 0.018 0.269 0.311 0.133 0 0 0 -0.318 0.651 0 0 0 0.772 0 -0.004 -0.64 0 0 -0.035 0.847 -0.495 0 0 0.137 0 0.9 -0.556 0.596 0 -0.542 0 -0.788 -0.964 -0.707 0.621 -0.228 -0.862 0 0 0.201 -0.725 0 -0.054 -0.675 0 0 0 -0.485 0 -0.654 0.681 0.486 0 -0.19 0.357 0 0 0.785 0 0.544 0 0 0.448 0.051 -0.057 0.646 0.009 -0.822 0 -0.329 0 0 0 -0.971 0 0 0 0.427 0 0.254 0 0 0.482 0.265 0.47 0 0.096 0 0.152 0.212 0.351 0 0 -0.282 0 -0.083 0.316 0 0 -0.083 -0.548 0 -0.184 -0.053 -0.284 0 0.161 0 0.777 0 0.052 0 0 0 0 0 -0.323 0.408 -0.16 0 0 0 0.146 0 0 0.71 0 -0.135 0.922 -0.78 0.468 0 -0.499 0 -0.791 0 -0.135 -0.67 0 0 -0.916 0.054 0.853 -0.155 0 0.12 0 0.373 0 0 -0.61 0 0 -0.038 0.233 0 -0.404 -0.989 0.613 0 0 0 -0.639 0 0 -0.692 0 0 0.617 0.328 0.75 0 -0.967 0 0.994 0 -0.495 -0.85 0.494 0 0.54 0.982 0.405 0.014 -0.365 -0.39 0 -0.368 -0.366 -0.56 0.14 -0.123 0 0.77 0.92 0 0 0.714 -0.964 0.726 -0.59 0 0 0.212 0 -0.02 0 0 -0.986 0 0 0 0 0 0 0 0 -0.496 -0.057 -0.365 0 0.516 -0.726 0 0.976 0 0.853 -0.196 -0.031 0 0 0.806 0 0 0 0 0 -0.412 0 0 -0.098 -0.2 0.219 0 0 0 -0.267 0.57 0.935 0 0 0.537 -0.62 0 0 -0.086 0 0 0.365 0 0 -0.781 -0.332 -0.669 0 -0.428 0.348 -0.451 0 0.955 -0.462 0 0 -0.956 0 0 0 -0.557 -0.604 0.1 0 0 0 0 0 0 0 0 0 0 0 -0.738 0 0 -0.626 0.823 -0.211 0.185 0 -0.594 -0.224 0 -0.596 0 0 -0.124 0 -0.116 0 0 0 -0.191 -0.313 -0.304 0 -0.947 -0.142 -0.523 0 0 0 0 0.792 0 0 0 -0.36 0 0 0 -0.615 0.274 -0.017 0 -0.504 0 0 0.558 0 0 0 0 0 0 0 0.582 0 0.063 0 0 0 0 0.556 0 0 0 0 0 0 -0.097 0 -0.91 0.06 -0.641 0.518 0.457 0 0 0 0 0 0 0 -0.662 0 -0.937 -0.963 0.193 -0.746 -0.376 0.46 0.416 -0.124 0.816 0 0 0 -0.116 0 0 0.309 0 0.511 -0.27 0 -0.192 0.714 0 0 0 -0.119 0 0 0 0 0 -0.724 0 0 -0.519 0 -0.256 -0.505 0 0 0.03 0.355 -0.046 0.903 0.915 0 0 0 0 0 0 -0.985 0 -0.541 0 0.129 0.963 0 0 0 0 0.758 0.353 0.877 0 0 -0.271 -0.656 0.891 0 0.811 0.402 0 -0.326 0.065 0 -0.098 -0.831 -0.717 0 -0.169 0.438 0 -0.039 0.025 0.681 0.274 0 0.931 0 0 0.796 0 0 -0.696 0 -0.405 -0.513 0.249 0 0 -0.998 0.761 0 0 0 0 0 -0.495 0 0.149 0 -0.672 0 0 0 0 0.765 0 -0.19 0 0 0 0 0 0.979 0.633 0.051 0 0 0.038 0.436 0 0 0.687 -0.175 0 -0.728 0 0.413 0 0 -0.231 0.82 0 0 0 -0.745 -0.049 -0.504 0 0 0.011 0 0 0.496 0 0 0.49 0 0.296 0.501 -0.317 -0.201 0 0 -0.575 0 0.156 0.769 0 0 0.707 0 0 0.544 0.605 0.332 0 0.158 0 0 0.459 -0.237 0.807 0 -0.292 0 0.818 0 0 -0.12 -0.135 0 0 0 0 0.803 0 0 -0.853 -0.463 0.434 0 0 0 -0.71 0 0 0 0.643 0.037 0.5 0 -0.146 0 0 -0.146 0 0 0 -0.447 0 0 0.433 0 0 -0.347 0 -0.709 -0.815 -0.226 0 0 0 0.311 0.741 -0.765 0 -0.063 0 0 0 -0.33 0 0.648 0.38 0.559 0 0.59 0 0.42 0 0 -0.623 0 0.295 -0.331 0.128 -0.383 0 -0.919 0 -0.988 0.989 -0.488 -0.508 -0.808 0.714 0 0 -0.605 0 0.016 0 0 0 -0.75 0 0 0 0 0 0.062 0 0.777 0 -0.502 -0.093 0 -0.885 0.803 0 0 0 0.436 -0.612 0 -0.673 -0.655 0 0 0 0.811 0.734 0 0 0 0.747 0 0 0.931 0.181 -0.997 -0.24 0 -0.72 -0.942 0.408 0 0 -0.764 0 0.187 0 0.907 0 0 0 0 -0.612 0.45 0 -0.723 0 0.229 0.887 0.22 0 0.22 0.836 0.438 0.564 -0.912 0.927 0.828 0 0 -0.699 0 0 -0.318 0.284 0.644 0.966 0 -0.458 0 0 0 0 0 0.112 -0.144 -0.1 -0.883 0 -0.409 0 0 0 0 0.358 -0.234 0 0.319 -0.761 0.023 0.853 0 -0.869 0 -0.005 0 0 0 0.441 0.914 0 -0.887 0 0.9 0.78 0 0 0 0 0 0.676 0.173 -0.262 0.332 0.376 0.756 0 -0.692 0 -0.214 0 0 -0.01 0 -0.89 -0.842 0 -0.754 0 -0.108 0 -0.123 0 0 0 -0.412 0 0 0 -0.608 -0.478 0 0 0 0.69 -0.807 0 0 0 -0.721 -0.008 0 0.648 0 0 0 0 -0.836 0 -0.974 -0.168 0 0.621 0 0.027 0.105 0.37 0 0.782 0 -0.694 0 0.534 0 0.134 0 0 0 0 0.113 -0.084 0 0.26 0 0 0 -0.925 0.372 0 -0.055 -0.611 0.667 -0.099 0 0 0.035 0 -0.458 -0.571 0 -0.754 -0.291 0 0 0 0.97 0.364 0 -0.733 0 0 -0.56 0 0 0.129 0.952 0 -0.706 0.695 0 0 0 0 0.266 0 0 0 0 0 0 0 0 0.879 -0.987 -0.262 0 0 0 -0.856 0 -0.893 0 -0.072 0.88 0 0 0.145 -0.406 -0.145 0 -0.663 0 -0.931 -0.646 0 0 -0.939 -0.938 0.021 -0.107 0 -0.103 0.963 0 0 0 -0.269 0 0 0 0 0.938 0.925 0.661 0 -0.629 0 0 -0.971 0 0 0 0 0 0 0 0 0.406 0.064 -0.436 0.39 0 -0.895 0 0 -0.477 0 0.568 0 0 0.531 0 -0.969 0.516 0 -0.046 0 0 0 -0.231 -0.654 0.805 0 -0.16 0 0 -0.469 0.065 0 -0.613 0 0.436 0.923 0.79 0 0 -0.491 0.915 0 -0.954 0.413 0.09 0 0.131 0 -0.682 -0.977 -0.028 0 0 0.792 0 0 0 -0.852 0.191 -0.585 0 0 0 0.785 0 0 -0.482 0 0.872 0 -0.995 0.91 0.22 0 -0.307 0 0 -0.529 0 0.922 0.961 0 -0.723 -0.072 -0.092 0 0 -0.546 0 0 0 -0.32 0 0 0.233 0 0 -1 0.96 0.262 0.01 -0.624 -0.305 0.777 0 -0.058 0.212 0 -0.589 0 -0.847 0 -0.466 0 0 0 -0.4 0 0 0 0.624 0 0 0 0.487 0 0 0 -0.411 0 0 0.579 0 0 -0.541 0 0 0 0.499 0 0.739 0 0.364 0 0 0 -0.692 0 0.172 0.632 -0.669 -0.522 0 -0.913 0 -0.22 0 0 0.302 0 0.804 -0.672 0.398 0.149 0.594 0.239 0.872 0 -0.534 0 -0.78 0 0 -0.264 0.172 0 0.031 0.553 0 0 0.633 0 0 0.749 0 -0.226 0 0 0.443 -0.532 -0.403 -0.749 0 0.28 0 0 -0.519 0 -0.99 0 0.798 -0.781 0.019 -0.846 0.059 -0.906 -0.054 0.049 0 0 0 0.158 0 0 0.517 0 0 0 0 0.369 0 -0.533 0 0.455 0.582 0 0 0.502 0 0.495 0 0.427 -0.106 -0.787 -0.187 0 0 0 0 0 0 0 -0.772 0 0.672 0.749 0 0 0.69 0 0.49 0 0 0 0 0.971 -0.304 0 -0.82 0 0 -0.891 0 0 -0.856 0 0.259 0 0 0.645 -0.748 0 0 0 0 -0.247 -0.987 -0.232 0 0 0 0 0.926 0 -0.502 0 0.745 0.01 0 0 0 0.539 0 0 0 0.017 0 -0.753 -0.646 0.335 -0.667 -0.837 0 0 0 -0.09 0 0.237 0 0 0 0 0 -0.081 0.891 -0.146 -0.833 -0.205 0 0 0 0 -0.443 -0.753 0 0 0 0.246 0 -0.74 0 -0.885 0 0 0 0 0 -0.138 0.888 0.588 0 0.16 0 -0.448 0 0 0 0 0.677 0 0 0 -0.519 -0.062 0.549 0 0.585 0 0.467 -0.3 0 0.106 -0.436 0 0.329 -0.633 -0.987 0 0 -0.19 0 -0.031 0.994 0.341 0 0 -0.504 0.881 -0.007 0 0 -0.228 0 0 -0.629 0.064 0 0 0 0 -0.662 -0.06 0 0 0 0 0 0 0 0.887 -0.639 0 0 -0.531 0 0 0.718 -0.33 -0.994 0 -0.08 0.001 -0.863 0 0 0 0.261 0.712 0 0.112 0.381 -0.535 -0.76 0.822 0 0 0 0 0.161 -0.689 0 0 0.223 0 -0.924 0 -0.188 0 0.28 0 0.75 0.581 0 -0.931 0 0 0 -0.957 0.805 0 0.587 0.368 0 0 0 0 -0.418 0.437 0 0 0.803 0.796 0.374 0 -0.159 0.208 0 -0.313 0.161 0 0 0 -0.572 -0.55 0 0.367 0 -0.599 0.914 0 -0.207 0.002 -0.591 0 0 -0.884 0 0 0 0 0 -0.594 -0.726 0.065 -0.475 0 0 0 0 0.96 0 0 0 -0.237 -0.374 0 0.55 0.511 0 0 0 0.319 0.75 -0.973 -0.24 0 0 0 0 0 0 0.585 0.827 -0.423 0 0 -0.637 -0.876 -0.429 0 0 -0.212 0 -0.391 0 0.39 -0.757 -0.663 0 -0.138 0 0 0.878 0 0.751 0 0 0 0.904 0.211 0 -0.596 0 0 0.361 0 0 0 0 0 0 0.604 0 0 0.921 0.106 0 0 0 0.157 0 0 0.633 0 0 0 0 0.191 -0.36 0 0 0.006 0.606 -0.934 -0.32 -0.257 -0.376 0 0 0 0 -0.501 0.544 0 0 0 -0.011 0 0.954 0 -0.425 0.568 0 -0.344 0.833 -0.583 0 0 0 -0.367 0 0 0.891 -0.664 0 0.237 0 -0.573 0.384 0 0 0 0.255 0.964 0 -0.693 0 0 0 0 0 0 0.295 0 0 0 0.861 -0.104 -0.011 0.172 0 0 0.457 0.624 0 0 -0.463 0 0 0.087 0 0 0.766 0.968 0.546 0 0.443 0 0 0 -0.865 -0.653 0 0 0.041 -0.748 0 0 0.771 0 0.103 -0.573 0 0 0 0 -0.714 0 0 -0.187 0 -0.137 0 0.556 -0.582 -0.589 0.999 0 0 0.131 0 0 0.19 0 0 0 -0.173 -0.163 -0.55 -0.748 0 0 0 0 -0.136 0 0.118 -0.233 0 0 0 0.816 0 -0.093 0 0 0 0.541 0 -0.547 0 0 0 0 -0.76 0 0.433 0 0 0 0.778 -0.713 -0.135 -0.6 -0.123 0 0 0 -0.087 0 -0.481 0.391 -0.723 -0.478 0.66 -0.037 0 0 -0.582 0 0.041 0 -0.41 0.379 0.087 0 0.341 0 0 -0.059 0 0 0.181 -0.426 0 0 0 -0.292 0 0 0.707 0 0 0 0.76 0 0 -0.888 0.62 0 0 0.841 -0.407 0 -0.842 0 0 -0.866 0.094 0 0 0 0 -0.738 0 0 -0.472 0.4 -0.85 0 -0.558 0.326 0 0 0 0 -0.8 0.705 0 0 0 0.559 -0.543 -0.438 0.629 0.23 -0.854 0 -0.316 0 0 -0.701 0 0.857 0 0 0 0 0 0 0 -0.044 -0.498 -0.218 0 -0.756 0 0 0 0 0 -0.509 -0.672 0 0.376 0.985 -0.286 -0.041 0 0 0.276 0 0 0 0 0 0.804 0.3 0 -0.429 -0.26 0 0 -0.981 0.551 -0.338 -0.206 0 0 -0.911 -0.458 0.591 0.921 0.646 0 0.331 -0.309 0 0 -0.268 0 0 0 0 0 -0.238 -0.876 0.438 0 0 -0.375 0 0 0 0 0 -0.333 0.16 0 0 -0.07 -0.33 0.552 0 0 0 0.865 -0.718 0 0 0 0 -0.877 0 0 0.672 0 0.097 0.801 0 0 0.865 0 0 0 -0.236 0 -0.495 0 -0.206 -0.004 0.15 0 0 -0.227 0.515 0 -0.933 -0.541 0.011 0.525 0.298 0 0 -0.079 0 0 0.124 0 0.291 0 0.538 0 -0.959 0 0 0.745 -0.127 0 0 0 0.999 0 0.87 0 0.86 -0.522 -0.348 -0.859 -0.012 -0.487 0 -0.96 0 0 -0.528 -0.865 0.253 0 0 0 0 0 0 0 0.33 0 0 0.614 0 0 0.201 0 0 -0.617 0 0 0 0.61 0.946 -0.313 0.505 -0.733 0 0.892 0.652 0.337 0 0 0 -0.136 0.965 0.012 0 0.903 0.506 0.122 0 0.141 -0.381 0 -0.207 -0.632 0 -0.905 0.523 0 -0.665 0 0 0.548 0 0 -0.771 0.672 0.695 -0.85 0 0 -0.219 0 0 0.135 0 -0.57 0.888 -0.786 0.554 -0.364 0 -0.768 0.66 -0.936 -0.246 0 0 0 0.791 0 0 0 0 -0.035 0 0 0 0 0.671 0 0 0 0 0 0 0.638 -0.783 -0.38 0.367 -0.536 0 0 -0.129 0.437 0 0 -0.15 0 -0.486 0 -0.992 0 0 0.481 -0.234 0.421 0 -0.082 0 0.718 0 0 0 0 -0.661 0 0 0 0 0.515 0.583 -0.07 0 0 -0.112 0 0.813 0 0 0.925 -0.045 -0.504 -0.939 -0.256 0 -0.579 -0.071 -0.634 -0.718 0 0 0 0.381 -0.527 0 0.505 0.024 0.084 0.715 0.776 0.346 -0.941 0.49 0 0 0 -0.959 0 0 0 0 0.765 0 0.066 -0.068 -0.147 0 0 0.627 0 0 0 0 0.194 0 0 0 0 -0.042 0.143 0.786 -0.58 -0.154 0 0 0 0 0 -0.064 0.226 -0.669 0.083 0 0 0 0 0 0.826 0 -0.874 0.407 0.446 0.755 0 0.267 0 0 0 0.787 0 0.801 -0.768 0 0 0 0 0 0 0 0 0.176 -0.357 0.424 -0.233 -0.477 0 0 0 -0.797 0 -0.909 0 -0.082 0 -0.416 0 0 -0.734 0 -0.711 0 0 0.685 0 0.546 0.939 0 -0.116 0 -0.561 0 0.952 -0.644 -0.389 0 0 0 0 0.016 0 0 0 0 0 0 -0.235 0 0.073 0 -0.9 0.221 0 0 0 0 0.223 0 0.483 -0.283 0 -0.266 0 0 0 -0.415 0 0.571 0 0 0.688 0.65 0.939 0.929 0 0 0 -0.741 0 0 0 0 0 0.209 0 0 0 0 0.699 -0.405 0 0.821 -0.765 0 0.321 -0.53 0 0 0 0 -0.342 0 -0.027 0 0 -0.221 0.441 0.059 -0.626 0.024 0.534 0.369 0 0 0 0 0 -0.978 0.333 0.609 0 0 -0.258 0 0 -0.191 0 0 -0.382 0 0 0.556 0 0.441 0.142 0 -0.171 0 0 0 0.11 0 0 0 0.288 -0.779 0 -0.844 0.133 0.936 0 0.809 -0.387 0 0.614 -0.176 0.065 0 -0.852 0 0 0.139 0 0.481 0.06 0 0.347 0.94 0.323 -0.972 0.228 0 0.841 0 -0.395 0 0 0 0 0 0 0 -0.171 -0.387 0 -0.39 0.543 0 -0.63 0 0.132 -0.576 0 0.939 -0.177 0.451 0.301 0.879 -0.315 -0.5 0 0.274 0 0 0 0.036 0.366 0 0.458 0.911 0 -0.196 0.482 -0.732 -0.523 0 0.496 0 0.369 -0.306 0 0.817 -0.763 -0.207 0 0.073 0.157 0 0.953 0.178 0 0.406 0 0.508 0 0.406 0 0.819 0 0 0 -0.636 -0.657 0.306 0.517 0.4 0 0.781 0 0 -0.593 0 0 0 0.768 0.603 0 0 0.039 -0.175 -0.358 0 0 0 0 0 0.681 0 0.019 0 0 0.871 -0.355 0 0 0 -0.097 0 0 0.002 0 0 0 0.165 0 0.733 0 -0.761 -0.697 0 0 0.562 0.736 0 0 -0.372 0.172 0 -0.651 -0.236 0.993 0 -0.996 0 -0.02 0.219 0 0 0 0 0 0.501 0 0 0 -0.376 -0.892 -0.032 0 0.771 -0.661 0.296 0.305 0 0.314 0.576 0.688 0 0 0 -0.202 0 -0.025 0 0 -0.059 0.105 0 0 0 0 0.957 0 0 -0.244 -0.519 0 0 0 0.972 0.308 -0.236 0 0.418 0 -0.592 -0.965 0.507 0.876 0.45 0 0.115 0 0 -0.469 0.958 -0.613 -0.054 -0.845 0 0 0.459 0 0 0 0.976 0 0 -0.638 0.691 0 0.619 -0.465 0 -0.736 0.156 0 0 0 0 0.473 0 0.331 0.749 0 -0.213 0.036 0 -0.253 0.889 -0.373 0 0 -0.876 0.364 0 0.411 0.765 0 0.691 0 0 0 0 0.892 -0.49 -0.489 1 0.801 -0.17 0.286 0 0 -0.247 0 0 -0.513 0 0 0.439 -0.194 -0.821 0 0.998 0 -0.51 0 0 0 0 0.827 0.106 0 0.908 0 -0.364 -0.759 0 0 0 0 0 0 0 0 0.045 0.873 0.361 0.99 0 -0.715 -0.665 0.093 0.524 -0.91 0 0 0 -0.699 -0.317 0 0 0 -0.726 0 0 0 0 -0.829 0 0 -0.475 0 0.057 -0.627 0.399 -0.622 0 0 0 -0.746 0 -0.312 0.325 0 0 0 0 0.408 0 -0.26 0.291 -0.903 0 0.225 0 0.255 0 0.814 0 0 0.356 0.587 -0.924 0.899 0.404 0 -0.701 0 0.128 0 0 0.277 -0.909 0.139 0 0 0 -0.002 -0.853 0 0 -0.749 0 -0.465 0.336 0 0.921 0.825 0.78 0 0 0 0 0 0 0 0 0 0 -0.075 0 0.783 0 0 0 0.68 0 0.278 0 0 0.918 0 -0.086 0 0.896 -0.021 -0.815 0.866 0 0 0.455 0 -0.311 0 0.735 0.068 0 0 0.41 0 -0.822 0 0 0.485 0 0 -0.572 0 0 0.746 0.946 0 0 0.576 0.2 0 -0.823 0 -0.364 -0.482 0 0 0.132 -0.962 -0.525 0 -0.882 -0.099 -0.059 0 0 0 0.79 0 0 0 -0.972 0 0.1 -0.492 -0.827 0.767 0.194 0 0 0 0.39 0 0 0 0.581 -0.708 0 0 0.077 0.673 -0.995 0.699 0 -0.423 0.342 -0.125 0 -0.4 0 -0.72 0 0 0.175 -0.507 0 0.754 0 0.924 0.253 -0.157 0.185 -0.751 0 -0.908 0 0 0 0 -0.997 0 0 0 0 0 0 0.09 -0.545 -0.505 0.411 -0.943 -0.304 0 0 0 0.477 -0.476 0 0 0 0.89 0 0 -0.497 0 0 0 0.563 -0.523 -0.876 -0.025 0 -0.925 -0.267 0 0 0.461 0 0 0 0 0 -0.094 0 0 0 -0.09 0 0 0.632 0 0 0 0 -0.334 0 0.856 0 0 0 0.538 -0.963 0 0 0 0 -0.349 0 0 0 -0.763 0 0 0.042 0 -0.917 -0.127 0 0 -0.141 -0.913 0.064 0.229 -0.095 -0.224 0 -0.332 0.121 0 0.312 0 -0.389 0 0.495 -0.745 0.908 0.959 0 -0.133 -0.211 0.778 -0.687 0 0 0 0 -0.939 0.764 0 0.564 0 -0.258 0 -0.815 0 -0.305 0.567 0 0 0.581 0.685 0.46 0 0.062 -0.241 -0.842 0.799 0.927 0.746 0.535 0.481 0.361 -0.46 0 0.793 0 0 -0.004 0 0.607 0 0 -0.398 0.522 0 0 0.118 -0.86 0 0 0 0 0 0 0.953 0.76 0 0 0.895 0 0 0.845 0.996 0 -0.336 0 0 0 0.846 0 -0.885 0 0 0.55 0.485 0 0 0 0 -0.907 0 0 -0.735 0 0 0 -0.172 0 0.184 0.079 -0.314 0 0 0 0.935 0.647 0 0 0 0.577 0 -0.795 0.671 -0.781 0 0 0 -0.746 0 0 -0.927 0 0 0.17 -0.909 -0.959 0.181 0 0 0.977 0 0.029 0 0 -0.913 0.271 0 0.227 0.873 0 0.252 -0.041 0 -0.357 -0.237 -0.712 0 0 -0.322 0.068 0 -0.313 0 0.943 0 -0.688 -0.045 0.216 0 -0.16 0 0.42 0.375 0 0.909 0 -0.871 0.729 -0.823 0.708 0 0.952 0 0 -0.983 0 0 0 0 0 0 0 0 0 0.425 0 -0.702 0.29 0 0.497 -0.281 0 0 0 0 0 0 0.541 0 0.288 0.304 0.583 0 0 0 0.169 0 -0.856 0.472 0 0.033 0 0 0 -0.353 0 0.602 0 0.912 -0.554 -0.851 -0.562 0 0 -0.217 0.284 0.281 0 0 0 0.396 0.021 0.049 0.907 0 0.731 -0.685 -0.591 -0.017 0 0 -0.313 0 -0.739 -0.01 0.161 0 0 -0.487 -0.115 -0.473 -0.826 -0.257 -0.623 0 0 0 0 0 0.342 0 -0.482 0 0.79 0 0.934 0.957 0 -0.404 0 -0.624 -0.939 0.033 0 -0.075 -0.948 -0.316 0 0.888 0 0.103 0.689 0 0 0 -0.953 -0.752 0.831 0 0.695 0 0 -0.088 0 -0.195 0 0.671 0 0 0 0 0 0.151 0 -0.2 0 0.837 0.155 0 0 -0.957 -0.586 0 0 0 0.6 0 -0.383 0 0.466 -0.976 -0.381 -0.273 0 0.543 0 0 -0.522 0 0.106 0 0 0 0 -0.399 -0.392 -0.506 0 -0.418 0 0.112 -0.186 -0.46 0 0.132 0.027 0.365 0 0 0 -0.036 0 0 0.573 0 0 0 0 0 0 0 -0.916 -0.923 0.658 -0.469 0 0.235 0 0.453 0 0 0 0.103 0 0.163 0 0 -0.969 0 -0.485 0 0 -0.969 0 0 -0.783 0 0 -0.807 0 0 0 -0.886 0 0 0 0.516 -0.718 0 0 0.134 0 -0.807 -0.932 0.014 0 0 0 0.331 0 0.485 0.5 -0.289 0.827 0 0.685 0 0.061 -0.122 0.046 0.4 -0.291 0 0 -0.163 0.039 -0.709 -0.627 0 0.058 0.79 -0.577 0.738 0.202 -0.544 0 0 0 0 0.288 0 0 0 -0.441 -0.279 -0.691 0 0 0.376 0 0.828 0 0 0 0 0.553 0 0.141 0 -0.844 0 0.433 -0.453 0 0 0 0 0 0 0 0 -0.774 0.702 0 -0.113 0.96 0 0 0.073 0 0 0 0 0 0.314 0.465 -0.212 -0.761 0 0 0.285 -0.049 0 0 0 -0.6 -0.417 0.455 -0.33 0 0 0 0.034 0.655 0 0 -0.214 0 -0.885 0 0.477 -0.157 0 -0.692 0 0 0 -0.547 -0.744 -0.673 0.865 0 0 -0.236 -0.832 0 0.045 0 0.326 0.284 -0.96 0 0 0.954 0.396 0.771 0 0 0 -0.706 0 0 0.671 0 0.013 0 -0.913 0 0 -0.628 0.647 0.329 0.899 0 0 0.117 0 0 0.576 0 0 0 0 0 0 0 -0.142 0.685 0.735 0 0.432 0 0 0.126 0.854 -0.068 0 0.297 0 0 0 0.969 0 0 0.796 0.862 -0.906 0 0 0 0 -0.479 -0.329 0.168 0 0 0.871 -0.282 0.792 0 0.74 0 0.145 -0.081 0.776 0.624 0.692 0 0 0.382 0.163 0 0 0.559 0 0 0 -0.92 -0.177 0 -0.519 -0.656 -0.229 -0.986 -0.042 0 -0.532 0 0.613 0 -0.038 0.37 0.568 0.414 0 0 0 0.333 0 -0.273 0 0 -0.968 0 -0.16 0 0.721 0.684 -0.87 -0.046 0.613 0 -0.043 0 0 0.522 -0.959 0.326 0 0.689 0 0 -0.193 0 0.729 -0.679 0 0 0.21 0.561 0 0.103 -0.528 -0.442 0 0 0 -0.767 0 -0.035 -0.642 -0.303 0 0.694 0 0 -0.467 0 0.258 0 0 0.785 0 -0.339 0 0 -0.167 0 -0.857 0 0 0.424 -0.908 -0.322 0 0.463 0 0 0 0.457 0 -0.588 0.104 0.182 -0.248 -0.011 0 0 0 0 0 0 -0.368 0 0 0.894 -0.043 -0.353 0 0.768 -0.08 -0.625 -0.665 0 0 -0.81 0 0 0 0 -0.292 0.573 0.275 0 0 0.966 0 0.429 0 -0.364 0.451 -0.648 0 0.964 0 0 0 -0.706 0 -0.632 -0.294 0 0.075 0 0.565 0 -0.736 0.643 0 0 0 0.28 0 -0.383 -0.143 0.553 0 -0.714 0 0 0 0.039 -0.483 0 0 -0.274 0 0.169 0 -0.314 -0.116 0.481 0.781 0.974 0 -0.901 0 0.006 0 0.293 0.309 0 -1 0.322 -0.672 -0.451 0.853 -0.295 0 0 0.059 0.887 0.572 0 0 -0.051 0 0 0.686 0 0.164 -0.842 0 0.198 -0.338 0 0 0 0 0 0 0 -0.587 0.806 0 0 0 0.931 0 -0.213 0 -0.821 0.141 0.783 -0.757 0 -0.682 0 -0.635 0.739 0 0 0.095 0.666 0 0 0.416 -0.244 0.69 0.923 -0.164 0 -0.472 -0.716 0 0 0 0 0 0 0 -0.2 0 0 -0.617 0 0 0 -0.528 0.313 0.934 -0.563 0 0.624 -0.569 0 0 0 0.482 0 0 0.991 0.739 0.915 0.367 -0.588 0 0 0.407 0 0 0 0.973 -0.315 0 0 0 0 -0.844 0 0 -0.339 -0.318 0.353 0.328 -0.687 -0.934 0 0 0.564 0 0 -0.469 0.762 0.715 0 0 0.609 0 0 -0.431 0.045 0 -0.004 0 0.529 -0.14 0.848 -0.522 -0.489 0.853 0 0 0.022 -0.697 0.539 0.666 0 -0.328 -0.553 0 0.689 0.346 0 0 0.475 0.213 0.164 0 0 -0.497 0.866 0 0.617 0.743 0.075 0 -0.5 0 0.367 0 0 -0.9 0.912 0.906 0 0 0.574 0 -0.638 0 0 0 -0.368 -0.069 0 0 0.302 0 0.668 0.983 0 0 0.011 0 0 0.239 0 0.135 0 0 0 -0.132 -0.469 0 0.561 0 -0.691 0 0.04 0.185 0 0.794 -0.335 0 0 0 0 0 -0.861 0.913 0 0.712 -0.025 -0.02 0 -0.622 0 -0.981 0 0 0.463 0.852 0.286 0.576 -0.607 0 -0.56 -0.725 0.018 0.516 -0.145 -0.813 0.579 0 0 0.289 -0.987 0 0 0.054 0 0 0 1 0.279 -0.389 0.812 0 0 0.196 -0.391 -0.18 0.095 0 0.247 0.71 0 0 0.279 -0.502 0 0 0 -0.907 -0.007 0 0.754 -0.843 0 -0.211 0 -0.018 0 0 0 0 0 -0.521 -0.255 0 0 0.454 0 -0.218 0.66 -0.98 0.698 0 0 0 -0.522 0 0.209 0.158 0 0 0.758 0 0 -0.918 0 -0.15 -0.592 0 0 0 0 0 0 0 -0.055 0 0.347 0 0.292 0 0.575 0 0 0 -0.245 0 0 0 -0.062 0 0.544 0.241 0 0.431 -0.555 -0.075 0 0 0 0 -0.102 0.809 0 0.891 0.03 -0.337 -0.536 0 0.793 0 0.422 -0.716 0.044 -0.649 0 0 0.967 -0.028 -0.018 0 0 0.311 0 0 -0.102 0 0.906 0 0.729 -0.918 -0.828 0 0 0.404 0.484 -0.228 0.211 0 0.062 0 0 0 0 0 0.453 0.207 0 0 0 -0.708 0 -0.417 0 0 0.579 0 0.317 0.827 0 0 -0.588 0.9 0 0 0 0 0.872 0.363 0.187 0 -0.417 0 0 0 0.644 0 0 0 0 0 0 0 0 -0.773 0.793 0 0 -0.021 0 0 0 0.935 -0.356 -0.643 0 0.932 0 0 -0.374 0 -0.023 0.462 0 0 0 0.094 0 0.053 0 -0.354 0.808 0 0 0.065 0 -0.851 -0.983 -0.991 0 0.964 0 -0.901 0 -0.605 0 0.167 0.913 0.823 0 0 0 0 -0.95 -0.759 0.19 -0.677 0 0.458 0 0 0 0 0 0.113 0 0 0 0.29 0.454 0 0.864 0.348 0 0 0.754 0 0 0 0 0 -0.963 0.123 0.361 0.237 0 0.154 0 -0.963 -0.563 0.184 0 0 0 0 -0.026 0 0 0 0 0 0 -0.336 0.038 -0.648 0.697 -0.821 0 0 0 0 -0.896 0 -0.736 0 0.38 0 0.808 -0.213 0 0.525 0.806 0 0 0.588 0 0 0 -0.669 -0.322 0 0 0 -0.335 0.986 0.265 0 0.176 0.208 -0.263 0 0 0 0.44 -0.668 -0.726 0.797 0 0.411 -0.306 -0.011 0.909 0 0 0 -0.94 -0.403 -0.904 0.874 0 -0.583 0.688 -0.421 0.381 0.176 0.759 0 0 0.804 -0.263 0 -0.11 0.003 0 0.826 0 0 0 0 0 0.345 0.011 -0.324 0.361 -0.779 0 0 0 0.024 0.46 -0.688 0 -0.58 0 -0.264 0 0 0 -0.447 0.098 0.565 0 0.686 0 0 0.463 0 0 -0.624 0 0 0 0.321 0 -0.275 0.105 -0.679 -0.029 -0.804 0 0.904 0.723 0 0 0 0 0 0.133 0 0 0 -0.574 0 0 0 0 0 0 0 0.492 -0.303 0 0 0 0.399 0 -0.842 0.132 0 0 -0.244 -0.034 0 -0.267 -0.928 0 0 0 0.167 -0.581 0 0 0 0 0 -0.43 0 0 0.505 0 0 0 0.162 0 -0.533 -0.23 0 0 0 0.807 0 0 0 -0.038 0 0.618 0.035 -0.831 0 -0.873 0.159 0 0 0.672 -0.214 0 -0.511 0.347 -0.589 -0.409 0 0 0.446 -0.456 -0.358 -0.601 -0.737 0 0 -0.813 0.692 -0.268 0 0.298 0.771 0 0 -0.758 0 0 0 -0.804 0 0 0 0 0 -0.099 0.945 0 -0.935 0.668 0 0.813 -0.581 0 0.435 0.672 0 0 0 0 -0.547 0 -0.965 0 0 0 -0.848 0 0 0.169 0 0 0 0 0 0 -0.639 0 0.332 0 0 0 0 0 0.396 -0.067 -0.153 0 -0.967 0.284 0 -0.519 -0.137 -0.983 0 -0.755 -0.014 -0.088 0.972 0 -0.63 0 0 -0.938 0 0.688 -0.024 0.096 0 0 0 0.552 0 0 0 0 0 0 0 0 0.83 -0.609 -0.16 0.243 0 -0.986 -0.053 0 0 0 -0.977 0 -0.757 0 0 0 0 0.774 0 -0.799 -0.304 0.647 0 0 0 -0.733 -0.678 -0.576 -0.185 -0.718 0 0 0.506 0 0.65 0.778 0 -0.605 0 0 0 0 -0.869 0 0 -0.304 0 0 0 0 -0.866 0.699 0 0.031 0 0.102 0 0.316 0 0 -0.763 0 -0.077 0.551 0 0 -0.277 0 0 0 -0.15 0.467 -0.324 -0.106 0 0 0 -0.168 -0.148 0.71 0.024 0 -0.364 0.968 -0.07 0 -0.98 0 0.365 0 -0.26 0 0 0 0 0 0 0.912 0 0.632 0 0 0.76 0.474 0.663 0 0 -0.664 0 0 0.133 0 0 0 -0.107 0 0.119 -0.89 0 0 -0.221 0.955 -0.321 0.609 -0.423 0.14 0 -0.222 0 -0.73 0 -0.89 0 -0.54 -0.717 0.099 0 0.507 0 -0.842 -0.156 0.702 0.741 0 -0.724 0 0 0 0 0.717 -0.427 0.116 0 0 0 0 0.282 0 0 0 0 0 0 0.878 0 0.034 0 0.561 0.906 0.146 -0.68 0 0 0.903 -0.716 0 0 0 -0.218 0 -0.272 0 -0.464 0 0.477 0.819 0 0.091 -0.849 0.175 0 0.71 0 -0.811 0.244 0.952 -0.591 0 0.813 -0.111 0.2 0 -0.842 -0.136 -0.078 -0.118 0.708 0 -0.722 -0.634 0 0 0 -0.431 0 -0.265 -0.608 0 0.623 0 0 0 -0.96 0 0.035 0.544 0 -0.067 0 0 -0.272 0.061 -0.097 0 0 0 0 0 0 0 0 0.437 0 0 0.32 -0.245 0 0 -0.992 -0.397 0.691 0 -0.227 0 0 0.386 0.347 -0.147 -0.415 0.057 0 0.985 -0.145 0 0 0 0 0 0.122 -0.672 0 0 0.306 -0.066 0 0.36 -0.164 0.237 -0.063 -0.622 -0.655 0.299 0.35 -0.971 0.675 0 0.53 0 0.994 0.566 -0.649 0 0.666 0 0.661 -0.315 0.919 -0.423 0 0 -0.168 0.004 -0.631 -0.954 0 0 0 0 0 0 0 0 -0.907 0 0 0.462 0.137 -0.944 -0.527 -0.844 0 0.677 0.969 0 0.647 -0.814 -0.278 -0.791 -0.089 0.342 0.762 0 0 0 0.215 0 0 -0.301 -0.557 0 -0.487 0 0.284 0 0 0 0 0.25 -0.015 0.796 -0.256 0 -0.675 0 0 0 0 0.705 -0.693 -0.721 0 -0.192 0 0.957 0 0 0 -0.232 -0.139 0 0.031 0 -0.556 0 0.676 0 0 -0.127 0 -0.288 0.851 0 0 -0.288 0 0 0 -0.419 0 0 -0.301 -0.568 0.18 -0.809 0 0.061 0 0 0 0 0.936 -0.974 0 -0.328 0 0 0.791 0 0.515 0 0.521 0.627 0.185 -0.577 0 0 -0.519 0.204 0 0 -0.529 -0.655 -0.497 0 0.762 0 0 -0.312 0.567 0.121 -0.902 0 -0.809 0 -0.1 0 0 -0.695 0 0.449 0.631 0 0.846 -0.339 -0.079 0.642 -0.141 0 0 0 -0.284 0 0 -0.683 0 -0.313 0 -0.299 -0.042 -0.937 -0.059 0 -0.113 0 -0.5 0.553 0.077 0 0.439 0 0.011 0 0 0.205 0.365 0.715 0.654 0 -0.213 -0.295 0.77 0.43 0 0.343 0 0 0.423 0.451 0 0 0.021 -0.881 0 0 -0.955 0.25 0.154 0.988 0 0 0 0 0.03 0 -0.191 0.683 0 0 0 0 0 0 0.474 0 0 0 0.898 0 0 0.119 0 0 0 -0.797 0.001 0.281 0 0.241 -0.033 0.916 0.51 0 0 0 0 0 0 -0.073 -0.871 -0.072 0 0 0.608 0 0 -0.825 0 -0.189 -0.054 0.331 0 0 0 0 0 -0.432 -0.649 0 0 0.3 0 -0.181 0.673 0 -0.019 -0.553 0 0 0.821 0 -0.207 -0.717 0 -0.746 0 0.601 -0.295 -0.25 -0.203 0 0 0.355 -0.476 0 -0.576 0.359 0.402 0 0 0 0 0 0 0 -0.109 0 -0.642 0 0.741 0 0 -0.221 0 0.603 0 0 -0.683 0 0.17 -0.202 -0.886 0.482 0 0.299 0 0 0 0 0 0.134 0 -0.157 -0.867 0 0 0 0 0 0 0 -0.179 0.69 0 -0.829 -0.429 0.772 0.212 -0.455 0 0 0.366 0 0 0 0 0.507 -0.342 0 -0.536 -0.878 -0.956 0 0 0 0 0 0 0 -0.028 0 0.707 -0.491 0 0 -0.505 -0.486 0 0 0 0.881 0 0.963 0.855 0.085 0 0.651 0 0.987 0.969 0 -0.638 -0.588 0 0.638 0 -0.165 -0.77 0.106 0 -0.392 0.279 0 0 0 0.319 -0.9 0.982 -0.351 -0.282 0 0 0 0.051 0 0 0.84 0 -0.387 -0.607 -0.425 0.71 0 0.237 0 -0.757 0.116 -0.78 -0.794 -0.762 -0.043 0 0 -0.468 0 0 0 0 0.506 0 0.836 -0.623 0 0.245 -0.651 -0.555 0 0 0.204 -0.175 0 0 -0.822 -0.338 0 -0.883 0 0.321 0 0 0.676 0 0 0.35 0 0.597 -0.997 -0.297 0.981 0.821 0 0 0 0 0.516 -0.757 0.012 0 0 0 0.28 -0.073 0 0 0 0.418 0.591 -0.173 0.084 0 0.219 0.068 0 0 -0.379 -0.336 -0.282 0.072 -0.531 0 0 0.811 0 0 0 0 0 0.263 0.75 0 -0.155 0 0 0.17 0.937 -0.347 -0.613 0 0 0.889 0 0 0 0.878 0 0 -0.104 0 -0.925 0 0.629 0.268 -0.377 0 0 0 0.839 0 0 0 0 0 0 -0.2 0.849 0 -0.521 0.03 -0.528 0 0 0 0 0 0 -0.766 0 -0.85 -0.511 0 0 0.437 0.362 0 0 0 -0.38 -0.943 0.565 -0.291 0 -0.274 0.194 0.082 0 0 0 -0.398 0.14 0 0.369 0 0.889 -0.615 0 0.319 0 -0.453 -0.029 0.582 0.267 -0.675 0 0.93 0 0 0.553 0 -0.908 0 0 0 0 -0.617 0 -0.003 -0.594 0 -0.777 0.936 0 0 0.791 0.464 0.589 0 -0.153 0.517 0 0.678 0 0 -0.109 -0.293 0 0 0 0 0.579 0 0.109 0 -0.964 0 -0.277 0 0 0.8 0.898 0.96 0.366 0 0 0.289 0.261 0.92 -0.119 0 0 -0.286 -0.029 -0.312 0 0 0.667 0.949 0 -0.86 0 0 0 0.456 0 0 0 0 -0.673 -0.664 -0.29 0 -0.164 -0.856 0 0.589 0 0 -0.556 -0.068 0 0 0 -0.85 0.508 0 0.051 0 0 0 0 0 -0.431 0.801 -0.615 -0.192 -0.929 0.15 0 0.442 -0.67 0 0 0 0 0 0.134 0 0 0.749 0.434 0 -0.618 0.339 0 -0.002 0 0 0 0 0.571 -0.521 0.468 0 0.891 0 -0.911 0 0.515 0 0.543 0 0 -0.722 0 0 0.878 0.968 0 0.541 0 0 0 0 0 0 0 -0.253 0 -0.78 0.252 -0.051 0 0.547 0 0 0 0 0 -0.767 -0.572 0 0.492 0 0 -0.826 0.455 -0.849 0.537 -0.95 0 0 -0.681 -0.22 0 -0.294 -0.566 -0.017 0 0.847 -0.152 0.684 -0.501 0 0 0.065 0.579 0.77 0 0 0 0 0.668 0 0 0 0 -0.149 -0.934 0.647 0.282 0.038 0 0.166 0 -0.199 -0.01 0 -1 -0.091 0 -0.131 0 -0.915 0 -0.09 0 0 -0.439 0.511 0.652 0 -0.16 0.569 -0.037 0.661 0.451 0 0 0.254 0 -0.059 0 0 0 -0.51 0.764 0 -0.765 0.696 0.423 0 -0.277 0 -0.331 0 0.481 0 0 -0.908 0.346 0 0.459 0 -0.541 0 0 -0.216 -0.34 0 0 -0.927 -0.327 0 0 0.479 -0.364 0.657 0.577 0.644 0.305 0 0 0 -0.735 0 -0.211 0 0 0.452 0.365 0 0 0 0 -0.564 0 0 0 0 0 0.699 0.99 0 0.451 -0.54 0.464 0.01 0.855 0 0 0 -0.095 0 -0.653 0 0 -0.63 0 0 0 -0.484 0.929 -0.965 0 -0.841 0 -0.642 0 0 0.921 -0.811 0 0 0 0.015 0 -0.643 0 0 0 -0.062 0 0 0 -0.296 -0.066 -0.095 0 -0.449 0.254 0.971 0 0 0.332 -0.738 -0.694 0 0.57 -0.505 0 0 0 0 -0.608 0 0 -0.61 0 0 0 0 -0.419 -0.299 -0.965 0 0.386 0 -0.861 0.87 0 0.522 -0.797 0.855 -0.261 0 0 0 0.791 0.032 0.336 0 0.989 0 0.303 -0.992 0.912 -0.834 0.826 0 0.982 -0.903 0.233 0 -0.013 0.986 0 -0.663 -0.405 0 0.505 -0.02 -0.104 0 0 0 0 0 0 0 0.737 0 0 0 0 0 0.369 0 0.968 0 0 -0.648 -0.426 -0.652 -0.641 0 0.677 0.589 -0.859 0 -0.326 0.953 0 0 -0.693 0 0 0 0.208 0 -0.644 0 0.488 -0.586 -0.335 0 0.342 0 -0.664 0 0 0 -0.719 -0.787 0 -0.383 0.305 0 0 0 0 0.296 0 0 0 0 0 0.457 0 0 -0.917 0 0.828 -0.327 -0.035 -0.297 0.505 0 0.071 0.509 -0.322 0.173 0 0 0 -0.948 0 -0.351 -0.419 -0.717 0 -0.151 0 -0.305 0 0 0 0 0 0 0 0.875 0 -0.747 0 0.461 0.169 0.813 -0.994 0 0 -0.973 0 0 0.121 0 0 0 -0.512 -0.421 -0.753 -0.33 0.161 0 0 0.756 0 -0.172 -0.893 0 0 0 -0.846 0 0 0 0 -0.992 0 0.506 0 0 0.833 0 0 0 0 0 -0.168 0 0 -0.919 -0.606 0.4 -0.982 -0.941 0.073 -0.193 -0.37 0 -0.181 0 0.068 0 -0.447 -0.777 0 0.401 0 0 0 0.65 0.384 0 0 0.808 0.086 0 -0.612 0 0 -0.742 0.922 0 0 0.733 0 0 -0.638 0 0 0.332 -0.68 0.426 0.316 0 -0.958 -0.641 0 0.943 0 0.044 -0.566 0 0.388 0 0.543 0.885 0 0 -0.914 -0.669 0 0 0 0 0.348 0 -0.223 0.695 0.971 0.889 0 0 0 0 0 0 0 0 0 0.667 -0.699 0 0 0.673 0 0 -0.645 0 0 -0.478 0.469 0.581 0 0 0.57 0 -0.59 -0.407 0 0.251 0 0 0.255 -0.815 0.822 0.894 0.892 -0.446 -0.224 0.411 0 -0.904 0 -0.199 -0.206 0 0 0 0 0.612 0.177 0.907 0 0 0.856 0 0 -0.672 -0.682 0 -0.612 -0.203 -0.623 -0.894 0 -0.999 0 -0.203 -0.169 0.822 -0.241 0 -0.42 -0.525 0 0.82 0 0 0.306 0 -0.902 0 0 0 0 0 0.407 -0.156 0 0 0 0 0 0.578 0 0 0 0 0 0 0 -0.325 0 0.89 0.23 0.935 -0.777 0 0 0 0 0 0 0 0 -0.204 0.854 0 0 0 0 -0.333 0 0.976 0.703 0.209 -0.912 0.732 0 0.57 0.012 0 0.518 -0.556 0 0 -0.301 0.948 0.536 -0.983 0.241 0 0 0.682 0 0 -0.467 0 0.849 0.994 0.716 0.225 -0.052 -0.135 0 0.981 0 -0.725 0 -0.36 0 0 0.165 0 0 -0.829 0 0.37 -0.83 0.365 0 -0.479 -0.08 0 0.725 0 -0.893 0 -0.844 0 -0.539 0 0.267 0 -0.065 0 0 0.895 0.942 -0.724 0 0 0 0 0 -0.352 0.761 0.445 -0.743 0.828 0 -0.031 0 -0.785 0 0 0 0.709 -0.498 0 -0.989 0 0.305 0.589 0 0.354 0 0 0.847 0 -0.656 0.831 0.341 -0.579 0.991 0.34 0 0 0 -0.568 -0.85 0.769 0 0 0.977 0 0.278 -0.921 0 0 -0.335 0.589 0 0.508 0.29 0 0.197 0 0.44 -0.665 0 0.725 -0.012 0 0 0 -0.336 -0.667 0 -0.896 0 0 0 -0.824 -0.008 0 0 0 0 0 0.444 -0.113 0.604 0.996 0 0 0.33 -0.949 -0.443 0 0 0 -0.754 0 -0.547 0.098 0 0 0 0.733 0 0.086 0 0 0.512 0 -0.167 0 -0.745 0 0 0 0 0.283 0.827 0 -0.963 0.562 -0.953 0 -0.285 0.883 0 -0.037 0.566 0.343 0.309 0 -0.518 -0.706 -0.075 0 0 0 0 0 0 -0.38 0.904 -0.82 0 0.503 -0.467 0.84 0 0 0.488 0 0 0.147 0.17 0.804 0.203 0 0.058 0 0 0 -0.115 0 0 0 0 0.475 0 0 -0.88 0 0 0 0.362 -0.75 0 0 0 0 -0.109 -0.407 0.08 0 0.725 0 0 -0.653 -0.194 0 0 0.913 0.048 -0.839 0 0 0.587 -0.827 0 0 0.011 0.629 0 0.517 -0.317 0 0 0.656 0.596 -0.148 0 -0.332 0 0 0 -0.48 0 -0.091 0.809 0 0 -0.32 0 -0.968 0 -0.385 -0.491 0.399 -0.928 0 0 -0.338 0.044 0 0.297 0.193 0 0 -0.865 0 0 0 -0.46 0.989 0.438 0 0.699 0 0 0.742 0 0 0 0.811 0 0 0.762 0 0 0 -0.916 0 0.54 0 -0.286 0 0.4 0.344 0.99 -0.073 -0.701 0 0 -0.668 -0.127 0 0 0 0 0 0 0 0 0 0 0.144 0 -0.802 0 -0.486 0 0.777 -0.79 -0.565 0.985 0 0 -0.985 0 -0.528 0.093 0 0 0 0 0 0 -0.541 -0.342 0.899 -0.365 0 0.99 0 0 0.555 0.912 0.39 0.557 0.256 -0.773 0.238 0.883 0.863 0 -0.571 0.764 0 -0.319 0.187 0.432 0 0 0 0 0.276 -0.964 0 0.34 -0.319 0 0.964 0 0 0 0 -0.746 0 0 0 -0.451 0 -0.46 0.473 0 -0.624 0.939 0.916 0 0 0 0 0.897 -0.621 -0.148 0 0 0 -0.745 0 0 -0.355 0.609 0.085 0 0.12 0.386 -0.841 0 0.059 0 0 0 0 0 0 0.652 0 0.77 -0.746 0.621 0 -0.427 -0.742 0 0 0.64 -0.277 0.343 0.457 0 0 0.797 0.027 0 0.882 0 -0.52 -0.926 0.167 0.465 -0.216 0 0 0.002 -0.47 -0.647 0 0 0 -0.907 -0.058 0 0 0 0 0 -0.484 0.89 0.065 -0.67 0 0.446 -0.802 0 -0.314 0.296 0 0.388 0 0 -0.837 -0.49 0 0 0 0.725 0.06 0 0 0 -0.745 0 -0.491 -0.303 -0.919 0 0 0 0 -0.226 0 -0.837 0.151 0 -0.808 -0.551 0 0 0 0 0.079 -0.372 0.559 0 0 0.872 -0.225 -0.368 -0.526 0 0.899 -0.922 0 0 0.963 0.586 -0.162 0 -0.034 0 0 0.521 0 -0.296 0 -0.172 -0.779 0.205 0 -0.05 -0.292 -0.126 0.254 0 0 -0.857 0.135 -0.559 0.578 -0.886 -0.973 -0.969 0.417 -0.48 0 0.516 -0.012 0 0.469 0 0.763 0 0 -0.085 0 0 0 0 0 -0.417 0.463 -0.946 0.652 0.507 0.27 0.213 -0.092 0 -0.121 0.525 -0.113 0 0.182 0 0.144 0.736 -0.615 -0.385 -0.325 0.986 0.24 0 -0.492 0 0 0.47 0 -0.086 0 0.31 0.566 0 0 -0.582 0 0 0 0.806 0 0.487 0 0 0.87 -0.164 -0.051 0 0.123 0.645 0 0 0 0 0.295 -0.206 0 -0.822 0 0 -0.125 0 0 -0.319 -0.539 -0.152 -0.488 -0.027 0 0 0 -0.316 -0.416 -0.322 -0.268 0.342 0 0 0.696 -0.154 -0.482 0 0 0 0 0 0.153 0 -0.654 0 0 0 0.888 0.975 0.345 0 0 0 -0.785 -0.511 0.812 -0.693 -0.533 0 0 0 0 0 0 0.077 -0.841 0 0 0 0 0 0.267 -0.042 0 0 0 0 0 0 0 0.845 0.219 -0.802 -0.238 0 -0.462 0 0 0 0.18 0.787 0 -0.418 0 -0.59 0 -0.482 -0.101 0 0 -0.135 0 0.134 0 0 0.367 -0.01 0 0.669 0 0 -0.395 -0.22 -0.159 0.518 0 0 0 -0.375 0 -0.471 0 0 0 0.153 0 0 0 -0.692 0.088 -0.629 0 -0.551 0 -0.062 0 -0.349 0 0.18 0 0 0 -0.611 0 -0.511 0 0.547 0 0 0.994 0.825 0 -0.825 0.057 0 0 0 0 0.657 0 0 0 0 -0.124 0 0 0 -0.717 -0.861 0.699 0 0 0.977 -0.219 0 0 0 0 0.75 0 0 0 -0.393 -0.381 0 0 0.055 0 0.557 0 0.998 0 0.158 0 0 0.856 0.877 0 0.298 0.433 0 0.4 0 0 0 0 0.961 0 -0.995 0 0.07 -0.378 -0.659 0 0 0 -0.316 0 0 -0.26 0 0.002 0.799 0 0.963 0 0 -0.978 0.892 0.599 -0.593 -0.552 -0.23 0.244 0 -0.779 0 -0.747 0 -0.22 -0.988 0 -0.414 0 0.543 0 -0.92 0.226 0 -0.922 0.258 -0.911 0 0.499 0.67 0 0 -0.402 0 0.168 0 0 0 0 0 0.688 -0.033 0 0 0.029 0 0.474 0 -0.909 0 -0.485 0 0 0 0 -0.699 0 0 0 0 0.496 0.584 0 -0.2 0 0.633 -0.531 0.284 0.223 0 0 0 0 -0.097 -0.368 0 -0.38 -0.398 0.205 0 0.166 0.899 -0.726 0 0.627 0 0.568 0 0 -0.674 -0.032 -0.688 -0.106 0.141 -0.191 0 -0.955 0.908 -0.971 0.421 0.196 0 0.058 0 0 -0.487 0 0 -0.249 0 -0.783 0.95 0 0 0 0 0 -0.427 0.73 0 0 -0.299 0.85 0.26 0 0 0 0.462 0 -0.284 0 0.74 0.423 0 0.69 0 0.183 -0.697 0 0.288 0.869 -0.693 0.903 -0.927 0.846 0.789 -0.334 0 -0.995 -0.654 0 0 0.287 0.33 0.945 0 -0.247 0.536 0 0 -0.212 -0.327 0.191 0 0 -0.241 0.831 0 0.172 0.893 0 0.382 0 -0.141 0.18 -0.942 0.199 0.747 0.471 0.897 -0.065 -0.029 0 -0.31 0 0 0 0 0 0.825 0 0 0 0.456 0 -0.572 -0.813 0 0 0.857 0.149 0.323 0 -0.683 0.132 0.127 0.768 0.213 0.074 0 0 0.027 0.207 0 0 0 0.284 0 0 0 0.219 0 -0.015 0.018 0 -0.89 -0.6 -0.413 -0.64 0.971 -0.997 0 0 0 0.386 0 0 -0.834 0 0 0 0.665 0.258 0 0 0 -0.118 0.068 0.246 -0.234 0 0 0.709 0.047 -0.312 0 0 -0.859 -0.741 0.317 -0.135 0 0 -0.923 0.012 -0.162 0.526 0.967 -0.659 0.451 0.334 0 0 0 -0.05 0 0 -0.926 0.108 0 0.664 0 0 0 0 0 -0.757 -0.157 0 0 -0.917 0 0 0.739 0.403 -0.452 0.938 0.295 0 0 0 0 0 0 0 0 0 0 0 0.621 0 0 0 -0.859 0 0.405 0.178 -0.682 0.802 -0.263 0 0 0 0 -0.534 0.342 0.336 0 0.78 0 0 -0.448 0 0 0 0 0 0.26 -0.362 0 0 0 0.208 0 0 0.836 0.513 0 -0.102 0 0.975 -0.403 0 0 0.959 0 -0.057 0 -0.604 0 0.59 0 0 0.099 0 0.889 0 0 0 -0.485 0 -0.84 -0.915 -0.136 0.898 0.982 -0.416 0.273 -0.152 0 0.039 0 0 -0.383 -0.734 0.818 0 -0.569 0 0 -0.68 -0.812 0 -0.569 0.077 0.656 0 0.866 0.495 0.818 0 0 0.272 0 0.66 0 0.632 0 -0.67 0.239 0 0 0 -0.631 0 0.153 -0.706 0 0 -0.275 0.915 0 0 0 -0.797 -0.256 0 0 0 0.059 0 -0.737 0.655 -0.239 0 0 0 -0.712 -0.745 0.994 0 -0.073 0.276 -0.002 -0.025 0 0.844 0.521 0.408 0 0 0 0 -0.738 0.715 -0.746 0.017 0 -0.854 0 0 0 0 0 0.787 0.896 0.258 0.023 0.375 0 0 0.357 -0.565 -0.529 0 0 -0.927 -0.552 0 -0.482 0.896 0 -0.487 0.683 0 0 0 0 0.023 0 -0.329 -0.96 0 0 0 0 -0.055 0.377 0 0.463 0 0 -0.71 0.04 0 0 0 0 0.836 0.705 0.687 0.165 0.792 -0.292 -0.781 0 0.012 0 0 -0.612 0 0 0 0 0 0.855 0.789 0 -0.326 0 0.824 0 0.468 0 -0.469 0 0 0 0 -0.194 -0.678 -0.893 0 0 0 0 0.868 -0.95 0 -0.018 0 0 0 0.353 0 -0.129 0 0 0 0 -0.972 0 0 -0.731 -0.443 0 0 -0.954 -0.1 0.964 -0.045 -0.754 0 0 0 -0.721 0 0 0 -0.636 0 0 0.252 0.251 0.628 0.121 0 0 -0.47 0 0.257 0.576 -0.913 0.851 0.538 0 0.596 0 0.253 0 0 -0.637 -0.584 0.441 0 0 0 0 0 0 0 0 0.94 0 0 0.999 -0.297 0 0 -0.103 -0.101 -0.383 0.398 -0.711 0 0.142 -0.727 0 -0.852 0 0.687 0 -0.215 0 0.114 0 0.21 -0.618 0 0 0 0 0.05 0 0 -0.132 0.609 -0.109 0.665 -0.966 0.877 0 0 0 -0.61 0.485 0.797 0 -0.858 -0.52 -0.711 -0.093 0.324 -0.13 0 0.268 -0.53 0.152 0 0 0.707 0 0 0.328 0.267 -0.659 -0.542 0.445 0.185 0 0 -0.448 0 0.783 0 0 0 0.262 -0.907 0.898 0.334 0.719 -0.502 0 -0.525 0 0 0.559 -0.31 0.88 0.256 -0.88 -0.338 0 0.407 0 0.851 0 -0.217 0.312 0 0.436 0 -0.356 0.506 -0.818 0.481 0.878 0 -0.4 0 0 -0.217 0 -0.635 0.674 0 0 0 0 0 0 0 0 0 0 0 0 -0.029 0 0 -0.659 -0.989 -0.771 0.695 -0.257 0 -0.852 -0.483 0 0 -0.467 0 0.105 0 -0.951 0 0 0 0 -0.1 0 -0.029 0 0 -0.2 0 0 -0.925 0.031 0 0.15 0.716 0 0 0 0 0 0 0 0 0.883 0.384 0 0 0 0.312 0 -0.43 0.857 0 0 -0.429 0 0 -0.836 0 0 0 0.829 0.756 0 0 0.367 -0.485 0 -0.464 0 0 0 0 0 -0.348 0 0 0 0.497 0 0 -0.123 -0.705 -0.004 0.232 0.419 0.805 0 0 -0.063 0 0 0.83 0 0.564 0 0.65 0.135 0 0 -0.089 0 0 -0.264 0 0 0.251 0 -0.601 0.706 0 -0.065 0 -0.049 0 0 0 0 0 0.051 0.243 0 -0.897 -0.898 -0.775 -0.92 -0.263 -0.377 0 0 0 0 0 0.766 0 -0.533 0 0 -0.438 0.068 0.633 0.821 0 0 -0.543 0 0 0.136 0.456 -0.711 0 0 0 -0.855 0.395 -0.903 -0.16 0 0 0 0 0 0 0 0 0 0 -0.931 0 0 0 0 -0.002 0 0 0.94 0 0 0.272 0.601 -0.979 -0.066 0 -0.691 0 0 0.141 0.494 0 -0.441 -0.268 0 0 0 0.184 0 -0.979 0 0 0 0.124 0.195 0 -0.348 0 0 0 0 0 0 -0.273 0 0 0.913 0 -0.355 -0.245 -0.969 -0.122 0 0 -0.115 0 -0.255 -0.016 0 0 0 0.008 0 0 -0.767 0.735 -0.032 0.819 0 0 0 0 0.736 0.475 0.256 0 -0.468 0 0.678 0.293 0.68 -0.458 0 0 0 0 0 0.661 0 0 0 -0.16 0.567 0 0 0.111 -0.415 0 0.779 0 0 0 -0.437 0 -0.082 -0.688 0 0 0 0 -0.458 0 0 0 0.189 0 0 0.602 0 0 0 0.67 0 0.763 0.189 0.716 0 0 0 0.111 -0.642 0 0.627 0 0 -0.487 0 0 0.018 -0.908 0 0.547 0 -0.02 0 0 0 -0.886 0 0 -0.04 0 -0.671 -0.108 -0.96 0.156 0.541 0 0.244 -0.812 -0.216 0.954 0 0 0.448 0 0 0 0 0.128 -0.093 0 -0.387 -0.363 0 -0.877 0 0.734 0 -0.947 0 -0.822 0 0 0 -0.338 0 0 -0.051 0 0.004 0 0 0.706 0 0 0 0 0 0 0.289 0 0.673 0.676 0.44 0 0 0.265 0 0 -0.74 0 -0.615 0 0.282 -0.074 -0.421 -0.811 0 0.337 0 -0.505 0 -0.368 0 0 0.954 0 0.034 0.574 -0.475 0 0.8 0 0 0.583 0 0.483 -0.595 0 0 -0.814 0 0.129 0 0 0 0.996 0 0.277 -0.337 0 -0.757 0 0 0.062 0.412 -0.923 0 0 0 -1 0 0 0 -0.779 -0.097 0 0.011 0.784 0 -0.748 0.635 0 0 0 0.383 -0.185 0 0.713 0.235 -0.163 0 -0.463 0 -0.771 0 0.971 0 0 0.186 0 0.62 0.375 0.75 0 0 0 -0.106 0 -0.749 -0.743 0 0 0 0.439 0.699 0.011 0 -0.738 -0.629 0 0 0.243 0 -0.598 0 -0.88 0 -0.116 0 0 0 -0.508 0.575 0 -0.003 -0.094 0 0 0 0 0.902 -0.783 0 0 -0.639 0 0 0 0 0 0.519 0 0 0 0.441 0 0 -0.021 -0.876 0 0 0 0.987 0.389 -0.933 -0.946 0 0 0 0 0.22 0 0.38 0 -0.52 0.766 0 0 0.046 0.298 0.017 0 0.051 0 0 0 -0.791 0 0.697 0 0.736 0.815 0.526 0 0.86 0 0 -0.093 -0.099 0.491 0.297 0 -0.162 -0.72 0.566 0 0 0 -0.643 -0.27 0 -0.689 -0.863 -0.963 -0.536 0 -0.521 0 0.002 0.804 0.913 0.088 0 0 0.385 0 0 0 0.119 0 0 0.087 0.007 0.109 -0.341 0.594 -0.221 -0.851 0 -0.758 -0.629 0 0 -0.031 0.888 0 0 0 0 0 0.083 0 -0.548 0 0.431 0 0.239 -0.302 0.781 -0.816 0.709 0 0 0.574 0 0.452 0 0.933 -0.582 0.88 0 0 -0.872 0 0 0 -0.465 0 -0.752 0.218 0 0.676 0.703 0 0 -0.962 0.141 -0.055 0 0 0.917 0 0 0 0 0 -0.477 0 0 -0.842 -0.046 0 -0.363 0 0.92 0 0 0 0 0 0 0 0 0.249 0.812 0.766 -0.328 0 0 0 0 0.526 0.852 0.13 0 0.563 0.78 -0.466 -0.297 0 0 0 0 -0.943 0 -0.415 0.132 0 0 0.781 -0.398 0 0 0 0 0.017 -0.508 0.263 -0.634 0 0.171 0 0 0 0 0 0 0 0 0 0.434 0 0.946 0 -0.101 0 0 0 0.044 0.053 0 -0.635 0 -0.309 -0.816 0.434 0 0.274 0 0 -0.954 0 0 0 0 0 0 -0.067 0.211 0.398 0 -0.832 -0.223 0.381 0 0 0 -0.853 0 0 0 0.29 0 0 0.678 0 0 -0.479 0 0.736 0 0 0.72 0 0 0 0.868 -0.672 -0.553 -0.238 0 0 0 0 0.276 0 0 -0.525 -0.758 0 0.646 0 -0.298 0.492 0 0 -0.493 0 0 -0.297 0 -0.58 0 0 0 0 0 0.518 -0.15 0.288 0.418 -0.743 0 0 0 0 0.265 0 0.818 -0.196 0 -0.465 -0.19 0 0 0 0 0 0 0 0 0 0.482 0 0 -0.088 0.697 0 0.536 0 0 0.034 -0.21 0 0.153 0 -0.433 0 -0.158 0 0 -0.027 0 0 0 0.737 0 -0.857 0.01 0 -0.09 0.876 0.558 -0.062 0.102 0 0.701 0 0 -0.442 -0.216 0 0 -0.165 0.699 -0.198 0.092 0 0.079 0.903 -0.476 0.164 -0.292 0.948 0 0 0 0 0.269 0 0 0 -0.287 -0.115 0 0 0 -0.628 0 0 0 -0.417 0 0 -0.082 0 0 -0.814 -0.89 0.533 0 -0.324 0 -0.858 -0.951 0 -0.101 0.329 0.104 0 0 0.428 0 0.156 -0.585 -0.369 -0.894 -0.933 0.267 -0.21 0.945 0 -0.755 0 0 0 -0.1 0 0.616 0 0.083 -0.417 0.865 0.788 0 0 0.224 0 0.604 0 -0.204 0.585 -0.532 -0.845 0 -0.749 0.738 -0.609 -0.079 0 -0.021 0 -0.041 0 -0.267 -0.62 0 0 -0.046 -0.756 0 -0.682 0.053 0 -0.277 0.924 -0.047 0 0 0 0.624 0 -0.828 -0.01 0 0 0.855 0 0.892 0 0.082 -0.696 -0.724 0 0.693 -0.078 0.932 0 0 0 0 0 -0.098 0 0 0 -0.037 0 0 0 0 -0.058 0 0 -0.875 -0.9 0 -0.905 0.238 0 0.722 0 0 0 0 0.77 -0.978 0.166 0.467 -0.761 0.717 0.863 -0.64 0 0.031 0.582 0.328 0.436 -0.731 -0.547 0 0 0 0 0 0 0 0.08 0.274 0.766 0.46 0 0 0 0 0 0.334 0.451 0 0 -0.128 0 0 0.335 0 0 0 0 -0.795 0 0 0 0 0 0.546 0.718 0 0 0 0 0 0 0 0 0.121 0 -0.266 0 0 -0.997 -0.793 0 0 0.776 0.626 0 0 0 0.516 -0.582 0 0 0 0.667 -0.597 -0.105 0 0 0.956 -0.417 0 -0.068 0.048 0.154 0.652 0 0 0 0.84 0 -0.967 0 0 -0.859 -0.698 0 -0.896 0 0.529 -0.402 0.867 0.823 -0.579 0.112 -0.704 0.321 -0.759 -0.384 0 0 -0.912 0 0 0 0 0 0 0 0 0.875 0 0 0 -0.532 0 0.907 0 0.654 0 0 0 0 0 -0.762 0 0 -0.356 0 0.221 0 0 -0.855 0 0 -0.721 0 -0.08 0.427 0 0 0 0 0 -0.916 0 0 0.731 0.361 0 0 0.101 -0.034 0.451 0 0 0 0 0 -0.178 0.419 0 0 0 0 0 -0.616 0 -0.278 0 -0.729 0 0.623 -0.943 -0.266 0.604 0 0 -0.633 0 0 0 0 0 0 0 -0.429 0 -0.267 0.389 0 0 0 -0.071 0 0 -0.01 -0.457 0 0 -0.622 0 0.529 0 0 0.434 0.32 0 0 -0.865 -0.339 0 -0.175 0.701 -0.24 0.988 0.651 -0.61 0 0 0.067 0.626 0 0 0 -0.675 0 0.045 0 0.723 -0.305 0 -0.667 0 -0.969 -0.034 0 0 0.092 0.723 -0.004 0.02 0.266 0.318 0 0.203 -0.738 0.935 -0.985 0.388 0.263 0.76 0 0 0 -0.531 -0.382 -0.385 0 0 0.277 0 -0.401 0.221 -0.32 0 0 0 0.698 -0.25 -0.282 0.047 0.799 0.628 0 0 0 0 0.24 -0.843 0 0 0 0 0 -0.059 -0.971 0.476 0 -0.908 -0.743 0.245 0.767 -0.233 0.049 0 0 0 0.156 0 0 0 0 -0.476 0.938 0.438 0 0 -0.989 0 0 -0.082 0 0.457 0 -0.851 0.462 -0.136 0 0.238 0 0 0 0 -0.466 0 -0.5 0 0.065 -0.96 0 0 0 0 0.476 0 0.154 0 -0.965 0 0.904 0 0 0 0.719 0 -0.248 0 -0.462 -0.748 0 0.934 0 -0.304 0 -0.901 0 0.352 -0.351 -0.271 0 -0.123 -0.822 0.142 -0.82 0.034 0 0.41 0.32 -0.14 0 0.197 0 0.262 0.673 0 0 0 -0.866 -0.518 0 0 0.169 0.988 0.295 0 0 -0.056 0 0.578 0.296 -0.473 -0.368 0 0 0.477 0 -0.053 -0.744 0 0 0 0 0 0 -0.028 -0.969 0 0 0.245 0 -0.631 0 -0.593 0.244 0 0 0 0.998 0 -0.071 0.108 -0.456 -0.335 -0.831 -0.938 0 -0.732 0.028 0.288 0.505 0 -0.879 0.155 -0.38 0.743 -0.878 0 -0.74 0.743 0 -0.7 0.135 0 0 0 0 -0.169 0.623 0 0.016 0.854 -0.825 0 0.258 -0.114 0 0.316 0 -0.351 0 -0.959 0 0 0 -0.091 -0.474 0 0 0 0 -0.606 0.794 0.385 0.902 0.341 -0.09 0 -0.502 -0.475 -0.218 0 -0.531 0 0 -0.343 0.818 0.861 -0.4 0 -0.215 0.904 0.766 0.451 0.139 0.9 0 -0.83 -0.021 0 -0.518 0 0 0 -0.032 0 -0.863 -0.611 0.706 0.667 0.08 0 0.474 0 0.098 0 0.277 0.537 0 0 0.164 0 0 0.772 -0.942 0 0 0 0 0.362 -0.003 0 0.151 0 -0.911 0 -0.56 -0.327 0.735 0.606 0 0 0 0.577 0 -0.371 0 0.849 0 0 0.071 0.449 -0.234 0 0.386 0.146 0 0 0 0 -0.337 0 0.952 0.956 0 -0.108 0.639 -0.75 0.816 -0.848 0.096 -0.446 0 0 0 0 0 0 0 0 0.504 0 0 0 -0.762 0 0 -0.786 -0.222 -0.455 0.122 -0.74 0 0 0 0 0 0 0 0 0 0 0 -0.489 0.603 -0.068 0 0.356 -0.605 -0.709 0 0.378 0.713 0.256 0.326 0 0 0 0 0 -0.962 0.821 0 0 -0.001 0 -0.91 0.566 0 0 0 -0.499 -0.48 0.381 0.542 0 0.089 0 0 0 0.613 -0.583 0 0.807 0 0 0.373 0.464 0 0 0 0 0 0 0 -0.312 0 0 0 0 0.498 0.773 0 0 0 -0.276 -0.749 0 0 0 0 0 -0.735 0 -0.561 0 -0.016 0 0 -0.374 0 0 -0.75 0 -0.474 -0.27 0 -0.619 -0.567 -0.841 0 0 -0.45 0 0.459 -0.415 0 -0.399 0 0.382 -0.973 0 0 -0.408 0.606 0 0.064 0 0.497 0 -0.882 0 0 0 -0.794 -0.45 0 0.524 0 0 0.712 -0.846 0.552 0.394 0 0 0.005 0 0 0.109 0 -0.805 0 -0.291 0.615 0 0.368 0 -0.383 0 -0.019 0.17 0.675 -0.465 0 0 -0.951 -0.39 0 0 0.695 -0.596 0 -0.135 0.352 0.699 -0.424 -0.774 0 0.898 0 0 0 -0.806 0.254 0 0 0.147 0 0 0 -0.147 0 0 0.523 0 0 0 0 0.602 0 -0.004 0 0 -0.397 -0.245 0 0 0 0 0 0 -0.294 0 0 0.223 0 0 -0.117 -0.003 -0.968 0 0.77 0.303 0 0 -0.71 0 0 0 0.489 0 0 0 0 -0.604 0.522 0 -0.16 0 0 0 0 -0.46 0.8 0.551 0.221 0.036 0.18 0.465 -0.861 0 -0.365 0 0 -0.256 0 -0.204 -0.265 0 0.811 -0.499 0 0 0.609 0 0 0 0 0 0.298 -0.843 0 -0.686 -0.352 0 0.754 0.435 0.091 0.648 -0.943 0 0.465 0 -0.724 -0.846 0 0 0.298 0.73 -0.438 0 0 0 -0.853 0 -0.91 0.587 0 0 -0.333 0 -0.332 0 0.412 0.962 0 0 0 0 0 0 -0.428 0 0.653 0 -0.459 0 -0.581 0 0.257 0 -0.693 0 -0.958 0 0 0.789 0.219 0.416 0 0 0 0.907 0 0 0 0 0 0 0 -0.707 -0.799 0.147 0 0.882 0 0 0 -0.193 0.406 0.871 0.63 0 0.229 0 0.884 0.541 0.05 0.356 0.197 -0.375 0 0 0 0.316 0 -0.642 0.762 0.972 -0.982 0 0 0 0 0 -0.098 0 0 0 -0.734 0 -0.988 0 0.878 0 0.008 0 -0.005 0 0.947 -0.606 0.244 0.065 -0.269 -0.377 -0.863 -0.213 0.105 0 0 0.421 -0.227 0 0 -0.879 -0.171 0.657 0.687 -0.653 0 0.785 0 0 0 -0.845 0 0 -0.468 0 -0.742 0 -0.206 -0.639 0 0.21 0.733 0.789 -0.941 0 0 0.832 0.614 0 -0.77 -0.774 0.403 0 0.77 0 0 0.082 0.391 -0.617 0.656 0 0 0.193 0 -0.721 -0.796 0 -0.698 0 0 -0.424 -0.583 0 -0.133 0 0 0.285 0.987 0 0 0 0 -0.252 0 0 -0.382 -0.399 0 0.543 0.651 0.079 0.889 0 0 0.332 0 0 0 0 0 0 0 0 0 0 -0.819 0.724 0.891 0 0 0 0 0 0 -0.399 0 0.492 0 -0.069 0.511 -0.561 -0.49 -0.781 0 -0.651 0 0.948 0 0 0 0 -0.315 0 -0.498 0 -0.609 0 -0.894 0 0 0 0 -0.661 0 0 0.758 -0.033 -0.973 -0.948 0.354 0 0.464 0.792 0.436 0 0 0.039 0 -0.503 0.988 0.092 0 0 0 -0.935 0 0 0 0 0.97 0 0 -0.732 0 0 0 0.976 -0.039 -0.15 0 0 -0.679 0.673 -0.117 -0.652 0 0.581 -0.272 0 0 -0.529 0 -0.479 0 0 0 0 0.285 0.122 0 -0.041 -0.644 0 0 0.379 0 -0.746 0 0 0 0 0 0 -0.933 -0.743 0 0 -0.858 0 0.54 0 0.93 0 0 0.195 -0.989 0.558 0 -0.121 0 0.622 0.452 0.769 0 0.66 0 0.579 -0.155 -0.005 0 0.683 0.255 -0.691 0.508 -0.993 0 0 0.207 -0.068 0 0 0.526 0 0 0 0 0.022 0 -0.568 -0.175 0 -0.96 0.825 0.234 0.667 0 0.659 0 -0.244 0 0 0.466 0.618 0.14 -0.943 0.811 -0.828 -0.261 0 0.825 0.528 0 0 -0.248 0 0.856 0 0 0 0.11 -0.413 -0.241 0 0 0.003 0 0 -0.659 0.446 0 0 0 0 0.204 0.076 0.55 0.325 0 0 0.897 0 0 0 -0.851 0 -0.386 -0.475 0 -0.55 -0.623 0.457 0.273 0.886 -0.142 -0.631 0.407 -0.018 0 0.992 0 -0.774 0.058 0 0 -0.772 -0.358 0 -0.221 0.935 0 0 0 -0.277 -0.062 -0.614 -0.695 0 0 0 -0.488 0.51 0 -0.218 -0.792 -0.437 0.988 -0.777 0 0 0.79 0 0 -0.431 -0.37 0.358 0 -0.902 0 0.957 0 0 0 -0.404 -0.965 0.775 0 -0.816 0 0 0 -0.14 0 0 0 0.897 0.175 0 0.246 0 0 0 0.012 0 0 0 -0.351 0 -0.172 0.131 0 -0.785 0 0 0 0 -0.628 1 0 0.168 0 0 0.584 0.458 -0.51 0.041 0 0 0.796 0 0 0 0 0 0 -0.998 0 0.843 0.467 -0.008 0 -0.157 0 0 0.765 0 0.359 0.201 0.568 0 0 -0.076 -0.647 0 0 0.091 0.566 0 0.6 0 -0.309 0 -0.073 0 0.159 0 -0.95 0 -0.7 0 0 -0.815 0 0 -0.8 0 0.785 0 0 0.995 0 -0.218 0.039 0.04 0 0.13 0.776 -0.216 0 0.697 -0.084 -0.562 0 0 -0.963 0.88 0 0 0 0 -0.453 0.929 0 0 0 0.837 0 -0.471 -0.667 0 0.845 0 0.554 0 0.909 0 0.9 0 0 0 -0.409 0 0 0 -0.583 0 0 0 -0.372 0 0.795 0 0 -0.187 -0.987 -0.26 -0.773 0 -0.583 0.749 0.509 -0.37 0 0 0 0 0 0.108 0 0.666 0 -0.737 0.689 0 0 0.916 -0.162 0.824 -0.342 0.445 -0.956 0.704 0.956 0 -0.382 -0.308 -0.636 0 0 0 0 0 0 -0.336 -0.657 0 -0.467 0 -0.604 0 0.573 0 0 0 0.713 0.723 -0.263 0 0.509 -0.424 0.932 -0.637 -0.164 0 0 0.21 0 0 -0.234 0.158 -0.383 0 0 0 0 0.847 -0.087 0.332 0 0.493 0.003 0.74 -0.854 0 0 0 0.847 0 -0.106 0 -0.977 0.076 -0.428 0.793 0.319 0 -0.519 0 0.299 0 0 0 -0.378 0 -0.943 0 -0.134 0 0 0.507 0 0 0 -0.023 0 0 0.255 0 0 0 0.984 0.474 0 0 0 -0.053 0 0 -0.428 0 -0.615 -0.69 -0.484 0.484 0.662 0 0 0 0 0 0 -0.676 -0.076 0 0 -0.19 -0.604 0 0 0 -0.48 0 0 0 -0.208 0 0 0 0 0.235 -0.704 -0.418 0 -0.071 0 0.799 0.303 0 0 0.02 0 0 -0.356 0 0 0 -0.405 0.41 0 0 0.641 -0.062 0 0 0 0 -0.738 0 0 0 0 0.17 0 -0.502 -0.566 0.094 0.315 0 0 -0.553 0 0.663 0 0 0 0 0 -0.386 0.506 0 0 -0.084 -0.462 -0.026 -0.998 0 0 0 -0.052 0 0.349 -0.859 0 0.093 0.155 0.333 0.145 -0.151 -0.688 0 0 0 0 0 -0.594 -0.083 0 0.909 -0.894 0 0 -0.988 0.164 0 0 0 0.585 0 -0.546 -0.58 0 0 0 0 -0.968 0 -0.331 0 0 0 0 0 0 -0.131 0.762 0 -0.1 0 0.895 -0.255 0 -0.179 -0.715 0 -0.274 0 -0.401 -0.777 -0.608 0 0 0.905 0 0 -0.901 0.956 -0.792 0 -0.081 -0.542 0 -0.429 0 -0.064 0 0.091 -0.08 0 0 0 0 0 0 0 0 0 -0.754 0 0 0 -0.318 0 0.794 -0.771 0 0.543 -0.929 0 0.32 -0.828 0.023 0 0 0.505 0.726 0.782 0.478 0 0 0 -0.146 0 -0.566 -0.544 0 0 -0.333 0.89 0 -0.51 0 0.975 0.786 -0.47 -0.715 0 0.688 -0.332 -0.87 -0.728 0 0.203 0 -0.981 0 -0.723 0.181 0.906 0 0 -0.386 0 0 0 0 -0.242 0 0 0.076 0.424 0 -0.857 0.116 0.171 0 0 0 0 -0.078 -0.138 0.859 0 0.717 0.754 -0.336 0.266 0 -0.531 0.345 0.783 0 -0.291 -0.602 0.793 0 -0.266 0 0 0 0 -0.439 0 -0.648 0.063 -0.068 0 -0.611 0.635 0 0 -0.315 0 -0.138 -0.204 0 0.297 0 0 0.914 0 -0.968 0.112 0.659 0 0 0.131 -0.618 -0.634 -0.055 0.075 0 0.012 0 0 0 0 -0.992 0 0 0.712 -0.299 -0.677 -0.214 0 -0.041 0.576 0 0.71 0 0 0 0 0 0 0.664 0.447 0.365 0.919 0.926 0 -0.294 0.233 0 0 0 -0.538 0 -0.624 0.365 0 -0.382 0 0 0 0.169 0 0 0 0.167 0 0 0 0.832 -0.498 -0.674 -0.437 -0.199 -0.901 0 0 -0.176 