0 0.684 0.786 0 0.031 0 0 -0.15 0 0.422 -0.228 -0.937 0.704 -0.339 0.912 0.827 0 0.074 0 0 0.31 0 0 0 0.049 0 -0.686 0.456 0 0.253 0 0 0.893 0.253 0.948 0.758 0.15 0 0 0.156 0.565 -0.584 -0.062 0 0 0.767 -0.791 0.664 0 0 0 0 0 0 0.695 -0.672 0.309 0 0.858 0 -0.306 0 0.78 0 0.027 0 -0.842 0.818 0.948 0 0 -0.624 0 0 0.933 0.415 0 0 0.296 -0.392 0 0 0.768 0 0 0 0.74 0 0.306 0 0 0 0 0 0 0 -0.972 0 0 -0.681 0.307 0 0.064 -0.024 0 -0.265 0 0 0 0.237 0 0 -0.026 -0.556 0.482 0 0.676 0.319 0 -0.77 -0.254 -0.249 0.913 0.95 0 -0.716 0.234 0 -0.883 0.787 -0.22 0 -0.925 0 -0.773 0 0.87 0 0.847 0 0 -0.798 0.723 -0.383 0 -0.624 0 -0.3 -0.737 0.247 0 -0.359 0.097 0 0.587 0.051 0.073 0 0.875 -0.16 0 0.036 0 0 0 0 0.651 0 -0.909 -0.292 0 0 -0.384 0 0.014 0.838 -0.991 0.093 0 0.095 0 0 0 0.126 0.013 0 -0.309 -0.35 0 -0.829 0 0.195 0 0.223 0 0 0.508 0 0 -0.527 -0.563 0 -0.338 0.219 0 0 0 0.203 0 -0.264 0 0.06 -0.619 0 -0.935 0 0.089 -0.435 0 0 0 0 0.686 0.463 0.57 -0.834 0.539 -0.89 0.698 0 -0.356 0 0.455 0 0.441 0.693 -0.428 -0.748 0 0.47 -0.764 0 0 0.337 0.601 0 -0.681 0 -0.841 0 0 -0.101 0.644 0.725 0 -0.8 0.847 0 0 -0.989 0.262 -0.331 0.999 0 0.183 -0.16 0 0 -0.797 0.73 0 0 0 0.805 0 0 -0.342 0.14 0 0.855 -0.126 0 0 -0.284 -0.685 0 0.115 -0.86 0 -0.999 0 0.693 0 0.899 0 -0.661 -0.823 -0.789 -0.748 0 0.209 0.817 0 0 0.595 0 -0.131 -0.757 0 -0.311 0 0.076 -0.13 0 0 0 -0.702 -0.229 -0.259 0 -0.042 0 0 0.362 0 0.417 -0.926 0 0.517 0 0 -0.424 0 0.967 -0.617 0.845 -0.626 0 -0.562 0 0 0.198 0.735 0.05 0.981 0.573 -0.726 0 -0.047 0 0.882 0 0 0 0 0 0 0 -0.764 0 0.49 -0.19 0 -0.76 0 -0.98 0 0 0.109 0.615 0.175 -0.745 0.138 0 -0.389 0 0.795 0.16 0.255 0 0.422 0 -0.54 0 0 -0.462 -0.454 0 0.315 0 0.813 -0.067 -0.719 0 0 0.932 0.709 0 0 0 0 -0.779 -0.217 0.367 0 0 0 0 -0.34 0 0 0.284 0.288 -0.619 -0.604 0 -0.614 -0.479 -0.484 0 0 0 0 0 0.73 -0.759 0.384 0.972 0 -0.25 0 0 0.73 0 0 0.139 -0.019 0.327 -0.077 0 0.613 0 0 -0.404 0 -0.018 0 -0.907 0 0 -0.262 0.602 0.321 0.479 0.692 0 0 0 0.009 -0.368 0 0 0 -0.168 -0.247 0.984 0 0.071 0 -0.452 0 -0.468 0 0.097 0 -0.519 0 0 -0.446 0 0.781 0 0.973 0 0 0 0 0.234 0 -0.754 0.853 0 -0.793 0.571 0 0 0.533 0 0 0 0 -0.398 0.81 -0.142 -0.432 0 0 0 0.773 -0.876 0 -0.523 0 0 0 -0.631 0 -0.439 0 0.603 0 -0.106 0.762 -0.43 0 -0.952 0.46 -0.633 -0.056 -0.879 0 -0.799 0 0 0.478 0 0 -0.208 0 0.883 0 0.407 -0.654 0.438 0 0 -0.306 0 -0.804 0.398 0 0 -0.932 0 0 0 -0.523 -0.924 0.412 0.107 -0.788 0 0 0 0 0.455 -0.31 0.877 0 0 0.017 -0.299 0 0.661 -0.437 0 -0.676 0 -0.445 0 0 0.679 0.108 0 0 0.556 0.625 0 -0.987 0 0 0.907 0.344 0 0 0 0.978 0 0 0 -0.109 -0.886 -0.024 0 0 0 -0.168 0 0 0 -0.167 0.102 -0.209 0 0 0 -0.447 0 0.797 -0.898 0.191 0.067 0 0 0 0 0 0.562 -0.26 0 0 0 0 0.31 -0.537 0 -0.654 0 0 0 0.048 -0.287 0 -0.721 0 0.962 0 -0.495 0 0 0.845 0 0 0 0 0 0 0 0.535 0 0 0 -0.276 -0.14 0 0.192 -0.713 0.431 -0.774 0 0.962 0 0.856 0 -0.57 0 -0.272 0.457 -0.583 0 0 0 0 0.818 0 0 -0.055 0.086 0.435 0 0.586 -0.067 0.074 0.549 -0.689 0.919 0 0 0 0 0 0.922 0 -0.975 0 0.359 0 -0.297 -0.742 0 0.595 -0.619 0.263 -0.572 0.671 0 0 -0.847 0 0 0 0.216 -0.253 -0.656 0 0 -0.63 0.697 0 0.05 -0.245 0 0.386 -0.098 0 0.284 0 0.693 -0.26 0 0 -0.379 0 -0.602 0 0 0.576 0 0.266 0 -0.441 0 0 0.74 0 0 0.425 0 0.812 0 0 0.524 0.722 0 0 -0.174 0 0 -0.975 0 -0.726 0 -0.877 0 0 0 0 0.189 0 0.801 0 0.297 -0.974 0 0 0 0 0 0.057 -0.044 0.319 0.781 -0.779 0 -0.056 0.223 0 0 -0.633 0 0 0 0 -0.507 0 0 0.392 -0.358 0 0 -0.065 0.713 -0.459 -0.459 0.836 0 0.84 0.827 -0.903 0 0 0.623 -0.313 0.461 -0.302 -0.031 0.147 0 -0.022 -0.76 0.642 0 -0.894 0 -0.43 0.24 0.299 0 -0.99 0 0 0.22 0 0 0 0 0 -0.764 0 0.504 0 0 0 0 0 0 0 0 0.367 0 0 0 0.929 0 0 0 0 0 0.718 0 0 -0.164 0 0.355 0.568 0.303 0 0.436 0 0.291 0 0 0.091 0 -0.292 -0.104 0 0 0 0.497 0 0 0 -0.664 -0.668 0 -0.514 0 0.287 -0.529 0.274 0 0 0.285 -0.481 0 0.298 -0.434 0 0 0 0 -0.172 0 -0.692 -0.657 -0.127 0 0.388 0.618 0 -0.389 0 0.697 0 -0.789 0.958 -0.413 -0.524 0 0 -0.826 0 0.063 0 0 0.701 -0.608 0 0.158 0.124 -0.722 0 0 0.112 -0.787 -0.183 0 0 0.997 0 0 0.002 0.173 0 -0.309 0 -0.386 0.004 -0.317 -0.31 0 0.612 0.316 -0.747 0 0 0 -0.656 0 0.46 0.337 0 0 -0.81 0.409 0 0 -0.065 0 -0.812 0.886 0 0 0 0.017 0 0.585 0 -0.727 -0.787 0.928 -0.705 -0.588 0 0 0 -0.585 0 0 0 0 0.086 0 -0.067 0 0 0.367 0.395 0 -0.66 -0.205 0.586 -0.056 0 0.305 0 0 -0.866 0 0 0 0 -0.405 -0.099 0.644 0 0 0 0 -0.131 0 0.604 0 0 0 0 0 0 0 -0.436 0.971 0 0 0 0 0 0.043 0 0 0 0 -0.444 0.688 0 0 0.177 -0.993 0 -0.044 -0.554 0 0.409 -0.248 -0.728 0.139 0 0 -0.063 0 0 0.905 -0.46 0 0 0 0.321 0.987 -0.292 0 0.312 0.037 0 -0.516 -0.092 0.604 0.308 0 0 0.03 0 0 0.56 0.908 -0.189 0 0 0 -0.119 0.176 -0.541 0 0 0.585 0 0 0.883 0.122 0.573 0 -0.939 0.611 0.738 0 -0.982 0 0.013 0 0 0 0.68 0 0.311 0 -0.705 -0.715 0 0.636 0 0.342 0.222 -0.416 0 0 -0.722 0 0 0.486 -0.618 0 0 0 -0.821 -0.832 0.063 0.556 0 0 0 -0.538 0.743 0.309 0 0 0 0 0.933 0 0.873 -0.743 0 0.979 -0.039 -0.922 0 0.335 0.048 0 -0.381 0 0 0.944 0.366 0 0 0 0 -0.306 0 0 0.136 0 0.458 0 0 0.86 0 0 -0.901 0 0 0 0 0 0.807 0.703 0.457 0 -0.121 0 0 0.927 0.746 0 0.738 0 0 0.107 0.154 0 0 0 0.705 0.757 0.566 -0.756 -0.287 0 0.951 0.558 -0.131 0 0 0.096 0 -0.151 0 0 0.188 0 0 0 -0.159 0 0.608 0 -0.49 -0.633 0 0.081 0 0 0.054 0.39 -0.812 0 0 -0.603 -0.428 0 0 -0.718 -0.724 0.817 0 -0.512 -0.423 -0.94 0.178 0.75 0.123 0.883 0.442 0 0 0 0 0.486 0 0 0 0.591 -0.742 -0.063 0 0.236 0.704 0 -0.466 0 -0.292 0.051 -0.463 0.804 0 -0.787 0.708 0 0.646 0.153 0 -0.337 0 0.091 0 0 0 0.096 0.415 0.239 0.353 0 0 -0.215 0 0.917 -0.777 0.564 -0.736 0 0.537 -0.325 0 0 -0.941 0 -0.455 0.643 0 0 -0.715 0 -0.997 0.297 0 0.462 0.648 -0.038 0.004 -0.742 -0.279 0 0.044 0.526 0 0 0 0 0 0 -0.791 0 -0.98 0 0.139 0 0 0 0 0 0 0 -0.082 0 -0.332 0 0 -0.159 0 0 0 0 -0.901 0 0.048 0 0 0 -0.936 0 -0.206 -0.418 -0.96 0.276 0.861 0 0 0 0 -0.499 0 0.347 -0.877 0 0 0 0 0 0 0 0 0 0 0 0 -0.85 0.445 0.978 0.31 0 -0.376 0.81 -0.398 0 0 0.094 0 0 0 -0.092 0.56 -0.084 0 -0.717 0 0 -0.063 0 -0.708 0 0 0 -0.446 0 0 0 -0.347 0 -0.273 0 0 0.628 0 0 0 0 0 0 0.953 0 0.449 -0.023 0 0 0 0 -0.752 -0.523 0 -0.5 0 0 -0.335 0 0 0 0 -0.088 -0.894 0 0 0.601 -0.394 0 0.947 0 -0.204 0 0 0 0 0 0 -0.609 0 0 -0.126 0.551 0.361 0 -0.619 0 0 0 0 0 0.945 -0.249 0 -0.757 0 0.89 -0.138 0 0 0 0 0 0 0 0 -0.335 0 0 0 0 0.106 0 0.011 0.989 0 0 0 0 0 0 -0.779 -0.167 -0.149 0 0 0.281 0 0 -0.154 0 0 0.038 -0.575 0 0 0 -0.39 0.269 0 0.423 0 0 -0.748 0.975 0.767 0 0.067 -0.346 0.304 0 0 0.743 0.796 0 -0.821 0 0 0.598 0 0.862 0 0.638 0.521 0.75 0 0 0.851 0 0.081 0.994 0.487 0.344 0 0 0 0.929 0 -0.591 -0.023 0.95 -0.934 0.32 0 -0.4 0.44 -0.661 0.178 -0.02 0.195 0 0.8 0 0 0 -0.315 0 0 0 0 -0.983 -0.925 0 0.951 0.879 0.704 0 0 0 0 0 0 0 0 0.259 -0.885 0 0.628 -0.776 0.85 0.87 0 0 0 0 -0.165 0 0 -0.351 0 0 -0.466 -0.164 -0.523 0.421 0.822 0 0.118 0 0.749 0 -0.165 0.634 0.192 0.106 0.496 0 -0.515 0 0 0 0 -0.565 0 0 -0.419 -0.605 -0.045 0.04 0 0.343 0 -0.767 -0.489 0 0.86 -0.141 0.688 -0.905 -0.326 0 -0.735 -0.582 0 0 0.993 0.223 0.83 0.467 -0.281 0 0 0 -0.249 0.479 -0.939 0 0.722 0 0 0 0 -0.707 -0.387 0 0 0 0 0 0 0 0 0.116 -0.601 0.037 0 0.808 0.721 -0.629 -0.166 0 0 0.595 0 0 -0.808 0 0.144 0.993 -0.914 0.742 0 -0.058 -0.302 0 0.096 -0.131 0 0 0 0.299 0.699 0 -0.021 0 0.632 0 0.69 -0.01 -0.684 0 0.081 -0.39 0 0 0.315 0 0.083 0.099 0.272 0 0.507 0 0 0 -0.75 0 0 0.872 0.648 0 0.093 0 -0.809 0.475 0 0 0 0.769 0 0 -0.132 -0.86 -0.123 -0.906 -0.726 0.762 -0.113 0 0.918 0 0 -0.848 0.637 0 -0.667 0 0.244 0 0.246 -0.416 0 -0.777 -0.813 0 0.795 0 0 0.7 0 0 -0.229 0 0.638 -0.027 0.498 0 -0.113 -0.62 -0.223 0.346 0 0 -0.92 0 0.849 -0.257 -0.66 0.734 -0.911 0 0.705 -0.776 0 0 -0.299 0 -0.622 -0.595 0 0 -0.988 0 0 0.85 0 0 0.132 -0.678 0 0 -0.961 0 0 0.611 0.396 -0.644 0.952 0 0.057 -0.752 0.706 0 0 0.572 0 0 0.832 0 0 0 0.877 -0.523 0 0 0 0 0 -0.393 0.463 0 0.479 0.646 -0.872 0 0 0 -0.84 0 0 0.514 0 0 0 0 0.617 0 -0.833 0 0 0 0 0.709 0 0 -0.209 0.336 0.239 0.738 -0.097 -0.396 -0.016 0.181 -0.023 0 0 0 0 -0.514 0 0 0 0.529 -0.513 0.255 0 0.313 -0.543 0 0 0 -0.01 0.636 0 -0.588 0.636 0.679 0 0 0.158 0 0 0.911 0 0 0 0 -0.459 0 0.059 -0.372 0.233 0.371 0 0.663 0 0 0.427 -0.37 0 -0.125 0.731 0.584 0 0 0 -0.297 0 0 -0.432 0 -0.588 0 -0.124 -0.808 0 0 0 0 0 -0.563 0 0.913 0 -0.857 0 -0.776 0.44 -0.32 0 -0.492 0 0 -0.927 0 0 0 -0.018 -0.699 0 -0.111 0 0.369 0 0.143 0.476 0 0.033 -0.846 0.008 0 0 0 0 0.052 0 0 0 0 -0.784 0 0 0 -0.902 0 0 0.721 0.212 0.674 0 0 0 0 -0.02 0 0.74 0.755 0 0 0 0 0 0 -0.939 0.931 0 0 -0.621 -0.867 0.894 0 -0.059 0.911 0.431 -0.614 0 0 0 -0.562 0 0 -0.145 0 0.212 0 0 -0.631 0.452 -0.469 -0.625 -0.257 0 -0.993 0 0.531 0 0 0 0 0 -0.583 -0.084 -0.766 0.04 0 0.742 0 -0.01 -0.487 0 0.923 0 0.504 -0.988 0 -0.093 -0.737 -0.262 -0.083 -0.348 0 0.853 0 -0.665 0 -0.938 0 -0.089 0.182 0 -0.592 0 0 0 -0.051 0 -0.625 0 0 0 0 0 -0.619 -0.595 0 0 0.181 -0.353 -0.9 0 0.402 -0.818 0.475 0 0 0 0.432 0 0.35 0 0.297 0 0 0 0.571 0.068 0.056 0 -0.886 0 0 0 0 0.743 -0.987 0 0 0.291 0 0.064 0.704 0 -0.71 0 0.169 0 0 0 -0.904 0 0.792 0 0.04 0 0 0 0.478 0.846 0 0 0 0 0 -0.531 0 0.446 0 -0.509 0 -0.628 0 0 0.698 0 0.886 0 -0.097 -0.653 -0.078 0.39 -0.686 0 0.862 0.98 0.353 0 0.712 -0.627 1 0 0.863 0 0 -0.785 0 0 0 0 0.079 0 0 -0.508 0 0 0 0 0.062 0.132 0 -0.371 0 0.127 0 0 -0.668 0 0 0 0 0 0 0 -0.296 0 -0.526 -0.862 0.191 -0.648 -0.21 0 0 0 0 0.245 0 0 0 0 0 0 0 0 0.626 0 0 -0.836 0 0 0.392 0.335 0 0.839 0 0 0 -0.591 0.838 0 0 0 -0.291 0 0 -0.769 0 -0.624 0.068 0 0 0 0 -0.67 0 0.109 0 0 0 0 0 0 0 0 0 0 0 0 0 0 0 0.636 0 0.892 0 -0.498 0.716 0 -0.854 -0.259 0 0 -0.158 -0.616 -0.685 0.476 0 0 0.963 0 0 0 0.656 -0.752 0 0.137 0.603 -0.367 0.798 0.827 0 0 0 0.918 0 0 -0.728 0 0 0 -0.623 0 0.397 0.76 -0.53 0.063 -0.106 0 0.189 -0.54 0.369 -0.293 0 0 0 0 -0.284 -0.135 0 0 -0.831 0.23 0.05 0 -0.232 0 0 0 0.305 0 0 0.828 0 0.289 0 0 -0.622 -0.06 -0.761 -0.251 -0.802 0.497 0.682 -0.873 0.245 0.09 0 0 0 0 0 0 0 0.031 0.801 0 0 -0.829 0 0 0 0 0 -0.114 -0.253 0 0.362 0.02 -0.83 0 -0.217 0 0 0 0 0 0.772 -0.042 0 -0.684 0 -0.001 0 -0.257 -0.441 -0.941 -0.147 0 0 0.639 0.648 0 0.026 0 -0.333 -0.288 -0.527 0.477 0 -0.391 0 -0.331 0.286 -0.86 0 0 0 0.07 -0.558 0 -0.571 -0.174 0 0 0 0.772 0 0.139 0.657 0 0.539 0 0.434 0.177 0 -0.151 -0.776 -0.299 -0.543 0 -0.777 0 0.969 0 0 0 -0.614 -0.679 0.021 0 0.962 0 -0.565 -0.609 -0.534 0 0 0 0.29 0 0 -0.426 -0.054 0 0.652 0.253 0.365 -0.691 0.356 0 0.848 0.199 0.848 0 0 0 0 -0.697 0.566 0 0 0 0 0.578 -0.706 0 0.568 0 0.523 0 0.565 0 0 0.188 0.55 -0.598 0.39 0 0.686 0.046 0 0 0 0 0 -0.709 0.448 0 0.596 0 0 0.797 0 -0.257 0 0 -0.203 0.552 -0.302 0 0 0 0.823 0.876 0 0.839 0 0 0.78 -0.068 0 0 0 0 0.381 0 -0.963 0 -0.204 0 0 0.066 -0.582 0.584 0.359 0 0 0 0 -0.264 0 -0.45 0 -0.59 0 0 0.668 0 -0.695 0 0 -0.882 0.95 -0.527 0 -0.013 0.127 0 0.899 -0.852 0 -0.632 0.497 -0.297 0.317 0.136 0 0 0.108 0.73 0 -0.339 0 0 0 0 -0.199 0.883 0 0 0 0.233 0 -0.527 -0.149 0 -0.57 -0.827 0 0.603 0.331 -0.155 -0.487 -0.403 0 -0.308 0 0 0 0 0.131 0 -0.235 0.136 0 -0.157 0 0.106 0 0.572 0.639 0 0 0.461 0.753 0.6 0 0 0.92 0.545 -0.892 0 0 -0.685 0.766 -0.858 0 -0.402 0 -0.772 0 0 0 0 0 0.093 -0.837 0 0 0 -0.358 0.688 0 0 0 0 0.649 0 0 0.225 0 0 0.761 0 -0.019 0 -0.817 0 -0.628 0 -0.272 -0.574 0 0 0 0 0 0 0 0 0.571 0.596 0.184 0 0 -0.261 0 0 0 -0.896 -0.452 0 0 0 0.573 0 0 -0.971 0 0 0 0.323 0 0.592 0.04 0.104 0.248 0 0 0.083 0.802 0.179 0 0.697 0 0 0 -0.945 0 0 0 0.197 0 -0.473 0 0 0.055 -0.499 -0.885 0 0.298 -1 -0.608 0 -0.263 0 -0.706 -0.958 0.433 0 -0.855 -0.567 -0.353 0 0 0 0 0.19 0 0.537 0 0 0 0 0 0 0 0.705 -0.029 -0.691 0 0 -0.296 0 0.328 0 -0.064 0 0 -0.376 0 -0.737 -0.71 0 -0.318 0.78 0.374 0.947 0 0 0 0.733 -0.352 -0.727 0 -0.075 0.689 -0.76 0 0.895 -0.546 -0.063 0 0.624 -0.812 0 0 0.665 -0.56 0 0 0.928 0 -0.608 -0.4 0 0 0 0 0 0 0.37 0.891 0 -0.553 -0.581 0 0 0.814 0 0 0 0.458 0 -0.347 0.519 0 0 -0.768 0 -0.797 -0.577 0 -0.067 -0.699 0 0 0 0 0.916 0 -0.332 0.815 0.158 -0.655 0 -0.196 0.311 0 -0.68 0.418 -0.175 0 0 0 0 0 0.162 0 0 0 -0.937 0 0.953 0 0 0 0.704 0 0.477 -0.098 0.332 0 -0.314 0.236 -0.705 0 -0.509 0 0.907 0 0 0.244 0 0 -0.394 0.69 0 0.864 0 0 0 0 0 -0.875 -0.246 -0.614 -0.629 0 0 0 0.53 0 0.589 0 0 0.335 0.337 0 -0.55 -0.065 0.222 0 -0.69 0 0 0 -0.454 0 0 0.268 0.728 0.638 0.805 -0.116 0 -0.518 -0.533 0 0.127 -0.671 0 0 0 0 0.972 0 0 0 0.308 -0.166 0 0 0 0.605 0.094 0.466 0 0 0 0 -0.846 -0.023 0.263 0.241 0 0.933 0 0.198 0.619 0 -0.576 0 0 0 0 0.833 -0.772 0 0 0.618 0 -0.949 0.755 0.284 0 -0.675 0 0 0.558 0 0 -0.342 0 0 0 0.574 0 0 -0.518 0.022 0.839 -0.769 0 0.802 0 0.36 0.683 0 -0.183 0 -0.112 0 0.353 -0.455 0.675 0 0 -0.521 0 0 -0.858 0 0.259 0 0 -0.312 -0.967 0.819 0 -0.878 -0.1 0 0 0 0.352 0 0 0 0.358 0 0 0 0 -0.294 -0.345 0 -0.127 -0.944 0.043 0 0 0.873 0 0.236 0.103 0.52 -0.543 -0.713 0 0.536 0 -0.648 -0.177 0 0.662 -0.722 -0.137 0 -0.482 -0.655 0 0 0 0.338 0 0 0 0.966 0 0 0 0.536 -0.36 0.423 -0.81 -0.052 0.846 0 0 0 0 0.072 -0.407 0 0 0 -0.964 0.112 -0.264 0.63 0 0 -0.055 -0.11 0.846 0 0.14 -0.51 -0.961 0 0.349 -0.572 0 0 0.315 -0.219 0 0 0.039 0 0 -0.678 0 0 0.435 0.107 0.425 -0.043 -0.725 0 0 0 -0.764 0 -0.263 -0.146 0 0 0 -0.13 0 0.137 0.16 0.662 -0.629 0 0 0 -0.472 0 0.088 0 -0.613 0.513 0.166 0.867 0.584 0 0 -0.583 0 -0.275 -0.534 0 -0.541 0.315 -0.577 -0.16 0 0 0 -0.699 0 0 0 0.206 0 0.705 0.713 -0.016 0 0 0.433 0 0.207 0 0 0.621 0 0 0 0 0 -0.833 0 0 0 0 -0.467 -0.956 0.293 -0.657 0.037 0 0 -0.834 0 0.723 0 0 -0.627 -0.574 0 0 0.856 0.209 -0.564 -0.925 0 0 0 0 0 0 0 0 0 -0.601 0 0 0 0.925 0 0 0 0.71 0.155 0 -0.918 -0.076 0 0 0.904 0 0 -0.741 0 -0.188 0 0 0 0 0 0 -0.362 0 -0.624 0.403 0 0 0 0 0 0 -0.999 0 0.338 0 0.547 -0.626 0 -0.267 0 -0.758 0 -0.114 0.578 0.449 0 0 0.431 -0.883 0 -0.376 0 0.022 0.85 -0.211 0 -0.353 -0.1 0 0 -0.322 0.184 0 0 0 0.751 -0.137 -0.39 -0.528 0 0.159 0 0.751 0.998 0 -0.739 0 0.851 0.078 0.016 0.077 -0.996 0 -0.552 0.277 0.798 0 -0.165 0 -0.841 0 0 -0.236 0 -0.969 0 0 0 0 0 0.854 0.285 -0.187 0.256 0 0.924 0.782 0.355 -0.238 0 0 -0.294 0.547 -0.832 0 0.693 0 0 0 -0.439 -0.464 0 0.959 -0.194 -0.04 0.614 0 0.925 0 0.51 0 0.116 0 -0.96 0.08 0.678 0.054 0 0.004 0 0 -0.28 -0.81 0 0 0 0.617 0 0 -0.956 0 0 0 -0.035 -0.165 0.313 0 0.542 0.066 0.763 0.894 -0.805 0.261 0 0 0 -0.73 0.913 0 0.388 0.953 0 0 0 0 0 -0.207 0.128 0 -0.714 0 0.318 0 0 0 0.204 0.037 0 0 -0.935 0.708 0 -0.222 0 -0.875 0 -0.673 0 0 0 0 0 0 0 0 0 0 0 -0.166 0 -0.413 0 0.871 0.681 0 0.556 0 0 -0.848 -0.563 -0.723 0 0 0.721 0.338 0 0 0.942 0 0.687 0 0 0.439 0 0 0.134 0 0.938 0.881 0 -0.996 -0.211 0 0.773 0.305 -0.184 0.858 -0.884 0 0 -0.719 0 0 -0.13 0.889 0 0 -0.436 0 -0.744 0.815 0 0 0.606 -0.972 0.164 0.985 0.189 0.259 0 0 0 0 0 -0.317 -0.149 0 0 -0.087 0 -0.867 -0.015 0.809 0 -0.566 0 0 -0.687 0 -0.122 0 0.821 0 0 0 0 -0.05 -0.676 -0.258 0.758 -0.578 0 0 0.273 -0.368 0.745 -0.198 -0.315 -0.839 -0.642 0 0.705 0.864 0 0.22 0 -0.725 0 -0.18 0.027 0 0.87 0.543 0.282 0.112 -0.463 0 0.037 0 0.926 -0.837 0 0.966 0.983 -0.552 0 0 -0.252 0 0.957 0.571 0 0 0 0.746 0 0 0 0 0.554 0.842 0 -0.515 0 0 0 0 -0.679 -0.08 0 -0.867 0 0.535 -0.092 0 -0.359 0 0 0 -0.997 0 0 0.637 0 -0.882 0 0.102 0 -0.215 0 0 -0.178 -0.819 0 0.56 0.096 -0.342 -0.205 0 0.424 0 0.353 0.001 0 0.281 0 0.746 -0.944 -0.685 0 0.642 0 -0.899 0 0.931 0.942 0.613 -0.917 0 0 0 -0.667 0.283 0.28 0 0 -0.133 -0.439 0 0.554 0.073 0.884 -0.211 -0.008 0 0.435 0 0 0 0.019 0 -0.72 0.622 0 0 0 0 -0.387 -0.554 0 -0.643 0 -0.714 0.709 -0.461 0 0 0.179 -0.57 -0.183 0.209 -0.323 0.348 0 -0.875 0.965 0.517 -0.009 0 -0.522 0 0.02 0 0 0 -0.818 0 0 0.383 -0.963 0 -0.95 -0.426 0 0 -0.684 0 0 -0.505 0.017 0.747 0.385 -0.34 0 0 -0.022 0.702 0 0 0 -0.267 -0.972 0 0 -0.611 0.558 -0.062 -0.929 0 -0.204 -0.031 0 -0.239 0.896 0 0.224 -0.951 0 0 -0.649 0.217 0 0 0.415 0.06 0 0.009 0.562 0 -0.984 0.313 0 -0.563 0 0 0 0 -0.067 0.904 0 0 -0.903 -0.585 0 0 -0.081 0 0.36 0 -0.392 -0.608 0.831 -0.582 0.029 -0.068 0 0 0.837 -0.226 -0.751 0 0 0.901 0.587 0.887 0 0 -0.069 0 0 0 0.922 0.293 -0.339 -0.276 -0.734 0.562 -0.763 0 0 -0.491 0.824 0 0 0 0.841 -0.624 0 0 -0.306 0 -0.332 0 -0.836 -0.739 0 0 0.023 -0.675 -0.396 0 -0.651 0 -0.774 -0.064 0 0 0 0 0 0 -0.402 0.566 0.175 0 -0.872 0 0.091 0 -0.455 0 -0.038 0.051 0 0 -0.819 0 0 0.969 -0.78 0.618 0 0 0.503 0 0 -0.472 0 -0.522 -0.716 -0.554 0 0 0 0 -0.287 0 0.237 0.712 0 -0.568 0 0 0.826 0 -0.866 0.421 0.646 0 0 0 0.163 0.77 0 0 0 0 0 0.543 0 0 0.552 0.973 0 0 0 0 -0.18 0 0.941 -0.937 0 0.329 0 0.841 0 0 -0.914 0 0 -0.546 0 0 0.159 -0.839 -0.303 -0.16 0 -0.432 -0.86 0.245 0.456 0 0 0.024 -0.659 0 -0.099 -0.859 0 -0.96 0 0 0 0.651 0.297 0 0 0 0 0 0.735 0 0 -0.255 -0.791 -0.387 0 0 -0.162 0 0 -0.352 -0.428 0 -0.077 0 0 0 0 0.955 0 -0.739 0 -0.57 0 0.646 -0.655 0 0 -0.905 0.546 0 -0.791 0 0.507 0 -0.083 0.083 0.058 0.295 0 0 0 0 0 0.058 0 0.727 0 0.052 0 -0.323 0.624 -0.816 0.863 0.949 0 0 0 -0.037 0.516 -0.521 0 -0.323 0 0.802 0.866 -0.727 0 0.589 0 0.262 0.374 0 -0.799 -0.462 0 -0.2 0.571 0 0.101 -0.12 0 -0.423 0.155 0.851 0 0 0 0 -0.221 0 0 0 0 0 0 0.554 0 -0.623 -0.241 0 0 0.758 0 -0.869 0 -0.463 0.545 0 -0.255 -0.882 0 0 0.458 0 0 0 0 0.829 0.166 0 0 -0.43 -0.269 0 0.841 0 -0.269 0 -0.757 0 0 -0.93 0.958 -0.418 -0.17 -0.346 0 -0.879 0 0 0 0 0.133 -0.782 0 -0.8 0.909 0 0 0 -0.915 0 0.012 -0.018 0.788 -0.651 0 0 0 0.373 0 0 0 0.614 -0.27 0 0 -0.379 -0.838 0 0.274 0 0 -0.165 0 0.023 0 0 0 -0.155 -0.778 -0.03 -0.108 0 0.887 0 0 -0.424 -0.97 0.093 -0.474 0 0.754 0 0.853 -0.051 0.514 0.887 0 -0.029 0.562 0.418 -0.813 0 0 0 0.808 0.901 0 -0.748 0 0 0 0 0.412 0 0.151 0.653 0.736 0.818 -1 0 0.393 0 0 0.277 0.394 -0.868 0.698 0 0 0 0.317 0 0 0 -0.747 0.311 -0.912 0 0 -0.233 0 0 0.102 0.297 0 0 0 0.723 0 -0.784 0.723 0 -0.395 -0.334 0 0.173 0.649 0.949 0.181 0 0 0.744 0 0.657 0 0.985 -0.138 -0.795 0 -0.252 0.292 0 0 0 -0.94 0 -0.22 0 0 0 0 0 -0.64 0 0 0 0 0 0.039 -0.245 0.841 -0.298 -0.647 0.659 0.006 0.119 0 -0.365 0 0 0 0 0.998 0.236 -0.388 0 0.3 0 0 -0.45 0 -0.859 0 0 0 0.179 0 -0.877 0.713 0 0.827 0 -0.213 0 -0.232 0.212 0.696 0.237 -0.25 -0.887 0 0 -0.233 -0.96 0 0.904 0 -0.476 0.316 -0.231 -0.918 0.705 0 0 0 -0.784 0 0.662 0 0 0 0.795 0 -0.252 0.029 0 0 0 0 -0.909 -0.908 0 0.332 -0.295 0 0 -0.222 0 0 0 0 0.817 0 0.932 0 -0.365 0.534 0 0.098 0.623 0.991 0 0 0 0 0.463 0 -0.913 0 -0.596 0 -0.585 0.433 0.399 0 0 0 0 -0.318 0.038 -0.393 0 0 0.486 0 0 0.489 -0.577 0 0 -0.339 0 -0.854 -0.622 -0.027 0 0.371 0 -0.894 0 0 0 0 0 0 0 0.88 0.791 0 0 -0.752 0 0 -0.618 0.997 0.182 0 -0.428 0.31 0.28 0 0 0 0.499 0 -0.24 0 0 0 -0.872 0 0.896 0 0 0 0.948 0 -0.972 0.934 -0.343 0 -0.574 -0.672 0 0.699 0 0 0.197 0.505 -0.266 -0.698 0.318 0 0.376 -0.99 0 0.301 0.073 0 -0.524 0 0.636 -0.659 0 -0.173 0 0 0 -0.082 -0.738 0.795 0 -0.927 0 -0.335 0 0 0 0.496 0.34 0 0.916 -0.63 0 0.182 0 0 0 0 -0.562 0 0 0 0.508 0 0.473 0.903 -0.781 0.126 0 0 0 -0.329 0 0.428 0 0.818 0 -0.451 -0.774 0 -0.722 0 -0.822 -0.069 0 0.713 0 0 0.616 0.207 0 -0.986 0.857 0 0 0.03 -0.825 0 0.323 -0.264 -0.561 0.232 0 0 -0.367 -0.299 0 0 -0.669 0 0.641 -0.477 -0.248 0.875 0 0 0.595 0 0.4 0 -0.61 0 0.997 -0.38 0 0 0 -0.127 -0.513 -0.98 0 0.216 0 0 -0.602 0 0 0 0 0.577 -0.292 0.286 0 0.141 0.69 0 0 -0.338 0 -0.643 0 0 -0.047 -0.472 -0.405 -0.137 0.904 0.81 0.885 0.646 0 -0.799 0 -0.476 0 0.061 -0.938 0.695 0 0 0 0 -0.521 0 -0.995 -0.854 0.772 0.275 0 0 -0.763 -0.551 0 0.783 0 0 0.32 0 -0.332 0 -0.177 0 0.75 0 -0.701 0.193 -0.389 -0.714 -0.495 0 -0.717 0.741 -0.143 0.59 0.619 0 0 0.439 0 0 0.804 0 0 -0.907 0 0 -0.029 0 0 -0.421 0 0 0.002 0.933 -0.249 0.853 -0.388 -0.978 0 0.221 0 0 0 0 0 0 0 0.625 0.444 -0.235 0 0 -0.629 0.49 0.977 -0.03 0 0 -0.266 -0.823 0.563 -0.776 0 0 0 0.373 -0.565 0.332 0 0 0 0 0 0 0.393 0 0 0.664 0.857 0 0 0.793 0 -0.701 0.186 -0.192 -0.01 0.439 -0.425 0.068 0 -0.737 0 0 0 0 0 0.893 -0.225 0 0 0 0 0 0 0 0 0.633 0.337 0 0 0 0 0 -0.638 0.208 -0.956 -0.334 0 0.74 0.813 0.312 -0.715 0 -0.165 -0.761 0 0.576 0.405 0 0 -0.229 0.215 -0.271 -0.029 -0.154 0 0.273 -0.891 -0.644 0 -0.078 -0.946 0 0 -0.081 -0.135 0.246 0 0 -0.86 -0.901 0 -0.447 -0.508 0.989 0.641 0 0 -0.496 0 -0.643 -0.092 -0.914 -0.696 -0.199 0 -0.151 0 -0.962 0 0.901 0 0 -0.576 0 -0.153 -0.099 0 0 -0.272 0 0 0 -0.726 -0.601 -0.887 -0.128 0.248 0 0.483 -0.784 0 0 -0.624 0 0 0.948 0 0 0 -0.064 0 0 -0.631 -0.56 -0.188 0.7 0 0 -0.028 0.597 0 0 -0.298 -0.15 -0.109 -0.485 0 0 -0.021 0 0.121 -0.194 0 0 0 0 -0.842 -0.386 0 0 0 -0.648 -0.13 0.616 0 0 0 0 0 0.91 -0.338 0 -0.083 0.189 0.78 -0.55 0 0.013 0 0.951 0 0 0 -0.812 -0.727 0.296 0.66 0.345 0 0.074 0 0 -0.425 -0.384 0 -0.138 0.38 -0.148 0.456 0.645 0 0 0.401 0 0.883 0.72 0.806 0 -0.76 0 0.44 0 0 0.787 0 0 0 0.746 0 0 -0.357 0.126 0 -0.445 -0.398 0 0.661 0 0 -0.001 0.742 0.051 0.221 0.826 0 0.094 0.312 0 0.186 0 0 0 -0.433 0 0 0 0.357 -0.941 0 -0.999 0 -0.029 -0.63 0 0 0 0 0 -0.304 -0.611 0 -0.45 0 0 0 -0.13 0 -0.764 0.69 0.008 0.19 0 0.883 0 -0.893 0 0.868 -0.982 0 0.559 0 0.118 -0.906 0 -0.726 0 -0.881 -0.784 0 0 -0.253 0.638 0 -0.967 0 -0.737 0.932 0 0 0.612 -0.274 0 0.327 0 0 -0.882 0 -0.924 0 0 -0.766 0 0 -0.78 0.4 -0.471 0.82 0 0 0 -0.605 0 0 -0.191 0 0.589 0 0 -0.539 0.782 0.872 -0.215 -0.146 0.779 0 0.09 0 0.579 0 -0.468 0 0.245 0.038 0 0.811 -0.482 -0.573 0 0.919 0.952 0 -0.956 0 -0.427 -0.39 -0.112 0.136 -0.245 0.896 0 0.024 -0.405 0 -0.71 -0.503 0 -0.518 0 0 0 0 0.409 0.879 -0.276 -0.602 -0.982 -0.768 -0.359 0 0 0 -0.398 -0.494 0 0.195 0.205 -0.424 -0.109 0 0.607 0 0.808 0 0.572 0.81 0 0 0.539 0 0 0 0.025 0.68 0.872 0 0.53 0.499 -0.004 0 0 0.191 0 -0.073 -0.857 0.782 -0.805 0.837 -0.07 -0.071 0 0 0 -0.061 -0.062 0.414 0 0 -0.468 0 -0.515 -0.626 0.09 0.439 0 -0.873 0.63 0 0 0 -0.785 -0.635 0.128 -0.01 0 0 0 -0.879 0 -0.671 -0.174 0 -0.63 -0.74 0.678 -0.699 0.805 -0.163 0 0.111 0.081 0 0 0.987 0 -0.997 0.724 0.112 0.047 0 -0.78 0 0.329 0 -0.766 0.862 0 -0.763 0 0 0 0 -0.075 0 0 -0.238 0 -0.192 0 0.708 0 0.026 -0.937 0 0 0.254 0.372 0.414 0.565 0 0 0.746 -0.967 0 -0.289 -0.809 0 0.851 0 0 0.565 0 0.045 0 0 -0.661 -0.892 0 0 0 0 0 0 0 0 0 0 0 0 0 0 -0.32 0 0.668 0.458 0 -0.467 0 0 -0.076 0.497 -0.472 0 0.994 -0.091 0 -0.869 0 0.391 -0.379 0 0 0 0 0.578 0 0 -0.525 -0.407 -0.528 0 0.222 0 0 0 -0.667 0 0 0 0 0 0.16 0 0.565 0 0 0.233 0 0.548 -0.238 0 -0.118 1 0 0 0 -0.014 -0.827 -0.031 -0.309 0.153 0 0.402 0.472 -0.32 0 0 -0.796 -0.18 0 0 0 0 0 0 0 -0.789 0.678 0 -0.865 0 -0.927 0 0 -0.696 0 0 0 -0.252 -0.352 0 -0.875 0 0 -0.384 0 0 0 0 -0.662 0 0.905 0 0 0 0 0 0 -0.633 0 0.931 0 0.266 0 0 0.082 0 0 -0.589 -0.433 0.836 0 0.782 0.818 0 0 -0.629 0 -0.088 0.178 0 0.979 0 0.645 0 0.615 0.36 -0.501 0.083 0.317 0 0 0.654 0 0.512 0 0 0 0 -0.903 -0.827 -0.85 0 0 0.183 0 0.455 -0.891 0.973 0 0.042 -0.227 0 0.153 0 -0.098 0.271 0 0.253 0.946 0 0.952 0.15 0 0 0.829 0 -0.731 -0.298 0 -0.985 -0.256 0 0 0.668 0.456 -0.562 0 -0.189 0 0 0 0.976 -0.075 0 0.502 0.447 0 -0.165 0 0 0 0.782 0 0 0.192 -0.958 0 -0.196 0 0 0 -0.196 0 0 0.811 0.385 -0.804 0 0.06 0.146 -0.493 0 0.332 0.147 -0.739 0 0.454 0.006 0 0 0.879 0.392 -0.967 0 0.687 0.961 0 0 0 0.63 -0.018 0.224 -0.558 -0.373 0 -0.299 0 0 0.534 -0.884 -0.405 0.724 0 0.838 -0.195 0 0 -0.466 -0.572 -0.258 0 0 0 -0.136 0 -0.5 0 0.156 0 -0.239 -0.004 0 0 0.663 0 0 0 0.979 0 -0.242 0 0 -0.247 0.099 0.395 0 0 0 0 0 0 0.004 0 0 0 0.522 -0.502 0 0 0 -0.804 0 0 0.364 0 -0.846 0 0 0 0 0.868 0 -0.484 0 0 -0.633 -0.972 0.587 -0.062 0.936 0.973 0 0 0.535 -0.285 0 -0.681 -0.3 0 0 0 0 0.09 0 -0.925 0 0 0.26 0 -0.003 0 0.466 0 -0.434 0 0.932 0 -0.271 0 0.887 0.411 0 0.916 0 0 -0.921 0 0 0 0.489 0 0.353 -0.818 0 0 -0.433 0 -0.781 0 0 0 0 -0.304 0 0 0 -0.83 0 0.529 0 0 0.629 0.456 0.585 0 0 -0.23 0.315 -0.011 0 0.909 -0.232 0 0 0.87 0 0 0 0.509 0.094 -0.928 0 -0.62 0.46 0 0 0 -0.605 0 0 0 0 0 0 0 0 0.84 0 0.155 0 -0.76 0 0.082 -0.486 0.033 0 0 -0.42 0 0 0 0 0 0 -0.242 -0.91 0 0.53 0 0 0 0 0 -0.842 0 0 0 -0.211 0 -0.869 -0.852 -0.334 0.012 0 0.767 0 0.817 -0.646 0.827 -0.383 0.842 0 -0.611 0.003 -0.772 0 0 0 0 0 0 0 0 -0.764 -0.049 0 0.609 -0.703 0 0 -0.151 0.858 -0.344 0 0 0 0 0.911 -0.986 -0.011 -0.692 0.844 0.319 0 -0.08 0 0 0.414 0 0 -0.957 0 0 0.883 0.549 -0.196 0 0 0.465 0 0 -0.446 0 0 0 -0.299 0.512 0 0 0 0 0 0 0 0 0 0.822 -0.779 0 0 0 0 0 0.733 -0.489 -0.483 0 0 -0.363 0 -0.833 0 0 0.837 -0.724 0 0 0.203 0.859 0.077 0 0 0 0.165 0 0 0.332 0 0 0 0 0.153 0 0 0 0 0.485 0 0 0 0 -0.573 0 -0.059 0.107 0 0.353 0.029 0 0 0 -0.852 -0.458 0 -0.469 -0.686 0.922 0 0 0 0 0 0 0.954 0 -0.137 -0.894 -0.62 0 0 -0.814 0.3 0 0 0 -0.608 -0.012 0.179 0 0 0 0.448 0 0.368 0 0 0 -0.207 0 0 0 0 0 0 -0.381 -0.757 0 -0.415 0.833 0.415 0.617 0.603 0 0 0 0.872 0 0.083 -0.954 0.072 -0.63 -0.553 -0.617 0 -0.795 0 0.15 0 0.574 0 0.616 0.665 0.41 -0.456 0.538 0.863 0 0 0.961 0 -0.183 0 0 0 0 0 0.176 0 0 -0.838 0 0 -0.517 0 0 0 -0.503 0.933 0 1 0.797 -0.25 0 0.726 0 -0.41 0.433 -0.168 -0.072 -0.654 0 0.84 0 0.465 0.16 0 0 0 0.521 -0.931 0.807 -0.767 0.35 -0.874 0 0 -0.9 0.223 -0.991 -0.038 0.707 -0.968 0 0 0 0 -0.7 0.788 0.759 0 -0.558 0 0.409 0 0.713 0.867 0.56 0.749 -0.771 0.276 -0.401 0 0.673 0 0 0 0 0.202 0 0 0.869 0 0 -0.436 0 0 0 0.185 0 0 0 0 0 0 0.615 -0.345 0 -0.866 0 0 0 0 0.054 0 0 0 0.34 -0.241 0 0 0.256 0 0.421 -0.619 -0.529 0 0 0.875 0 0 0.237 0.174 -0.488 -0.274 -0.938 0 -0.243 0 0 0.649 0 0.975 -0.985 0 -0.075 0 0.961 0.158 -0.784 0 -0.063 0 0.258 0 0 0.883 0 0 0 -0.969 0.648 0.379 -0.945 0 0 0.634 0 0 0 0 0.077 0 -0.696 0 0 0 0 -0.337 0 0 0 0 0.374 0 0.289 0.563 -0.006 0 0.879 0 0 0 -0.716 0 0 0 0 0 -0.245 0 -0.13 0 0.034 -0.769 -0.584 -0.804 0 0 0 0 0.499 0 0 0.735 0 0 0 0.013 -0.332 0 0 0 -0.681 0.418 0.593 0.532 -0.818 0.202 0.886 0 0.282 0.662 0 0 -0.415 0.395 0 0 0 0.862 0 -0.059 0 -0.014 0.733 0.468 0.913 0.236 0 -0.327 0 0 0.039 0 0.005 0 0 0.646 -0.046 0 -0.358 -0.519 0 -0.231 0.297 -0.029 0 -0.906 -0.479 0 -0.088 -0.249 0 0.333 0 -0.378 0.405 -0.652 0.897 0.127 0 0.667 -0.62 0 0.058 0 0.199 0 0 -0.768 0.42 0 0 0.686 0 0.024 -0.769 0 0.677 0.653 0.022 0 0.464 0 -0.943 0.49 0 0 0 -0.133 0 0 0 0.37 0 0.698 0.708 0 -0.077 0 0.74 -0.162 -0.295 -0.287 -0.501 0 0 0 0 0.845 0.265 0 -0.758 -0.436 0 0.267 0.886 0 0.364 -0.305 0.648 0 0 0 -0.063 0.946 0.988 0 -0.267 0 0.874 0 0 0 0 -0.268 0 0 0.547 -0.215 0 -0.811 0 0 -0.663 -0.415 -0.612 0.952 -0.514 0 0 0 -0.84 -0.758 0 0.376 -0.974 0.175 0 0.73 -0.85 0.407 0 0 0 0 0 0 -0.998 0 0 -0.196 0 0 0 0 0.539 -0.325 0 0.414 -0.572 0.147 -0.878 0 0 0.119 0 0 0 0 0 0.756 0.805 -0.56 0 0 0 0.825 0 0.845 -0.092 0 0 -0.544 -0.653 0.835 0 0 0 0.832 0 0 0.629 0 0.266 0 0 0 0 0 0 0 0.867 -0.534 0 0 0 0 0 0 -0.48 0.5 0 -0.405 0 0.327 0 0 0.67 -0.141 0 -0.154 0 0.054 0 0.763 0.19 0.871 0.212 0 -0.942 0 -0.14 0 0.439 -0.553 0 0 0 0 0 0 -0.987 -0.909 0 0.638 0 -0.356 -0.92 -0.949 -0.17 0.518 0.24 0.585 0 0 0 0 0 0.502 0 -0.244 0 0 0.868 0 0 0.111 0 -0.112 0 0 -0.456 0.549 0 0 0 -0.65 -0.032 0 0 0 -0.228 0.616 0 0.255 0.116 0 0 0 -0.46 0 0.371 0 -0.777 -0.728 0 0 -0.795 -0.897 0 0 0.472 0.363 0 0 0.901 0 0 -0.793 0 0.501 0.109 0.669 0.698 0.616 0 -0.033 0 0.396 0 0 0 0 -0.275 0.625 -0.056 0 0 -0.471 -0.77 -0.846 0.356 0 -0.097 0 0 0 0 -0.166 0 -0.715 -0.701 0 0 0 -0.602 0.259 0.195 0 0 0 0 0 -0.247 0.293 0.785 0 0 0.541 0 0 0 0 0 0 0 0 0 0 -0.405 -0.928 0 0 0 0 0 0 0 0.462 0 -0.197 0.618 0 0 0 0 0.249 0 0 0.988 0 0.894 0.068 0 -0.55 0.351 0 0 0 0 0.117 0.263 0 -0.49 0.183 -0.136 0 0 -0.582 -0.929 0 0 0 0 0.251 0.762 0.998 0 -0.755 0 -0.592 0 -0.352 -0.255 0.287 0 -0.974 0 -0.545 -0.579 -0.248 0.59 -0.043 0 0.172 -0.254 0.956 0 0 -0.55 0.268 0 -0.333 0 0 0 -0.438 0 -0.506 0 -0.548 0 0.363 0 0 0 0 0.304 0 -0.613 -0.701 0 0.467 -0.67 0.294 0.001 0 0 0.34 -0.804 0 0 0 0 0 -0.068 0 0.005 0.769 0 0 -0.332 0.521 -0.855 0 0.208 -0.282 0 0 0 0 0 0 -0.948 -0.815 0 0.11 0 0 0 -0.082 0.792 0.313 -0.733 -0.595 -0.213 0.901 0 0 0 -0.633 0.556 0 0.092 0.444 0 0 0.579 0 -0.073 0 0 0.89 0.014 0 0 0 0 0 0 0 0 0.097 -0.561 0 0 -0.818 -0.279 0 -0.415 0 -0.078 0 -0.097 0 0.773 0 -0.421 0 0 -0.082 0.301 0.655 -0.1 0 0 0.385 0 0.662 -0.083 0 0.108 0.597 0 0 -0.131 -0.75 0.864 0 -0.83 0 -0.642 0 -0.126 0.893 0.23 -0.875 0 -0.099 0 0 0 -0.631 0 0 0 0 -0.759 0.025 0.604 0 0 0 0 0.723 0 0 0 0 0.198 0.5 0 0 0 0.341 0 -0.203 0 -0.358 0.171 0 0 0 -0.636 -0.831 0 0.444 0.233 0.372 0 0 0.096 0 0.402 0.271 -0.549 0 0.176 0.247 0 0 0 0.191 0 -0.42 -0.426 0 0 0 0 0.707 0 0 0 0.424 0.409 0 0.229 0.168 -0.818 0.105 0 0.035 0 -0.776 -0.292 0 0 0 0 0 0 0.801 0 -0.643 -0.921 0 -0.2 0 0.664 0 0 0 -0.669 0 0 0 -0.828 0 -0.59 0 0.34 -0.445 0 0.038 -0.858 0 0 0 0 0.321 -0.587 0 0 0 -0.175 0 -0.636 0.01 0 -0.14 0 0.341 0 0 0.897 0 0.631 0 0 0.345 -0.911 0 0 -0.474 0 -0.138 0 0 0 -0.235 0 0.527 -0.192 -0.557 0 -0.298 0 0 -0.971 -0.727 0 0 0 0 -0.793 -0.268 -0.529 0 0.841 0.261 0.343 -0.726 0.398 0.667 0 -0.27 -0.223 0 0.245 0 -0.677 0 0 0 0.225 0.574 0.282 0 0.766 0 0.98 0 0 0 0 0.349 0 0 0 0 -0.645 0 0.145 0 -0.885 -0.281 0 0 0 0 0.007 0.522 -0.577 0 0.663 0 0.016 0.161 -0.954 0 0.219 0.67 0 0.358 0 0.782 0.667 0 -0.584 -0.222 0 -0.717 0 0.539 -0.555 -0.341 0 0 0 0 0 0 0 0.608 0.944 0 0.33 0 0.005 0 0.464 0.686 0.633 0.643 -0.735 0.633 0 0.543 0.046 0.704 -0.711 0 0 -0.179 -0.822 -0.882 0 -0.31 0 0 0 0 -0.158 0.493 0.017 0 -0.827 0 0 0.541 -0.7 0.28 -0.828 0 -0.398 0 -0.821 0.705 0 -0.6 0 0 -0.72 0.053 0 -0.832 -0.498 0 0 0.89 0 0 0 0.064 0 -0.255 0 0.498 0 0 0.963 0 0 -0.212 0 0 -0.283 0 -0.219 -0.999 0.579 0 0 -0.087 0.745 0 0 0.918 0 0 0.105 0.637 -0.118 0.344 0 0.839 0 -0.238 0.746 0.205 0 0 -0.062 -0.639 0.375 -0.257 0.882 0 0 -0.368 0 0 0 0.412 0 0.556 0.112 0 0 0 0 0 0 0.985 -0.882 -0.682 0 -0.768 0.546 0 0.239 0.518 0 0 0.653 0.125 0.805 -0.702 -0.63 0.759 -0.287 0.433 -0.414 0 -0.115 -0.499 -0.893 0.589 0.256 0 0 0 0 0 0.221 0.147 0 0.113 0 0 0 0 0 0 0 0 0 -0.174 -0.687 0 0 0 -0.609 0.24 -0.656 0 0 -0.461 -0.838 0 0 -0.853 0.771 0.594 -0.507 -0.093 0.268 0 0 -0.165 -0.938 0 0.209 0 0 0.643 0.805 0 -0.872 0.838 0 -0.072 0.118 0 0 -0.606 0 -0.768 0 0.357 -0.249 -0.688 0 -0.289 -0.59 0.413 -0.48 -0.061 -0.451 0 0.805 0 0 0 0.756 0.547 0 -0.515 0 0 -0.449 0.189 0 -0.309 0 -0.536 0.865 0.116 0 0 0.021 -0.232 0.683 0 0.713 0.553 0 -0.675 0 0 -0.503 -0.972 0.019 0 0 0 0.996 0 -0.058 0 0 0 -0.729 0 0 0.877 0 -0.195 -0.874 0 0.565 0.212 0 0 0 -0.508 0 -0.955 0 -0.521 0 0 0 -0.48 0.261 0 -0.273 0.075 0 -0.035 0 0 -0.09 0 0.391 0.833 0 0 -0.773 0 0.183 0.815 0 0.154 0.259 0 0 0 0 0 -0.007 0 -0.35 -0.78 0 0.234 0.45 0.17 0 0 -0.305 0 0.653 -0.1 0.932 0 -0.018 0 0 0 0 0 0 0 0 0 0 -0.747 0 0 0 0 0.357 -0.344 0.165 -0.215 -0.246 -0.793 0 0.742 0 -0.922 0 -0.213 0 -0.181 -0.97 0 0 0 -0.092 0 0.66 -0.633 -0.632 0.923 -0.699 0 0 0.581 0 0 0.866 0.421 0.068 0 0.721 0.42 -0.602 0.322 0 0.801 0 0 0.599 0.827 0 0 0.706 -0.129 -0.106 0 0 0 -0.272 -0.52 0 -0.717 0 0 0.2 0 -0.813 0 0 -0.211 0.186 0.207 0 0 0.768 0 0 0.718 -0.512 0 0.064 0.964 0 0 -0.421 0 0.437 0 0 0 0.757 0 0 0.768 0 0 0 0 -0.058 0.256 0 0 -0.892 0 0.708 0 0.307 0 0 0.913 -0.69 -0.807 -0.193 0 -0.833 0.174 0 0.197 0 0 0.304 0.344 0.684 0.68 0.762 0.741 0 -0.844 -0.875 0.171 0 -0.976 0 0 -0.957 0 0 0 0.735 -0.36 0.651 0 -0.734 0 0 -0.69 0.685 -0.137 0 0 0.737 0 0 0 0.476 0 0 0.601 0.325 -0.525 -0.759 0 0.237 0 -0.768 0 -0.319 0 0.621 0 0.783 0 -0.41 -0.839 0 0 0 0.075 0 -0.548 0.82 0.732 -0.588 0 -0.974 0.952 0.157 -0.471 0.207 0 0 0 0 0.426 0 0.514 0.279 0.922 -0.573 0 0 0 -0.814 0 0.018 0.902 0 -0.072 -0.046 0 -0.849 -0.033 -0.222 0.166 0.154 0 0 0 -0.859 0 0 0 -0.948 0 0 0 0 0 0 0 0.192 0.941 0.7 -0.644 0 0.296 0.791 0 -0.083 0.012 0 0 -0.165 0.255 0 0.557 -0.895 0 -0.639 0 0 0.58 0 0 -0.49 0.217 0.238 0 0.867 0.137 0 0 0.847 0 0.735 0.26 0 0 0.502 0.814 -0.335 -0.56 0.724 0 0 -0.861 0 0 0 0 0 -0.785 0 0 0.921 -0.348 0 0 0.379 -0.374 0 0 -0.963 0.716 0 0 0 0 -0.3 0.627 -0.563 -0.132 0 0.951 0 -0.293 0 0 -0.262 0.804 -0.609 0.298 0.969 0 0 0 0 0 0 0 -0.968 0 0.117 -0.123 0 0 -0.063 -0.928 0 0 0 0 0 0 -0.766 0.907 0 0 0 0 0 0 0.62 -0.693 -0.956 -0.872 0.646 0 -0.171 0 0 -0.989 -0.769 0 0 -0.985 0 0 0.059 -0.548 0 0.665 0.263 0.782 -0.232 -0.425 -0.811 0.363 0.31 0 0 0 0 0.092 0 0 0 -0.743 0 0 0.009 0 0 0 0 -0.78 0 -0.733 0 0 0.365 0 -0.997 0 -0.095 0 -0.978 0 0.448 0 -0.579 0 0.117 0 -0.257 0.563 -0.995 0 0 0 -0.007 0.737 0 0 0.326 0 0 0 0.544 -0.871 -0.894 -0.194 0 0 0 -0.97 -0.112 0 0 0 -0.346 0.256 0 0.875 0 0.263 -0.481 -0.181 0 -0.434 0 0 0 -0.047 0.046 -0.307 -0.516 -0.536 -0.447 0 0 -0.084 0 0.921 0 -0.752 0 0.034 0.051 0 0 0.131 0 0 -0.598 0.764 0 0.218 0 0 -0.339 -0.238 0 0.852 0 0.662 0 0 0 0 0.489 0.616 0 0 -0.863 0 0 -0.396 0 0 -0.296 -0.302 -0.691 0.972 0.396 0 0 0.842 0 -0.027 0 0 0 0 0.365 0.115 0 0.956 -0.772 -0.325 -0.464 -0.413 0 -0.095 -0.516 0.881 0 0 0 0 0 0 0 0.603 0 0 0.006 -0.3 0.799 -0.552 0.924 0.07 0 0 0 0.687 -0.736 0 0 0 -0.814 0 0 0.721 0.652 0.564 0.506 -0.143 0 0 0 0 0.657 0 0.923 0.067 0 0.837 -0.376 0.753 0 0 0.288 -0.794 -0.723 0.618 0 0 -0.659 0 0.077 0 -0.014 -0.445 -0.144 0 0 0 0.353 0 0.407 0 0 -0.805 0 0 0.262 0 0 0 -0.732 0.929 0 0 0 0 -0.493 0 -0.849 0 0 -0.988 0.629 0.921 0.631 0.695 -0.256 0 -0.894 0.963 0.332 0 -0.428 0 0 0.05 -1 0.38 0.719 0 -0.465 0 -0.067 0 0 -0.408 0 0 0 0 0.336 0.708 0.157 0 -0.027 0 -0.059 0.14 -0.128 -0.492 0 0.172 -0.637 0 0 -0.303 0 0 0 -0.689 0.176 0.856 0 0 0 0 0.716 0 0.582 0 0 0 -0.531 0 -0.541 -0.649 0 0 0 0.833 0 0 0 -0.884 -0.625 0 0 0 0 0 0.898 0.328 0 0.682 0 -0.47 0.781 0 0 0 -0.844 0.51 0.321 0 0.592 -0.902 0 0 0 -0.593 -0.256 -0.021 0.16 0 0 0 0.7 0.002 -0.771 0 0.044 0 0 0.891 0 -0.163 0.122 0 0 0.521 0 0 -0.829 0.575 0 0 0 -0.269 0 -0.724 0 0 0 0 0 0 0.957 0 -0.068 0.035 0.804 0.441 0.203 0 -0.07 -0.562 0 0 0.003 0 0 0 0 0.995 0.759 0 0 0 0 -0.592 -0.893 -0.613 0 0 0.971 -0.83 0 -0.906 -0.29 -0.921 0.376 0 0.59 0.834 0 -0.984 0 0 0 0.668 0 0 0.61 -0.415 -0.716 0 -0.462 0 0 0.105 -0.757 -0.938 0 0 0 -0.256 0 0 0 0 0 0 0 0.449 0 0 0.83 -0.831 -0.825 0 -0.462 -0.158 0.397 0 -0.712 0 0 0 0.32 0 0 0 0 0 0 0.265 -0.496 0.489 -0.904 0 0.58 -0.816 0 0 0 0 0 0 0 0 0 0 0 -0.34 0.535 -0.083 0 0 0 0 -0.102 -0.991 0 -0.423 0.022 0.99 0.564 0 0 0.699 0.892 0.627 0 0 0 0.419 0 0.302 0 -0.313 -0.094 0.829 0.302 -0.94 0 0.205 0.972 0 0.019 0 0.58 -0.076 0.545 0 0.311 0 -0.315 -0.187 0 0.895 0 0 0.306 0 -0.848 0 -0.172 0.702 0 0.074 0.68 0 0 0 0 0.796 0.169 0 0 0 0.199 0.589 0.126 -0.4 0 0 0 0 0 0.267 0 0.779 0 0.735 0 0.685 -0.353 0 0 0 0.653 -0.867 0.105 0.51 0 0 0.739 -0.541 -0.577 0 -0.547 0.974 0 0 -0.262 -0.313 0 0 0 0 0 0.727 0 0 -0.008 0 -0.25 0.135 -0.176 0 0 0 0 0 -0.257 0 0 -0.59 -0.083 -0.454 0.704 -0.064 -0.401 0 0 -0.589 0 -0.484 0 -0.554 0 0.438 0 -0.021 0 0.849 -0.915 0 0 0 0 0.494 0 0 -0.238 0 0 0 0 0.48 0 0.875 0 -0.682 0.959 0.182 0 -0.67 0 0.273 0.004 0 0 0 0.384 0 -0.336 0.866 0 0.297 0 0 -0.162 0.032 0 -0.489 0 0.366 0 0 0 0.439 0.26 0 0.846 0.92 -0.893 0 -0.291 -0.625 0 0.763 0 -0.113 -0.307 0.196 0 0 -0.514 -0.323 -0.76 -0.614 0 0.019 0.395 0 -0.221 0 0 0 0 -0.947 0 0 0 0.114 -0.4 0 0 0.296 0 0.751 -0.05 -0.78 0 0 0 0 0.747 0 -0.192 0 0 -0.692 0 0.465 0 0 0 -0.845 0.092 0 -0.438 0 0.557 0.374 0 0 -0.314 -0.882 0 -0.081 0.493 -0.81 0 0 -0.667 0 0 -0.316 0 0 0.655 0 0 0.478 0 0.143 0.43 -0.832 -0.832 -0.545 0.879 0 -0.933 -0.622 0.896 0 0.627 0 0 0.411 -0.374 0 -0.657 0 0 -0.177 0.131 0.156 0.047 0.802 -0.204 0 0 0 0.034 0 -0.655 0 0 -0.549 0.351 0 0 0 -0.685 0 0 -0.376 0.457 0 0 0 0 -0.6 0 0.945 -0.445 0 0 0 0 0 0.993 0 0 0 -0.157 0 0.086 0 -0.165 -0.927 0 0 0.567 0 -0.106 0.423 0 0 0 0.037 0 0 0.29 0 0 -0.368 0.027 0 0.889 -0.626 0.191 0.46 0 0 0 0 0.887 0.646 0.687 0.039 0 0.551 0 0.241 0 0 0 -0.631 0 0.312 -0.408 0 -0.061 0 0.602 0.471 -0.444 0 0.09 -0.477 0 0 0 -0.932 0 -0.41 0 0 -0.528 -0.836 0.887 -0.55 0 0 -0.158 0 0.924 -0.644 0 0 0 0 0.001 0.152 0 -0.051 -0.13 0 0 -0.408 0 0 -0.503 0.053 0 0 -0.386 0 0 0 0 0 -0.366 0 -0.323 0.549 0 0 0 0 0 -0.26 0 0 0 0 -0.58 -0.327 0 0 0 -0.221 -0.854 0 -0.554 -0.79 0 -0.634 -0.192 0 0 -0.598 0.715 0 -0.329 -0.546 0.795 0 0 0.68 -0.784 -0.6 0.131 0 0 -0.706 0 -0.082 -0.8 -0.437 0 0 -0.162 0 0.607 0 0 0 0 0 0 0.605 -0.135 -0.374 0 0 -0.858 0 0 0 0.36 -0.123 -0.257 0 -0.727 0 0.256 -0.875 0 0 0 0 -0.856 0.807 0.608 -0.536 -0.455 0 0.575 0 0 0 0.137 0 -0.858 0.927 -0.451 -0.611 0 0 0 -0.507 -0.581 0 0.18 0 0 0 0.78 0.114 0.955 0 0 0 0.323 -0.109 0 -0.602 -0.4 -0.232 0 0 0 0.129 0.775 0 0 0 0.959 0.152 0 0 0 0.785 0.139 -0.694 -0.175 -0.501 0.694 0.825 0 0 0 -0.74 -0.245 0 0.56 0 0 -0.444 -0.453 0 -0.029 -0.364 0 0 0.824 -0.328 0 0 0.899 -0.794 0 0 -0.848 0 -0.063 0.066 0 0.264 0.304 0 0 -0.351 0 -0.965 0 0 0 0 0 0 0.068 0 0.467 0.261 -0.896 0 0 -0.197 0 0.159 0 0 0 0.802 -0.289 0 0.117 -0.521 0 -0.134 0.681 0.557 0.058 0.561 0 -0.514 0 0 -0.682 0 0.592 0 0 -0.871 0 0 0 0 -0.629 0.542 0 0 0 0 0 -0.601 0.159 0 0.358 0 0 0 0.03 0.407 0.571 0.37 0 0.391 0 -0.952 -0.716 -0.32 0.201 -0.141 0 0 -0.348 0 -0.728 -0.264 0 0 0 -0.482 0 0 -0.437 -0.672 0 -0.226 -0.036 0 -0.599 0 -0.446 0 0.151 0.665 0.865 0 0 0.799 0.877 0 -0.851 0 -0.975 0 -0.817 0.061 -0.658 0 0.248 0 -0.303 -0.874 0 -0.855 -0.682 -0.243 -0.327 0.994 0 0.191 0.121 0.667 0 -0.389 0 0.395 0 -0.859 0.256 -0.703 0.746 -0.164 -0.624 0 -0.77 -0.349 -0.496 -0.947 0.953 0 0 0.381 0.457 0.399 -0.684 -0.855 0 0 0 0.045 0 0 0 0 -0.873 0 0 0 0 -0.199 0.061 0 -0.18 -0.545 0.82 -0.522 -0.157 0.311 0 0.991 -0.57 0 0 0 -0.68 -0.355 0.104 0 0 0 0 -0.3 -0.544 -0.155 0 0 0 0 0.882 0 -0.649 0 0 -0.728 -0.135 0 0 -0.268 0.663 -0.799 0 -0.72 0 0 0 0.854 0 0.266 0.52 0 0 0 -0.02 -0.309 0 0 0 0 -0.462 0 0.6 0 0 0 0 0 -0.65 0.495 -0.076 0 -0.235 -0.206 0.716 0.728 -0.397 0 -0.335 0 0 0 -0.616 0 0.447 0 -0.601 0.689 0 0.145 0 0.976 -0.747 0.64 -0.97 0.13 -0.754 0 0 0 0 0 0 0 0 -0.754 0 0.979 0.174 -0.289 0.773 0.515 -0.342 0 0.693 0 0 0 0.504 0.695 0 0 0 0 0.136 0.446 0.476 0 -0.534 0 0 0 -0.612 0 0 0 0 0 0.342 0 -0.849 -0.555 0 0.977 0 0 0 -0.499 0.829 0 -0.706 0 0 0 0 -0.682 0 -0.068 0.488 -0.477 0.907 0 0 0 0.591 0 0 0 0 0.573 0.422 -0.86 0.666 0 0 0 0 0 0 0 0.873 0.661 0.228 -0.614 0 0.012 -0.493 0 0 -0.754 0.154 -0.573 -0.932 0 0 0.086 0 -0.664 0 0 0 0 0 0 0 0.844 0 0.472 0 0 0.989 0 -0.927 0 0.342 0 -0.011 -0.742 0 0 -0.837 0 0.753 -0.58 -0.39 -0.593 0 0 0 0 0 0 0.175 -0.542 -0.971 0 0.509 0 0 0.844 0 0.499 0.732 0.362 0 0 0 0 -0.124 0 0.786 -0.116 0.614 -0.498 0.654 -0.249 0 0 0.951 0 0.993 0 0 0 0.643 -0.87 0 -0.799 0.44 0.182 0.184 0 0.694 -0.022 0 0.363 -0.973 0 0 0 -0.623 0 0 0.54 0 0.72 -0.326 -0.591 0.743 -0.389 0.495 -0.416 0 0 0 0.274 0.927 0.158 0 0.976 -0.885 -0.631 0 0 -0.571 0 -0.531 -0.968 0 0.232 0 0.007 0 -0.305 0 0 0 0.471 0 0 0 0.49 0 0 0 0.328 0 -0.585 0 0 -0.824 -0.7 0 0 0 -0.351 -0.702 -0.086 0 0.786 0.706 0.235 0 0.243 0 0 0.996 0 0 0 -0.036 0 0 0 0.597 0.395 0 -0.409 0 0.002 0 0 0.241 -0.941 -0.265 -0.107 0 0 0.506 0 -0.494 0.164 0 -0.495 0.424 -0.276 0 0 0 0 0 0.99 0 0 -0.012 0.893 0.109 0.278 -0.457 0 0 0 0.973 0.895 0.966 0 0 0 0 0 0 0 -0.171 0.142 -0.969 0 0.705 0 0 0 0 -0.904 -0.894 0 0 0 0 0 0 0 -0.925 -0.742 0 -0.76 0 0 0.27 0 0.065 0.572 0 0 0.49 0.268 0 0 -0.231 -0.077 0 0 0 0 0 0 0 0.958 0 -0.49 0 -0.229 0 -0.02 0.377 -0.11 0.912 -0.756 -0.014 0 -0.629 -0.16 0 -0.693 0.728 -0.183 0 0 0 0.395 0 0 0.097 -0.64 -0.668 0 0.722 0 0 0.64 0 0 0 -0.262 0 -0.741 -0.67 0.979 0 0 0 0 0.172 -0.247 0 0 0 0 0 0 0 0 0 0.153 0 0 -0.395 -0.516 -0.457 0 0 0 0.217 -0.202 -0.766 0 0.035 0 0.944 0 0 -0.12 0.388 0 -0.801 0 0 0.645 0.227 0 0 0 0 0 0.699 0 -0.673 0 0 -0.003 -0.331 -0.884 -0.925 0.547 0 0 -0.059 0 0 0 0 0 0.053 0 0.52 0.827 -0.769 -0.163 0 0 0 0 0 -0.662 0.893 0 0 0 -0.923 0 0 0 0 0 0 0 0.228 -0.457 0 -0.392 -0.143 0 -0.144 -0.325 0.874 0 0 0.972 0 0.369 0 -0.587 0 -0.052 0 0.627 0 0 -0.173 -0.964 -0.42 0 -0.191 0 0 0 0 0.136 0 -0.451 -0.823 -0.076 -0.853 -0.149 0 -0.839 0 0 0 0 -0.506 -0.036 0 0 -0.415 -0.672 -0.745 0.515 0.32 0.817 -0.476 0 -0.236 0 0 -0.396 0 0 0 0 0 0.561 -0.226 0 0 -0.135 0 0 0 0.537 0.87 0.435 -0.212 0.025 -0.288 0 0.81 -0.237 0 0.061 -0.262 0.937 0 -0.461 0 0 0 -0.823 0 0.291 0 0 0 -0.709 -0.496 0 0 0.352 0 0.59 0.408 -0.408 -0.264 -0.982 0 0 0 0.382 0 -0.813 0 0 0.073 0 0 0 0 0 0 0 0 -0.166 0.526 0 0 -0.351 0 -0.223 0.508 0 -0.444 0 0.978 0.451 0.064 0.299 -0.13 0 0 0.696 0.206 0 0 0.235 0.304 0 -0.405 0 0 -0.895 0 0.877 0.463 -0.712 -0.15 0 0 0 0 0.296 0 0 -0.274 0 0 0 0 -0.412 0.502 -0.82 0 0 0 0 0.854 0 0 -0.688 0.52 0 0 -0.964 0.67 0 0 0 0 -0.92 0 -0.81 0 0.554 0 -0.384 0.658 0 0 -0.335 0 0 -0.345 0 0 0.795 0 0.053 0 0 0.958 -0.145 0 0 -0.434 0 -0.533 0 0 0 -0.232 0 -0.444 0.291 -0.081 -0.705 0 -0.538 0 0.167 0 0 0.896 0.383 0.121 0 -0.838 0.98 0 0.409 0 0.539 0.838 0.06 0 0 0.736 0.216 0 0 -0.436 0 -0.545 0 0.468 0.496 0 0 0 0 0.153 0 0.422 -0.747 -0.384 -0.567 0 0 -0.831 -0.774 0 0 0 -0.602 0.171 0.8 0 0 0 0.406 0 0 0 0 0 0 0.138 0 0 0 -0.225 0.116 0 0 0.746 -0.825 0 -0.365 0 0.418 -0.137 0 0 0 -0.378 0 0.086 -0.103 0.375 0 -0.638 0.954 0 0 0 0 0 0 0 0 -0.696 0 -0.709 0.165 0.422 -0.337 0.014 0.246 0 -0.039 0 0.075 -0.051 0 0 -0.73 0 0.999 -0.776 0 0.84 -0.559 0 0 0 0 0.386 -0.899 0 -0.407 0.753 0.863 0.826 0 0 0 -0.228 0 -0.953 -0.505 0 -0.377 0.805 0 -0.287 0.949 0.426 0 0 0.552 0 0.025 0 -0.343 0 -0.366 0 0.957 0 0.13 -0.601 -0.048 -0.923 0.481 0.108 0 -1 0.118 0 0.27 -0.428 0 0 -0.287 0 0.456 0.087 0.884 0 -0.967 0 0.939 -0.381 -0.926 0 0 0.923 0.955 -0.888 0.61 -0.346 0 0.902 -0.487 0 0.566 0.603 0 0.869 0 0 0.763 0 -0.989 0.798 0.128 0.882 -0.523 -0.913 0 0.504 0 0.273 0.244 0 -0.911 0 0.311 0 0 -0.219 0 0 0.697 0 0 0 0.307 0 0 -0.335 -0.379 0 -0.855 0 0.342 0.394 0 0.503 -0.855 -0.719 -0.889 0.731 -0.405 -0.406 0 0 -0.781 0 0.546 0 -0.445 -0.056 0.578 0 0 -0.869 -0.768 0.688 0 0 0.39 0.001 0 0 0 0 0.174 0 0.136 0 0 0 -0.197 0 0 0 0 0.475 0.915 0 -0.099 -0.529 -0.301 0.856 0 0 -0.792 -0.785 0 0 0.029 0 0.933 -0.103 0 -0.005 0 0 0.296 0 0.178 -0.453 0 0.179 -0.348 -0.106 0 -0.567 0.066 0 0 0.93 0.442 -0.218 0 0.479 0.511 0.712 0 0.712 0 0 0.058 0 0 0.321 0 0 0 -0.023 0 0 -0.224 0 0 0 0 0 -0.094 -0.775 0 0.734 0.39 0.252 0 0.401 0.653 0 0 0.151 0 -0.066 0.974 0.71 0 0.326 -0.846 -0.595 -0.495 -0.031 0 0 0 0 0.699 0.066 0.154 0.709 -0.071 0 0 0 0 0 0.322 0 0 -0.123 0 -0.879 0 -0.6 -0.908 0 0 0 0.537 0 0.41 0.317 -0.463 0.896 0.678 0.002 0.615 0 0.204 0.442 0 0 0 -0.734 0 0 0 0 0 -0.804 0.037 0.736 -0.164 0.046 0.339 -0.03 0.713 0.248 0 0 0 0 0 0.009 -0.116 0 0 0 0 0 0 0 0 -0.846 0 0 -0.883 0 0 0 -0.705 0 -0.799 0 0 0 -0.701 0 -0.857 0 0 0 0.514 -0.53 0 0 -0.501 -0.373 0.821 0.975 -0.235 0 -0.542 0 0 0 0 0 0 0 0 0 0 0.721 0 0.844 0 0.83 -0.086 0 -0.027 0 0 0 0 0 0 -0.531 0 -0.437 0 0.896 0 0 -0.102 -0.925 -0.86 0 0.128 0 0.07 -0.999 0.765 -0.102 0.135 0.721 0 0 0.422 0 0 0 0 0 -0.641 -0.22 0.64 -0.017 0 -0.252 -0.746 0.739 0 0 0 -0.187 0.235 -0.328 0 0.55 0.257 -0.117 0.504 0 0.971 0 0 0 0.862 0 0.725 0 0.662 0 0 0 0.248 -0.746 0 -0.739 0 0.575 0 0.241 0 0.761 0 -0.977 0.711 -0.017 0 0.86 0 0 -0.727 0.378 -0.693 0 -0.208 0 0.37 0 -0.229 -0.195 0.791 -0.225 0 0 0 0 0 -0.068 0.462 0 -0.581 0 0 0.012 0.428 0 0.736 0 0.617 -0.776 0 0 -0.558 0.741 -0.818 0.533 0 0.408 0 0 0 0.459 0 0.393 0 0 0 -0.072 0.292 0 0 0 0.147 -0.169 0 0.228 0 -0.146 0.69 -0.642 0 -0.972 0 0.872 0 0.64 0 -0.247 -0.956 0.506 0 -0.197 0 -0.644 -0.972 -0.634 0 0 -0.39 -0.792 0.256 0.445 0 0.447 -0.605 -0.247 0 0 0 0 -0.409 0 0.987 -0.798 0 0 -0.013 -0.55 0 0 0.741 0 0.537 -0.531 0 -0.152 0 0 0.169 -0.08 0.6 0 0 0 -0.933 0 0 0 0 0 0 0 0.704 0.076 0 0 -0.077 0 0 -0.491 0 0 0 -0.625 0 -0.004 -0.483 -0.969 0.701 -0.845 0.749 -0.867 0.39 0 0 0 -0.02 0 0 0 0 -0.237 0.86 0.158 -0.78 0.209 0 0.513 0.085 -0.493 0 0 0 0 0 -0.043 0.719 0.488 0.976 0.172 -0.414 0 0.904 0 -0.645 0.527 0.387 0 0.358 -0.224 0.725 0.348 0 0 0.716 -0.269 0 0 -0.706 0 -0.971 0.513 -0.609 0.265 -0.688 -0.59 -0.772 0 0.05 0.723 0.877 0 0 0 0 0 0 0 -0.943 -0.93 0 -0.819 -0.632 0 0 0.154 0 -0.887 0.179 0 0.686 -0.066 0 0 0.766 0 -0.749 -0.926 0.581 -0.938 -0.347 -0.666 -0.96 0 0 0.598 -0.117 -0.757 0 0 0 0 0.744 0.881 0 0 0 0.142 0.029 -0.769 0 -0.919 0 0 0 0.978 -0.041 0 -0.09 0 0.645 0.632 0.384 -0.177 -0.229 0 0.421 0 0 0 0 0.546 0 0 -0.543 0.558 0 0 0.982 -0.687 0 0 0.371 0 0 -0.379 0 0.428 0 -0.681 0 0 0 -0.364 0 0.922 0 0 0 -0.54 0 -0.742 0 0 0.029 0 -0.868 0 0.018 -0.344 -0.675 0.798 0.522 0 0 -0.741 0 0 -0.497 0 -0.78 0 0.315 0 -0.376 0 0 0 0.263 -0.177 0 0.236 -0.818 0 -0.4 0 0.935 0 0.385 0 -0.385 0 0 0 -0.926 0.959 0 0 0 0.999 -0.748 -0.221 0 0 0.394 0.026 0 0.832 0 -0.482 0 1 0 -0.473 0 0 0 0 0 0.858 0 -0.776 -0.734 0 0 0.108 0 0 -0.072 -0.491 0.82 0 -0.583 0 0.503 -0.679 0 0.701 -0.731 0 0 0 0 -0.301 0 -0.964 0.195 0 0.86 0 0.607 -0.787 0 0.44 0 0 0 0 -0.985 -0.193 -0.5 -0.443 0.512 -0.941 0.267 -0.266 0 -0.786 0 -0.32 0 0 0 0.153 0 0.64 0 -0.411 -0.669 0 0 0.381 0 0.061 -0.236 0 0.626 -0.297 0.156 0.291 0 0.504 0 0 0 0 0.773 0.75 0 0 0.839 0 0.883 0 0 0.397 0 0 0.808 0 0 0 0 0 0 0.372 0.083 0 0 0 0 0 0 0.375 0 -0.495 -0.62 0 0 0 0 0 0.82 0.565 0 0 0 0 0 0.747 0.137 0 0 0.449 0 0 -0.738 -0.646 0 0.848 0.823 0.508 0 0 0 -0.487 -0.164 0.392 0 0 0 -0.737 0.98 0.318 0 0 0 0 0 0.014 0 0.205 -0.328 0 0 0 0 0.419 -0.249 -0.643 0.94 -0.223 0 -0.016 -0.985 0 -0.744 0 -0.413 0 0 0.565 -0.739 -0.104 0 0 0.373 -0.317 0.576 -0.802 -0.99 0.121 -0.559 0 0 0.375 0 0 0.467 0 -0.862 0.827 0 0.417 0 0.827 0.143 0 0 0 -0.899 0.573 -0.581 -0.619 0.809 0.266 -0.891 0 0 0.584 0 0.373 0 0 0 -0.261 0 0.001 0 -0.592 -0.311 0.583 0 -0.58 -0.71 -0.437 0 0 0 0 0.258 -0.381 0 0.196 0.966 -0.205 0 0 0 0 0 0 0.434 -0.226 0 0 0.313 0 0.065 0 0 0 0 0.402 -0.167 0 -0.802 0.354 0 -0.069 0 0 0 -0.788 0 0 0 0.397 0 0 0 0 -0.939 0 0 0 0.884 0 0 0.933 0 0 0 0 -0.81 -0.615 0 0 0 0 0.814 0 0 0 0.25 0.559 -0.073 0 0 -0.307 0.615 0 -0.143 0 0 0 0.663 -0.158 0.725 0 0 0.232 0 -0.513 0.118 0 -0.687 0 0 -0.035 -0.453 0 0 0 -0.184 0.201 0.996 0 0 0 0.111 0 0 0 0.717 -0.422 0 0 0 0 0.814 -0.449 0 0.982 0 0 0.239 -0.017 0 -0.338 -0.464 -0.429 0 0.217 -0.608 0 0.466 0 0.966 -0.658 0 -0.532 0.221 -0.136 0 0 -0.684 0 0.937 0.38 0 -0.094 0.224 -0.912 -0.708 0 0 -0.225 0 -0.044 0.06 0 0 -0.931 0 0 0 -0.464 0 0.177 -0.306 0 -0.646 0 -0.257 -0.924 0.021 -0.122 0 0 0 0 0 0.754 0.041 0 0 0 0.369 0 0.259 0 0 -0.964 0 0.12 -0.707 -0.392 0.944 0 0 0 -0.303 0 0 0 0.965 0 0 -0.242 0 0 0 0 -0.25 0 0 0.83 -0.483 0 0.019 0 0 0.076 -0.558 0 0 0 0 0 -0.18 0 -0.142 0 -0.583 0 0 -0.511 0 0 0.509 -0.003 0 0.39 0.097 0.003 -0.187 0 0 0 -0.079 0 0 0 0 0.762 0 0 0 -0.512 0 -0.823 -0.21 0.128 0 0 -0.027 -0.664 0.372 -0.45 0 0.742 -0.048 0 0 -0.694 0 -0.375 0 0 0 -0.355 0.359 0.366 -0.752 0 0 -0.098 -0.871 0 0 0 0 0 0 -0.061 0 -0.899 0 0 0 0 -0.11 0.775 -0.031 0 0 0.318 0 -0.425 0 0.603 0 -0.453 0 0 0 0 0 -0.049 -0.386 0 0 0 0.962 0.477 0 0.125 0 0.955 0 0 0 -0.601 0.542 0.713 0 0 0 -0.102 0.941 -0.848 0 -0.68 0 0.814 0 0 0 0 -0.353 0.598 0 0 -0.449 0 0.101 0 0.209 0.153 -0.004 0 0 0 0 0 0 0 -0.432 0 0 -0.095 0 0 -0.777 -0.979 0 0 0 -0.1 0.407 0 -0.076 -0.295 0 -0.859 0 0 -0.986 -0.739 0.372 0 0 -0.082 0 -0.967 0 0 0 0 0.356 0 0 0.82 0 -0.192 0 0.019 -0.623 -0.42 -0.988 0 0 0 0.006 0 0 0 0 -0.419 -0.299 0 -0.735 0 0 0 0.532 0 0 0 0 0 0.679 -0.919 -0.101 0 0 0 0 0.984 0 0 0.877 0 0.547 0 0 0.334 -0.593 -0.196 0 0 0 0 0 0 0.684 0 -0.407 0 0 0 0 0 -0.225 0.097 0.318 0 0.438 -0.59 0 -0.489 0 -0.064 0 0.128 0 0 0 -0.703 0 0 0.076 0.149 0 0 -0.846 -0.149 0 0 0 0 0 -0.566 0.424 0 0 0.537 -0.421 0 0.781 -0.453 0 0 0 -0.999 0 0 -0.009 0 0 0 0.482 -0.627 -0.513 0 -0.92 0.377 0 0 0.864 0 -0.202 0.745 0.281 0.879 0.237 0 0.53 0.9 0.357 0 0 -0.631 0 0.552 0 0 0 -0.721 -0.286 0 -0.013 -0.341 0 0.603 0 0 0 0 0 0 0.071 0 0 0.815 0 -0.093 0 0 0 -0.585 -0.757 -0.913 -0.425 0.033 0 -0.265 0.391 0 0.896 0 0 0.615 0 -0.698 0.069 0 0.705 0 0 0.087 0 -0.669 0 0.392 -0.955 0.591 -0.605 0 0 0.247 0.731 0.213 0 -0.747 -0.122 -0.142 0 -0.378 0 0 0 -0.799 -0.481 0 0 0.038 0 -0.27 0 0.622 0 0.074 -0.529 0 0 0.619 0 0.583 0 0 0 0 -0.38 -0.372 -0.252 -0.197 0 -0.969 0.757 0 0 0 -0.421 0 -0.117 0 0 0 0 0 0 -0.358 -0.092 0.189 0 -0.707 0 0.124 0 0 0 0.206 -0.135 -0.959 0.516 0.97 -0.918 0 0 -0.899 -0.554 0 0 0 0.122 0 0.993 0.491 -0.171 0 -0.318 -0.963 0 0 -0.806 0 0.992 0 0.285 -0.376 -0.884 0 0 -0.942 0 -0.159 0 0.745 0 0 0 0 -0.932 0.572 0.22 0.038 -0.159 0.218 0 0.55 0.106 0.104 0.158 0 0 0 0.272 0 0 -0.853 0 0 -0.055 0 0 -0.035 0 0 0.841 0 0.631 0 0 -0.411 0 0 0 0 -0.616 0 0.673 -0.04 0 0 0 0.108 0.352 -0.427 0 0 0.604 0 -0.201 -0.667 -0.446 0 0 0.267 0 -0.194 0.892 0 0.842 -0.078 0 0 0 0.454 0.007 0 0.817 0 -0.165 0 0.111 -0.529 -0.894 0 -0.339 -0.566 0.755 -0.54 0 0 0.512 0 0.501 0 0 0 0 -0.716 0 0.461 0 0 0.793 0 0.873 -0.852 -0.65 0 0.993 -0.675 0 0.54 0.67 -0.586 0.368 0.547 -0.109 -0.195 -0.533 0 0 0 0 -0.34 0 0 0 0 0 0 0.89 0.878 0 0 0 0.431 0.352 0 0 0 0.168 0 0 0 -0.143 -0.939 0 0.614 0 0 0 -0.291 0.401 0.066 0 0 0 0 0 -0.794 0 0 0 0 0 0 0 0 0.3 0 0 -0.308 0.381 -0.324 -0.022 0 0.865 0 0 0.706 -0.316 0 0 -0.27 0 -0.36 0 -0.316 0 0 0 0.644 0.664 -0.705 0 0 0 -0.287 0 0 0 0.065 -0.969 0 0 0 0 0 0 0.968 0 0 0 0.155 0 0.078 -0.66 0 -0.866 0 0.126 0 0.05 -0.843 -0.028 0 0 0 0 0 0 0.948 0 0 0 0.24 0 -0.502 0 0 0.571 0 0 0 -0.876 -0.204 0 0 0 0 0 0 0 -0.879 0.163 -0.804 0 0 0 -0.776 0.05 0 -0.856 -0.066 -0.154 0 0 -0.592 0.777 0.196 0 0 0.844 0 0 0.365 0.702 -0.653 0.675 0 0 -0.566 0 0.751 0.689 -0.833 0 0 0 0.891 0.551 -0.175 0.032 0.48 -0.241 0.936 0 -0.99 0.993 0 0 -0.24 0.257 0.692 0 0 -0.939 0.811 0 0 -0.642 -0.004 0 0 -0.027 0 0.089 -0.113 0 0 0 0.359 0 -0.856 0 0 -0.528 0 -0.871 0.521 0 0 -0.503 0 0 0.109 0 -0.67 0 0 0 0 0.376 0 0.465 0 0 0.148 0 0 -0.191 0 0 -0.36 0 -0.513 -0.348 0.825 0 -0.791 0 0.68 0 0 0 0.401 0 0.36 0 0 -0.634 -0.522 -0.342 0 0 0.289 0.299 0.83 0 -0.579 0.761 -0.967 0 0 0 -0.826 -0.156 0 0 -0.77 -0.228 0 0.975 0 0 0 0 0 0 0 -0.655 0 0.045 0 0 -0.794 0 -0.856 -0.61 -0.923 0.541 0.608 0.222 0 0 0 0 0 -0.883 0 -0.417 0 0.655 0 0 0.575 0 0 -0.946 0 0 0.29 0.213 -0.963 0 -0.719 0 0.473 0.249 0.295 0 -0.356 0.498 0.374 -0.143 0 -0.76 0.328 0 0.035 0.312 0.242 -0.29 0 0 0 0.805 -0.415 0 0 -0.801 0 -0.852 -0.167 -0.43 -0.091 0.837 0.757 -0.363 -0.033 -0.783 -0.994 0 0.921 0.751 -0.298 0 -0.76 0 0.368 0.106 0 -0.797 0 0 0 0.161 0 -0.982 0 0 -0.796 -0.571 0 0 0 0 0.244 0 0 0 0 0.566 -0.741 -0.217 0 -0.134 0 0 0 0 0 0 0 0 -0.659 -0.927 0 0 0 0 0.894 0 0 -0.438 -0.956 0 -0.456 -0.62 0 0 0 -0.926 -0.671 -0.184 0 0 0.911 0 0 0 -0.91 0 -0.345 -0.325 0 0.575 -0.548 0 -0.174 0 0.359 -0.457 -0.464 -0.064 0 0.016 0.445 0.765 -0.45 -0.756 0 0 0 0.591 -0.986 0 0 0 0 0 0.165 0 0 0 0 -0.765 0 0 0 0 0 0 0.328 -0.152 0 -0.046 -0.282 -0.069 0 0 0 -0.654 0 0 -0.224 0 0 0 0 0 0 0 -0.878 -0.218 0 -0.37 0.3 0 0 0 0 -0.742 0 0.256 0 0.463 0 0 0.664 0.612 0.414 0.399 0.373 0 -0.614 0 0.32 0 -0.19 0 -0.694 -0.302 -0.831 -0.075 0 0 0.769 0 0 0 0 0 0 0 0.131 0.525 -0.35 0 0 0.573 0.865 0.795 0 0 0 0 0 0 0.372 0 -0.413 0.678 0.158 0.729 0 0 -0.71 0 0 0.939 0.425 -0.667 0.99 -0.345 0 0 0 0 0 0 0 0 0 0 0 0 0.672 0 0 0 0 0 0 -0.297 0 0 0.563 0 0.334 0.086 -0.273 0 -0.557 0 0 -0.371 0 0.862 0.267 0 -0.828 -0.11 -0.168 0.953 0.615 -0.469 -0.512 0 0 0 0 -0.926 -0.88 0 0 0 0.997 0 0 0 0 -0.621 0 -0.002 0.768 0.982 0 0.435 0 0.671 0 0 0.877 0.498 -0.382 0 -0.415 -0.605 0 0 0 -0.564 0.387 0 -0.097 0 0 -0.049 -0.231 0 0.369 0 0 0.535 0 0 0.395 -0.704 -0.638 0 0 0 -0.559 0 0 -0.871 0 0 0 0.675 0 0 0 0 0 0 0 0 0 -0.58 0 0.301 0.205 0 -0.619 -0.725 0 0 0 -0.41 0 0 0.83 0 0.877 0 0.723 -0.819 0.514 0 0.383 0 0.639 0 0 0 0.571 0 0.581 0.468 -0.198 0.096 -0.706 0 -0.116 -0.01 0.296 -0.374 0 -0.956 0 0 -0.102 -0.918 -0.813 0 0 -0.708 0 0 0.236 0.658 0 0 0 -0.77 -0.413 0 -0.111 -0.668 0 0 -0.72 0.832 0 0.904 0 0 0 -0.248 0 0.23 0 0.489 0 -0.562 0 0 0 0 0.924 0.223 0 0.091 0 -0.779 0.673 0 -0.443 -0.99 -0.926 -0.121 0.997 -0.204 0 0.195 0 -0.619 0 0 0 0 0.24 0 0 0 0 0.237 0 0 0.932 0 0 -0.575 0.534 -0.307 0 0.759 0 0.461 -0.922 -0.924 0.142 0.103 0.301 -0.097 0 -0.98 -0.329 0 -0.887 0 0 -0.013 0 0 0.981 -0.398 0 0.785 0 0 0 0 0 0 0.406 0 0 0 0.529 0 0.124 0.464 0.71 0 0 0 0 0 0 0 -0.795 0.349 0 -0.188 0 0 0 -0.973 0.345 0.572 -0.86 0 -0.214 0 0 -0.115 -0.417 0 0 -0.472 0 0 0 0.936 0 0.814 0.599 -0.745 -0.946 0 0.33 0 0 0 0 0.049 0 -0.748 -0.843 -0.036 0 -0.975 0.073 0.48 -0.45 -0.735 0 0 -0.998 -0.007 0 0 0.099 0 0 0 0 -0.176 -0.089 0 0 0 0 0.683 0 -0.11 0 0 -0.042 -0.12 0 0.15 0.875 -0.807 0.234 0.649 0.164 0 0 0 0 -0.345 0.831 0 0 0 0 0 0 0.074 0 0 0 0 0 -0.662 -0.206 -0.48 0.746 0 -0.974 0 0 0 -0.451 0 -0.01 0.465 0 -0.243 0 -0.969 0.505 0 -0.729 0 0 0.231 0 0 0 0 -0.046 -0.729 -0.609 0 -0.418 0.131 0 -0.079 -0.277 -0.369 0.128 0 0 0.839 0.111 0.151 0 0.476 0 -0.984 0 -0.435 0 -0.252 -0.999 0 0.616 0 0 0 -0.286 0.428 0.158 0 0.634 0 -0.557 0 0 -0.222 0.022 0.578 0 0 0.961 0 -0.44 0 -0.243 -0.059 -0.332 -0.891 0.082 0 -0.466 0.9 -0.993 0 0 0 0 0 0.08 0 -0.898 -0.725 0.752 -0.492 0 0 0.319 0 0 0 0.106 -0.446 -0.652 -0.632 0 -0.962 0 -0.485 0 0 -0.543 0 0 0.33 0 0.257 -0.795 -0.512 0 0.274 -0.303 0.995 0 0 0.117 0.683 0.45 -0.444 0 0.361 0 0.993 0 0 -0.146 0 0.667 0 -0.281 0.26 0 0 0 0 0 0.145 0 0 0.498 0.006 0 -0.841 -0.361 0 0 -0.18 0.935 0 0.127 0 -0.444 0 0 0 0 0 0 0.369 0.444 0 0 0 0 0 -0.186 0.348 0 0.857 0.604 0.879 0.587 0 0 0.804 -0.704 0.989 -0.229 -0.502 -0.427 -0.236 0 -0.003 -0.149 0.445 0 0 0 0 0.565 -0.521 0.014 0 0.368 0 0 0.146 0.686 0 0.301 0.577 0.843 0 0 0 0.355 -0.757 0.717 0.383 0 0 0 0 -0.765 0 0.47 0.305 0 -0.357 0 -0.963 0 0 0 0.01 0 0 -0.353 -0.232 -0.493 0 0 0.518 0 0 0 0 0.226 0 0 0 0 0 0 0 -0.472 0.617 0 0.457 -0.893 -0.792 0.331 -0.096 0 0 -0.6 0 0 0 0.869 0.244 -0.307 -0.416 0 0.065 0.553 -0.667 -0.697 -0.197 -0.589 -0.808 -0.49 0.861 0.434 0 0 0 0.597 0.885 0 0 -0.214 0 0 0 0 0 -0.12 0.617 0 0.616 0 0 0.995 -0.523 0 0.031 0 0.609 0 0.134 0.262 0 -0.207 -0.571 0 0 0 0 0.222 0 0 0.319 0 0.826 0 0.31 0 -0.187 0.93 0 -0.35 0 0.562 -0.343 -0.596 0.565 0.594 0 0 0 -0.075 -0.529 0.661 0 0 0 0 0.578 -0.264 0.929 0 0.048 0 0.005 -0.139 -0.391 -0.406 0 -0.361 0.046 0 0 0 0 0 0.415 -0.023 -0.437 0 0 -0.126 0.614 0 -0.44 0 0 0 0 0 0.918 -0.967 0.595 0.683 0 0.28 0 0 0.501 0.288 0 0.766 0 -0.106 0 -0.987 0.547 0 -0.516 0 0 0 -0.938 -0.285 0.38 -0.529 0.319 0 -0.32 0 0 0 0 0 0 0 0 -0.003 0 0 0 0 0 -0.012 0 0 0 -0.918 0 0 0 0.434 0 0.256 0 0 0 0 0 0 0.887 0 0 0 0 -0.046 0 0.292 -0.879 0 -0.134 0 0 -0.847 -0.415 0 0.288 0 -0.35 -0.197 0.792 0 0 0.052 0 0 0 0 0 0.595 0.008 0 0 0 -0.827 0.584 -0.944 0.495 0 0.571 0.625 0.979 0.975 0.765 -0.337 0.568 -0.302 0 0 0 0.745 0.019 0 0 0 0 0 0.847 0 0.181 0 0 0 0 0 0 -0.911 -0.717 0 0.41 -0.851 0 0.903 0.071 0 0 0.236 0 0 -0.439 0 0 0 0 0 0.462 0 0 0 -0.284 0 0 0 -0.627 -0.908 0 -0.755 0 -0.088 -0.886 0 0.21 0.116 0 0 0.025 0 0.161 0.797 0 0 0.631 0.576 0.585 0.348 0 0 0.032 0.071 0.297 0.501 0 0 -0.955 0 -0.232 -0.188 0.33 0.086 -0.736 0.659 0 0 0.648 -0.729 0 0.952 -0.323 -0.675 0 0.342 0.83 0.722 0.099 0.818 0 0 0 0.899 0.691 0 0 0.497 0 0.017 0.459 0 0.648 0.237 0.569 0 0.911 -0.865 0.163 0 0.498 0 0.799 -0.266 0.085 0.697 0.796 0 0.126 0 0 0.378 0 0 0 0.526 0 0 0.231 -0.521 0.056 0 0.615 -0.491 0 0 -0.867 -0.241 0 0 0 0 -0.744 0 0 0.302 0 -0.673 -0.243 0.14 0.547 0 0 0 0 0 -0.431 0 0 0 0 0 -0.213 0 0 -0.596 -0.806 0 -0.409 -0.563 0.292 -0.985 0 0.616 0 0 0.814 0 -0.235 0 0 0 0 0.053 0 0 0 0 0 0 -0.545 0.941 0.808 0 0 0.303 -0.067 0 0 0 0 -0.193 -0.886 0 -0.924 0 0.818 0 0 0.029 0.858 0 0 0.387 -0.365 -0.598 -0.221 -0.094 0 0 -0.83 -0.404 -0.007 0.171 0.527 -0.269 0 -0.965 0.153 -0.049 0 0 0 0 0.712 0 0 0 0.51 0 0.752 0.05 0 0 -0.924 0 0 -0.286 -0.213 0 -0.546 0 0.275 -0.014 0 0.229 0.844 -0.524 0 0 0 0.282 0.89 0 -0.227 -0.25 -0.743 0.314 -0.452 0 0 0 -0.744 -0.382 -0.454 0.032 0 0 -0.863 0 0 0 -0.476 -0.815 0.589 0 0 0 0.513 0.591 0 0 0.999 -0.298 0 0 -0.657 0.028 0 -0.917 -0.64 -0.625 0 -0.608 0.876 -0.118 0 0.217 -0.201 0.508 -0.135 0 -0.962 0 0 0.159 0 0.546 0.212 0 0.499 0.614 0 0 0.6 -0.106 0 0 0.33 0 0 0 -0.887 0 0 0 0 0 0 0 0 0.886 0 0 0 0 0 -0.444 0 0 -0.328 0 0.663 0 0.771 0.652 0 -0.283 -0.312 0 -0.988 0.311 -0.765 0 0 0 0 0.331 -0.387 0 0 -0.313 0 -0.855 0 -0.951 -0.268 0 0.21 -0.452 0 0.789 -0.358 0.531 0 0 0 0 -0.209 0 0 0 -0.942 0.598 0.574 -0.352 0 -0.584 0 0.284 0 0 0 -0.114 0.765 0 0 0 0 0 0.784 0.245 0 -0.031 -0.271 0 0 -0.915 0.438 0 0 0 -0.774 0 0.764 0 0 -0.775 0 0 0 0 0 0 0.532 0 0.628 0.133 -0.857 -0.797 0.847 0 -0.895 0 0.649 -0.54 0 -0.773 -0.118 0.982 0.975 0 0.329 0 0.152 0 -0.217 0 0.899 0 0 0 -0.764 -0.431 0 0 0 -0.833 0 0 0 -0.79 0.022 0 0.067 -0.011 0 0.34 0 -0.582 -0.208 0 -0.941 -0.411 0 0 0 -0.284 0.919 -0.948 0 -0.857 0 0.285 -0.114 0 -0.644 0 0 0 0.396 0.276 -0.659 0.219 -0.138 0.904 0 -0.073 -0.459 0.252 0 0 0 0 0 0.924 0 0 0.168 0.098 0 0.745 0 0 0 0 0 0 0 -0.032 0.78 0.407 0.714 -0.218 0 0 0 0 0.183 0.703 0 0 -0.357 0.183 0.014 0.687 0 0.131 0 0.083 0 0 -0.654 0 0.485 0 0 0 0 0.453 0 -0.12 0 -0.025 0 -0.769 0.211 -0.225 0.894 0 0 0 0.902 0 0 0 0.444 0.605 -0.798 -0.194 -0.483 0 0 0 0 0 0 0 0.149 0 0 -0.776 0 0 -0.131 -0.595 -0.224 0 -0.538 0.628 0 0.94 -0.608 0 -0.839 -0.894 0.879 0 -0.319 0 0 -0.634 0 0 0 0 0.465 0.038 0 0 -0.532 -0.053 -0.423 -0.588 -0.296 0 -0.416 -0.17 -0.097 -0.1 0 -0.67 0 0 -0.666 0 0 0 0.864 0.048 0 0 -0.502 0.422 0 0 0 0 0.008 0.151 0 0.918 0 0.691 -0.852 0 0.784 -0.074 0 0 0 0 0 0.208 0 0 -0.009 0 0 0 0 0 0 -0.657 0.15 -0.033 0.592 -0.684 0.432 0 -0.48 0 0 0 -0.524 -0.336 0 -0.23 -0.279 0.912 -0.764 0 0 0 0 -0.473 -0.283 -0.625 0 0 0 0 0.564 -0.89 0 0.575 0 -0.031 0 0 0.359 0.437 0 -0.811 0 0.619 0.655 0 0 -0.467 0.597 0 0 0 -0.556 0 0.371 0.458 0 0.978 0 0.519 -0.042 0.194 0 0.106 0 0 0 0 0 0.31 0 0.067 -0.608 0 -0.019 0 0 0 0 0 0.433 0 0 -0.022 0 0.149 0.479 0.685 0.585 0 0 0 0.668 -0.791 0 -0.924 0 -0.701 0.401 0 0 0.611 0.759 0.615 -0.205 0.264 0 0.826 0 -0.103 0 0.472 0 -0.258 0.83 -0.356 0.441 -0.464 0 0.382 0.044 0 0.899 -0.993 0 -0.823 -0.23 0.478 0 0 -0.369 -0.38 0.918 0.841 0.493 0.936 0 0 0 0.801 0 0.105 0 0.657 -0.522 0 0.292 0 0.926 0.353 0.557 -0.501 0 0 0 0.529 0.879 0 0.658 0.339 0 0 0 0.104 -0.491 0 0.175 0 0.478 -0.291 0 0.63 0 0.026 0 0 0 0 0 0 0 0 0.099 -0.465 0.986 0 0 0 0 0 -0.562 0 0 0.174 -0.916 0 0.024 0.588 0 -0.082 0 -0.907 0 -0.271 -0.346 0 -0.574 -0.839 0.475 -0.337 -0.432 0 0.056 -0.703 0 0 0 -0.369 0 0.725 -0.783 0.901 -0.34 0 0 0 0 0.115 0 -0.737 0.484 -0.67 -0.23 0 0 -0.155 0 0 0 0 -0.126 -0.627 0 0 0 -0.108 0 -0.107 -0.961 0.451 0.878 0 0.601 -0.582 0.797 0 0 -0.854 0.64 -0.267 -0.168 0 -0.293 -0.862 -0.632 0 0 -0.478 0 0.372 0.091 0 -0.047 0 -0.107 0 0.244 0 0.164 0 0 0.541 0 0 -0.427 -0.162 0.09 -0.437 0 0 0.419 -0.054 -0.464 -0.628 0.202 0 0.89 0 0 0.236 0.867 0 0.229 0 -0.788 0 0 0 0 0.894 0 0.02 0 0.65 0 0 0 -0.769 0 0 -0.263 0 0 -0.82 0 -0.502 -0.663 0 0.848 0.197 0 -0.43 0 0 0 0 0 0 0 -0.555 0.75 0 0 0 0.617 -0.272 -0.448 -0.349 0 0.17 0.029 0 0.223 -0.888 0 0 -0.695 0 0 0.864 0 0.67 0 0 -0.144 0 -0.075 0 -0.412 -0.403 -0.142 0.521 -0.987 0 0 0.006 -0.102 0.9 -0.236 0 0.925 0 0.237 0 0.319 0.979 0.492 0 -0.973 0.745 0 0 0.608 -0.204 -0.509 0 0.493 0 0 0 0.146 0 0 0 0 0 0 0 0 0 0 0 0.97 0 0 0.146 0 0 0 -0.384 -0.736 0.482 0.163 0.429 -0.657 0.048 0.33 0 0.851 -0.062 0 0 -0.476 -0.96 0 0.05 -0.92 0 0.076 -0.726 0 -0.522 0.004 0 -0.452 0 0 0 0.879 0 0.004 -0.784 0 0.852 0 0.153 0 0.288 0 0.67 -0.548 0 0.767 0 0.926 -0.428 0 0.877 0 0 0 0 0 0 0.084 0 0.296 -0.315 0 0.004 0 0 0 0 -0.338 0 0 0.044 0 -0.743 0 0 -0.995 0 0.637 -0.952 0 0 0 0.579 0 0 -0.073 -0.673 0 0.556 0 0 0.461 0 -0.797 0.111 -0.439 0.98 0 0 -0.029 0.063 -0.047 0 0.138 -0.158 0 0.584 0 0.622 0 0 0.59 0.847 -0.549 -0.9 0 0 0.379 -0.542 0 0 0 0.844 0 0.248 0.862 -0.313 0 0 0 0.512 -0.247 -0.688 -0.252 0 0.468 -0.207 -0.478 0 -0.761 -0.286 0.683 0 0 -0.82 0.159 0 0 -0.401 0.854 -0.518 0 -0.274 0 0 0.923 0.733 0 0.864 0.918 0 0.474 0.293 0 0.227 0 0.566 0 0.939 0 -0.016 0 -0.599 0 0 0.309 0 0.315 0 -0.957 0 0 -0.811 0.597 0 0 0.465 0.839 -0.66 0 0 0.523 0.877 0 0 0 0 0 0.336 0 0 0 -0.178 0 -0.338 -0.072 0.173 0.238 -0.031 0 0.546 0.929 0 -0.874 -0.786 -0.829 -0.217 0 -0.917 -0.257 0 0 0 0 -0.904 0 0 0 0.058 0.593 0 0 0.088 -0.811 0 0 0 0.572 0.42 -0.852 -0.622 0.353 0 0 -0.804 -0.57 0 0 0 0 -0.722 0 0 0.815 0.414 0.879 -0.852 0.429 0 -0.357 -0.051 0 0 0 0 0 -0.24 0 0.994 0 0 0 0 0 0.978 0 0 0 0 0.771 0 0.936 0 0 0 -0.392 0.308 0.953 -0.783 0 0 -0.137 0 0 0.612 0.119 -0.259 0 0.827 0.427 0 0 0.312 0 0 0 0.096 0.049 0 0.026 0 0 0 0 0.157 0 0.357 -0.341 0.754 0.229 -0.158 0 0.971 -0.76 -0.606 0 -0.057 0.434 -0.847 0 0.732 0 0 0.128 0 0 0.366 0 0 0.081 0 -0.822 0.248 0 0 0.864 0 -0.349 0 0.631 0 -0.258 0.116 0.806 0 0 0 -0.205 -0.725 0 -0.327 0 0.919 0 0.056 0 -0.251 0 0 0 0.847 0.745 0 -0.624 0 0.329 0 -0.997 0.566 0.509 0 0 -0.258 -0.058 -0.193 -0.05 0 0 0 0 -0.906 0.222 0.844 -0.224 0 -0.74 0 0 -0.967 0 0 -0.51 -0.441 0 -0.385 0 0 0 0 -0.484 0.787 0.955 0.052 -0.118 -0.169 0.732 0 0.811 0.522 0.713 0 0.686 0 0.708 0.265 -0.394 0.938 0 0 -0.446 0 0.452 0.533 0 0.545 0 0.587 0 0 0 0.797 0.059 0.978 0.479 0 0.43 0 0.511 0.267 0.196 0 0.057 0.289 0 -0.841 -0.675 -0.678 0.254 0 0 0 0.817 0.568 0 0 0.586 0 0.662 0 0 0 -0.783 0 0 0.238 0 0.967 0 0 0 0 0 -0.527 0.398 0.415 0 0 0.193 0 0 -0.369 -0.831 -0.049 0 0 -0.971 0 0.36 -0.943 0 -0.761 -0.995 0 0.283 0 -0.333 0.985 0.605 0 0.881 0 -0.275 -0.968 0 -0.531 -0.94 0 0 0.342 0 0.311 0.625 0 -0.059 -0.455 0 0 -0.488 -0.692 0.619 0.437 0 0.397 0 -0.924 0.732 0 -0.787 0.898 0 0.029 0.778 0 0.796 -0.124 0 -0.557 -0.847 -0.21 0.992 0 0 0.4 0.232 0.408 0 -0.755 0 0 0 0 0 -0.251 -0.573 0 0.163 0 0.611 0 0 0.481 0.275 0 0 -0.229 0 -0.889 0.526 0 0 0 0 -0.484 0 0 -0.893 0 0 0 -0.059 0.243 0.49 0 0 -0.185 0 0 0 -0.573 0 0.492 0 -0.554 0.621 -0.126 -0.831 -0.265 0.159 0.387 -0.812 0 0 0 0 -0.491 0 -0.491 0 0 0.017 -0.938 0.501 0.561 0 0 0 0 0.99 0 0.587 0 0 -0.02 0 0 0 0 -0.127 0 0 0 0 0 0 -0.033 0.599 0.648 -0.163 0 0 0.155 -0.175 -0.522 -0.889 0.017 -0.068 -0.721 -0.058 0.174 0 0 -0.787 -0.033 0 -0.239 0 0.507 0.678 0 0.485 0 0 -0.888 0.982 0.815 0.885 -0.694 0 0 0.681 0 -0.649 -0.213 -0.912 0 0.982 0.963 0.388 -0.404 -0.242 0 0.389 0 0.957 -0.641 0.415 0 0 -0.328 0 0 -0.736 -0.227 0.845 -0.849 0 0 0.97 0.551 0.016 0.85 -0.86 0 0.423 0 0.905 0 0 0 0 0 0.834 0 0.208 0.8 0 0 0.641 -0.581 0.492 0 0.349 0.828 0.432 0.316 0.137 0 -0.342 -0.142 0 0.303 0 0 -0.182 0.608 0 -0.599 0 0.559 0 0 0 -0.984 0 0 -0.386 0.013 -0.898 -0.095 0.256 0 0 0.787 0 0 -0.458 -0.409 0 -0.635 0 0 0 -0.147 -0.463 0.66 0 0 -0.436 0 0 -0.178 0 0 0 0.598 -0.318 0 0.712 0.736 0.266 0 0.02 0 0 0.696 0 0 0 -0.848 0 0 0 0.428 0 0 -0.165 -0.454 0.092 0 0 -0.045 0 -0.388 0 -0.586 -0.038 0 0 0.344 0 0 0 0 0 -0.26 -0.309 0 0 -0.042 -0.418 -0.45 0 -0.115 0 0 0 0 0 0 0.55 0 0.782 0 0 0.456 0.878 -0.439 -0.753 -0.673 0.328 0 0 -0.258 0 0 0 0 0.813 -0.178 0 0 0 0 0 0 0.515 0 0 -0.981 -0.088 -0.782 0 0 0 0.47 0 0.457 0.449 0 -0.184 0.014 0 0 0 -0.4 0.277 0.883 0.354 0 -0.937 0 0 0 0.42 -0.519 0.5 0.12 0 -0.874 -0.963 0.61 0 0.153 -0.824 0 0.895 0 -0.071 -0.183 0 -0.618 0 0.714 0.72 0.77 0 0.347 0 -0.892 0.896 0 0 0 0.917 0.735 0.058 0.153 0 0.971 0 -0.339 -0.347 0.032 0.674 0 0 0.074 0 0.569 -0.347 0 0.634 0 0.195 0 0 0.85 0 -0.534 0.87 0.547 0 0.126 0.586 -0.125 0 0 0.016 -0.613 0 0.362 -0.396 0 0 0 0.301 0 -0.367 0 0 0 0 0.713 0 0 -0.307 -0.151 0 -0.192 0 0 0 0 0 0 0.158 0.231 0.974 -0.56 -0.959 -0.42 0 0 0 -0.414 0 0.666 0 0.398 0.218 0 0 -0.007 -0.615 0 0 -0.068 0.217 0.437 -0.266 -0.277 0.705 0 0 0.842 0 -0.166 0.223 -0.711 0.211 0.31 0 0 0 -0.139 -0.554 0 0.005 0 0 0 0 0.369 -0.103 0 0 0 0 0 0.739 -0.987 0 0.313 0.118 0 0 -0.647 -0.767 0 0.447 0 0 0 0 0 0 -0.928 0 0 0.341 0.841 0 -0.594 0 0.667 0 0.621 0.012 0.7 -0.977 -0.123 0 -0.317 0 0.835 -0.949 0.731 0 0 0 0 0 -0.027 0 0 0 0 0.289 0 0 0 0.485 0 -0.478 0 0 -0.515 0 -0.243 0.034 0 0.61 0 0 0.867 0.703 0 0 -0.388 0 0 0 0 0 0 0 -0.017 -0.033 0 0 0 0 0 0.782 0.879 0.62 0 0 0 0.466 0.261 -0.567 0.49 0.383 0 0.971 0 0 0 0 0 -0.597 -0.633 -0.456 -0.593 0 0 0 0.414 0 0 0 -0.213 0 0 0 0 0 0 0 0.574 0.811 0.615 0.893 0.484 0 0.65 0.312 0 0 -0.65 0 0 0.084 0 0.467 0.049 0.046 0.582 -0.438 0.373 0 0 0.202 0 -0.281 0 -0.341 0.541 0 0 0 0 0.356 -0.845 0 0.15 0.46 0.482 0 0 0 0 0.625 -0.441 0 0 0.516 0 -0.403 0.856 0 0 -0.715 0.541 0 0 0.97 0.06 0 0 0 0 0 0 0.234 0 0.474 0 0 0 -0.44 0.939 0 0 -0.773 -0.062 0 -0.812 0 0 -0.666 0.954 0 -0.354 0 -0.231 0 0 0 0.99 0 0 -0.236 0 0.075 0 0.369 -0.933 -0.854 0.086 0 0 0 0 -0.877 -0.897 0 0.781 0 0 0 0 0.379 0 0.693 0 0.103 0 0 0 -0.52 0 -0.265 0 0 -0.943 0.869 0.404 0 0 0 0 0.653 -0.462 0 0.278 0 -0.958 -0.196 -0.914 0 -0.724 0.882 0 -0.133 -0.431 0 0 0.294 0.637 0 0.636 -0.28 0 0 0 0 0.595 0 -0.833 0 -0.829 -0.692 0.759 -0.699 0.823 0 0 0 0 0 0 0.665 0 0 0 0 -0.929 -0.702 0 -0.32 0 0.727 -0.971 0.672 0.685 0 0 0 0 0.824 0.598 0 -0.94 0 0.211 0 0 0 0 0 0 0 0 0.052 0 0 0 0 0.217 0.914 0 -0.519 0.012 -0.579 0.086 -0.791 0 0.723 -0.077 0 0.675 0.294 0 -0.787 0.829 0 0 -0.885 -0.391 0.276 0.019 0 -0.512 0 0 0.772 0 -0.102 0 0.137 0 0 -0.147 0 -0.239 0 0 -0.436 0 0 0 0.381 0 -0.104 0 -0.256 0 0 0.214 0 0.658 0.393 -0.306 -0.64 0.049 0.074 0 0.569 0 0.095 0 0 0 0 0 0 -0.393 0 0.236 0 0 0 0 -0.724 0.926 0 0 0.488 0 -0.222 -0.163 0 0 0 0.613 0 -0.942 0 0 -0.278 -0.959 0 0.456 0.638 0 0.946 0 0.157 0.29 0.415 -0.322 0.414 -0.624 0 0 0.703 -0.946 0 0 0.426 0 0 0 0 0 0 0 0 0 0 0.45 0 0.603 0 -0.206 0 0 -0.915 0 0 0.298 0 0.913 -0.099 0.804 0 0 0.481 0.153 0 0.754 0.468 0 0.018 -0.206 0.85 0.648 -0.555 0 0 -0.394 0 0.621 0 0 -0.312 0.406 -0.241 -0.886 0 0 -0.518 0.888 0 -0.583 -0.25 0.629 0.101 -0.868 0 -0.088 0 0 0.925 0 -0.06 0 -0.028 0 -0.505 0.093 0 0 0.51 0 0.507 0.784 0 -0.557 0 -0.925 -0.744 -0.249 0.522 -0.224 0.975 0.194 0.086 0 0 -0.517 -0.769 0 0.676 0 0.48 0.622 0 0 0 0.18 0 0 0.207 0 0 -0.306 0 0 0 -0.356 0.02 0 0.159 0 0 0.429 0.47 0 0.038 0 0.539 -0.37 0 0 0 0 -0.591 0.874 0 -0.941 0 0 0 0 0.162 0 0 -0.321 0 -0.708 0 0 0 0.668 -0.552 0 0.641 -0.491 0.944 0 0 0 -0.293 0 0 0 0 -0.251 0 -0.506 -0.276 0 0 0 0 0.214 0 -0.126 0 0 -0.467 0 0 0 -0.7 0 -0.552 -0.341 -0.503 0.623 0.855 0.523 0.409 -0.252 0 0 0 -0.749 0 0 -0.045 0 0 0.29 0.237 0 -0.181 0.44 0 -0.829 0 0 0 0.555 -0.34 0 -0.926 0 0 -0.854 -0.831 -0.244 -0.905 0 0 0 0 0.643 0 0 0 0 -0.394 0.528 -0.3 0.028 0 0 0 0 -0.52 -0.324 -0.153 0 0 -0.498 0 0.862 0.539 0 0.092 0 0 0 -0.43 0 0.699 0 -0.467 0 0 0 0 -0.353 0 -0.507 0.16 -0.026 0.871 0 0.293 0 0 0 0 -0.792 0 0.782 -0.434 0.662 0.328 0 0.023 0 0.314 0 0.601 0 0 0 -0.085 -0.459 0 0 0 0 0 0 -0.884 0.705 -0.134 0.799 -0.213 0.19 0.238 -0.807 0 0 0 0 0.273 -0.063 -0.328 0 -0.022 0 0.174 -0.568 0.911 0.579 0 0.104 -0.547 0 -0.709 0.392 0 0 0 -0.405 -0.429 0 0 0 -0.751 0 0 0.178 -0.438 0.465 0.585 -0.89 0 -0.98 -0.312 -0.073 0 0 0 0.142 0 0 -0.501 -0.697 0 0 0 -0.414 -0.084 -0.694 0 0.664 0 0 0 0 0 0.902 0.056 0 0.855 0.721 0 0 0 -0.652 0 -0.376 0.41 0.266 0 0 0 0 0 -0.346 0 0.91 0.964 0.846 0 0 0 0.643 0.037 -0.643 0.624 -0.495 0 -0.839 0 -0.886 -0.902 -0.032 0 0 -0.304 0 -0.294 0 -0.641 -0.851 0 0 0 0 -0.738 0 -0.416 -0.225 0 0 -0.48 0 0.442 0.165 -0.399 0 0 0.066 -0.351 0 -0.741 0 -0.21 0 0 0 0.785 -0.689 0 0 0 0 0 0 0.408 0.282 0 0 0.808 0 0 0.869 0 0 0 -0.94 0 0.444 -0.695 0 0 0.837 0 0 0 0 0 0.134 -0.657 0 0 0.663 0.579 0 0 0 0.211 0 0 0.529 0.777 0.618 -0.625 -0.984 0 0.385 0.637 -0.634 -0.257 0 -0.063 -0.265 0 0 0.448 0 0 0.681 0.281 0 0.912 0 0.638 0 0 -0.896 0 0 0.045 -0.743 0 -0.539 0 0.843 0 0 0 0.639 0 0.256 0 -0.892 0.918 0 0.187 0 0 0 -0.119 0.164 0 0.157 0 0 0.91 -0.477 0 0 0 -0.561 -0.193 0 -0.222 0 -0.407 0 0 -0.15 0.369 0.954 0 0.078 -0.191 0.68 0.231 0 0 0.49 -0.179 0.807 0.271 -0.193 0.505 0 0.828 -0.185 0.816 0 -0.947 0.153 -0.548 0.475 -0.324 -0.87 0.261 0.969 0 0.635 -0.151 0 0.292 -0.868 -0.022 0 0 0 0.763 0.151 0 0 0.226 -0.221 -0.135 -0.586 0 0 0 0 0.773 -0.954 0 0 0.728 0 -0.607 0 -0.011 -0.63 -0.375 0 0 -0.547 0 0 0 -0.648 0 0 0 0 0 -0.942 0.67 0 0 0 0 -0.358 0 0 0 -0.541 -0.059 0 0 0 0 0 -0.391 0 0.052 0.698 0 0 0 0 -0.556 -0.653 0.395 0.759 0.628 0 0 0.375 0.093 -0.436 0.631 0 0 0.818 0 0 -0.584 0 0 0 0 0 -0.172 0 0 0.092 0 -0.404 0 0 -0.016 -0.143 0 0 0 0.807 0 0 -0.932 0 0 0.619 0 0 0 0.933 0 0 -0.186 0.253 -0.309 0 -0.867 0 -0.785 0.867 -0.232 0 0 -0.589 -0.04 0 0 0 0.801 0 0.365 0 0 0 0 -0.3 0.883 0 0 0 0 -0.733 0 0.053 0.48 -0.108 -0.761 0 0 -0.491 0 0 0.204 0 0.968 0 0 0 0 0.814 0 0.479 0.011 0.992 0 0.601 0 0.033 0.11 0.484 -0.161 -0.031 -0.827 0.077 -0.558 0 -0.382 0 0 0.928 -0.073 0.327 0 0 0.715 -0.247 0.083 0.536 0 0.947 -0.393 0.274 0.473 0.827 0 -0.728 -0.235 0 0 -0.376 0 0 0 0 -0.594 -0.384 0.735 -0.253 0 0 0 0.452 0 -0.457 0 0 0 0.532 0 -0.971 0 0 0 0 -0.383 0 -0.455 -0.384 0.791 0 0.649 0.063 0.355 0 0 0.799 0.603 0.237 -0.871 -0.536 0 0.179 0 0.002 0 0 0 0 -0.589 0 0 0.768 0 0.724 0 -0.564 0 0.038 0 0 0 0 -0.532 0 0 0.406 0.526 0 -0.787 0.954 0 0.59 0 -0.439 0 0 0.246 -0.924 0 0 0 0 0 0.973 0.235 -0.074 0 0 -0.545 0.018 -0.005 -0.674 0 0.102 0 0 0 0.824 0 -0.394 0 0 0 0 -0.125 -0.431 0.032 0 0 0 0 0 -0.441 0 -0.929 0 0 0 0 0 0 0 -0.152 0 0 0 -0.849 0.665 0.811 -0.516 0.662 0.362 0 0.516 0.663 0.073 -0.583 -0.824 -0.979 0.194 -0.268 -0.872 -0.903 0 0 0 0 0 -0.678 0 -0.725 0 0 0 0 0 0 -0.215 0 -0.142 -0.719 -0.797 0 0 0.946 0 0 0 0 0.641 0 0 0 0 0 0 0 0 0 0.888 0 -0.618 -0.849 0.253 0 0 0 0.508 0 0 0 0 0 0 0 0 0 0 0 0.566 0 0 -0.047 0 0 0 0 0 0 0 0 0 0.337 0 0 0 0 0 0.098 -0.341 -0.833 -0.823 0 -0.462 0 -0.962 -0.331 0.997 0.683 0 0 0 0.258 -0.186 -0.305 -0.258 0 0 0 -1 0.18 -0.426 0 -0.585 -0.815 -0.195 0 -0.836 0 0 -0.65 0.19 0 -0.581 0 0.994 -0.189 0 -0.57 -0.13 0 0 -0.815 -0.328 0.691 -0.034 0.304 0 0.083 0.808 0 0 0 0.549 0 -0.37 0 0 -0.025 -0.531 0 0 -0.509 0 -0.882 0 0 0 -0.068 -0.177 0.57 -0.35 0 0 0 0 0 0 0 0 0 0.112 0.24 0 0 0.958 -0.872 0 0.646 0 0 0 0 -0.255 0 0 0.423 0 -0.933 0 -0.202 0.704 0.649 -0.299 0 -0.475 -0.679 0 0 0.894 0.483 0.423 -0.225 -0.856 0 0.705 0 0 -0.767 0.673 0 0 0.257 0 -0.225 0 -0.506 -0.621 0 -0.908 0.098 -0.292 0 0.479 0.889 0.911 0.478 0.489 -0.296 0 0.871 0 -0.409 0 0.359 -0.482 0.609 0 0 0 0 0 0 0 -0.569 -0.81 0.432 0 0.998 0.78 0 0 0 0 0 0 0.241 0 0.781 -0.38 0.036 0.322 0.706 0 0 -0.539 0 0 0 -0.943 0 0.268 0.418 0 0 0.293 0 0 0 -0.152 0 0 0 0.508 -0.919 0 0 -0.884 0 -0.407 0.921 -0.12 0.285 -0.883 -0.797 0 0 0.475 0 -0.68 -0.179 0.956 0 0 -0.02 -0.233 -0.981 0 -0.939 0 0 0 0 0 0 0 0 0.701 0 0.981 -0.211 0 0 0 -0.633 -0.205 0.076 -0.411 -0.22 -0.534 -0.56 0.215 0 -0.149 0.23 -0.444 0.391 0 0 0 0.135 0 0 -0.121 -0.168 -0.644 0 0 0 0 0 -0.602 0.14 0.801 0 0.516 0.487 0 0 0.627 0.107 0 0.993 0 0 0 0 -0.427 -0.964 0 -0.195 0.514 0 0 0.868 -0.515 0.97 0 0 0.769 0 -0.376 0 0 0.774 -0.608 0 0.487 0 0.211 0 0 0 0 0 -0.409 0 0 0.238 0 0.175 0 0.608 -0.147 0 0 -0.418 0 0 0 -0.986 0.305 0 0 0 -0.019 0 0 0.59 0.191 0 0 0 0.256 0 0.983 -0.929 -0.101 0 -0.557 0 0.056 -0.733 0 0 0.721 0.639 0 -0.016 0 0 0 0.688 -0.621 0.024 -0.171 0 -0.17 0.342 0 -0.959 0 -0.104 0.214 0 -0.104 0.011 0 0 -0.689 -0.043 -0.021 0.055 0.876 -0.865 0 0 -0.597 0.206 0.116 0 -0.816 0.72 0 0.532 0.975 -0.543 0 -0.275 0.76 0.401 0 0 0 -0.684 -0.052 0 0.778 -0.223 0.901 0.811 -0.303 -0.246 0 0 0 0 0.419 0.74 0.087 0 -0.848 0 0.314 0.029 0.194 -0.659 0.534 0 0.219 0.628 0 0 0 0.979 -0.347 -0.419 0 0.876 0.045 0.689 0 0.571 -0.881 0.513 0.124 0 0 0.45 0 0 0 0 0 0.61 0.366 0 0 0 -0.813 -0.329 0.857 0.555 0 0.717 -0.66 0 0 0.631 -0.358 0.217 -0.611 0 0.585 -0.902 -0.816 0.08 0 -0.962 0 0 0 0.485 0 -0.506 0.47 0.255 0 0 0.493 0.831 0.219 0.497 -0.735 0 0.535 0 0.279 0.287 0 -0.789 0 0.638 0.828 0 0 0 0 0 0 0.283 0 0 0 -0.623 0 -0.261 0.55 -0.507 -0.26 0.465 0 -0.606 -0.732 0 0.093 0 0 0 -0.883 0 0.9 -0.658 0 0 0.831 -0.2 0.215 -0.087 0.786 0.647 -0.457 0.872 0 -0.348 -0.533 0 0.235 0 -0.482 -0.29 0 -0.634 0 0 0 0.433 0 0 0 0 0.22 0 0 0.2 -0.273 0 0.514 -0.939 0 0 0 0.918 0 -0.907 -0.315 -0.391 -0.272 0.449 0.956 0 0 0 0 0 0 -0.088 0 0.266 -0.333 0 0 0.018 0.267 -0.243 -0.254 -0.059 0.412 0 0.667 -0.315 0 0.238 -0.215 0 -0.351 -0.62 0 0 0 -0.927 -0.31 0 0.636 0 0 0 0 0 -0.718 -0.273 0 0 -0.687 0 0 0 -0.833 0 0.189 0.648 0 0 0 0 0 -0.121 0.638 -0.054 0.425 0 0.087 0 0 0 0 0.377 0 0 0 0 -0.203 0 0 0 0 -0.077 0 0 0 -0.169 0.762 0.025 0.132 0.721 0 -0.823 -0.587 0.541 0 -0.038 0.792 -0.046 0 0.262 0.354 0 0.451 -0.79 0.956 0.859 0.019 0 -0.325 0 -0.503 0 -0.86 0 0 0.444 0 0 0.145 0 -0.096 0 0.626 0.505 -0.065 -0.813 -0.27 0 0.208 0.421 0 -0.563 0.762 0 0 0 -0.233 0.316 -0.736 0 -0.756 0 0.602 -0.761 0.669 0 0.635 0 0 0 0.072 -0.072 -0.991 -0.343 0 0 0 -0.994 -0.011 -0.883 0 0 -0.257 -0.359 0 0.133 -0.591 0.795 0 0.806 0 -0.054 0 0 0 0 0 0 0.113 0.373 0.637 0.702 0 0.954 -0.692 -0.516 0.8 -0.712 0 -0.226 0.708 0 0.026 0.931 0 0 0 0 -0.066 0.523 0.023 0.175 -0.603 0 -0.65 0 0 -0.108 -0.04 0 -0.605 0 0 0 0 0 -0.593 0.172 0.839 0 0 -0.612 0 0 -0.617 0 0.714 0 -0.616 -0.282 -0.336 -0.078 0 0 0 0 0.608 -0.077 0.494 0 0.506 0.695 -0.202 0 -0.473 0.039 0 0 0.942 -0.398 0 -0.268 0 0.759 -0.401 -0.019 -0.897 0.605 0 0.817 -0.503 0.534 0 -0.822 0 -0.583 -0.532 -0.509 0 0 -0.057 0 0 0 0.39 0.701 0.155 0.361 0 0.307 0.826 0 0.645 0.541 0 -0.179 0.493 0 0.19 0.309 0 0 0 0 0.414 -0.696 0 0 0 -0.012 0.284 -0.981 0 0 0 0.587 -0.429 0.356 0 0 0 0 -0.07 0.993 0 -0.832 0 -0.375 -0.399 0 -0.449 0 0 0.464 -0.115 0.395 0 0.321 0 -0.583 0 0 0 -0.575 0.7 -0.645 0 0 -0.249 -0.741 0 0 0.018 0.38 -0.876 0.726 0.865 0 -0.36 0 0 0 0 -0.682 0 0.428 0 0 0 0 0 0 0.818 0 -0.899 0 0.464 0 0 0 0 -0.923 0 -0.886 -0.017 -0.517 -0.757 -0.138 0.977 -0.691 0 0 0.38 -0.015 -0.248 -0.421 -0.887 -0.477 0.139 0 -0.574 0 0.205 -0.401 0.105 0.89 -0.989 0 0 0 0 0 0 0 -0.159 0.624 -0.774 0 0 0 0.227 0 -0.357 -0.566 0.443 0 0.936 0 0.146 0 -0.209 0 0 0.217 -0.974 -0.172 0 0.385 0.521 0.511 0 0 -0.339 -0.289 -0.466 -0.401 0 0.417 0.098 0 0 0.103 0.115 0 0 0 -0.951 0.384 0.708 0 0.614 -0.066 0 0 -0.873 -0.981 0 0 0 -0.548 0.679 -0.846 0.612 0.825 0.288 0 0.708 -0.357 -0.058 -0.108 -0.317 0 -0.963 -0.041 0.638 0 0.613 -0.86 0 0.833 0.019 0 0.624 0 0.928 0.582 -0.09 0.432 0 0.514 0 0 0.339 -0.061 0 0 0 0 0 0.901 0 0.021 0.19 0 0 0 -0.584 0.537 -0.102 0.006 0 0 -0.147 0 0 0 0 0 -0.019 0 0.446 0 0 0 0 0 0 -0.822 -0.371 0.108 -0.57 0.136 0 0 0.519 0 0 0 0 0 0 -0.232 0.883 -0.545 0 0 0 0 0 0 0.613 0 0 0.631 0 0 -0.609 0 0.384 -0.595 -0.37 -0.802 0 0 0 0.728 0 -0.471 0.662 -0.661 -0.145 0 0 0.681 0.939 0 0.539 0.172 0.812 0 0 0 0 0 0 0.992 0 0.936 -0.258 0.765 0 0 0 0.324 -0.79 0 0.678 0.008 0 0 0 0 0 -0.881 0 0.331 0.713 -0.332 0 -0.901 0 0.564 -0.175 0 0.526 -0.493 -0.432 -0.769 0.248 0 0 0 0 0 0 -0.918 0.38 -0.293 0 0 -0.388 0.728 -0.172 0 0 -0.537 -0.716 0.065 0.243 0.215 0.829 0.047 0 0.295 0 0.694 0.474 0 0.744 0 0 0 -0.899 0.797 0 0.501 0.546 0.462 -0.225 -0.125 0 0 -0.627 0 0.353 0 0.399 0 -0.966 0 -0.552 0 0.293 0 0 -0.557 -0.219 0.589 -0.584 0 0.409 -0.55 -0.903 1 0 0 -0.842 -0.66 0 0 0 0.271 0 0.364 0 0.503 0 0.003 -0.411 0 0 0.757 -0.506 -0.806 0 0 0 0 0.685 0 -0.725 0.005 -0.083 0 0 0.714 0.018 0 0 0 0 -0.045 -0.875 0 0 0 -0.034 0 0 0 0 0.547 0.666 0 0.311 0 0.298 0 0.888 -0.549 -0.012 0 0 0 0.144 0 -0.902 -0.564 0 0 -0.7 -0.243 0.376 -0.056 0.583 0 0 0 0 0 0 0 0 0.595 0 0 0.8 0 0 -0.936 0.936 0 0 0.852 -0.062 -0.53 -0.016 0.506 0 -0.668 -0.462 0 0.186 0 0.774 0.519 0.747 -0.15 0.4 0 -0.713 -0.082 0 0 0 0 -0.645 0 -0.859 0 0.78 0 0 0.718 0.203 0 -0.705 -0.555 0 0 -0.1 -0.897 0 0 -0.775 -0.035 0 0.616 0.409 0 0.621 0 0.353 0 0 0 0 0 0 0 0 -0.708 0 0.008 0.614 0.408 0 0.889 0 0 0 -0.112 -0.437 0 0 0.199 0 -0.126 0 -0.291 -0.454 -0.356 0 -0.162 0 0.868 0.53 0 -0.972 0.969 0.808 -0.595 -0.009 0 -0.807 0.404 0 0 0 0 -0.6 0.36 0.205 0.932 0.092 0 -0.688 0.104 -0.878 0.455 0 0.181 0.115 0 0 0 0 0 0.705 -0.861 -0.223 -0.214 0.728 -0.781 -0.353 0 -0.129 0 0 0.075 0.227 0 -0.902 -0.716 -0.945 0.208 0.871 0 0 -0.133 0.58 0.04 0 -0.331 0 -0.523 0 0 0 -0.389 0 -0.04 0.731 0 0 0.127 0 0 0 0.337 0 0 0 -0.681 0.684 0.634 0.803 0 0 -0.095 0 0 -0.9 0 0.063 0.175 0 -0.601 0 0.272 0 0.331 0 0 0 -0.98 -0.531 0 -0.104 0 0 0 0 0.269 -0.848 0 0 -0.042 0 0.217 0 -0.391 0 0 0.511 -0.659 0.257 0 0 0 0 0.599 0 0 0 0.822 0.616 0 0.334 0 0 -0.209 0.545 0 0 0 0 -0.112 0 0 0 0.279 0 0 -0.621 0 0.896 0 -0.727 0 0.86 -0.233 0 0 0 0 -0.845 -0.615 -0.028 0 0 -0.865 0 -0.706 0 0.145 0.886 0 0 0 0 -0.787 -0.105 0.542 0 0 -0.726 0 0 0 0 0 -0.449 -0.606 0 -0.393 0 -0.744 0 0.495 -0.305 0.617 0 0 -0.592 0 -0.924 0 -0.835 0 0 0 0 0 0 0 0 0 0.677 0.638 0 0.246 0 -0.237 0 0 0 -0.123 -0.767 -0.024 0 0 0 0.378 0 -0.345 0 -0.36 0 0 0 -0.529 0 0.505 0 0 0.173 0 0 0 -0.341 0 0 0.039 0 0 0.744 0 -0.191 0 0 0 0.825 0 0.543 0 -0.147 0 0 -0.698 0.235 0 0 0 0 0.863 -0.354 0 0 0 -0.463 -0.664 0 0 -0.11 0.184 -0.841 0.592 0 -0.812 -0.901 0 0 0 0.296 -0.419 0 -0.336 0 0 -0.401 0 0 0 0 0 0 0 0.837 -0.937 -0.607 -0.863 0.521 0.855 0 0.456 -0.9 0 0 -0.444 0 -0.021 -0.773 0 0.059 0.584 -0.055 0.567 -0.819 0 0 0 0.797 0 -0.868 -0.305 -0.093 -0.499 0.872 0 0 0 0.417 0 -0.91 -0.646 0 0.821 0.904 0 0 0.215 0.85 0 -0.326 0.431 -0.806 0.52 0 -0.797 -0.067 0.633 -0.909 0 0.208 0 0 0.945 0 0 0 -0.92 0.198 -0.618 0 0.008 0 0 -0.265 0 0 0 0 0 -0.094 0 0 0 0 0.219 0 0.149 0 0 -0.13 0 0 0.102 0 0 0 -0.97 0.365 0 0 0 0.59 -0.773 0.751 0 -0.667 0.999 0 0 0.038 0.056 -0.922 0 0.516 0.86 0 0 0 -0.5 0 0 0 0.664 0.082 0 0 -0.973 0 -0.178 0 -0.91 0 -0.68 0 0.544 0.934 0 0 -0.105 0.389 0 -0.333 0 0.687 0 -0.079 0.018 0 0 -0.784 0 0.089 0 -0.231 0 0.68 0 0.993 0.162 0.614 0.132 0 0 0 -0.413 0 -0.899 0 -0.773 0 -0.871 0 0.698 0 0 0.532 0 0.196 -0.929 0 -0.013 0 0.323 0 -0.222 -0.486 0 -0.856 -0.498 0 0.54 -0.183 0.374 0 0.334 0.36 0.185 0 -0.376 -0.97 0 0.568 0 0.315 -0.93 0 -0.597 0 0.879 -0.398 0.157 -0.298 0 -0.784 0 0 0.588 0 0 0.561 0 -0.524 0 0 -0.754 0 -0.613 -0.675 -0.556 0.495 0 -0.043 0 0 0 0 0 -0.713 0.962 0.27 0.534 0 0 0 0.865 0 0 0.522 0.797 0.367 0 0 0.44 -0.303 0 -0.811 0.127 0 0 0 -0.258 0 0.303 -0.73 0 -0.738 0 0.327 0.433 -0.855 -0.827 -0.797 -0.188 0 0.383 0.428 0 0.865 -0.281 0 -0.812 0.385 0 0 0 0 -0.975 0 0 0 0 0 0.236 0 0 0 -0.424 0 0.137 0 0.701 -0.443 0 -0.083 -0.107 0 0 0 0.444 0.992 -0.099 0.203 0 -0.275 -0.714 0.292 -0.105 -0.569 0 -0.097 -0.624 0 0.754 0 0 0 0.511 -0.264 0 0 0 0 0 0.229 0 0.123 0.94 0 0 0.133 0 0 0.232 -0.957 0 -0.61 -0.313 -0.345 0.811 -0.194 0 -0.127 0 -0.421 0 -0.087 0 0 -0.538 -0.292 0.451 0.667 0 0 0.986 -0.73 0 -0.934 -0.914 0.251 0 0 0.408 0 -0.243 0.781 0 0 0 -0.985 -0.308 0.449 -0.223 -0.145 0.556 -0.729 0.541 0 0 0.836 0.01 -0.191 0.907 -0.871 0 -0.394 0 0.186 0 0 0 0.873 0 0.295 0 -0.261 0.172 0 -0.661 0.031 0 0 -0.283 0 0.87 -0.44 0 -0.961 0 -0.629 0 0 -0.416 0.567 0 -0.874 -0.46 0 0.147 0 0 0 0 -0.881 0 0 -0.377 0 0.856 0 -0.288 0.265 0 0 -0.082 0 0 0 -0.832 0.259 0 0 -0.079 0.319 0 0.629 0.019 0 0.622 0 0 0 0 0.283 0 0 0 0.341 0 0 -0.043 -0.422 0 -0.429 -0.76 0 0 0 0 0 0 -0.692 0 0 -0.442 0 -0.396 0 0 0 -0.645 0.194 0 0 -0.801 -0.236 0.996 -0.58 -0.378 0 -0.36 0 0.894 0 0 -0.935 0 0 0 0 -0.741 0.912 0 0 0 0 0 0.745 -0.24 0.69 0.357 0 0 0 -0.988 -0.195 0.83 0.831 0 -0.374 0.437 0 0 0.15 0 -0.489 0 -0.005 0 0 0.556 0 -0.733 -0.844 -0.29 0 0.53 0 0.939 0.399 0 -0.984 0.73 -0.658 0 0.861 0.343 -0.653 0 0 0 0.17 0 -0.516 0 -0.463 0.58 0 0 -0.009 0.582 0 0 0 0 0 0 0.561 0.177 0 -0.299 0 0 -0.534 -0.99 0 0 -0.56 0.907 0 0.621 -0.267 -0.315 0 -0.873 0.348 0 0 -0.454 0 -0.096 0 -0.649 -0.379 0 0 0.393 0 0 0.149 0.506 -0.317 0 0 -0.756 -0.906 0.869 0.516 0 0 0 0.725 0.369 0 0.52 0 0.049 0 0.554 0.622 0.286 0.94 -0.237 0 0 0.702 0 0.01 0 0 0 -0.633 0.897 -0.587 -0.734 -0.69 0.289 -0.666 0 0.355 0 0.777 0 0 -0.788 0 0 -0.031 0 0 0 0 0 0.552 0.368 0 0.741 0.058 0 0.369 0.87 0.499 0 0 0 0.046 0 -0.409 0 0.239 -0.765 0 0 0.965 -0.012 0.999 0.51 0 0 -0.336 -0.276 0.839 0 0.327 -0.862 -0.118 0 0.876 -0.172 0 0 0 -0.736 0 -0.242 0.356 0.368 0 0 -0.758 -0.653 0.016 -0.995 0 0 0 0 0.068 0 0 0 -0.209 0 -0.493 0.848 -0.564 0 0.424 0 0 0.924 0.766 0 0.103 -0.559 0 -0.553 0 0 0 0 -0.168 0.9 0.354 0 0.943 0 0.647 0 0.159 0 0 0 0.556 0.427 0 -0.332 0 0 0 -0.686 0 0.303 0.82 -0.422 0 0 0.936 0 -0.16 0 0 0 -0.824 0 0 -0.184 0.777 0 0 0 0 -0.88 0.987 0 0 0 0 0 0 0.668 0.286 -0.942 0 -0.001 -0.523 0 -0.356 -0.388 0 -0.992 0 0 0 -0.787 0 0.918 0 0.312 0 0 0.084 0 0 0.257 0.043 0 0 0 0 -0.224 0.996 0.878 0 0 0.223 0 0 0 0 -0.645 0 0 0.647 -0.318 0.025 0 0.003 -0.882 0.214 0 0 0.438 0.829 0 0 0 -0.17 0 0 -0.876 -0.219 0 -0.916 0.857 0 -0.049 0 0.156 0 0 0 0 0 0.699 0 0.955 0 0 -0.063 -0.144 0.877 0 0.445 -0.652 0 0.501 -0.806 0.821 -0.362 0 0 0 -0.032 -0.399 -0.348 0 0 0 0.064 0.596 0.822 0.49 0 0 0 0 0.365 0.314 0 0.948 0.522 0 0 0 0 0 0.779 0 0.942 0.626 -0.21 0.755 0 0.157 -0.391 0 0.051 0 -0.474 0 0 0 0 0.378 0 0.754 0.802 0 -0.665 -0.506 0 0 0 0 -0.176 0.963 0 0 -0.06 0 -0.502 -0.4 0 -0.283 -0.632 0 0 -0.693 -0.57 0 0 0 0 0 0 0 -0.849 -0.515 0 0 -0.444 0.353 0 0.939 -0.624 0 -0.409 0 0.803 -0.799 -0.964 0.995 -0.737 0.201 0 0 0 0 0 -0.799 -0.915 -0.686 -0.868 0 0 0 0 0 -0.199 0 -0.354 0 0 0 0 -0.864 0 0 0 -0.688 0.545 0 -0.178 0.051 0.161 -0.583 0 0 -0.08 0.101 0 0.408 0.939 0.488 0 0 0.252 0 0 0 0.733 0 0 0 -0.245 0 -0.99 -0.507 0.483 -0.869 0 0.398 0 -0.991 0.228 -0.097 0 0.817 -0.361 0 0 0 0.792 0 0 -0.436 0.003 -0.149 0 0 0.33 -0.729 -0.345 0 0.809 -0.25 -0.091 0 0 0 0 0.808 0.806 0 -0.279 -0.193 0 0 -0.841 0 0 0 0 0 0 0.839 0.356 0.788 0 0 0 0 0 0.064 0 0 -0.113 -0.367 0 0.308 0.236 0 -0.849 0.893 -0.784 0.403 0 0 0 0 0 0.472 0 0 0.276 0 -0.055 0.655 0.694 -0.113 -0.316 0.901 -0.477 0 0 -0.109 0 0.66 0 0.994 0 -0.877 0 0.187 0 -0.913 -0.9 0 0.079 -0.165 -0.423 0.216 -0.663 0 0 0 -0.619 0.567 0.531 0.876 0 0 0 0 0 -0.53 0 -0.954 0 0 0.8 0 0 -0.189 0.982 0 -0.358 0 0 -0.661 0 -0.927 0 0 0 0 0 0 0 0 0 -0.668 -0.197 0 0 0.902 0.097 0 0 -0.082 0 0 -0.915 0.63 0 0 0.267 0 0 0 0 0.249 -0.322 0.553 0 0 0 -0.472 0.584 0.911 -0.535 -0.414 0.276 0 0.139 0 0 0.379 -0.797 0 0 0 0 0.115 0.247 0 0 0.474 -0.811 0 -0.84 0 0.128 0.016 0 0 -0.568 0 0.237 0 0.482 -0.431 -0.181 -0.061 0.895 0.786 0.836 -0.65 -0.911 0 0 0 0.196 0.329 0 0 0 0 0.987 -0.527 0.009 0 0 0 0 0.015 0.505 -0.031 -0.146 0.842 -0.211 0 -0.212 -0.542 0.703 -1 0 0.765 -0.078 0 0.646 0 0 0 -0.734 0 0 0 0.227 0.171 0 -0.787 0.885 0 0 -0.708 0 -0.979 0.508 0 0 0.656 -0.467 0.647 0 -0.502 0 0 0 -0.262 -0.153 0 0 0.209 -0.392 0 0 0 -0.668 0 0 0.965 0 -0.57 0 0 0.528 0.171 0.441 0 0.579 -0.435 0.151 0.869 -0.614 0.186 -0.854 -0.247 0.752 0 0 0.411 0 -0.944 0 0 0 0 0 0 -0.872 -0.56 0 0 -0.34 -0.38 -0.751 0 0 0.409 -0.586 0 0.093 0.736 0 0 0.884 0 -0.11 0.758 0 0 0 0 0 0 -0.661 0.233 0 -0.231 0.774 -0.042 -0.208 0 0 0 -0.309 0 0 0.511 0 0 -0.025 0 0 0.831 0.255 0 -0.331 0 0 0.278 -0.365 0.719 0 0 0.823 -0.703 -0.634 0 -0.3 -0.97 0.749 0.086 0 -0.289 0 0 0 0 -0.917 0 0 0 0.554 0 -0.295 -0.862 0 -0.328 0 0 0 0 0 0 0.081 0 -0.893 0 0 -0.833 0 -0.249 0 0 0.15 0 0 -0.557 0 0 0.301 0.891 0.081 -0.969 0.18 0.206 0 0 -0.566 0 -0.435 0.995 -0.489 -0.047 0.734 0.61 0.007 0.54 0.332 0.294 0 -0.863 0 0 0.264 0 0 0.808 -0.003 0 -0.217 0 0 0 0 0.492 -0.75 0 0 -0.698 0 0 0.17 0 0 -0.242 0.563 0 0 -0.467 -0.385 0 0 0.049 0 0 0 -0.213 -0.374 0.849 -0.173 -0.789 -0.218 0 -0.588 0.433 -0.551 0 0 0 -0.919 -0.166 0 0 -0.192 0 0 0 0.856 0 0 -0.808 0 -0.747 0 -0.719 0 0 0.911 -0.515 0 0 -0.833 -0.051 0 0.631 0.074 0.114 0 0 0 0 -0.308 0 0 0 0 0.936 0.524 0.325 0 0 0.058 0 0 0.409 0 -0.365 0 0 0 0.187 0 0 0.505 0 0.872 -0.93 0.17 0 0 0 -0.561 0 -0.559 -0.827 0 0 0 -0.638 0.263 -0.21 -0.455 0 -0.371 0 0 0 0 0 0 0 0.004 0 -0.693 -0.528 0 0.61 -0.009 0 0 0 0.559 -0.746 -0.529 0 0 0 0 0 -0.915 0.004 0.801 0 -0.018 0 0 0.016 0 0 0.469 -0.235 0.888 0.308 0.976 0 0 0 0 0 -0.487 0.437 0.494 0.643 0 0.035 0 0 0 0 -0.805 -0.669 0 0 0 0 0.283 0.418 -0.067 0 0.88 0 0 0.849 -0.321 0.011 0.374 0.821 -0.466 0 -0.996 -0.896 -0.25 0.911 0.949 0 0.756 -0.638 0.83 -0.943 0 -0.207 -0.848 0.636 -0.353 0.94 0 0 -0.969 0 0 0 0 0 0.872 -0.605 0.891 0 -0.941 0 -0.717 -0.849 0.394 0 -0.571 0.917 0 0 0 0 0 0 0.032 0 -0.382 0 -0.758 0.054 -0.47 -0.746 0 0 0 0.02 0.228 0 0.605 -0.447 0 0.757 0 0 0 0.034 0 0 0 0.454 0 0.834 0 0 0 0 -0.151 0 0 -0.213 0 0 0 0 0 0 0 0 0.241 0.215 0.738 -0.641 -0.241 -0.434 0 0.858 0 0 0 0.225 0.067 0 0 -0.146 0.17 0.213 0 0 0 0 -0.042 0.8 0 0 0 0 0 0.216 0 0 -0.891 0 0.508 0.443 0.163 0 0.694 0 0 0.797 0.876 0.339 0 0 0.439 0.074 0 0 0 0 0 0.663 0 0 0.891 -0.249 -0.45 0 -0.201 0 0.504 0 -0.355 0 0 0 0.708 -0.82 0 0.136 -0.814 -0.853 0 0 0.741 0 -0.147 0 0.391 0 0.58 0 0 0 0 0 -0.353 0.32 0 0.611 0.493 -0.309 0.419 -0.752 0 0 0 -0.518 0 -0.042 0.254 0 0 -0.136 0.476 -0.875 0 0 -0.14 0 0.709 0 -0.752 -0.731 -0.609 0.39 0 0.36 0 0.767 0 0.785 -0.248 0 -0.374 0.176 -0.825 -0.101 0 0.006 -0.173 0 0 0.11 0.909 -0.815 0.701 0 0 -0.357 -0.691 0.762 0.717 0.216 0 -0.332 -0.455 0 0 0.186 -0.328 0 -0.643 0 0 0.262 0.653 0 0.259 -0.319 0 0 0 0.231 0.699 0 -0.639 0.326 0 -0.288 0.126 0.946 0.64 -0.408 0 0.205 0.208 0.279 0 0.204 -0.565 0.644 0 0 0 -0.709 0.876 0.017 0.025 0 -0.038 0 0 -0.776 0 0 0.853 -0.803 -0.306 -0.319 0 -0.656 0 0 0 0 0 0.238 0.619 0 0 0.837 -0.833 0 0 0 -0.818 0 -0.111 0 0 0 -0.352 -0.445 0 0 0.712 0 -0.938 0 0.329 0.918 0.191 0.632 0.716 0 0 0.519 0.821 -0.222 0.863 0.183 -0.76 0 0.837 0 0.016 -0.964 0 -0.153 0.859 0 0 -0.033 0 0.236 -0.196 0 0.107 0.243 -0.825 0 0.387 -0.892 0 0 0 0 0 0.161 0 0 0.279 -0.844 -0.095 0.591 0 0 0 -0.547 -0.555 0 -0.36 0 0.786 0 0.663 0.552 0 0 -0.493 -0.473 -0.972 0.056 -0.813 0 0.981 0 0 0 0 -0.635 -0.141 0.903 -0.605 -0.156 0 0.807 0 -0.712 0.382 0 -0.503 0.862 0 0 -0.882 0 0 0.369 0 0 0 -0.591 0.875 0 0 0 -0.722 0 0.594 -0.161 -0.241 0 0 -0.343 0 -0.405 0 -0.532 -0.745 0.028 0 0 0.918 0 -0.783 0.32 0 0 0 0.886 -0.532 0 0.114 0 0.075 0 0 0 0.708 0 0 -0.293 0.202 0.238 -0.273 0 0.716 0.513 0.991 -0.27 0.602 0 0 0 -0.768 0 0 0 0 0.755 0 -0.501 0.265 0.165 0 -0.446 0 0 0 0.95 0 0 -0.362 0.661 0 0 0.39 -0.117 0 0.212 0 0 0.961 0.373 0 0.242 -0.46 0 0 -0.58 0.612 -0.311 -0.253 -0.256 -0.992 0 0.036 -0.607 0 0 0.918 0.82 0 0.999 0.242 0 0 0.737 0 0 0.337 -0.254 0.878 0 0 -0.632 0 -0.57 -0.825 0 0.587 0 0 0 0 -0.838 -0.511 0 0.192 -0.568 -0.112 -0.549 0 -0.078 0.799 -0.889 0.536 -0.031 0.082 0 0 -0.216 -0.22 0.939 0 -0.665 0.171 0 -0.447 0 0 0.122 0 0 0.831 0.231 0 0 0 0.181 0.644 0 0 -0.753 0.988 0 -0.87 -0.852 0.997 0 0 0.323 -0.621 0 0.753 -0.383 -0.661 0 0 -0.308 -0.523 0 0 0.615 0 0.514 0 0 0 0 -0.096 0 -0.544 0 -0.188 0.709 0 0.412 0.489 0.765 -0.781 -0.868 0 0 0.846 0 0.81 -0.456 0 0 0 0 0.984 0 0 0 0.744 0 0.507 0 0 0 -0.996 0 -0.953 -0.871 -0.772 -0.731 0 -0.096 0 -0.755 0.987 0 -0.601 0.53 0 0 0 0 0 -0.262 0 0.368 0 0.917 0 0.765 0 0 -0.549 0 -0.373 0 0.849 0 0 0 0 0 -0.518 0.803 0 0 -0.734 0.763 0 -0.122 0.076 0 0 -0.675 0 -0.959 0 0 0.074 0 0 0 0.421 0 0 0 0.944 -0.464 -0.632 0 0 0 0.176 0 0 0 0 0 -0.436 -0.405 0 0.043 -0.312 0.135 -0.82 0 0 0.325 0 -0.324 0 0 -0.925 0 0 0.074 0 -0.448 0 0 0.459 0 0 0 0 0 0.79 -0.326 0 0 0 0.828 0.124 0 0.338 -0.226 0 0 -0.018 0 0.392 0 0 -0.297 -0.372 -0.051 0.946 0.418 0 -0.414 -0.956 0 0 0 0 -0.163 0 0.754 0.667 0 0.243 0 0.382 0 0.255 0 0.506 0 0 0 0.744 0.504 -0.662 0 0 0 0 0.57 -0.632 0.862 0.082 0 0 -0.166 0 -0.303 0 -0.59 -0.96 -0.752 0 0.483 -0.983 -0.108 -0.91 -0.566 -0.172 0 0 0 0.397 -0.372 0 0 -0.94 0 0 0 0 0 0 0 0 0 0 0.477 0.939 0 -0.214 -0.205 0 -0.42 0 0.415 0 -0.058 -0.495 0.274 -0.233 0.362 0.466 0.822 0.449 0.527 -0.489 0 0 0.131 0.724 0.26 -0.702 0 0 -0.216 0.236 0.939 -0.859 0.355 0 0.089 0 0 -0.76 0 -0.014 -0.496 0 -0.406 0 0 0.988 -0.98 0 0.287 0 -0.45 0 0 -0.622 -0.159 0 0.437 0.646 0.301 0 -0.709 0 0 0.256 -0.654 -0.097 0.561 -0.836 0 -0.754 -0.05 0 -0.368 0.918 -0.956 -0.944 0 0.461 0 -0.203 0 0 0.995 0 0.192 0 0 0.99 0 0 -0.812 0 0.509 -0.182 0.313 0.829 0 -0.474 0.044 0 0 0 0.322 0 -0.728 0 0.326 -0.627 0.709 -0.473 0 -0.665 0 -0.431 -0.979 0.784 -0.666 0 -0.804 -0.001 0 0 0.23 0 -0.694 0 0.505 0 0 0.708 0.182 0 0 0 -0.954 0 0.832 0 0.324 0.189 0 0 0 -0.9 0 0 -0.095 0.8 0.549 0 0 0 0 -0.629 0 0.377 0 0 0.286 -0.854 -0.132 0 -0.208 -0.169 0.899 0 0 -0.834 0 0 0 0.208 0.216 0 0.356 -0.398 0 -0.407 0 0.245 0 0 -0.583 -0.372 -0.733 0 -0.321 0 -1 0 0.742 0 0 0 -0.562 0 0 0.653 0 0 0 0.588 0 -0.944 0.482 0 0 0 0 0 0 0.283 0 0 -0.312 -0.036 0 -0.341 0.64 -0.496 0 -0.562 -0.972 0 0 -0.815 0 0 0 -0.144 0.267 0.786 0 0 -0.376 0 0.805 0 -0.573 -0.005 0 0.032 0.473 0.48 0 0 0.707 0 -0.953 -0.892 0.593 0 0.175 0 -0.353 0 0.955 0.056 -0.909 0 -0.471 0 -0.631 0.58 0 0.986 0 0 -0.338 0 0.064 0.5 -0.931 -0.34 0 0 0.061 0.791 0 -0.948 0 0.405 0 0.055 0 0.894 0.509 0.657 0.104 0 -0.424 0.806 -0.394 0 -0.771 0.61 0 0 0.874 0.419 -0.774 0 0.556 0.353 0.122 0.254 0.395 -0.548 0 0.047 0 0 -0.545 0 0 0 -0.964 -0.851 0.463 -0.958 0 0.171 0 0.212 0.394 0.701 0.34 0 0 -0.613 0 0 0.067 -0.873 0 -0.209 0.689 0.38 -0.943 -0.963 0 0 0 0 0.7 -0.548 0.972 -0.379 0 0.273 -0.663 0.487 0 0 0 -0.453 0.338 0 0 0.312 -0.785 -0.257 0 -0.755 0 -0.613 -0.197 0.83 0.788 0 0 -0.102 -0.865 0 -0.477 0.633 -0.324 -0.527 0.244 0 0 0.538 0 -0.596 0 0.946 0 -0.645 0 0.893 0.419 0.273 0 -0.937 0 -0.133 0 0 0 0 0 0 0 0.587 0.629 0.589 0.089 0.146 -0.935 0.488 0 0 0 0 -0.601 0 0.308 0 0.078 0 0 0.256 -0.756 0 0.845 0.257 0 0 -0.674 -0.848 -0.567 0 -0.121 0 0 0 0 0.646 0.681 0 -0.173 -0.844 0 -0.19 0 -0.867 0 -0.908 0 -0.831 0.031 0.909 -0.526 0 0.39 0 -0.484 -0.827 0.097 0 0 0.383 -0.7 0 0.109 0 0 -0.553 0 0 0.817 0 0 -0.235 0 -0.27 0 -0.264 0 0.733 0.524 -0.552 -0.542 0.973 0 0 0 0.768 0 0.939 0 0 0.464 0 -0.649 -0.687 0 0.466 0 -0.118 -0.544 0 -0.969 0.35 -0.085 0 -0.31 0.142 0.507 0.584 0 -0.749 0.926 0 0 0.962 -0.112 -0.796 0 -0.078 -0.281 0.022 0 0 0.459 0.156 0 0 0 -0.963 0 0 0.101 -0.065 0 0 0.618 -0.812 -0.558 0.059 -0.034 0 -0.183 0.304 0.966 -0.007 0.48 0 0 -0.314 0 0 0.412 0 -0.264 0 0 -0.824 0 0.565 -0.744 0 -0.038 0 0.839 -0.945 0 -0.877 0 -0.511 0.191 0 0 0.148 0 0 0.794 0 -0.975 0 0 0.947 0 0 0 -0.324 0 0.471 0 -0.303 0 0.092 0 -0.242 0.289 0.649 -0.157 -0.537 0 0.506 0 0 0 0 0.005 0.568 -0.291 0 0 0 -0.035 0.384 0 -0.209 0.803 0 -0.772 0 0.393 0 0 -0.801 0 0 0 0 0.514 -0.362 -0.215 0.2 0.009 0 0 0.166 -0.795 0 0 0 0 0.845 -0.844 -0.472 0 0 0 -0.757 0 0 0 0.576 0 0.044 0 0 0.331 0.104 0 -0.422 0.649 0 0.17 0.227 0.267 0 0 0 -0.274 0 0 0 0 0 -0.367 0 0.205 0 -0.214 0 0.473 -0.506 -0.174 0 0.537 -0.026 0 -0.687 0.097 -0.631 -0.789 0 0 -0.157 -0.299 0 0 -0.401 -0.732 0.493 -0.349 0.789 0 0.215 0 0 -0.968 0 0 0.039 -0.036 0 0.436 -0.421 -0.758 0 0.66 0.126 0 -0.23 -0.545 0 -0.537 0 0 0 0 0 0.166 0 0 -0.041 -0.425 0 -0.565 0 0 0 0.984 -0.361 0.165 0 0 0.009 0.933 -0.522 -0.821 -0.111 0 0.588 0.326 0 0 -0.292 0.26 -0.582 0 -0.59 0 -0.144 0 -0.92 -0.748 0.316 0 -0.123 0 0.148 0 -0.945 -0.244 0.567 0 -0.773 -0.099 0 0 0 -0.852 0.558 0 -0.391 0 0 0.398 0 0 0 -0.01 0.139 0.456 -0.711 0 -0.21 -0.457 -0.077 -0.194 0 0 0.848 0.126 0.793 0 -0.593 0 0 0 0 0.804 0 0 0.813 0 0.436 0 0.407 0.786 0 0 0.727 0 0 0 -0.207 0.159 -0.678 0 0 0 0.148 0 0 -0.893 0.728 0 0.36 0 -0.752 0.421 -0.306 0.208 -0.048 0 -0.729 -0.131 -0.798 0 0.301 0.525 -0.746 0.037 0 -0.391 0 0.662 0 0 -0.804 0 0 -0.023 0 -0.111 0.71 -0.707 0 0.813 0 0 0 0 0 0 0 0.743 0.348 0.883 -0.555 0.542 -0.756 -0.2 -0.039 0 0 0 0.218 0 0 0 0.261 -0.189 0.344 0.38 0.552 -0.965 0.669 -0.124 -0.734 -0.646 -0.369 -0.013 0 0.25 -0.926 0 0 -0.884 0 0.517 -0.637 -0.421 0 0 0 0.53 -0.244 -0.973 0 0.154 0 -0.979 0 0.393 -0.647 0.454 -0.618 -0.623 -0.61 0.62 0.49 0 0 -0.373 0 0.023 0 0.816 -0.088 0.512 0 0 0.26 -0.913 0 -0.838 0 -0.163 0 0.658 -0.625 0 -0.109 -0.157 -0.721 0.007 -0.412 0 -0.252 0 -0.53 0.371 0.652 0.176 0.372 0 0 0 -0.993 -0.203 0 0.42 0 0 0 0.061 -0.305 0 0.237 0 -0.416 -0.712 -0.717 0 0 0 -0.805 0 0 0 -0.794 -0.84 0.081 0.183 0 0 -0.445 -0.445 0 -0.313 0.814 -0.699 0.875 0.072 0 -0.538 0.088 0 -0.28 0 0 0 0 0.367 -0.678 0 0.726 -0.789 0.377 -0.865 0.433 0 0 0.136 0 0 -0.781 -0.891 0 0 0 0 0 0 0 0 0 0.751 0 -0.443 -0.588 -0.965 0 0 0.311 0.466 0 0 0 0 0.13 0.247 -0.641 0 0 0 0 0 0.093 0 0 0.974 0.491 0.392 0 0 0 0 0 0 0 0.402 0.203 0 0 -0.079 0.843 0.458 -0.647 -0.698 0 -0.858 0 0.9 0 -0.603 0 0 0.519 0 0 0 0 0 -0.523 0 0.994 -0.783 0.628 0 0 0 0 0.702 0 0.452 0.716 0.806 -0.77 0 0 0 0 -0.959 0 0 0.949 -0.046 0 0 0 -0.302 0 0 0 -0.118 0 0.058 0.909 0.003 0.092 -0.789 -0.891 0 0 0 -0.542 -0.726 0.556 0 0.817 0.09 0 0 -0.932 0.73 0 0.958 0 0 0 0 0 0 -0.538 0.214 -0.706 -0.619 0.908 0.074 0 0.632 -0.459 0.319 -0.51 0 -0.735 -0.599 0.871 0 -0.406 -0.858 0.422 -0.369 0 -0.807 -0.849 -0.557 -0.191 0 -0.006 0 0 0.44 0 -0.325 0 0 -0.271 0 -0.144 0.26 -0.703 0.412 0.769 0.321 0.496 0.824 0 0.159 0 0 0 0.131 -0.159 -0.881 0.901 -0.065 0.669 0 0 0 0 0.011 0 0 -0.719 -0.465 -0.479 0.702 0 0 0 0 -0.841 0 -0.169 0 0.281 0.338 0 0 0 0 -0.407 0 -0.492 -0.122 0 0.298 -0.34 0 0 0 0 0 -0.083 0 0.309 -0.228 0 0.705 0 -0.518 0 0.229 -0.171 0 -0.555 0 0 -0.713 0 0.683 0 -0.647 0 -0.133 0.096 0 0 -0.242 0 -0.321 0.145 0 -0.965 0 0 0 0 -0.961 0 0 0 0.849 0 -0.861 -0.999 -0.947 0 -0.828 0.509 0.742 0 0 0 -0.661 0.804 0 -0.762 -0.639 0 0.179 0 0 0 -0.569 0 0 0.503 -0.751 0 -0.312 0 0.649 0 0.893 0.58 0.79 0 0 0 0 -0.06 0 -0.057 0 -0.642 0 -0.553 0.532 0 0 0.128 0.198 0 -0.976 0.381 0.124 0.973 0.572 0.208 0.073 0 -0.632 0.054 0 0 0.445 0 0 0 0.233 0 0 -0.499 0.961 -0.036 0.518 0 0 -0.948 0 0 0 0 -0.126 0 0 -0.295 0 0 -0.264 0 0 -0.971 0 -0.628 -0.319 0.354 0 0 0 -0.428 0 0 -0.809 -0.433 0 -0.469 -0.619 0 0 0 0.307 0.981 -0.269 0 -0.123 -0.351 -0.196 0.094 0 0 0 0 0 0 0.026 -0.005 0 0 0 0 0.955 -0.149 0.571 0.759 0 0 -0.751 0.956 -0.021 0 0 0.742 -0.445 0 0.039 0.108 -0.087 0 -0.058 0 0 0 0 0 0 0 0.761 -0.557 0 0.992 0 -0.922 0 0.772 -0.966 -0.706 0.114 0 -0.795 0 0 0 0 0.985 -0.791 0 0 -0.299 -0.411 0 -0.439 0 -0.955 0 0 0 0 -0.175 0 0 0 0 0.559 0 -0.868 0 -0.371 -0.613 0 0 0 0 -0.823 0 0.48 0 -0.973 -0.646 0.324 0.264 0 0 0 0.877 0 0 0 -0.098 0.266 0 0.407 0.606 -0.245 0 0 0 0 0 0 -0.782 0 0 0.6 0 0 0 -0.698 0.062 0.698 0 0.373 -0.939 0 0.805 -0.198 0.67 0 0.853 0 0 0 0 0 0.611 0 -0.956 0.522 0 0 0 -0.896 0 -0.274 0.45 0 -0.584 0 -0.186 0.745 0.334 0.309 -0.481 0 0 0.533 0 -0.376 -0.127 -0.119 0 0 0.029 0 0 0.363 0 0 0 -0.232 -0.392 0 0 0 0.899 0.511 0.393 -0.662 -0.203 0 0.879 0.709 0 0.977 -0.891 0 0.376 0 -0.23 0 -0.921 0 0.447 0.439 0.762 -0.014 -0.419 0.444 0 0 0 -0.567 -0.527 -0.554 0 -0.903 0 0.1 0 0 -0.65 -0.651 -0.553 0 0.975 0.631 0.615 0 0.585 -0.214 0.117 0 -0.102 -0.446 -0.531 0 -0.129 0.862 -0.011 0.395 -0.645 0 0 0 0 -0.163 0.024 0 0 -0.497 -0.465 0 -0.028 0 0.877 -0.24 0.89 0.57 0.345 0 0.784 -0.808 0 0 0 0 0.267 -0.576 0 -0.962 0.781 0 -0.584 0.604 -0.753 0 0.529 -0.985 0 0.14 -0.637 0.473 0.364 -0.41 0.534 -0.158 0.892 0.491 -0.135 0.52 -0.024 -0.511 -0.629 0.756 0.005 0 0 0 0 -0.179 0 0 0 0.331 0 0.774 0 -0.204 -0.981 0 0 0 0.398 0 0.753 0.378 0.863 0 0.034 0.038 -0.225 0 0.184 -0.968 0 0 0 0.897 0 -0.861 0 0 -0.476 0 -0.036 -0.149 -0.301 0 0 -0.917 -0.296 0.462 0 0.55 0 0 0.189 -0.876 0 0.96 -0.378 -0.851 -0.614 0 0 -0.698 0 0 0 0 0.718 0.453 0 -0.237 0 0 0.648 0 0.845 0 0 0 0.328 -0.8 -0.726 0 0.79 0 0 0 0 0 0 0 0 0 0.793 0.677 -0.062 0 0.055 0 0 0.651 0 0 -0.537 0.744 0 0 0 -0.023 0 0.268 0 -0.042 -0.012 0 -0.333 0 0 0 -0.381 0 -0.18 -0.603 0.153 -0.516 0 -0.429 0 -0.074 0 0.573 -0.112 -0.108 0 0 0 0 0 0 0.702 0 0.59 0 0 0.856 0 -0.789 0 0 0.375 0 -0.373 -0.826 0 0 0 0.027 -0.87 0.553 0.129 0.743 0.109 0.712 -0.449 0.41 0 0 0.943 0 0 -0.353 -0.227 0 0 0.024 0.409 0 0 0 -0.907 0.792 -0.339 0 -0.081 0.598 0 0 0.038 0.76 0 -0.934 0 0 0 0 0.004 0 -0.76 0.575 0 0 0 -0.78 -0.178 0.241 0 -0.795 -0.12 0 0 -0.557 0 0 0 0 0 0 0 0 -0.218 0 -0.566 0 -0.591 0 0 0 -0.395 0.522 0 0 0.659 0 0.804 -0.937 -0.762 0 0 0 0 0.447 -0.588 0 0.077 0 0 0.085 0.419 0.105 -0.585 0.524 0 -0.669 0.919 0 -0.979 0.84 0 0 0 -0.67 -0.781 -0.325 0 0.344 0 0.559 -0.165 0 0 0 -0.495 0 0 -0.101 -0.606 -0.038 0.03 -0.796 -0.876 0.87 0 0.876 0 0 0.427 0 0 0 -0.398 0 0.017 -0.552 0.701 0.777 -0.542 0 0 0.879 0 -0.674 0 0 -0.28 0.385 0.146 0 -0.761 0 0.58 0.48 -0.037 0 -0.759 0.617 0 -0.597 0 0 0 0 0.394 0 -0.96 0 -0.944 -0.746 0 -0.836 -0.708 0.292 0 0 0 -0.101 0.342 0 0 0 0.82 0 0 -0.217 0 -0.684 0.464 -0.687 -0.73 0.94 0 0.104 0 0 0 -0.394 -0.236 0 -0.837 -0.114 0 0 -0.167 0 0 0 0 -0.02 0 0.319 0 0.901 0 0 -0.376 -0.111 -0.325 -0.453 0 0 0 0.783 0.527 0.933 0 0 0 0 -0.546 0 -0.226 0 -0.658 0.234 0.107 0 0 -0.966 -0.332 0 0.944 0 0.864 0 -0.838 -0.802 0 0 0.519 -0.289 0 0 0 -0.285 -0.118 -0.776 0 0 0.605 0 0 -0.489 0 0 -0.368 0.424 0.39 0 0 -0.745 -0.521 0 -0.832 -0.091 0.628 0 0.678 0.432 0 0 0 0.525 -0.974 -0.942 -0.026 0 0 0 0 -0.539 -0.527 0.975 -0.299 0 0 0.413 0 -0.877 0 -0.97 0 0 0 0.491 -0.344 0 0 0.344 0.17 0 0 0.318 0 0 0 0 0 0 0.362 0 0 0 0.632 0 0.514 -0.777 0 0.854 0 0 0.982 0 0.322 0 0 0 0 0.087 0 0 0 0.857 0.502 0.766 0.28 0 0.178 0.127 0 -0.563 0 0 0 0 -0.856 0.49 -0.1 0.342 0 0 0.336 0.948 0 -0.76 -0.72 0 0.358 0 0 0 0 0.03 0 0.804 -0.623 -0.4 0.781 -0.151 -0.417 0 0.957 0 -0.905 0 0.376 0 0 0 0 -0.637 0 0.026 0.817 0 0.818 0 0 0 0 0 0.133 -0.99 -0.135 -0.55 0 0.61 0 0 0.329 0.89 0.102 0.226 0 0 -0.435 0 -0.647 0 0.468 0 0.649 0 -0.265 -0.325 0.421 -0.833 0.013 0.68 0.909 0 0 0.188 -0.382 0.116 0.475 -0.879 0 0 0 0 0.047 -0.973 0 0 -0.413 0.666 -0.164 0 0 -0.806 0 0.135 -0.046 -0.465 -0.832 0 0 -0.354 0 -0.09 0 -0.51 0 0 0.689 -0.457 0.92 -0.936 0 0 -0.26 -0.932 -0.16 0.606 0 0.808 0 0 -0.418 0 0 -0.606 0 0 0 0.832 0.818 0.13 0 0 -0.08 0 0 0 0 0 0.264 -0.647 0 -0.863 0 -0.355 0 0 0 -0.93 0 0.926 0 0 0 -0.143 -0.759 0 -0.394 0 0 -0.615 0.826 0.693 0 0 0.729 0 0 0.069 0 -0.163 0 0 0.248 0 0 0 -0.951 0 0 0 0.439 0 0 0 0 -0.361 0.997 0 -0.658 0 0 0 0 0.057 0 0.677 0 0 0 -0.001 0.203 0.483 -0.148 0 0 0 0 0 0 0.123 -0.994 0.486 -0.266 0.083 -0.713 0.5 0 0 0.311 0 -0.521 0.6 0 0 0 0.297 0 0 -0.341 0 -0.206 -0.751 0.933 0.982 0 0 0 0 0 0 0 0 0 0 0 0.195 -0.187 0 0 -0.792 -0.302 0 -0.783 0 0 0.735 0.195 0.368 -0.801 0 0 0 0 -0.159 0 0 0 0 0.71 -0.387 -0.261 -0.946 0 0 0 -0.822 0.006 0 -0.964 0.68 0 0 0.407 -0.95 -0.08 -0.812 0 0 0.762 -0.818 0.084 0.8 -0.181 0 -0.634 0 0.419 -0.575 0 -0.329 0 0.343 0 0 -0.93 -0.048 0 0 0.096 0.593 0 0 -0.979 -0.743 0 -0.864 0 0 0.606 0.418 0 0.825 0.125 0 0.505 -0.966 0.984 0.24 0 0 0 0.084 -0.007 -0.619 -0.118 -0.382 0 0.702 0 -0.365 0 0.255 0 0 0.792 -0.275 0.112 0 0 0 -0.507 -0.049 0.382 0.704 0.513 0 0 -0.513 -0.643 0 0 0 0.978 -0.875 0.125 0.931 0.825 0.57 0 -0.69 0.912 0.297 -0.419 0 0 0.209 0 0.606 0 0 0.43 0 0 -0.893 0 0 0.709 0.326 0 -0.589 0 0.996 0.319 0.945 -0.747 0.854 0.863 -0.332 -0.863 0.9 -0.466 -0.773 0 0 0 -0.442 0.221 0 0.015 0 0 0.092 0 -0.194 -0.846 -0.13 0 0 0 -0.128 0.684 0 0 0.109 0.641 0.762 -0.165 -0.361 -0.008 -0.058 -0.675 0 0 -0.548 0 0.227 0.848 0 0 0.558 -0.56 -0.511 0.919 -0.885 0.93 0.881 -0.803 0 0 0 0 -0.169 0 0 0.82 0 0 0 0 0 0 0.803 0 0 -0.016 -0.108 0 0.067 0 0 -0.303 0 -0.893 0.707 0.606 0.739 0 -0.429 -0.64 0.196 0 0.496 0 -0.316 0 0 0 0 0 0 0 0 0.306 -0.514 0 0 0 0 0.132 0.529 0 0.937 0.741 -0.76 -0.475 0 0 0 -0.464 0 0 0.201 -0.58 0 0.168 0 0 0 0.886 0 -0.477 0 0.396 -0.236 0.847 0.16 0 0.907 -0.779 0 0.277 0 0.273 0 0 0 0 0 0 -0.277 0 0 -0.245 0 -0.315 0 0.156 0 0 0.081 0.702 -0.438 -0.299 -0.525 -0.652 0.789 0.793 -0.08 -0.431 0 0 -0.793 0.518 -0.074 0 0 0 0 0.589 0 0 0 0.664 0.352 0.605 0 -0.492 -0.991 0 -0.039 -0.205 0.731 0.682 0 0.406 0 -0.117 0 0.527 0 -0.853 0.644 -0.633 0.407 -0.544 -0.55 0 0.196 -0.805 -0.058 -0.991 -0.498 0 0.999 0 0 -0.565 0.82 0.207 -0.264 -0.758 0.692 0 0.014 0 -0.387 0.688 0.29 -0.021 0.777 0 0 0.396 0 0 0.111 0.318 -0.565 0.52 -0.028 -0.12 0 0.85 0 0.928 0 -0.91 -0.06 0.581 0 0 0 -0.211 0 0 0 0 -0.845 0.626 0.358 -0.331 0 0.414 0 0 0 0 0 0 0.768 0 0 -0.853 0 -0.586 0 0.472 -0.027 0.869 0 0.733 0.867 0 0 -0.795 0 0 -0.752 0.613 0 0.791 -0.195 0.39 -0.117 0 0 -0.606 -0.736 0.042 0 0 0 0 0.613 -0.866 0 0.485 0 0.692 0 0 -0.206 0 0 0 0.058 -0.587 0.058 0.941 0 -0.427 -0.758 -0.089 -0.36 -0.45 0 -0.99 0 0 0 0 0 0 0 -0.982 -0.939 0 0 0.741 -0.052 0 -0.619 -0.714 0.85 -0.306 0 0 -0.101 -0.431 0 0 0 -0.26 -0.124 0 0 0 0 0.876 0.18 -0.62 0 0.419 0.091 0.921 -0.779 -0.264 0 -0.848 0.375 0 0 0 0.126 0 -0.812 0.904 -0.735 -0.788 -0.292 0 0 0 0 0.82 0 0 -0.916 0 -0.646 0 0 0 0 0 0 0.778 -0.023 0 -0.638 0 0 0 0.14 0 0.258 -0.227 0.178 0 -0.672 -0.935 0 0 0 0 0.637 0.987 0 0 -0.726 0.484 0.887 0 -0.055 0 0 0.339 0.142 0 0 0.861 0 -0.627 0 -0.527 0.298 0 -0.14 0 0 -0.709 0 0 0 0.544 -0.277 -0.798 0 0 -0.844 0.172 -0.201 0 0 0 0 0 0.244 -0.497 0 0 -0.847 0.914 -0.909 