-0.152 0 1 -0.617 -1 0 0.05 0 -0.878 1 0 0.212 0.299 -0.649 0 0 -1 0 0 -1 0.696 0 0 0 0 0 -1 0 0 0.402 -0.636 0 0.652 0 -0.604 0.96 0.664 0 0 0 0 0.426 -0.438 0 0 0 -0.332 0 1 -1 0 -0.25 0.193 0.285 -0.453 0.569 0 0 0 0 0 0.311 0.982 -0.14 0.709 0 -1 0.404 0 0 1 -1 -0.661 -0.705 0 0.332 0.289 0.973 -0.829 1 0 0 -0.384 0.477 -0.119 0.227 1 -0.692 0 0 0 0 0.863 0 0.288 0 -1 1 0 0.656 0 0 0 0.815 0 -0.049 0.211 1 -1 0 0 -1 0 0 -0.912 0 -0.145 1 0 0 -0.346 -0.425 0 0 -0.883 0 -0.906 -1 0 0.122 0.291 -1 -0.525 0.508 0 -0.623 0 1 -0.52 0.757 -1 0 -0.63 0 -0.733 0.926 0.568 0 0 -0.193 -0.591 0 -0.804 -0.497 -1 0 0 0 0 0.756 -1 0 0 0 -1 -0.025 1 0 0 0 -1 0.548 1 0.862 0.382 0 -1 -0.811 -0.997 0 1 -1 0 -0.66 0.328 0.17 -0.537 0 -0.721 0 -1 0.87 0 0 0 -0.926 -1 0 0.571 0.533 0 0 -0.222 -0.529 0 -0.822 0 0 0.675 -0.025 0 -1 0 0 -0.406 0 0.462 0.156 0 -1 -0.514 1 0.773 1 0 0.791 0 0 0 0 0.395 -0.881 -1 -0.795 0 -1 0 0.421 0 0 0 -1 0 0 -0.936 0.168 0 0.531 0.38 0.037 0.644 0 0.136 1 0.548 -1 0.382 0 -0.51 0 -1 1 0 -1 0 0 0 0 1 0.917 0.971 0 1 0 0 0.873 0 0.065 -0.279 0.343 -0.743 0.41 0.335 -0.387 1 -0.876 1 0.005 0 0 0 0 -1 -0.21 0 0 0 1 0 0.24 -0.653 -1 0.407 0 0 0 -0.26 0 0 0 0.334 0 -1 -0.331 0 0 0 0 0 0 0 0 -0.905 -1 0 0 0 0 0.844 0.773 -1 -0.648 -0.052 -0.34 0.126 1 0.086 0.551 -1 0 0 -0.99 0.842 0 0 0 -0.201 -1 0.739 0 0 0 0.046 0 -1 0 0 0 1 0 0 1 0 -1 0 -0.717 -1 -1 1 -0.852 0.195 -1 1 0.049 -0.755 -1 -0.436 -1 -1 0 0 0 -1 0 0 -0.785 0 0 0 0 1 1 0 -1 0 1 0.571 -0.839 0 0.065 -0.216 0 0 0 -0.141 0 -0.087 -0.983 0 0.042 -0.329 0 0 0 0 -0.236 0 1 0 1 0 1 1 1 1 0.621 0 0 0 -0.32 -1 -1 -0.767 0 0.398 0 0 0.262 0.088 -0.169 -0.596 1 1 0 0.306 0 0 0 0 -0.932 -0.25 0 -0.056 0 0 -1 0 -0.973 1 0.446 0 0 -0.113 -1 0 -0.305 -1 -0.577 0.421 0 0 0 0 -1 0.808 0.727 0.978 0.831 0 0.773 0 0 0 0 0 1 -0.737 0 0.704 0 0 0 0 0.116 0 0 -0.466 0 0 -0.165 0 1 1 1 1 0 0 -0.1 -0.828 -0.833 -0.231 0.973 -0.008 0.412 0.677 -0.027 0.187 -1 0 -0.139 0.817 -1 0.318 0 -0.993 0 -0.402 0 0 0.995 -0.613 0 0.582 0.312 0.406 0.671 0.263 0 0 0 0 0 0 0 -1 -0.925 0.298 -0.586 1 -0.589 0.478 0.104 -0.995 0 -0.024 -1 -0.791 0 0 0.912 -1 -0.536 -0.882 0.064 -0.136 0 0.083 1 0 0 0 1 0 0 0.284 0.36 0 0 -0.339 0 0 0.651 0.687 -0.338 0 0.775 -0.655 0 -1 -1 0 0.006 -0.131 0.424 1 -0.349 0 -0.559 0 -1 -0.339 0 0.853 0 0.675 -0.397 0 -0.397 0.707 0 -1 0 -0.681 0.86 0 0 -1 -1 -0.855 0 -0.173 0 -0.47 -1 0 -0.053 -0.952 0 -1 -0.468 -0.721 1 -1 0.343 -1 0.427 0 0 -1 0 0 1 -0.793 0 0 1 0 -0.303 -0.692 0 0 0 0 -0.338 -1 0 0 0 -0.233 -0.305 0 0 0 0 0 -0.213 -0.731 -1 -1 -0.345 -1 0 0 1 0 1 0.389 0 0.203 0 0.075 -0.75 -0.006 0.648 -1 -0.723 -0.478 -0.851 -0.254 1 1 0.136 0 0 1 -1 0 0 0 -0.988 -0.821 0 0 -0.857 0 0.049 -0.237 0.282 0 0 -0.828 1 -0.868 -0.753 1 0 0 0.041 -0.46 0 0.031 0.647 0 -0.8 1 0 -0.228 0.084 0 0 0.582 0 0.637 -0.745 0 1 -1 -0.937 0 0 0 -1 0.969 0.827 0 0 0 -1 0.524 1 -0.874 1 0 0 0.625 -0.884 0.248 1 0.597 0.029 -1 0 -1 -0.23 0.197 0 -1 -0.224 0 0 0.714 -0.119 0 0 1 -1 0 1 -1 -0.851 -0.414 -1 -0.148 0 0.12 0.599 0 0.473 0 -0.623 -0.781 0 1 0.408 -0.721 -1 -0.145 0 0 0.275 0 1 -1 0 0 -1 0 0 0 0 0 1 -0.867 0 0 1 0 0 0.046 0 0 0 0 0.199 -0.326 0 1 -0.536 0 0.677 -1 -0.135 0 0.928 0 0 0.83 -0.241 0 0.021 0 0 0 0 0 -0.698 0 0 0.402 0 0.332 -1 0 0 -0.932 0.339 0.288 0.917 -0.193 0 0 0 0.348 0 0.731 1 -0.327 -0.797 0 0 -1 -0.586 0.144 0 -0.399 0.2 -1 -0.542 0 0.063 0 0 -1 0.964 0.833 0.512 0 0.129 -1 -1 0 0 -0.562 -0.302 0 0 -0.51 1 0 -0.387 -1 0 0 0 -0.528 -0.491 0 0 0 0 0.328 0.58 -0.818 0 -0.543 0.118 -1 -0.509 -0.654 0 0 1 -1 -1 0 -0.778 1 0 -0.605 0 -0.955 -1 0 -0.194 0 0 0.485 0.733 -0.925 -1 -0.748 0 0 0.545 0 1 -0.804 0.389 0 0 -1 0.438 0 0 0 0 0 1 0 0.116 -1 0.043 0 0 0.534 -0.14 0 0 -0.282 0 -0.261 0 0 0 0.26 0 1 0 0 -0.887 -0.435 0.234 0 0 -1 0 -1 0 -1 0.769 0 0.495 0 0 1 0 0 0.054 0.363 -0.98 -0.153 0.961 0 0 -0.665 0 -0.074 0.344 0 0 0 0.149 -0.584 0 0.689 -0.955 0 -1 1 -0.793 0 0 0.051 0 0 0 0 0.914 0.584 0 0 0 -1 0 0.715 -0.151 -0.889 0 0 0 -1 -0.423 -0.858 0 0 -0.502 0 0 -0.277 0 -0.877 0 -0.703 -0.588 1 0 -0.221 -0.284 0.809 -0.861 0.424 0.969 1 0 -1 0 0 0 0 0 0 -0.411 -0.033 0 0 0.356 0.766 0 0 0 0 0.904 0 0 0.998 0.167 0 0 1 0.37 1 0.423 0 0.833 0 0.115 0.601 0 -1 0 -0.347 0 0.232 -0.366 0.101 -1 0.173 -1 0 1 0 0.69 0 -1 -1 0.58 0 0 -0.991 -0.496 0.546 -1 -1 -0.748 0.019 1 0 -1 -0.762 0.711 1 -0.314 0 0 0 0 0 0.787 1 -1 1 0 -1 0 0 1 0 0 0 0.23 0 0 1 -1 1 1 1 0 0 -0.397 0 -0.442 0.821 1 0 0 0 -0.242 0.988 -0.5 0 0.68 0 0 -0.673 0 -0.707 -0.897 0 0.179 0.804 0 -1 -1 0 0 0 0 0.684 0 0 0 -0.678 0 -0.717 0 0 0.056 0 0 1 0 -0.092 1 0 0 0.365 0 0 -0.678 -1 -0.028 -0.859 0 0.547 0.813 -1 0 1 0 0 1 -0.809 0 0 1 0 -0.963 -1 0 0 0.581 0 0 -0.88 -0.85 0 0 -0.61 0 -1 -0.506 0.974 0 -1 0.325 0.801 -0.48 0.778 -0.016 0 0.803 0 0 -0.534 -0.47 -0.24 0 0 -0.591 -0.013 0 -1 0 0.255 0 0.22 -0.822 0.75 0 -1 0.414 -0.158 -0.341 0 0.506 0 0.756 1 0 1 -1 0 0 0 0 0 0 0 -0.599 -1 0 1 -0.936 0 0 0 -0.245 0 0 -0.727 -1 1 0 -1 -1 0 0.63 -0.743 1 0.899 0.528 1 0 -0.795 0 0 0.116 -1 -0.029 0.92 0 -0.622 0 -0.321 0 -1 0.155 1 1 0 0 -0.525 -0.365 0 0 -0.306 -0.984 0 0 0 0 0.065 -0.962 -0.661 -0.063 0 0 0 0 0 -0.842 0.158 0 0 1 -0.132 0 0.402 0.432 0.724 0 -1 0 0.747 -0.993 -0.254 -0.943 0 0.661 -1 0.976 1 0.402 0.373 0.529 0 0 0 0 0.843 -0.761 1 -0.892 0.576 0 0 0 0 1 0 0 0.37 -1 0 -0.259 0 0.937 -0.989 0 -0.791 0.976 -1 0.799 -0.498 0 -0.967 0 -0.8 0.533 -0.606 -0.015 -0.147 0 0 -1 0.076 0.458 0.269 0 0 -1 0.962 -1 -0.855 1 0 0 0 1 0.75 0.783 0 0 0.859 0 -0.447 0 0.11 0.936 0 -0.398 0 0 0.623 0 0 1 0 -1 0.237 -0.502 -0.853 0 1 0 0 0 1 -0.995 0.297 -1 0.441 0 0 0.885 -0.897 0 0.481 0 0.66 1 0 1 -0.895 0 -0.581 0 0 0 0 0 0 0 0.067 0 0 -0.518 -0.583 0 0 0.667 0 0 0.466 1 0 0 0 0 0 0.514 1 0 0 0 0 0 -0.163 0.017 0.689 0 0 0.25 0 0.615 0.221 -1 0 1 -0.88 -1 1 -0.152 0 0 0 0 1 -0.857 1 -0.964 0 0.14 0 -0.438 -0.494 0 -0.877 0 0 -0.835 0 -0.843 1 0 0.671 0 0 -0.739 0 0.617 -0.171 0 1 -0.853 -1 -0.089 0 0 -1 0 -0.155 -1 -0.863 0 -0.97 0 0 -1 -1 0.061 0.38 -0.089 0 0.92 -0.395 -1 0.552 0.251 -0.031 1 0.762 -0.563 -1 -0.456 -0.316 -0.135 -0.834 0 0.794 1 0.49 -0.526 0.65 0 -1 0 1 -0.268 0 1 0.322 -1 0.428 -0.209 0 -0.582 -0.628 0.214 0 -0.978 0 0.809 -0.839 0.63 0 0 0 0 0.532 0 0 -0.627 0 0 0 -0.249 -0.826 0 -0.475 0 0.485 -0.23 1 0.234 0.728 -0.452 0 -1 0 0 0.537 0 0 0 1 -0.562 -0.238 0.038 0 0.867 0.825 1 0 0.194 0 0.984 -1 0 -0.189 -0.804 0 0.053 1 0 0 0 -1 0.71 0 0 0.602 -1 0.122 -0.738 -1 0 -0.766 0 0 0.255 0 0 0.707 -1 0.971 0.792 0 0 0 0 1 0 0 -0.585 1 0 0.987 0 0 1 1 -1 0.359 -0.951 0.172 0.035 -1 0.087 -0.936 0.938 -0.504 0 0.37 -0.706 -0.728 0 0 0 1 0.7 -0.108 -0.58 -0.317 -0.431 0.929 0 0.554 -0.874 0 -0.84 0 -1 0.714 0.748 0.214 0 0 -0.068 0.595 0.238 -1 0 0 -0.896 -0.704 0 0.295 0.749 0 0 1 0 0 -0.995 0 0 0 0 -1 -1 -0.547 0 0 -1 0.631 -0.183 -0.928 1 0 0.375 0.581 0 0 -1 0 -1 0.249 0 -1 0 0 0 0 0.816 0 -1 -0.894 1 0 0.167 0 -1 -1 0 0.273 -1 0 1 0.504 -0.713 -0.892 0 0 0 -1 0.868 0 -0.648 0 -0.311 -0.687 0.884 0 0 0 -0.967 1 0 -0.592 0 -0.455 0.897 -0.009 0 0 -1 -0.914 0 0.754 -0.308 -0.555 0 0 -1 -1 0 -0.54 0 0 0 0 0 0 0 0 0 1 0.423 0.906 0 -0.828 0 0 0 0 -0.263 0 0 0.932 -0.655 -0.709 -0.891 -0.175 0 -1 -0.459 -0.441 0 0 0 -1 -0.105 0 0.256 0 0 0 1 0 0 1 -0.061 -0.295 0.658 -0.467 0 0.537 0 -0.488 0.78 0 -1 0 0 0.119 1 0 0 -0.899 -1 0 0 0 0.424 0 0 0 -0.963 -0.574 0 -0.294 0 0 0 -0.348 1 0 -0.764 0.014 0.866 -0.803 0 0 0 0.754 0 -1 -1 -1 -1 -0.514 -0.049 -0.592 0 1 0 1 1 0.899 0 0.673 0.686 0 0 0.22 -1 0.518 0.402 -0.868 0 0 0 0 0.052 0 0.266 0 0 0 0.963 -1 -0.849 0 0 1 1 -1 0 -0.302 -0.267 1 0 0 -0.057 0 -0.051 0 0.186 -0.49 -0.325 -1 0.434 0 0 -0.448 -0.142 0 0.243 0 0.433 -1 -0.729 -0.385 -1 -0.306 1 0 -0.382 -1 0.747 0.948 -0.831 0.7 0.976 0 0 -0.296 0.709 0 0 -1 0.433 0.647 0.21 0.297 0.423 0 0 0 -0.995 0 -0.589 0 0.4 0 0.141 0 -0.438 -1 0 0.657 -0.593 0 0.521 -0.505 -0.547 -0.476 -0.058 -1 -0.932 0 -0.134 0 -0.566 -1 0 -0.302 0.659 -0.824 0.289 -1 0.519 0.357 -1 0 0 0 0.492 0 0 -0.434 0 0.334 1 -0.64 0 0 0 0 0 -0.339 -1 0 0 -1 -0.491 0.118 -1 0 -0.352 0 0.966 -0.959 0 1 -1 -1 0 -0.02 0.361 0.136 0 0 0.466 0.752 0.657 0.284 0 0.176 0 0 1 -0.31 0 0.651 0.427 0 0.957 0.165 -0.49 -0.488 -0.14 0 0.038 0 0 -0.015 0 0 0 1 0.205 1 1 0 0 0 0 0 -1 -0.448 -0.522 0 -0.269 -0.13 0 1 0 0 -0.928 0.15 -0.223 0 0.872 0.605 0 -0.563 0 0.942 1 -0.667 1 0 0 -0.476 -0.333 0 0 -0.642 -0.352 0.176 0.332 0.895 0.928 0.3 -1 -0.631 -0.032 -0.185 0 -1 0 0 0.624 0 0 -1 1 0 -0.918 0 0.898 0.545 0 -0.741 1 0.568 0 0.88 -1 1 0 0 0 0.667 0.222 0 -1 -0.091 0.469 0 -0.048 -0.885 0.556 0 0 0 0 -1 0.877 -1 0.222 0 -0.494 0.635 1 -0.719 -1 -0.514 0.907 0 0 -1 0 1 -0.618 0 0 0 0 -1 0 0 -1 1 0 -0.467 0 -0.26 -0.466 -0.684 0 -0.297 0 0.6 -0.509 0 0 0.736 0 -0.281 0 0.271 0 0.446 0 0.709 0 1 -1 0 -0.815 0 1 1 -0.04 0 0 0.558 0.534 0 -0.029 -0.933 0 0.803 0.578 0 0 -1 0 0.353 1 0 0.837 0 -0.507 0.679 -0.501 -1 -0.104 -0.272 0 0 0 0 -0.726 -0.249 0 -1 1 0.137 1 0 -0.242 0 0 -0.67 0 0 0 0 0 0 1 0.987 -0.653 0 0.549 0 0.171 1 0 1 -0.264 0.4 0 -0.583 0.911 -0.154 -0.305 -1 -1 0.22 1 0.187 -1 0 0 0 0.769 0 -1 -0.584 0 -0.291 0 0 0.258 0 -1 0 1 0 0.084 0.72 0 0.945 0.69 0 0 0 0 0 -0.59 0.901 -1 -1 -1 0 0.446 0 0 0 0 0.054 0.167 1 -0.866 1 -1 1 0 0 0 1 0.48 0 0 0 0 0 0 -1 0.56 0.542 0 0 0 -1 -0.218 -0.428 -0.86 -0.226 0 0.492 0 -1 0 1 -1 0 -0.745 0 1 0.153 0 0 1 0 0 0.585 0 0 -1 0 -1 -0.034 0.355 0 0 0.478 0 -0.835 -1 0 0 -0.397 -0.07 0 0 0 0 -0.54 -0.415 0 -0.207 -0.864 -1 0 1 1 -0.463 0 0.506 1 0.019 0 0 1 0 0 0.728 -0.731 0 1 0 0 0 0 0 -1 0 -0.21 0 0 0 -0.685 -0.612 0 -1 0 0 -0.174 1 -0.97 1 -0.15 0 0 -0.945 0 0.052 -0.644 0 0 0 -0.133 0.458 1 -1 0.859 0 -0.436 -1 0.248 0 0 0 0 -1 0 0.08 0 0 -1 0 -0.852 0.229 0.613 1 0.552 0.422 1 0.411 0 1 -0.208 1 1 0 0.01 -0.051 -0.643 0 0.823 0 0 0 1 0 0.866 -0.813 0.53 0.02 1 -0.684 0 0 -0.383 0 0.352 0 0 0.252 0 0 0 0.706 0.011 0 0 0.234 1 0.865 0 0 0.1 0.91 0 0 0 0 -0.638 0 0 0 -1 0 1 -0.69 0 1 0 0 -0.144 0 0 1 0.961 0.244 0 0 0 -0.045 0 0 0 0 0.784 0.101 -0.016 -1 0.863 0 0 0 0.894 0 -0.029 0.345 0 -1 0.189 0 1 -1 0 -1 0 0 1 0 -0.065 0.538 -1 0 0 -1 -0.425 0 0 -0.011 0 0 -0.214 -1 0 -0.303 -1 -0.782 0.287 0 0.273 -1 0.751 0 0 -0.019 0.321 -1 0.498 1 0 -0.422 0 0.614 -0.578 0 -1 -1 0 1 0.671 0.565 0 0 -1 0 0 -0.06 0 1 0.955 1 0.981 -0.474 -0.892 -1 0.113 0 0.799 -0.073 0 0.253 0 0 -1 -1 0 0 0 0 0 0 -1 1 -0.993 0 0 0 0 0 0 1 1 -1 0.668 0.839 0 -0.837 1 0.578 -0.698 0.538 0.784 0 -1 0 0 -0.028 0 -0.277 0 0 1 0 -0.596 0 -0.787 -0.604 0.463 -1 -1 0 0.296 0 0 0 0 -0.794 0 0.123 0 0 -0.661 0 0 0 0 0 0 0 0 -1 -1 1 0.723 -0.376 -1 -0.102 -0.988 0 1 1 -1 0 0 -1 0 -0.27 -1 0 0 0 -0.106 0 0.905 0 0.089 0 1 0.126 0 0 -1 0.023 0 1 0.223 0 0.294 0 0.442 0 0.805 1 -0.933 1 0 0 0 -0.846 -0.521 0 0.437 0 0 0 0 0 0 0.979 0 -1 -0.768 0 0.298 -0.185 -1 0.446 -0.064 0 0 -0.384 0.688 0 0 -0.128 -0.916 0 -0.589 0.655 0 1 0.053 0.444 0 -0.999 0 0.785 0.751 -1 0.25 -0.363 0 0 -0.193 0 0 0 -0.398 0 0.046 0 0 -0.155 0 -0.477 -0.144 0.264 0.341 0 1 0 0 -0.358 -0.145 0 0 0 0 0 -0.965 -1 0.892 0.07 -0.951 0 -0.836 -0.308 0.19 0.296 0 0 0 0.447 -0.876 0.964 0 0.794 0.172 0 0.671 0.491 0.093 0 0 0.739 1 0.664 0.245 -0.188 1 0 0 0 -0.116 1 0.797 0 -0.818 0 0.758 0.663 0.794 -0.432 -1 -0.819 1 -0.521 -1 -0.283 0 0 1 -0.563 0 0 0 0 0 0 0.893 0 1 0 1 0 0 0 -1 -0.323 0 -0.601 0 -0.923 0 -0.167 -0.947 1 -1 -1 0 0 0.457 0 -0.886 0 1 0 0.619 0.421 1 -0.897 -0.801 0 0 -1 0 0 -0.159 0 -1 0.981 0 -0.006 1 -0.106 -0.401 0.537 0.197 1 0.289 0.483 0 0 0.714 0.332 0 -0.02 0 0 -1 -0.031 0 0 0.471 1 1 0 -0.864 0.941 -0.208 0 -0.37 0 0.361 -0.52 0 0 0 0.077 0.468 -0.535 -0.766 -0.64 0 1 0.117 0.76 -1 0 0 1 -0.137 -0.541 -1 0 0 1 0 0.141 0.25 1 0 0 0.417 1 0 0.954 0.109 0 0 0 -1 0 -0.029 0 0 0 1 1 0 -0.405 0 0 0 0 -1 0 0.758 0.801 -0.215 0 -0.456 -0.962 -0.895 0 0 0 0.304 -1 1 0 0.232 0 0.271 0 0 -0.221 -0.042 1 -0.583 0 -0.724 0 -0.142 1 -0.542 -0.622 -0.171 0 0.34 0 -0.53 0 0 0 0 0 0 -0.452 0 0.613 0.785 -0.451 -1 0 -0.231 0 0 0.528 -0.44 0 -0.733 0 0 0.534 0 0.119 0 -0.138 0.685 -0.035 -1 0.825 0 0 0.026 0 0 0 -0.83 -0.397 0.434 0 -0.257 0 0.269 0 -0.622 -1 -0.47 1 0 1 0 -1 -0.221 0 0 0 -1 0 -0.184 -0.477 -0.667 -0.371 0.058 0 0 0 0.516 0 0 -0.267 -0.067 0 -1 0 0.341 0.375 -0.327 -1 0.755 0.799 0 0.296 0.46 1 0 -0.292 -0.449 0.893 0 0 -0.799 0.878 0 0 0 0.568 0 0 -0.371 1 0 1 -1 0 0.529 0 0 0.496 -0.202 -1 1 0.604 -1 -1 0 -0.977 0 0 -0.29 1 -0.423 -0.259 0 -0.834 1 -0.945 0 -0.514 0 0.173 -0.473 0.844 -0.959 0 0 -0.045 1 0 -0.623 0 0.253 0.334 0 -0.622 0.891 -0.333 0.571 -0.429 1 0 0 -0.507 0.66 0 0 -1 -1 -0.491 -1 0 1 0 -1 0 0 -1 -0.241 0 0.779 0.933 0.761 0 0 0 0.712 0.732 0.248 0 0 1 0 -0.049 0.352 -1 1 -1 0 0 -1 0.131 0.781 -1 -0.567 0 -0.302 -1 -0.19 -0.248 0 0.575 0 0 -1 -1 -0.095 0 0 0 -0.623 0 1 -1 0 -0.103 0 0 0 -0.102 0 0 -0.801 0.399 0 1 0 0 1 0.15 0 0 0.443 0.732 -0.356 -0.511 0 0 -1 0 -0.288 -0.204 1 -0.373 -1 0 1 0 0 0.577 -1 0 0 0 0 -0.208 0 0 0.685 0 0 -1 1 0 0 0 1 0 0.4 -0.861 0 1 0 0.018 0 1 1 1 -1 0 0.686 0.858 0 0.017 -0.62 0.66 -0.507 -0.922 0.695 0.577 -0.732 0 -0.8 -0.466 0 -0.567 0 0 0 0 0 -1 0.102 -1 -0.019 1 0.722 0 0.461 1 0 0 0 1 0 -0.398 0 0 0.371 0 1 0 0 1 -1 0 1 0.286 0.941 0 -0.474 0.367 -1 -1 -0.915 0.393 0 0 0 0.444 -0.943 1 0 0.223 1 0 1 0 0.332 0 -0.648 0.913 -0.192 -1 0.567 0 0 0 1 0.691 0.831 0.471 0 -0.493 0 0.313 1 -1 0 0 0 0 0.401 -0.587 0 0.449 0.183 0.963 0 -1 1 0.114 0 0 -0.278 -0.134 -0.27 -1 -0.15 -0.218 -0.387 0 -0.168 -1 0.446 0 0 0.275 0 1 -0.998 1 1 -0.883 -0.728 0 0 -0.01 0.873 -0.677 -0.212 0 0 0 1 0 1 0 1 0 1 0.882 0.969 0 0 -0.929 0.724 0 0.906 0 0 -0.193 -0.7 1 0.613 0 -0.999 0 0 0 0 -1 0.351 0 0.595 0 0 0.666 0 0 0.672 -0.74 0 -1 1 1 -0.417 0 -0.796 0 -1 0 0 0 1 -0.703 -0.249 0 0 0.689 -0.19 -0.865 -0.643 -0.709 0.118 -0.601 0 1 0 0 -1 0 -1 0.703 0.443 -1 0.544 0.016 0.235 0 0 -0.471 0 0 -0.327 -0.387 0.852 -1 -1 0.157 0.966 0.732 1 1 -0.776 -0.499 -0.193 1 -1 0.2 -1 -1 -1 -0.546 0 0 -1 -0.34 0 0.466 -0.818 0 0 0 -1 -0.203 -0.575 0 -0.131 1 -0.083 -0.297 -1 0.291 -0.767 0 0 0.092 0 -1 1 0.97 -0.847 0.843 0.142 0.794 0 0 1 0 1 1 -0.293 0.116 0.752 0 0.123 -0.765 -0.119 0 0 0 -0.533 0 -1 -1 1 1 0.56 0 0.205 0.632 1 0 0 0 0.161 -0.694 0 -0.972 -0.871 0 0.468 0 0 1 0 0.262 0.311 0.114 0 -1 -0.856 0 0 0 0 -0.934 -1 -0.551 -0.326 0 -0.86 0 0 0.53 0 0 -0.372 0 0.91 0 0 0 -1 0.193 0 0 0.248 0.332 1 0 0 0 -0.846 -0.795 -0.952 -0.789 0.704 -0.431 0.67 0 -0.113 0 0 0.332 0.348 0.317 -0.783 0 -1 0 1 0 1 0 0 0 -0.885 0.801 0 0.072 -0.549 0.762 -0.702 0.226 -0.702 1 0 1 0.509 0 0 0.483 -0.19 0.735 0.525 0.434 -1 0.436 -0.337 0 0.276 0 0 -0.97 0.383 -1 0 1 0.612 0 -0.805 -1 -0.996 -0.519 0 0.648 0 -1 -1 0.125 1 0 -0.165 0 0.922 0.889 -0.427 -1 1 0 0 -1 0.686 0.16 0 0 0.862 0 -0.872 0 1 0 0.479 0.085 0.492 0 1 0 0 -0.612 0 -0.154 0 0 0.63 0 0 -1 0 1 0.821 -1 1 0 0 0 0.931 1 0 0.038 0.818 0 1 -0.845 0.025 0.067 0 1 0.238 0 0.418 0.061 -0.402 -0.841 -0.536 0 -1 0.686 -1 0.273 -0.327 0.974 0 -0.219 0.04 -0.613 0.134 -0.603 0 0 0 0 -1 0 0 -0.683 -0.47 0 0 0 0 0 0 0 0.733 0.092 0 -0.336 0 0 -0.886 0 0 -0.462 -1 0.212 1 -1 -1 0 0 0 -0.533 0.637 -1 -0.065 1 0 0 -0.538 0.098 -0.151 -1 0 0.116 -0.902 0.547 -0.537 0 -0.258 0.253 0.032 -0.678 0.978 0 0.224 -0.829 -0.846 0 -0.727 1 -0.873 0.971 0 0 0 0 1 -0.745 0 1 0 -0.265 1 0 0.584 0.073 0.426 0.483 -0.322 0.386 0 -0.985 0 0.698 -0.808 -1 1 -1 -0.622 0 0.567 0.909 0.312 0 -1 -0.772 -0.722 -0.185 0 0.026 0.49 0 0 -0.175 0 -0.051 0.221 0 0 0 -0.098 0 0 0 0 -0.532 0 0 0 0 0 -1 0.457 0 0.69 0 0 -1 0 0 -0.03 0 -1 0.359 0 0 0 0 0 -0.577 0 0.14 -0.659 0 0 -1 0.728 -0.982 0.739 0.394 -0.819 -0.409 0.319 0.237 0.501 0 0 0 0 -0.882 0 -1 0 -0.165 0 0 0 -0.565 0.551 0 0 0 0 0 -0.862 -0.756 0 -0.493 -0.797 0 1 0 1 1 -0.343 1 0 1 0.697 0.185 -0.947 0 0 0.261 0 -0.314 -0.911 1 0 1 1 -1 0 0 0 0 0 -0.671 0.248 0 0 0 -1 -0.93 -0.481 -0.866 0.039 0 -0.08 -0.468 0 -0.31 0 -0.874 0.382 0.375 1 0 0 0.971 -0.53 -1 0.184 0 0.066 0 0.474 0.521 0 -1 0.276 -0.648 0 0 0.156 0.841 -0.215 1 0 0 -0.119 0.728 0 0 -0.166 1 0.401 1 0.276 0 -1 -0.192 0 -0.872 0 0 1 0 -0.188 1 0 0 0 0.212 1 -0.562 -0.92 0.359 -0.108 0.895 -0.887 -1 0 -0.677 1 0 0 0 0 0 0 0.615 0 -0.472 0 0 0.993 0 -0.292 0.303 0.335 0.297 0.052 0 0 0.457 -1 -0.791 0 -0.155 -0.86 0 0.559 0.575 -0.219 -1 0 0.845 -1 -1 -0.481 0.315 -0.361 -1 0 1 0 1 0.755 0 -0.478 -0.605 -0.995 -0.235 0.26 0.676 0 0 -0.306 0.984 0 -0.911 -0.234 0.027 -0.662 0 0 0.971 1 -0.52 -0.987 -0.646 0.728 0 0 0 1 0 -1 0 0 0 0 1 0 -1 -0.681 0 0 0.033 0.762 0 0.915 -0.979 0 -1 0 0 0.981 0.831 -1 -0.686 -0.915 -1 -0.027 0.201 0 -0.365 1 -1 0.414 -0.782 1 0 0.663 0 0.181 0 -0.739 -0.795 0 -0.199 -1 1 0 -0.106 0.424 0 0 -1 -1 0 0.786 0 -0.858 0 0 -0.622 -0.093 0.224 0 -0.67 -0.879 0 -1 0 0 0 1 -0.967 0.117 -0.095 0.279 0.518 -0.404 -0.298 0 0 0 0.408 0 -1 0 0 -1 -0.236 0.084 -1 0 -0.106 -0.751 0 1 0 0 0 0.518 -1 0.285 -0.558 0.386 0.293 0 0.865 -1 0 0.582 0 0 0 0.748 -0.84 -0.282 0 0.978 0 0 0 1 0.056 0 0.417 -1 -0.077 0 0 0.925 -0.536 0 0 0 1 0 0.973 0 -0.668 0 0 1 0.092 1 0.07 0.314 -0.536 -0.959 -1 -0.776 -0.631 0 0 -1 0.651 -0.657 0 0 0.149 0 -0.359 0 1 -0.536 -0.562 1 0.518 0.659 0 0.668 1 0 0.527 0 0.384 0 1 -0.075 0 -0.956 0 -1 -0.803 -1 -0.072 1 -0.355 -1 0.289 0 0.302 1 0 0.067 0 0.973 -0.515 -0.823 -0.137 0 -0.845 0 -0.489 0 -0.447 1 0 0 0 0.557 0 0.125 0 0 0 -0.578 0 0 0.353 0.898 -1 -1 0.75 0 0 0 0.899 -0.342 0.902 1 0.657 -1 0 0.113 0.575 -0.404 1 0 -1 0 1 -0.126 0 -0.183 -0.734 0.904 -0.155 0.734 -0.38 1 -0.936 -0.061 1 -0.144 1 0.803 -0.343 0 0 -0.704 0.091 0 0 -0.86 0.938 0.28 0 -1 -1 0.063 0.139 -0.724 0 0 0.043 0.019 0 0 0.758 0 0 0.89 0 0 -1 0.742 0.672 0 0 1 0 0 0 0 0 0 1 -1 0 0 -0.282 -0.411 0.707 0 0 0.718 0.284 0.21 0 -0.858 1 0 -0.662 -0.471 0.4 0 0 -1 0.735 1 -1 0.569 0 0 1 0 -0.381 0.895 0 0 0.669 -1 -1 -0.912 0 0 0 -0.868 0 0 0.527 1 0.78 0 0.289 0 -1 -1 0 0.066 0 0 0.949 -0.376 0.969 0.892 1 -0.824 -0.76 -0.858 0.91 -0.262 0 -0.327 0 -0.596 1 0.893 0.611 0.936 0 0.776 0 0 -1 1 -1 -0.994 -0.598 0 -1 0.382 0 0 0 0 1 -1 -1 0 0.388 -0.725 0 0.498 0 1 0 1 0 -0.024 1 1 -0.552 -0.182 -0.287 1 -0.354 0 0 0 -1 -1 0 0 1 0.872 0 -1 -1 0 0 0 -0.085 0 -0.06 0 0.698 0 0.053 0.375 0.996 0 0 -0.456 1 0.106 0.476 -1 -0.415 0 -0.1 0 -0.782 1 -0.137 0.791 -0.002 -0.071 1 -1 -0.127 0.243 0.436 1 0.598 0.533 0 1 0 0 -0.992 -0.256 0.891 0 0.545 0 0 0 0 0.109 -0.984 0.599 0 0.022 0.871 0 0 0 0.377 -0.488 -0.923 -0.491 1 0 -1 0 -0.094 0.351 0.302 0.041 -0.31 0 -0.126 0.845 -1 -1 0.875 0 0 -0.247 -0.911 0 1 0 -0.738 0 -0.42 -0.704 0 -0.789 -1 0.991 1 0 0 -0.425 -0.676 -1 0 -0.233 0.613 1 0 0 0 -1 1 -0.913 -0.935 0.587 -0.105 0 0 0 0 0 0.3 -0.52 -0.841 0 0 -1 0 0 -1 -0.722 -1 0 -0.071 0.271 -1 0 0.473 1 0 -1 0 0 0 0.992 0 -0.271 0 -0.44 0 0.344 0 0 0 0 0 0.475 0 -0.727 0 -0.083 -0.736 0.389 0.169 -0.694 0.281 -0.171 1 -1 0.246 0 0 0.265 0.405 0 -1 0.131 -0.31 0 0 -0.493 0 0.742 0 0 0 1 -0.406 0 0 -0.981 -1 0 0 0.18 0 -0.702 0 -0.414 -0.262 0.682 -0.871 1 0.963 0 0 1 0 -0.312 0 0.707 1 0 0 0 -0.631 -0.736 -0.918 0 0 0 0 -1 0 0.575 1 -0.854 -1 0.059 0.8 -0.883 0 -0.29 -1 0 0 -0.598 -0.391 0 -0.723 0 0 0 0 0 -1 1 0.621 -0.417 0.319 0 -0.683 1 0 0 -1 -1 0 1 0.746 0 0 0.92 0 1 -0.225 -1 0 0 -0.453 0 0 -0.815 0 0 0 -1 0.944 -1 0 0 0.742 0 0 1 -0.979 0.544 0 0 -0.175 0 -0.188 0 0 1 1 -0.907 0 0.997 -0.661 0.23 0 -1 -1 0 0 0 0.694 -0.245 0 0 0 0 -1 0 0.51 0 0.972 0 0 1 1 0.503 -1 -0.83 0 0.501 0.657 0.718 1 0 -0.55 0 0.043 0.77 -0.521 -0.886 0 -0.882 0 0.228 0 -0.084 0 0 0.134 0 0 0 0 0 0 -0.472 -0.096 0.263 0 1 -0.419 -0.497 0.17 -0.291 0 -0.716 -0.417 0 0.011 -1 0 1 -1 0 0 -0.581 0 1 0.342 0 0.007 1 0 0.344 0.216 -1 0 -0.7 0 0.666 0 0.615 0.781 0.357 0.872 0 0 1 -0.912 0 0 -1 0.023 0.491 0.247 0 0.538 0 0.852 -0.246 0 -0.87 0 -1 -0.645 0 0 0 0.218 0 0 1 0 0.959 -0.993 0.721 0 1 0 0 0 0 -0.978 0 0 0.442 0.887 0.192 0 0 0.656 0.261 0 0.563 0 0 1 0 0 1 -1 0 0 0 -1 0 0 -0.98 -1 -0.435 1 -1 -1 0 1 0.551 0.342 0 0.528 1 -1 0 0.507 -1 -0.841 0 -1 0 0 0 -1 0 0 0.385 -1 -0.924 0 0 0 0.86 0.001 0 0 -1 -1 0 1 0 0.995 -1 0 -1 1 0.084 0.555 -0.754 0 0 0.732 0 -1 0 0 0.767 0 0 0 0 0 0 0.468 0.158 0 -0.024 0 -0.293 0 1 -1 0 -0.36 0.369 0 -1 -0.447 -0.433 1 0 -0.6 1 0.508 1 -0.128 -0.173 0 0 0 0 0 0 0 0 1 -0.366 -0.049 0 0 1 -0.765 0 0 0 -1 -0.319 0.867 -0.936 -0.087 0 0.899 -0.425 -0.732 0.83 -1 0 -0.128 0.929 0.296 0 0.666 -1 -0.816 -1 -0.68 0.584 -1 1 0 0 0.394 0.064 0 0 0 -0.581 0 -0.541 1 1 -0.84 0 0 0 0 0.492 -0.82 -1 0 0 0.781 -0.578 0 0.561 0 0 0.574 0 0 0 -1 1 0.729 0 0.9 0.785 0 0 -1 -0.98 0.932 0 -0.125 -0.064 0 0 -1 -0.873 -1 0 -1 0.982 1 0 0.488 0 -0.772 0.634 0.297 -0.737 0.296 -1 -0.986 -0.41 0 0 0 0 0.831 0.511 0 0 0.582 0 -0.374 0 0 0 0.531 -0.554 0.074 0 0.332 0.643 0 -0.344 -1 -1 -0.158 0 -1 0 0 0 -0.139 0.293 0 0.384 0.457 0 0 0.57 0 0 -0.276 -0.516 -1 -0.63 1 0 1 0.118 0 0 -0.118 0 1 0 0 0 0.051 1 0 -1 -0.308 0.644 -0.903 -0.381 0.526 -0.017 0.119 0.824 0 -1 -0.819 -1 0 -0.984 0.548 0 0.279 -0.943 0 -0.212 1 -0.996 -0.1 0.721 0 -0.98 0 0 0 -0.12 0.575 -0.701 0.937 0 -1 0.934 0.756 0 1 1 0 0.924 0 0 -0.237 0.056 0.663 -1 -1 -1 0 0.598 0 0 1 0 0.844 0 -0.733 -1 0.545 0 -0.421 -0.743 -0.704 0 0 0 0.481 -1 0 0 -0.527 -0.81 0.696 -0.735 0 0 0 1 0.266 0.11 0 -0.697 0 0 0.295 -1 0 0 0 -0.959 0.792 0 -0.557 1 -0.531 0 0 -0.371 -0.313 -1 0 0.6 -1 1 0 0.068 0 -1 0.9 -0.386 -1 1 1 0 -0.827 0 0 0 0 0 -0.338 0.878 0.245 0 0.099 0 -0.576 -0.566 0 -1 1 1 0 0 1 -0.911 -0.375 0 -0.869 0.734 0 0.784 0 0.895 0.323 0 0 -0.701 -1 0 0 0 0.372 -0.054 0 -1 -0.821 0 0 -0.662 -1 1 -0.186 1 -0.261 -0.174 -1 -0.05 0 0 -0.254 0 -0.689 0 -0.79 0 0 -0.027 0 0.673 0.244 0 0 0 0.179 -0.581 -0.088 0 0 -0.037 0 -0.133 0.852 0 1 -0.764 0 -1 0 -1 -0.634 0 -0.548 0.625 0.431 0.646 0 0.003 0 0.756 0.586 0.759 -0.293 0 0 0.861 0.756 0 0 0.665 0 1 -0.092 -0.847 -1 0 0.016 0.167 -0.452 -0.584 0 0.593 -0.584 -0.841 0.127 0.722 0.958 0 0 -0.485 1 0 0 0.672 0 0.803 0.635 -1 0 0 -0.558 0 0 -0.423 0 -0.893 0 -1 0 0 0 0.691 0 0.778 0.1 0.895 -0.936 0 -0.449 -0.494 0.052 0 0 0 -0.541 0 -0.222 0 -0.297 0 -0.258 -0.074 0.066 0 -1 -1 0 1 -0.746 0.84 0 0 -0.741 0 0.927 0.252 -0.153 0 0 1 0 0 -0.869 -1 0 -1 0 0.783 -0.089 0 0 -0.41 0 0.022 0 1 1 0 -0.312 0 0 1 0 0 0 -1 -1 0 -1 -0.83 0.118 0 0 0 0 0 0.369 1 0 0 0 0.659 -0.913 0 0.581 0 0.198 0 0.619 0.554 0.715 -1 1 0 0 1 -1 0 -0.945 0 0 0 0 0 0.875 1 1 0.931 0 1 0 0 0.394 0 0 0 1 0.252 0 0 0.85 -0.905 0 0 0 0 1 1 0 0.539 -0.21 1 0 -1 -1 1 0 0.965 -0.889 -0.475 0 0 0.236 0 -0.158 0 -0.953 -0.032 0 0 0 0.886 0.06 0 1 0 -1 -0.618 0.488 0.491 0.695 1 1 0 0 0 -0.66 0 0.526 0 -0.691 0 0 -0.549 0.404 -0.366 0.137 0 0 1 0 -0.789 -0.965 0 0 -1 -1 -1 0 0 0 0 0 0.988 0 0.199 -0.583 0 -1 0 0 0 0.781 -0.1 0 0 -1 0 0.324 -0.81 0 -1 0.656 0 0 0 0.692 0 0 -1 0 0.106 -0.552 -0.087 0.513 0.629 0 -1 -1 0 0 0 1 0 0 -0.43 -1 0.249 0.357 1 -0.97 0 0 0 -0.495 0 0.471 0.3 0 -0.589 -0.042 -1 1 0.514 -1 0.442 0.291 -0.036 0 0 0 1 0 -0.233 1 0.979 -0.238 -0.657 -0.475 0.007 -0.139 0 1 1 0 -1 -1 0 -0.148 0 -1 -0.35 0 1 -0.458 -1 -0.913 0.197 0 0 -0.437 0.67 -0.983 -0.686 -0.1 0.622 -1 0 0 0 0 1 0 -0.553 0 -0.448 -0.164 -1 0 0 -0.215 0 0.184 -1 -0.675 0 0 0 0 0 -1 -0.915 0 0 0 0 0 -1 0 -0.352 0 0 1 1 -0.899 0 0.947 -0.584 1 0 0 0 -0.674 -1 0 0.996 0 -0.022 0.515 -0.167 0 0 -1 -0.147 0 0.634 0.607 0 0 0.388 -0.778 -0.42 0 1 -0.168 0 0.906 0.309 0.385 0 0 0.457 0 0 0.427 0.612 0 1 0 -0.305 0 -1 0 1 -1 -0.114 -0.719 -1 0.226 0 0.052 0.458 0 0 0 0 0.018 0 -0.806 0 0.005 0 0 -0.796 0.371 0.758 0 0 0 -1 0 0 0.714 0.641 0.549 0 0 -1 0 0 -0.752 -1 0 -0.932 0 0.498 0 0.96 0 0 0 0 -0.986 -0.065 -0.379 0 1 -1 0 -0.39 0.389 -1 0.79 0 -1 -0.088 0.69 -1 -0.58 -0.081 0.142 -1 0 0.773 1 1 0 0 0.648 0.093 -0.108 -1 0 0.284 0 0.724 1 -0.867 0.017 0 0.879 0.246 0 0.551 0 0 1 0 0 0 1 -0.807 0 1 0 0.493 0 0 -0.46 -0.401 0 0.206 1 0 0 -0.283 0 -0.954 1 1 0.34 -1 -1 -0.611 -1 -0.032 0 0 -0.096 0.298 0 0 0.962 -0.092 -1 0.529 0 1 1 -0.199 0 0 -0.94 0.275 0 -0.079 0.885 -0.733 0.605 1 0 0.642 0 -0.759 0 -0.856 0 -1 0 -1 1 0 0.571 0 0.017 0.052 -0.707 0 0 0 -1 -0.521 0 0 -1 0.701 1 0 0.627 -0.306 -0.178 0 1 0 0 1 0 0 1 0 0.376 -0.45 1 0 1 -0.481 0.875 -0.423 0 0 -1 0.28 -0.548 0 0 0.848 -0.81 1 -0.049 0 -0.463 0 0 -0.018 -0.103 0 -0.756 0 0 0 0 -1 0.243 0.09 0 0 -0.917 0 0.206 0 0.817 0 -0.432 -0.809 0 0 0.437 -0.158 -1 0.61 0 0 1 0.294 0 0.665 0 0.618 -0.093 0 1 -0.195 -0.198 -0.533 0 0.502 0 -0.432 0 -1 0.141 0.107 0 -1 0 -0.855 1 0 1 -0.619 -0.847 -1 0 -1 0.35 -0.228 0.391 -1 0 -0.147 -0.633 0 0 1 -1 0 -1 1 -0.4 0 0.048 0 1 -1 0 0.997 -1 0 -1 0.026 1 0.004 0 -0.299 -0.117 0 -0.354 1 0.582 0 0.269 0.574 1 0.626 0 -0.108 0 -1 0 -1 0.891 0.46 0 1 0 0.183 1 0 -0.355 -0.364 -0.93 0 0 0 0 0 -1 -0.709 -1 -1 -0.737 1 -0.637 0 -0.224 -1 -0.752 0.242 0 0.366 0 -0.962 0 0 1 0 -1 0 0 0 1 -0.308 -0.707 -1 0 -0.759 -1 0 0.498 -0.584 -0.69 0 0 0.531 -1 -1 0 0 0 0 -0.696 1 -0.193 -0.178 -1 0 1 1 -0.303 0.198 0.119 -1 1 0 -1 0 0.609 0.276 0 0.418 -1 0 0 -0.008 1 -1 -0.097 0.247 1 0.245 0 0 1 0 0 0.305 0.692 0 -0.074 1 1 -0.724 0 -0.013 1 -0.448 0 -0.417 0.961 1 -1 0 0.428 0 0 -0.721 -0.212 0 -0.278 0.346 -1 1 1 0 -0.03 -0.21 0 0 0 -1 0.093 0.052 -1 0.774 1 0 -0.305 0 0 0.823 0 -0.721 0.188 0 -0.445 0 -1 -0.608 -1 0.879 1 0 0 0 0 1 1 0 0 0 0 0 0 0 0.779 -1 0 0 0 -0.278 1 -0.314 -0.287 0 0 0 -0.426 0 -1 0 1 0 -0.219 -1 -0.011 0.683 0 -0.661 0 -0.989 0 -0.638 -0.433 1 -1 0 0 0 0 0 0.728 1 0 1 0 0 -0.398 0 0.283 0 0 1 -1 -0.984 0 -0.544 -0.074 0.213 0 0 1 0.063 -1 0 1 0.478 1 0 -0.54 -0.807 1 0 -1 -0.676 0 -0.355 0.046 -0.119 0 0 0 1 0 0 0.209 0 -0.441 0 0.892 0.946 0.5 0 0 0 0.162 0.211 -1 0 -0.064 -0.584 -1 0.915 0 0 0 0 -1 0.804 -1 0 0 -0.819 0.064 0 -0.555 0 0 -0.21 -1 -0.64 -1 0 0 0.519 0.124 0.749 0 0.09 0 0.87 -1 1 0.007 -0.174 0 0 0 0.006 0 -0.494 0.006 0 -0.105 -1 0 0 0 -0.185 1 0.383 -0.732 0.27 0 -1 1 -0.758 0 0.825 0 -0.482 -0.069 0.749 0 0 -1 -0.97 0 0 0 -0.365 0 0 0 -1 0.743 -1 0.843 0.67 -0.677 0 0 -0.282 0.939 0.069 0.246 0 -0.671 -0.764 0 -0.194 0.472 -1 -1 0.166 -0.199 0 -0.596 0 -1 -0.239 -0.191 0 -0.471 -0.589 -0.183 -0.432 1 0 0.487 0.049 -0.686 0 0.226 -1 0 0 0 0 0 0 1 -1 -0.121 0 1 0 -1 0 0.755 0 0.051 0 -0.697 0.803 -0.722 0 0 0 0.991 0.37 -0.614 0.485 0 0 0.23 0.1 1 0 -0.476 0 -0.719 -0.399 0.191 -0.405 0.938 0 0.66 0.437 0 -1 0.089 0 0 0 0 0.956 1 0.273 1 -0.533 0.525 0 -1 0 -1 -0.516 -1 1 0 -0.941 0 0 -0.905 0 0 1 0.965 -0.013 0 0.315 0.291 0.37 -0.715 -1 -0.845 0 0 0.246 -0.369 0.645 -0.314 0 0.637 -0.835 0 -0.781 0 0 -0.226 -0.141 -0.975 0 0.251 0 -0.079 0 0 0.876 0 0 0.895 0.363 0 0 -0.676 -0.551 0 0.596 0 -1 -1 1 0 0 0 0 0 0 0 0 0 0 1 0.006 0 0.513 0 1 -0.539 0 0.111 -1 0 0 0 -0.232 0 0.815 -1 -1 0.781 0.509 0 0.879 -0.981 0 0 -0.362 -0.702 0.967 0.628 0.932 0.33 -0.029 -1 0 0.401 0 -1 -0.748 -1 0.122 0 -0.517 -1 -0.484 1 -0.776 0 0 0 -0.404 0.531 -0.126 0.67 1 -1 -0.601 -1 0 1 0 0 -1 0 0 0 1 0.084 -0.851 0 0 -1 0.622 -0.378 0 0.194 0.213 -1 -0.744 0.086 -0.347 0 0 -0.499 0 0 0 0 0 0.203 0 -0.308 -0.014 1 -0.451 -0.291 0 -1 0.147 -0.661 -0.157 -0.121 0 0.919 -1 -1 0 -1 -1 0 0.914 0 -0.416 0 -0.947 0 0.616 0 -0.669 -1 0 0 0 0 0.386 -0.287 0 1 0 0 0 0.385 0 0 0 -1 -0.678 0.235 0.733 0 0 0 -1 0 0 0.314 0 0 1 1 0 0 0 0 -0.929 0.632 0 0 -1 1 -1 0 0.992 0 -1 1 0 0.578 0 0 0 0 0 0 0.28 0 -0.328 0.368 0.438 0 0 0 -1 1 0.069 0 -0.728 -0.241 -0.89 1 -0.28 0 0 0 0 0 0.999 0 -0.179 -0.959 0 -0.735 0 0 0 0 -1 0 0 -1 -0.121 0.853 1 -0.761 0 0 0 0 1 -1 0.562 0 -0.012 -0.256 0 0 0 0 0 -0.279 0 0 0.179 1 0 0 1 0 -0.94 1 1 -1 -0.505 1 0.831 0 0.398 -1 0 0 1 0.015 0 -0.449 -1 -0.908 0 0.031 0 -1 0.64 0.601 -0.629 0 0.911 -1 0 0.855 -0.521 -0.763 -0.181 0 0 0 0 0 -0.741 -0.052 -0.179 -0.884 1 0 0 0 0 -0.123 0 0 0 0 -0.697 1 1 1 0 0 0.352 1 0 0 0.927 0 0.275 0 -0.073 0.062 0 -0.007 0 0.006 0 0 0.516 -1 0.325 -1 -1 0 0 -0.495 0 0 -0.474 0 0 0.216 0 1 0 0 0 0 0.121 -0.517 0 0.093 -0.567 0 0 0 -0.402 0 0 -1 0 1 0 0.899 -1 0 0.005 0 -0.829 0.693 0.929 0 -1 -0.443 0 0.619 0.208 0 -0.678 1 0 0.427 0.177 0.525 1 0 0 -1 0 -1 0 0 1 0 0 0.791 -0.028 -1 -1 0 0 -0.562 0.755 -0.524 0 -1 0.706 0 0 0 1 0 0.742 0 0 0 -0.277 -0.211 1 -0.03 -0.424 0 0 -0.475 0 1 0 -0.855 0 0 0.38 -1 0 0 0 0.177 0 0.357 0 0 -1 1 0.625 0 -0.888 0.206 0 -0.466 0.002 0 0 0 0.829 0 0.036 -0.938 -1 -1 0.316 0 0 0 -0.008 0.413 -1 0 0.736 0 -0.838 0 -0.226 0 0 0 1 0 0 0 -1 0 0 -0.239 0 0 0 0 0.61 0.279 -1 0 1 0 -0.09 0.329 -0.221 0 0 0.91 -1 -0.831 -0.201 -0.224 0 0 0 0 0 -1 0 0.141 -0.517 1 0 0.237 0 0.014 -0.064 0.606 0 0 -0.366 0 0.877 0.39 0.945 0 0.306 0 0 0.78 0 0 -0.231 -0.696 -0.973 0 -0.103 0 0 1 0 -1 -0.159 0 0.668 0 -1 0.866 -0.896 0 -1 0.555 1 0 -0.686 1 -0.261 -0.418 -1 0.805 -0.44 0 0 0 0 0.925 -0.833 0 0 0.3 1 0.609 -1 -0.622 -0.425 0.897 -1 0 0 0 0 0.725 0 -1 0 -0.341 0 0.913 0 -0.677 0 -1 -0.996 0 -1 1 -0.962 1 -1 0 0 -0.865 0 -0.153 0.063 0.147 0 0 0 0 0 -1 0 -1 1 -1 0.438 0.067 -1 1 -0.676 -1 1 0 -0.785 0 -0.875 0 -0.608 0 0 -1 0 0 0 0.368 -0.211 0.918 0.805 -1 0 0 1 0 0 -1 0 -0.01 -0.631 0 -0.325 1 0 0.887 -0.123 0 0.494 -0.669 0 -0.659 0 0 -0.139 1 -1 -0.152 0 0.998 0 0 -0.737 0 0 1 0 0 -1 -1 -1 -0.064 -0.08 0 0.743 -0.304 0 -0.9 0 0 0.167 -0.977 -0.601 0.492 1 0.651 -0.413 -0.653 0 -0.566 -0.258 0 -0.727 0 -0.41 0 0.678 0 0.447 -1 0 0 0 -1 -0.827 0 0 0 0 0 0.916 0 0 0.438 1 0 0 -0.161 -0.962 0.609 -1 0.604 0 0 1 0.737 -0.334 0.103 0 0 -0.547 -0.448 0 0 -0.949 0.017 0 -1 -1 0 0 -1 0 -0.411 -1 -1 1 0 0 0 0 0 0 0 0 0.784 -1 -0.943 -0.079 0.265 -1 0.445 0.689 0 -0.319 0.824 0 0 0 0 -1 0.087 0 -0.205 -1 0 0.283 0.627 0.131 0.876 0 -0.323 -0.391 -1 0 0.729 0 1 0 0 0 0 1 -0.407 0 0 0 0 -0.258 0 0 0.254 0 1 0 0.421 -0.474 0 0 -1 -0.773 -0.76 0.395 0 1 0.256 0.486 0 -0.731 0.742 0 0.004 0.972 0 -0.153 0.384 0 0 -0.195 0 -0.137 0.651 -0.002 -0.969 -1 -0.131 -0.17 0.91 -0.82 -0.574 0 -1 0 0.022 0 0 0.612 0 0.562 -1 1 -0.766 1 0 -1 0 1 -0.818 0 0.921 0 1 0 0.368 -1 0 0 -0.226 -0.403 -0.368 -0.265 0.574 0 -0.745 -0.004 0 0.585 -0.635 -0.618 0 0 0 1 -0.843 0 -0.448 -0.713 0 -1 0 0.627 -0.582 0 0.783 -1 0.909 0 -0.914 0.108 0.349 0 1 -0.488 -0.564 0.148 1 -0.277 0.818 -1 0 -0.302 -0.977 1 1 -0.524 0 0.546 0 0 1 0 0 -1 1 0 0 -0.326 0 -0.806 0 -1 0 -1 -1 0 1 -1 -0.585 0.402 0.475 0 -0.496 -0.433 0 0 0 0 0 0 -1 0.447 0 0 1 -0.858 0 -0.332 1 0.633 0 -0.706 0 0.434 1 -0.851 -0.674 -0.908 -0.96 -1 0 -1 0 0.545 0 -0.491 0.922 -0.393 0 0.681 0 0.94 1 0.173 0 -0.401 0.379 0 0 -0.394 0 0.667 -0.04 0.497 -0.288 -1 0.445 0 0 0.346 0 0 0 0.932 0 1 -0.503 -0.053 -0.333 -1 -0.373 0.155 -0.448 0 -1 0 0 -1 0.379 -0.784 -0.483 0 0 1 0 0 0 -0.757 -0.518 0 -0.875 1 0 1 0 0.599 0 -0.73 0 0 -0.319 0 -0.426 0 0 0 0.168 -0.597 0 -0.58 -0.715 -0.565 1 -1 0 0.935 0 0 -0.792 0.347 0 0 -1 0 0 0 0 0.851 -0.647 0.029 -0.821 0.047 0.521 0.878 1 -0.888 0.443 0.863 -0.39 0.307 0 1 0 -0.195 -0.813 0 0.925 0 -0.737 0.776 -0.957 -0.328 -0.119 -0.56 0 0 -0.733 0 0 0 1 0.292 -1 1 0 0 -0.079 0 -1 0.241 0.671 0 0 0.121 -1 -0.572 -1 1 -0.623 0 -0.341 -0.735 -0.575 1 1 0.978 0.14 -0.263 -0.063 -0.45 0 0 0.908 1 0 0 -0.006 -0.171 0 -1 1 0 -0.694 0.433 -0.52 0.949 0.462 0 0 -0.522 0 0.594 0.12 1 0 0 0 0 1 0 0 0 -0.474 1 0 -0.9 -1 0 0.884 0 -0.583 -0.118 -0.771 0 0.362 0 0 -0.268 0 0 0 0 0.084 0 -0.428 0 0 -0.761 0.904 1 1 0.159 0.541 -1 -1 0.334 0.865 0 -0.915 -0.797 0.41 -0.52 -0.614 0 0 0 0 0 1 -0.288 0 -0.936 0 0 -0.916 -0.06 -0.414 0.365 0.524 0 0.307 -0.161 -0.312 -0.722 0 0 -0.084 0 1 -0.552 1 0 0.509 0 0 0 0.496 0.287 -1 -1 0.437 1 -0.288 -1 -1 0.419 0 0.486 0.839 1 1 -0.893 0 0 0.296 -0.175 0.806 0.066 -0.421 -0.386 0 0.65 -0.676 0 0 0 0 -1 0 0.9 1 -0.363 0 0 -0.242 0 0 0.842 0.616 -0.047 -0.236 0 -1 0 0 -1 0 -1 -1 0 0.013 -0.397 0 0.131 -1 -0.407 0.997 0.718 -0.749 0.449 -0.171 0 0 1 0 -0.419 0 -0.947 -0.5 0 -0.169 -0.962 0.778 0 1 1 -1 -0.157 0 0 0.5 -0.806 0 0 0 0 -0.939 0.727 0.982 -0.204 -1 -1 0 -0.382 1 -0.963 -1 -0.986 -0.157 0.308 0.491 0 0.607 0.489 0 0 0 1 -0.231 1 0 -1 0 0 0 0 0.37 0 -0.53 -0.52 0.285 0.763 0 0 0 0.11 0 0.103 0.94 -0.134 0 0.707 0 1 0 0.562 -0.071 0 -0.653 0.837 0 -1 -0.943 0.247 0 -1 -0.082 1 0 -0.246 -0.111 0.97 1 0.861 1 0 0.281 0 0.316 0.913 1 -1 1 0 0 -0.453 0.548 -0.914 0 0.264 1 0 0 0 -1 -0.355 0 -0.465 1 0 0 1 -1 0.156 1 0 0 0 0.662 0 -0.821 1 0 -0.344 0 0.068 0 0 0 0 -0.828 1 0 -1 0 0.763 0 0.23 -0.448 -0.247 0 0 0.073 0 -1 0 0 0 0 0 0 0.48 0 -0.951 0 0 0 -0.925 0 1 0.879 0 -0.25 -1 -0.545 0.378 0.521 1 0 -0.101 0 -1 0.044 -0.677 0.806 1 1 -1 0.948 0 0.179 0.331 0.58 -0.912 1 0 0.039 0.912 0 0 -0.912 0 0 -0.211 0 -1 0 0 0.618 0 1 -0.775 0 0.905 0.208 0.199 0.351 1 0 0 0.371 0 0 0 0 -1 1 0 0.591 0 0.707 -0.495 -1 -1 0 -1 0 1 0.199 0.115 0 0 0.785 0 0 0 -1 0.771 0.968 0.533 0 0 0.851 -0.066 0 -0.364 0 -0.081 0.644 0 0 -0.411 0 -0.971 0.955 -0.028 0.988 0.122 -0.101 -0.814 0.386 0 0 -0.646 0 1 -0.975 0 -0.28 -1 0 -1 0 0.946 0 0 -0.916 0.843 1 0 0 0 -0.29 0 0.382 -1 -1 0.867 0 0 1 -1 1 0 0 0 0 0 0 -1 -1 -0.631 1 -0.679 -1 0 0 0 1 -0.627 0 -1 0.091 0 0 0.169 -0.972 0 -0.803 0 0 0 0 -0.06 0 0 0 -0.434 0 -0.904 0 0.25 0 0 -0.475 -0.009 0.785 -1 0 0.101 0 -0.818 0 1 -0.716 0.037 -0.053 0 0 0 0 0.346 -0.675 0 0.295 0 -1 0 -0.82 0 0.975 1 0 0 -0.788 0 -0.429 1 -0.045 -1 0 0 1 0.179 0.528 0.113 0.383 0 0 -0.713 -1 0.865 -0.848 -0.106 -0.543 -1 0 -1 0 0 0.719 0.094 1 0 0 1 0 0 0.654 -0.061 -1 0 0 -0.031 1 0 -0.498 -0.839 1 0.667 0.36 0.916 1 1 0 0 1 0 -1 0 -1 0.054 -0.03 1 -0.764 1 0 0.173 1 0 -0.115 -0.292 0.489 0.476 0 0 0.715 0 0 0.795 0 -0.099 0.933 -0.024 1 0 0 0 -0.24 0 -1 -0.082 0.408 0 0 0 0 0.529 0 0 -0.84 -0.802 -0.615 -0.639 1 -0.003 0.999 0.445 0 0 0 0.044 -0.062 -0.371 0 0 -1 -0.061 0.402 -0.803 0 -0.361 -0.696 -0.077 0 0 0 0.605 0 0.914 -0.773 0.755 -0.073 0 0.474 0 -0.721 0 0 0.731 -1 0 0 -0.412 0 0 -0.825 0.901 -0.613 1 0 0 -0.215 -0.874 -0.075 -0.809 0.923 -0.771 -1 1 0 0 -0.676 1 0 0 -0.643 1 -0.657 -1 0 0 0.908 -0.524 0.017 1 -1 0 -1 0 0.214 1 -0.866 -0.945 0.47 0 0 0 0.657 0 -0.076 0 -1 0 -0.422 0 1 -1 0 -0.588 0 -0.092 0 0 0 -0.213 0 -1 0 0.66 -0.335 0.078 -1 -1 0 0 0 1 -1 -0.485 0 -1 0.275 0 0 0.171 1 0 0 -0.863 0 0 0 0.04 0 -0.17 0 0.995 0 0 0.896 0.631 0 0 1 1 0.629 -0.11 0 0 0 0.606 0 -0.318 0 0 0.468 0 0 -1 0 0 0 0.535 -0.68 0 -1 -1 0 -0.355 0.161 0 -0.941 0 0 0 1 -0.723 0 -0.425 0.015 0 -0.073 1 0 0 0 -0.481 -0.369 0 0 -0.772 -0.688 -0.391 -0.719 0 -0.258 0 0 0.7 0.278 0 0.739 1 0.747 -0.799 -1 0.967 1 -1 0 1 0 0 -1 0.174 -0.272 -1 0.837 -0.259 0 0 0 0 0.216 0 0 0 -0.03 0.663 -0.57 -0.918 -0.939 -0.975 -1 -1 1 0 0.742 0 0 0.021 0 0 0.511 0 -0.075 0 -0.922 0 0.147 0 0 1 -0.59 0.845 0 0 0 0 -0.108 -1 0.591 -1 0.145 0.892 0 -0.556 0.656 0 -0.545 0 0 -0.399 0 -0.662 0.031 0 0.429 0 -1 0.624 0.461 0.062 0 1 0.821 0 0 1 0 -0.36 0 1 0.98 0.714 0 -1 -1 0 -1 0 0.47 0.375 -0.123 0 -1 0 -0.049 -1 0 0 0.51 -1 0 0.034 -0.433 0 0 0.962 0 0.419 0 0 0 -0.522 -0.598 0 0 0 1 -1 -1 0.133 0 -0.018 0 1 0 0.411 -0.65 -0.519 -0.928 -1 0 0 0 0 -0.497 -1 -1 0.377 -0.672 0.284 0 0 0 -0.361 0 -0.015 -1 -1 0.35 0 0.596 1 0.23 -0.169 0.063 0.765 1 0 -0.399 0.427 0.915 1 -0.342 -0.111 0 0 0 0.23 0 -0.675 -1 0 1 1 0 0 0 0.151 0 0 -0.703 0.419 0 0.176 0 0.306 0 -0.867 0 0.543 0.302 -0.391 0 0.726 -0.818 0 -1 0.142 0 0 0 0 -0.843 0 0 -1 1 -0.412 0 1 0 -1 1 0 0 1 0.986 0.184 1 0 0.973 0 0 0 1 -1 0 0 0 1 0 0 -0.556 0 -0.26 0 0 -1 0.73 0.308 -0.344 -0.114 0.662 0 1 0 0.955 0.62 -1 -1 0.453 -0.701 0.933 -0.439 0.369 -0.805 -1 -0.305 -0.804 0.082 0 0 0 0 0 -0.378 0 -1 1 0 0 0 -0.57 0 0 -0.783 0 -0.114 1 0 0 1 0.423 0 -0.996 1 1 0.354 0 1 -1 -1 -0.565 0 1 0.155 -0.958 0 0.603 -0.849 0.872 0.153 0 0 -1 0 0.318 0 0 0 -0.15 0 0 0 0.364 0 0 0.56 0 0 0 1 1 0 0 0 0.142 0 -0.405 -0.146 -0.544 -0.022 0 -0.399 0 0.762 -0.309 0 -1 0 -0.508 0 -1 -1 -0.675 0 0 -0.895 0.929 1 0 0 0 0 0 -1 0.136 0 0 -1 0 0 -0.174 -0.192 -0.708 0.904 0 0 -0.923 -0.738 0.113 0 -0.241 0 1 1 -0.817 1 -1 0.353 0.906 -0.265 -0.558 -1 0 0 0 0 0.769 0 0 -1 0.87 -0.402 -1 0.944 0.443 0.054 0.699 0 0 1 0 0 0 0 -0.938 0 0.893 -0.943 -0.983 0.558 0 0.788 0.274 0.129 -1 0 0.093 -0.939 0 0 -0.339 0 0.52 -0.244 0.654 0 0.932 0 0.983 -1 0 1 -1 1 0 -0.398 0 0 0 0 0.369 0 0.994 0.453 0 -1 -0.394 0.616 -0.611 -0.534 -0.965 -0.965 -0.541 0 0.07 -0.311 0.339 0.617 0 0.226 0 0 1 1 0.403 0 0 0 0 -1 0 0 -0.457 0.763 0.541 1 0 0 -1 -0.733 1 -0.909 0 -1 -1 1 -0.921 -0.86 0.818 1 0 0 0 0 0 0 0 0.765 0.676 0 1 0 0.152 0 0 -0.636 -0.435 0 0 0 0 0 0 0 0.895 -0.78 0.997 -0.984 0.404 0 -0.477 1 1 -0.927 -0.662 1 -1 1 0 0.494 0 0 -0.332 0 -0.809 0 -0.458 0 0.202 0 0.334 -0.932 0 0.927 1 -1 0 -0.098 -0.229 0 -0.561 -0.572 0 0 0 0.697 -0.019 1 0 0.723 0 1 0.404 0 0.873 0 0 -1 -0.744 0 0.101 0.459 -0.596 0.527 -0.456 1 0.053 0 1 0.102 -0.199 -1 0 -1 0.914 -0.478 -0.116 -0.961 0.619 0 0 0 1 0 0.453 0.754 0.488 0.232 -1 0 -0.401 0 0 0 0 -1 0 0 0 0 -0.394 -0.929 0 0 0 0 0.42 0 0 1 -0.959 0 0 0 1 0.136 1 0 -0.471 -0.027 0 0 -0.045 1 -0.256 0 0.093 -1 -0.358 0 1 0 -1 1 0 -0.309 0 0 -0.684 0 0 0 0 -0.134 1 0.759 0.354 -0.886 0 0 0 0 0 0 0 1 0 -0.755 0 0.302 0.476 0 0 0 0.603 -0.56 -0.129 -0.956 0 0 0 0 0 0 0 0 -0.189 -0.555 -0.311 0 0.032 -1 -0.665 -0.564 0.66 0 0 0 0.969 1 0.342 0 0 0 -0.284 0 1 0.171 -1 0 0 -1 -1 0.833 0 0 -0.851 0 0 0 -0.749 0 -0.675 -0.917 0.024 0 0.685 1 0 0 0.971 1 0 1 0 -0.826 0 0.814 0.654 0.168 0 0.226 1 -0.854 0.269 -0.231 -0.015 -1 1 -0.462 0.691 0.769 0.814 0.245 0.228 0 0 -0.516 0 0 0.211 0 0.613 -1 -0.535 0.83 0.308 0 0.596 -0.351 -0.481 0 0 0 -0.502 -0.355 0 0 1 -0.186 -0.976 0 1 -0.658 1 0 0.836 0 -0.057 -0.269 0 0.395 0 0.012 0 0 0 0 -0.92 -1 0.234 -0.894 0.286 0.601 -0.283 -0.562 0 -1 0.91 -1 0 0 0 0 0 -1 1 0 0.277 -0.032 0 0 0.47 0 1 0 -0.55 0.533 -1 1 0 -0.642 -0.519 0 0 -1 0 0 -0.638 -0.995 0 1 1 0 0 0 -0.549 0 -0.209 -0.068 0 -1 0.481 0 0 0 -0.556 0 0 0 0 0 0 0 1 0.264 0.095 0 -0.722 1 0 0.716 0 0 -0.845 -0.475 0 0 -0.506 0 0 1 0 0 0.717 0.262 0 -1 1 0.232 -1 0 0.665 1 0.647 0 0 0 0 -1 0 0.307 0.999 -0.259 0 0.057 0 -0.999 -0.617 1 0 0 0 -0.069 0 1 0 0 0.474 0 0 -1 0 0 0 1 0 0 -0.81 0.307 -0.248 0.223 0 0 0 -1 0 0 0 1 0 0.484 0.916 0 0 0 -1 0 -0.273 -0.486 0 0.97 0 -0.227 -0.279 0 0.474 0.838 0.737 0 0.511 0 0 0 0 0.273 0 0.995 -0.933 0 -1 0 0.065 0 -1 0.055 -1 0 0 -1 0 0 -1 -0.605 0.356 -0.413 0 0.652 0.063 -1 0 0.656 0 -1 -0.943 1 0 0 0 0 0.55 0.574 -1 0 0.932 0.665 1 1 0 -0.157 0 0 0 0.827 -1 -0.125 0 -1 0 0 0.422 0 0 0.344 0.202 0 0 -1 0.459 0 -0.952 0.327 -0.958 -1 0 0.116 -1 0 0 -0.95 -0.583 -0.975 1 0.103 1 0 -0.723 0 1 0 -1 0 0 0 0 0 0 -0.28 -1 0.401 -1 0.222 0 0.183 1 1 0.221 -0.334 -0.089 0 0 -0.636 -1 0 0.194 -0.707 -0.697 0 0.679 1 0 0.574 0 1 -0.521 -0.54 -0.961 0 0 -0.212 0 0.017 -0.684 0.234 -0.294 1 1 0 -1 -0.608 0 -0.529 0.797 0.017 0 0 -0.204 0.465 -0.016 0 1 0 0 0 -1 0 0 -0.214 0 0 -1 0 0 1 0 0.369 0.654 0.833 0 1 0 0 0 0 0.614 1 0.957 0 -0.604 0 -0.133 -0.568 0 0.121 0 -0.397 0 0 0 0 -1 1 0 -1 0 0 0 0 0 0.138 0 0.772 0.81 0 0 0 0 0 1 0.545 -1 0 1 0.677 -0.637 0 0 0 0 -0.061 0.469 0 1 0 -0.303 0 0.682 -0.543 0 0.071 -0.242 0 1 1 1 0.188 0 0.368 -0.072 -0.803 -1 0 1 -0.103 0 0.405 0 0.508 0 0.203 0 -0.248 -1 0.673 0.698 0.148 0 1 0.397 0.884 0 0.198 0 -1 -0.296 0 0.041 0 -0.209 -1 0 0 0 0 -0.807 0.256 0 0.844 0.454 0 0 0 -0.488 -1 1 -1 0 0 0 0 0 -1 -1 0 0 0.668 0 1 -0.384 0 0 -0.851 0 -0.318 -1 -0.113 0 0 0.996 0 0 0.202 -0.598 1 1 -0.356 0 0 0.915 0 -1 -0.821 -0.231 0.548 0 0 0 1 0.311 0.772 1 0.403 -0.175 0.198 -0.962 -0.019 0 -0.609 0 0 0 0.308 0 0 -0.841 -1 -0.129 -0.807 0 0 -1 0.219 0.363 -1 -0.433 0 -0.223 0 0.623 0.578 0 0.106 0.508 0 -0.607 0 0 -1 0 1 -1 -1 0 -1 -0.576 1 0.494 -0.834 -0.778 0 -1 0 0 0.976 -0.598 0 0 -0.537 0 0 0 0 -0.439 0 0 -0.749 -1 -0.405 1 -0.564 0.915 0 -0.655 0 -1 0 1 0.492 0 0 0.446 0.183 0 0 0 -0.811 -0.677 -0.714 0.448 -1 -0.999 0 0 -0.288 1 0.712 0 0 0 0 0 0 0 0 0 0.65 -0.609 1 0 0 1 0 -0.537 0 -0.595 1 0 0 1 1 1 0 0.873 0 -1 0 0.054 0 -0.853 0 0 0.94 0.372 1 -0.133 1 1 -0.805 1 -1 0 -0.564 0 -1 0.693 0 -0.1 -1 -0.299 0 0.222 1 0.021 0 -0.164 0 -0.176 0.437 -0.134 -1 0.678 1 0 0.195 0.147 0.285 -0.885 0.284 0.049 0 0 0.635 0 0 0.742 0 0.999 0.409 -1 0 0 0 0 -0.268 0.093 -1 0 -1 0 -1 -0.996 1 0.095 0 0 -0.208 1 0 0 -0.771 -0.666 -0.107 0 0 0.784 1 -0.064 0.637 0 1 0.495 0 0 0 -0.604 0.582 0.385 0 -1 0 0.391 0 -1 0 0.15 0.971 0 0 0 -0.196 0 -0.983 -1 0 0.325 1 0 -1 0 -0.079 0.684 -1 -0.053 -0.18 0 0.028 0 0 -0.193 0.013 0.552 0 0 0 -1 -1 1 0 0.23 0 0 0 0.995 0.912 0 0 0 -1 -0.391 0 0 0.631 0.238 0 -1 0 -0.722 0 -1 0 0 0 0 0 0 1 0 0 -1 0 -1 0 -1 -0.131 0 0.537 -1 0 -0.418 -1 0 0 0 0 1 1 0 0 0 0.618 0 0 -0.79 0.312 0 0 -0.628 -1 0.78 -1 -0.364 -0.744 0.949 0 -0.199 0.264 0 0.095 -0.956 0.767 0 0 0.594 0.961 0 0.099 -1 0 -1 1 0.756 0 -1 0 0 0 -0.573 -0.47 1 0.923 0 1 -1 0 -0.106 0 0 0 0 0.707 0.366 0.709 -0.12 0 0 0 0 -0.908 0 -1 -0.878 0.331 0 0.587 -0.606 -0.577 0.955 0.323 -0.673 0.204 0.659 0 0 0.404 0.705 -1 0 -0.528 0 0.752 -1 0 -0.273 0.769 -1 0 -1 -0.312 0 0 -0.39 -0.778 0.807 0 0.311 0 0 0.303 0 -0.302 0 0 -1 -0.245 0.31 -1 -0.589 -1 1 0 0.939 0 0.586 0 0.051 0 -1 0 0 0 0.762 0 -0.793 -1 -0.363 0 -1 -1 -1 -1 1 0 -0.891 0.56 0 0.186 1 -0.324 0 -0.429 0 -1 -0.8 0.192 -1 -0.007 -1 0 1 0 0.901 -1 1 0 -0.146 -0.642 0 0.627 0 -1 1 0.092 0 -0.58 0 -1 0.195 0 0 0.825 0 -0.175 -0.141 0 0 0 0 0 0 0 0 0 -0.931 -0.798 0 -0.005 0 0 -0.3 -0.668 -0.962 0 0.694 0 -0.22 -0.741 -1 -1 -0.422 0 -0.209 -1 -0.131 0.42 -0.625 0 0.257 1 0 1 -0.117 0 0.497 -1 0 1 0 0 0.637 0 0 0 0 1 0.601 -0.272 0.859 0.819 0 1 0.515 0.758 -0.01 0 0.099 -0.798 -1 0 1 0 0.888 1 0.218 0 0 -1 1 0 -0.431 -0.228 0 0.954 0 -0.31 0 -0.907 0 -1 0.591 0 0 -0.091 -0.397 -0.069 1 0.556 -1 0 0.051 0 0.474 0.353 -0.583 0.024 -0.012 -1 0 -0.665 0 0.9 -0.202 1 1 0.253 0 -1 -0.802 -0.083 0.58 0 0.543 0.353 -1 1 0 0 -0.647 0.796 0 -0.671 0.612 0.924 -0.847 -0.226 -1 0 0.222 0 -1 0 -0.774 0.782 0 0 -1 0 0 0 0 1 0.028 0.197 1 0 0 -1 0 1 0 -0.428 -0.306 -1 0.339 0 0.732 0 -0.948 0 0 0.736 0 0 -0.482 0.597 -1 0.963 -0.639 0 0 0 -0.163 1 1 0 0.91 0 0 -0.613 0.143 0 -0.862 0 0 0 0.99 -0.049 0.938 -0.663 0 -0.931 0 0 -1 -0.374 -0.522 -0.726 -0.048 1 0 -0.255 -0.177 1 0 1 -0.937 0.831 0.171 0.025 0 -0.764 0 1 0.97 -0.211 0 1 0.01 0.606 0 0 0 0 0.884 -0.909 0 0 0 -1 -0.724 -1 0 1 0 0 0 0 0.716 -1 -0.92 0 -0.443 0 0 0.551 0 -1 0 -0.553 0.442 0 0.904 -1 0.959 1 0.495 0.566 0 -1 -0.535 0.255 0 0.094 -1 0 -0.811 0.458 -0.27 -0.485 0.877 -1 -1 0 -0.809 0 1 -0.617 -0.842 -0.795 0.358 -0.184 0.702 0 0 -0.109 0 0 -0.449 0 0.626 1 0 0.102 0.671 -0.694 0.878 -1 0 1 1 0 1 0 -1 -1 0 -0.028 -0.107 0 -0.123 -0.137 0 1 0 0 0 0 0 0.368 0.354 1 0 0 0.554 -0.996 0 0.789 0.874 -1 1 0 0 0 -0.175 0.352 0.116 0 0.138 1 -1 1 -1 0 -0.682 0.651 -0.045 -1 0 0 0 -0.943 0 0 0 0.446 1 -0.261 0.282 -0.584 -0.754 -0.385 0 0 1 0 0 -1 0.834 0 0 0.109 0 -0.966 0.733 0.83 0 0 -1 -0.656 0 0 0.088 -0.623 -0.215 0 0 -0.406 -0.29 0 1 0.702 0.243 -0.736 0.45 -0.821 0.809 -0.316 -0.651 0.437 0 0.138 -1 0 0 0.619 0 1 0 0 1 -0.014 -0.051 1 0 0 -0.162 0 0 0 0 0 0.134 1 0 0.702 0 -0.759 0 0 0 0 0 0 0.616 0 0 -0.545 -0.237 0 1 1 -0.542 0.686 1 1 -0.716 -1 -0.56 0 -1 0 0 -0.259 1 -1 0.799 0.593 0.283 0 0 1 0 0 -1 -0.604 -1 0.374 0 -0.36 0 -0.042 0 1 0 0.026 0 0.831 0 0 0 0 -0.794 0.903 0.592 0 0.891 -0.653 -1 -0.171 0 1 -0.653 0.457 -0.4 0.368 1 0.387 1 -0.418 0 -1 1 1 0 0 0.166 -0.894 0 -1 0 1 0 0.066 0 0.883 0 0 1 0 -0.93 0 0 0 0 -0.767 0 1 -0.968 0 0 0.955 1 0.54 0 0.909 0 0.665 0 -1 0.097 0.824 0 0 -0.93 0.791 0.169 -0.247 0.442 0.771 0.518 -1 0 0 0 0.648 -1 0 1 0.126 0.475 0 -1 -0.475 -1 0 0 -0.42 -0.443 0 0 0.091 0 0 1 -0.984 0 -1 0 -1 0 0 0 0.447 -0.676 0 0 0 0 0 1 0.674 0 0 0.722 1 -0.658 0 0 0 0 -0.026 0.436 0 0.192 0 0 -0.851 -1 1 0 -1 -0.475 0 -0.818 0.743 0 0 0.13 0.817 0.597 -0.502 0 0.682 -1 0 -0.53 -0.72 0.254 -0.744 0.16 0 -0.405 -0.267 0.571 -0.209 0 1 0 0 0 1 0 0.162 0 0 0 1 0.524 0 0 0 1 0 0 0 0.722 0.272 0 0 -0.564 1 0 0 -0.768 -1 0 -0.101 0 1 -0.609 0.606 1 0 0 -1 0.187 0.93 0 0.629 0 -1 0.793 -0.068 0 0.577 0.408 -1 0 -1 0 0.677 -1 0 1 0 1 -1 -0.783 0 0.243 1 0 0.403 0 0 0.476 1 0.834 -0.091 0 0.326 0 0 1 0.505 1 0 -0.478 0.018 0 0 -1 0 -0.007 -0.278 -0.894 0 0.584 0 -0.602 0.886 0 0.053 0 0 -0.763 -1 0 -0.53 0.654 0 -1 0.18 -0.262 0.404 -1 0 -1 0 0.605 0.013 -0.928 0 -0.382 0 -0.426 0 0.942 0.271 0 0.456 -0.684 0.2 -0.186 -0.073 0 -1 0 0.35 0.758 -0.46 -0.497 -1 1 0 -0.033 -0.157 0 -0.939 0.647 0 0 -0.95 0 0 -0.077 -0.19 0 0 0 0.761 0 -0.455 -0.953 -0.698 0.288 0 -1 0.639 -0.163 -0.762 0.688 -0.663 0.148 -0.061 1 -0.024 1 0 -1 -0.026 -1 0.663 -1 0 1 0 0.13 -0.1 0 0 0 0.49 -0.741 0 -0.325 0.987 0 -0.559 1 0.358 -0.744 0 0 1 -1 -0.128 0 0 -0.199 0 0 0.436 0 -0.556 -0.103 0 0 0.227 0 1 -1 0 -0.768 -1 0 0 0 -0.878 0 0.043 -0.917 -0.034 0 -0.566 0.534 -1 -1 0 1 0 -0.855 0 0 0 -1 0 0 0.499 0 -0.571 -0.224 -1 0 -0.484 0 0 0.918 0 -0.14 0 0 0 0.722 0.378 -0.763 0 0.32 0.516 -0.208 0 0 0 0 0.941 0 0.008 0 -0.352 0.505 0 -0.173 -1 0 0 0.255 1 0 0.902 0 -1 -1 0 0.789 0 0.53 0 0.919 0.641 0.189 0.576 -0.791 0.22 0 0 -1 0 0.057 0.447 -0.869 0.739 -0.901 0 -0.521 -0.368 -0.668 0 -0.868 0 0.079 -0.849 1 -1 -0.644 0.379 0 0 0 -0.196 0 -0.162 0.474 -0.819 1 -0.512 1 1 0.726 -0.566 0 -0.61 -0.258 1 0.978 0 0 -1 0 0 0 0 1 -0.825 0 0 0.191 0 0.816 0 0.791 0.987 1 1 0.915 -0.64 0 -1 -0.429 1 0 -1 0.384 0 -0.307 0 -0.153 0.962 -1 0 0.265 -1 0 0 -0.804 0.84 -0.552 1 -0.816 0 0.276 0 0.254 -0.209 0 -0.711 0 0 0 1 1 -0.815 0.244 0 0.5 0 -1 -1 0.924 0.197 0.689 0.89 -0.034 -0.556 0 0.649 0.773 1 -1 -1 -0.099 0 -0.59 0.775 -0.151 0 0 0 0.951 0 0 0 0.329 0 0.898 0 0.994 0 -0.187 0 0 -0.286 0 -0.478 -1 0 -0.262 -0.069 0 0 0.96 0 1 0 0 -0.418 0 -1 0 -1 0.372 -0.91 -0.993 -0.31 0 -1 0.227 0 -1 0.793 0.918 -0.712 1 -1 1 -0.603 0 1 0 0 0.794 1 0 -0.24 0 0 0 0.915 0 -0.43 0.413 0.154 0 0 0 0 0 0 1 0 0.677 -1 0.628 0 -0.316 0.431 0 0 0 0.229 -0.912 0 0 0 -0.226 0 -0.373 0.821 1 0 0.786 0.966 0 0 0 0 -0.687 0 0 0.696 -1 0.221 0 -0.701 0 0 0.167 0 0 0 0.544 0 -1 0.314 0 -1 0 1 0 -0.07 0.144 0.436 -1 0.9 -1 -0.158 0 0 -0.233 1 -0.06 0 -0.367 1 -1 -1 -1 0 0 -0.846 -1 -0.249 1 -0.958 0 0 0.963 0.532 0 0 0 -1 0 0 0 0 -0.687 -1 -0.316 0 0 1 1 0 0 0 -0.948 0.909 1 -0.16 0 0 0.667 0.693 0 0 0 0 -0.32 0 0.76 0.647 0.788 0.226 1 0 -0.532 0 -0.061 -0.78 0 -0.483 0 0.995 0 0.915 0.763 -1 0 0 0 -0.97 -1 0 0 0 0.878 0 1 -1 -0.173 -0.653 -1 0 1 1 -1 1 1 0.132 0 1 -0.697 0 0.4 0 0 -0.452 0 0 -0.832 0 0.986 0 0 0.128 1 -1 1 0 -0.699 0.133 0 -0.652 1 -0.972 0 0.576 0.14 -1 0 0 -0.734 1 -0.037 -0.255 0.009 0 -0.96 0 1 0 -1 -0.22 0 0.871 0 0 0 0 0 1 -0.158 0 -0.835 1 0 0 0 0 -0.806 0 0.863 1 1 0 0 0 0.836 0 0 0 0 -0.397 -0.165 0 0 -0.084 0 0.411 -0.654 0 0.351 -0.538 -0.49 -0.628 -0.876 0 0.822 0.984 -0.408 -0.824 0.483 -0.538 -1 -1 0 0.349 -0.366 0 -1 0.553 0 0 0.423 0 -0.711 0 -0.805 0 0 -0.046 -1 -0.723 0 0 0 -1 -0.226 0.88 0.836 0.129 0.29 0 0 1 0 0.176 0 0 0.279 0 -1 0 -1 -0.518 0 0 -0.423 1 -0.447 0.866 0 0 0 -0.56 0 -1 -1 0.625 0.787 0.584 0.117 0.386 0 0 0 -0.765 0 -0.829 0.642 0.862 0 0 0 0 0 1 0 0 -0.502 0.715 0 0.069 0.586 -1 0 -1 0 0.166 0 0.671 0 0.236 0 0 0 0.645 1 0.389 -1 0.634 1 -0.501 -0.959 0 -1 -0.638 -0.71 0 0 0 -1 0 0 0 0 0 0 -1 -0.145 -0.711 0 0 0.062 0 0 0.013 -0.281 0 -0.448 -0.861 0 0.856 -0.465 0.94 1 -0.096 0 0 1 -1 0 -1 0 1 0 0.266 0 -1 0 0.972 0 0 1 0.908 0 0 1 0.473 -1 -1 0 -0.785 0.367 0 0 0 -0.294 0.768 -0.194 0 -0.654 1 -0.284 0.178 -0.882 -0.793 0 0.869 -0.833 0.643 1 1 -0.311 0 0.291 -0.984 1 0 0 0 0.208 0.457 0 0 0 0.411 0 0 0.749 -1 0 -0.611 -0.581 -1 0.574 -0.619 -0.738 0.8 0 0.032 -0.778 0 0 0 0 -1 -0.603 0.12 -0.483 0.441 0 0.083 0 1 0 1 1 0 0 0 0 -0.773 0 0 0 0 1 -1 0.607 1 0 0 -0.425 0 0 0 -0.508 0.331 -1 0 0 0 -1 0 1 0 -1 0 0.394 0.379 0 -1 0.517 -1 0 0 0.554 0 0.58 -0.945 -1 -0.584 -1 0 0 1 0.671 -0.57 0 -0.24 -1 0.722 0 0 -0.206 0 -1 0.579 0.471 0.626 -0.02 0.523 0.855 0.297 0 0.431 0 -1 0 0 -1 0 -0.174 0.397 0.769 0.582 0.319 0 -0.179 0 0 0.004 0.526 -1 0 0 -0.378 0 0 -0.094 -0.336 1 0.23 0 0 0 0.101 1 0.485 -0.469 0 0 0 0 -1 -1 -1 -1 -0.645 -1 0 0 0 1 0.826 0 0 0 -0.311 0.689 0.127 0 1 0.601 1 0 0 0 -0.024 0.665 0.578 -0.83 0 0.684 0 0.332 0 -0.163 0 0 -0.735 0 -0.904 1 0 0 0 0 0.821 -1 -0.057 -0.864 0 0 1 1 -0.113 0.49 -0.093 0 0 0 0 -1 0 -0.149 0 0 -0.414 0 -1 0.669 -1 0 0 -0.356 1 -0.065 -0.322 0.809 0.307 0 0 0 -1 0.162 0 1 0.302 -1 0 -0.187 0 -1 -0.878 -0.308 0 0.967 -0.744 -0.495 -0.052 1 -0.059 0 -0.208 0.034 0 0 -0.255 0.953 0.035 -1 0 0.078 0 0.071 -0.684 0 0 -0.446 0 -0.029 0.659 0 0 0 0.32 -0.25 0 -1 0 0 0 -0.551 -0.955 0 0 0.873 -0.857 0 0 1 0.512 0 -0.567 0.692 -0.818 0.225 0.432 0 -0.561 0.922 0.316 0.932 1 0 0 0 -1 -1 0 0.886 -0.101 0.167 0 0.831 -0.082 -1 -1 0 1 -0.202 0.978 1 0 0.986 0.261 -0.322 0 -0.094 0.24 0 -1 0 0 0 1 0.794 0.95 -1 -0.603 1 1 0 0 0 0 0 0 0.19 -0.849 0 -0.397 0 0.021 -1 0 0.393 -0.63 0.551 -0.961 -0.54 0 0 0.488 0.169 -0.332 0 1 0.74 0 -1 1 -1 0 -0.871 -0.17 1 0 1 -0.082 -1 -0.609 -0.445 0 0.863 0 0 0 0 0 0.451 -0.099 -1 0 -1 1 -0.358 0 0 0 -0.043 0.099 0.137 -0.098 1 1 0 0 -1 0 -1 -1 -1 -0.949 0.31 -0.222 0 0 -0.562 0 -1 -0.101 0 0 0 0 0 0 0 0 -0.716 -1 0.056 0 0 0 0.141 -0.923 -0.305 0.135 0 0.296 0 0 0 0 1 0 0 0 0.194 0 0 0 0 0 0 1 0.16 0 -0.025 0 -1 0 0.874 1 0 -1 0 -1 0 -0.226 -0.54 0 -0.597 0 0.59 -0.426 -0.241 0 -0.751 -0.496 -0.892 0 1 0 0 -0.697 1 -0.75 0.695 -0.175 -0.986 0.533 -1 0 -0.387 0 0 0.05 0 0 -0.782 1 0.217 -0.668 0.724 0.21 -0.366 -1 0.966 0 0.573 0 1 -0.989 0.206 1 0 0 0 0 0 1 -0.458 0.859 0.152 0.794 0 1 0 0 0 -0.564 0 0 0 0.174 0 0 0 0 0 -0.411 -0.06 0 -0.484 0 0 0.12 -0.686 1 0 1 -0.607 0 0 -1 0 -1 1 0 -0.921 -1 -0.193 0.862 0.298 0 0.358 -0.466 0.441 0.224 0 0.032 0 0 1 0 -0.081 0 0.706 0 0.851 0.257 -0.735 -1 0.906 0 0 -0.233 -1 -0.847 0 -0.871 0.172 1 0 0.093 0 -1 0 0 -0.683 -1 0 -0.254 0.03 0 0 -0.982 1 -0.38 0 0 0 -0.432 0 -0.671 1 0 -1 0 0.754 0.391 -0.199 -0.381 0 0 0.052 0 1 0 -0.361 0 -1 -0.409 -0.538 -0.234 -0.611 0 0 0 0 -0.037 0 0 -0.771 0 0 -0.876 -0.473 -0.189 -0.017 -0.508 0 0 -0.866 0 0 0 -0.789 0 0 0 0.056 -1 -0.875 0 0 0 -0.01 0 -1 0 -0.747 -0.179 1 -1 0 -0.548 0 -0.804 0.751 0 0 -0.253 1 0 -0.488 1 0.385 -0.293 -0.981 -0.898 0.823 0.973 1 0.896 -0.593 0 0 0 0 -0.22 0 1 -1 1 -0.917 0 -0.562 1 1 -0.347 -1 0 -1 0 0.305 1 0 0 0.836 0 0 0.146 -0.363 0 -0.418 0 0.561 -1 -0.516 0 -0.173 0 -1 0 -1 -1 -0.196 0.558 -0.371 0.962 0 -1 0 0 0 1 1 -0.893 0.452 0 0 0 0 -0.173 0.653 0 0.382 0 0 0 0.101 0.137 1 -1 0 0 -1 -1 1 0 -0.298 -1 -0.903 0.893 0 -0.872 -0.417 0.827 0.911 1 0 0 1 0.07 0.734 -0.372 0 0.494 0.576 1 0 0 0.716 0.308 0 0 0 0 0 1 -1 0.988 0.43 0.176 0 -1 1 0.688 0 0.653 0 -0.871 -1 0 0.693 0.882 -1 0 0 -1 0 1 -0.118 0 -0.031 -0.272 0 1 0.527 -0.147 0.788 -1 0 -0.465 0 0 0 0.654 1 0 0 0 0 -0.249 0 0.409 0 1 0 -0.466 -0.18 0.24 0.999 0 -0.168 0 0.67 0.076 0 0.718 0 0 -0.998 0 1 -0.636 -1 -0.8 0 0.326 -1 -0.359 0 0.815 0.895 1 0.362 -0.173 -1 -1 0 -0.157 0.879 0 0 -1 0 -0.74 0 -1 0.984 0 -0.228 -0.203 0 0 0 0.257 1 0 1 0 -0.889 0 0.639 0 0 0.854 1 0 1 0.349 0 -0.16 0.871 0.225 0 -0.799 -0.983 0.904 0 0.962 0 0.161 -0.732 -1 0 0 0 0.463 1 -0.032 0.365 -0.721 1 0 -0.602 0 1 0 0.099 0.371 0 0 -0.703 -0.497 0 0 -0.274 0 -0.061 -1 1 0.889 0 0 0 -0.714 0.399 -0.95 0 0 1 -1 0 0 1 -0.601 0.03 -1 0 -1 0 1 0 1 0.259 0 0.604 0 -0.329 1 0.901 0 0.814 -0.268 0 0.914 -0.792 0 -1 -0.154 1 0 0 -1 0 0.041 1 1 0 1 -0.102 -0.11 0 0 0 -0.5 0 0 0 0 -0.016 0 0 -0.801 0 -1 0 -0.004 -0.345 0 0 -0.767 0 -0.543 0 0.469 0 -1 0.888 0 -0.02 -1 0 0.509 0 -0.989 -0.504 -0.15 0 0 0 0 0.004 0 -0.309 0.021 1 -0.016 0 0.198 0 0 0 0 1 0 -0.209 -0.807 0 -0.396 0 0 0.082 -1 0.541 0.09 0 0 1 1 0 1 0.439 0 0 0.693 0 0 1 0 0.436 0 0 0 0 0.656 0.864 0 1 0 -1 0.446 0 0 0 -0.039 0 0.829 1 0.726 -1 1 0 0.843 -0.6 1 0 -1 0 -0.76 0 -1 0.511 -0.356 -0.884 -0.613 1 0.034 0 0 -0.692 0.845 -0.754 0.422 0 -0.31 -0.052 0.509 -0.179 0 0 -1 -0.472 0 -1 1 -1 0.784 -0.689 0.578 -0.806 0 0 -0.284 1 0.009 0 0.052 0.782 -1 -0.143 1 0.067 0 0 -1 -0.939 0 0 0 0.472 0 0.953 0.731 -0.558 0 0 0 0 -0.939 0 -1 -1 0 0 1 0 0.871 0 1 0 -1 0.918 -0.583 0 0.561 0 1 0 0.483 0 0 0 -1 0 0 0.906 0 0.059 -0.208 0.003 0 0 0 0.378 0 1 0 -0.739 -0.002 0.031 -0.077 0 0 0.451 0 1 0 1 0.775 0.723 -0.492 0 0 0 0 1 0.07 -0.158 0 0 0.094 1 0.733 0 0.793 0 0 0 0.334 1 -0.526 -0.731 0.447 0.403 0.34 -0.94 0.021 1 0 0 -0.807 0.276 0.403 1 0 0.493 0 0.639 -0.466 0.664 0 -0.729 0 -0.769 0 -0.185 0 0 -0.113 1 -0.117 0 0.906 -1 0.791 1 0 -0.596 0.19 1 -0.79 0.914 0 0 0 -0.136 0.742 0 0 0 0.493 0 0.923 0 0 -1 -0.853 0.311 0 0.769 0 0 0 0.659 0 0 0 -1 -0.739 0 0 -1 -0.454 -0.389 0 1 0 0 0.155 -0.061 0 0 -1 -1 -0.342 1 0 -0.227 0 -0.687 1 0 1 -0.108 0.73 -1 0 -0.437 0 0 -0.714 0 -0.181 0 0.638 0 0 0.792 -1 0 0 0 -1 -0.882 1 0 -0.402 -1 0 1 0 -1 0.153 0 0 1 0 0 0.347 0.642 1 0 0.86 0 0 0 0.136 -0.216 0 0 -0.618 -0.438 -0.182 0.886 0.07 0 0 0 0 -0.437 -0.186 -0.784 -0.774 1 0 0 0 0 0.191 0.506 -0.732 -0.466 0 0.915 0 0 0 0.691 0 0 0.898 0.498 -0.233 -0.155 1 -0.586 -1 1 -1 0.69 -1 0 0 -0.613 1 0 0 -0.904 1 0.082 0.014 0 -0.351 0 0 0 1 0 -0.355 -0.632 0 0 0 0 0 0.974 -0.766 0 0 -1 0.691 0 1 -0.848 -0.032 1 -0.065 0 -0.527 -0.962 0 -0.335 1 -0.208 0 0 0 -0.444 0 0 0 0.552 0 1 0 0 0.642 0.522 0 -1 -0.505 0 -0.18 0.652 0.557 0.645 1 0 -0.279 0 0.163 0 -1 0 1 0 0 0.133 -0.546 0 -1 0 0 -0.652 -0.002 -0.428 0 0.369 0.296 0 -0.523 1 0 0 -0.527 0 -1 0.226 0 0 -0.953 -0.854 0 0 0.25 0.471 -0.545 0 -1 0 -0.084 -1 0.144 0 -0.957 0 0.899 1 0 0.543 0 0 0.321 0 0 0.076 0.312 0 -1 0.852 0 0.309 0 -0.602 0 -0.316 0.445 -0.096 0 0.55 -0.95 0 1 0.088 -0.249 -0.658 0 0 -1 0.904 0 0 -0.742 0 0.195 0 1 -1 0.625 1 0.789 0 0.756 0 -0.138 0 0 1 -0.359 0 -0.547 -1 -1 0 0 0 -0.288 -0.66 -0.306 -0.16 0.111 0.299 -0.429 -0.003 0 0 0 1 0 1 -0.284 0 1 0.614 0 0 0 0 -0.201 -1 0 0 0.239 0 0 0.404 0 -1 -0.525 0 -0.206 0 0.091 -0.208 -0.02 0.204 0 0.394 0 0.98 0 0 0 0 0 0 0 0 0 -1 0 0.561 0 1 -1 0.669 0 0 0 0 0 -0.844 0.781 0.515 -1 0 0 0.851 -0.96 -0.428 0.139 -0.197 0 -0.128 -0.864 0.48 0.077 -0.354 0.556 0 -0.914 0 0 0.911 0.339 -1 -0.137 0 -0.87 0 0.578 0 0 0.678 0 -1 0 0 -0.409 0 -1 0 1 0.447 0 -0.339 0 0.428 0.287 1 -0.148 0 0 -0.344 -0.384 0 1 -0.341 0.81 0.779 0 0 1 -0.488 1 0 0.628 0 0 0 0 0 -0.802 0.711 1 0 0 -0.746 -0.309 0 1 1 -0.706 0 -0.062 -0.265 0.312 -0.589 1 0 0 -0.513 0 -0.645 -0.487 0 0.002 0 1 0.324 -1 0.861 -0.985 0 -1 0.062 0 0 -0.909 0 0 1 0.422 0 0.744 0 0.34 -1 0.294 0 0 0 0.897 1 0 -0.401 0.021 -0.5 0 0.368 1 0 1 0 -0.102 0 0.701 0 0 -0.987 -0.156 1 1 -0.985 -0.864 -0.185 0 0 0.956 -0.644 0.887 0.01 -0.404 0 -0.993 -0.442 0 0.6 -0.017 0.355 -0.513 0.882 1 0.459 0 1 1 0.267 0.338 -0.122 0 -1 -1 1 0.251 1 -0.674 0 1 1 -0.177 1 0.379 0 -1 -0.639 0 0 -1 0 0.009 0 0.836 0 -0.562 -0.094 0 0 0 0 0 0 -0.882 0.117 0 -1 -1 0 0.564 0 0 -0.544 0 0 -1 0.564 0 -0.318 0 0 -1 -0.011 0 -0.866 0 1 0 0.017 -1 -0.439 -0.435 0.154 1 1 -1 0.504 -0.756 0 0 -0.354 0.839 -1 -1 0 0 0.949 1 -0.506 0 0 -1 0 1 -0.732 -0.848 0.535 -0.094 0.15 -0.702 -0.378 0.628 0.547 0.939 -0.083 -0.457 1 0 0 -0.993 0.775 0.415 0 0.318 0 -0.926 1 -1 0.225 0 1 1 -1 0.616 0.984 0 0 -0.39 0 0 0 0.628 0.266 -0.51 -1 0 -0.988 0.05 0 -0.152 0 0 0.742 0 -0.405 -0.545 0 1 0 0 1 1 -0.462 0.591 -0.372 1 -1 0 1 0.432 0 -0.147 0 0 0.251 -1 -1 0.903 -0.933 -0.791 0 0 0.113 0 1 0 0 -0.666 -0.977 0.473 -0.471 -0.961 0.58 0 0 -0.39 0 -0.556 1 1 0 0 0 0 0 -0.177 -1 0.184 0 0.935 0 1 0 0 0.748 0.245 0 1 0 1 0 -0.83 0 0 -0.745 0 0.007 -0.327 0.922 0 0 0 1 0 0.819 0 0 0.254 -0.293 1 0 0 -0.625 -1 0 0.239 0 0 0.188 -0.707 0.887 -0.852 0.366 0 0 0.837 -0.788 0 0 1 0.201 1 1 0.399 0 0.491 0 0 0 0 0 0.198 1 0 0.151 0 0 -1 1 0 -1 -0.125 -0.335 0.669 0.797 -0.421 0 0.278 -1 -1 -1 0 0 0 0.227 1 0 -0.624 0 0 0 0.248 0.984 0.373 0.663 -1 1 0 -0.513 0 -1 0 -0.192 -1 1 0 -0.501 -0.515 0.716 1 0 0 -0.542 0.748 0 -1 0 -0.581 -0.941 0 -1 -1 1 -0.804 -0.799 -1 0 -0.723 -0.591 0 -0.761 0 0 0 0.834 0 -1 0.025 0 -1 1 0 -0.833 0 -0.954 0.184 -0.582 -0.825 1 0 -1 -1 0.955 0.332 0 -0.021 1 0.148 -0.47 0.363 -1 0.313 0.299 -0.982 -1 0.315 0.655 0 0.389 0 1 0 0.426 0 1 0 -0.959 -0.418 0.353 0 -1 0 1 -0.334 -0.112 0.697 0 0 -0.956 -1 -0.05 0 0 0 0 1 0.132 -0.053 0 0 0 0 0 1 -1 -1 0.755 0 -0.207 1 1 0.027 0.112 -0.273 -0.314 0 0.119 0 0 0 1 0 0 -0.718 0 1 0.205 0.589 1 0 0.754 1 0 0 0 0 -0.807 1 1 -0.302 0 -1 0 -0.723 0 -1 0 0 0 -0.219 0 0 1 0.963 0.71 0 1 0 -0.505 0.782 -1 0 0.784 0 0.069 0 -1 0 -0.42 0.623 0.051 0 0.456 0.779 1 0.189 0 0 0 0 1 0.345 0 -1 -0.635 0 0 1 0 0 0 0.502 0 -1 0 0 0.026 0 0.725 0 -0.583 1 -1 1 0.867 0 -0.115 0 -0.098 0 -0.329 -0.038 0 1 0 0 0 -0.497 0 0 -1 1 0 0 -0.438 0.407 -0.236 -1 0.503 0 -0.505 0 0 -0.439 0 0 0 0.222 -0.396 -1 0.202 0.399 -0.368 0.953 0 0 0 -1 0 -0.968 0 -0.922 0 0 -1 0 0 -1 0 0.677 -0.997 -1 1 -0.709 0 -1 0 0.081 0 1 -0.963 0 -1 0 0 -0.636 0 -1 0 1 0 0.573 0.579 -1 -0.432 0.647 0.02 0 -0.223 0.904 -1 0.128 -1 -0.808 0 -0.984 -0.189 0 1 0.794 0 -0.496 0.457 0 0.151 0.564 -1 0.352 0.987 0.005 0 0 0 -0.795 0 -1 0.719 0 0 -0.807 1 0.401 0 -0.363 0 0 0 0 -0.451 1 0 0 0.022 0 0 0 0.466 1 -1 0.894 0 0.352 0 -0.27 -1 0.204 0.695 -0.799 0 0 0 0 -1 0 1 -0.009 -0.604 0.205 0 0.064 0 -1 0 -0.24 -1 0 -1 0.015 0.33 0.099 0.234 0 0 0 -1 -1 -0.969 0 0 -0.799 0 0.258 -0.081 0.433 1 0 0 -0.524 0.669 0 0 0 -0.956 1 0.49 0.828 0.694 -1 0 0 -0.177 0 -0.528 0 0.707 0.33 0 -0.059 0.638 0 -1 -0.996 0 0.117 -1 0 0 -1 1 0 0.648 0 -0.604 0.394 -0.239 -0.481 1 -1 0 -1 -0.684 -0.076 0 0.615 0 0 -0.894 -0.27 -0.659 0 -1 0 -0.818 -0.124 0 0 0.042 0 1 0.845 0 0.141 0.504 -0.351 -1 0 0 -1 1 0 1 -0.651 0.58 0 0.214 1 0 -0.573 0 0 0 0 0 0 -0.395 0 0 1 0.922 -0.638 -1 0 0.735 -0.497 -0.901 0 1 0.841 -0.489 0 0 1 0 0 0 -0.339 -0.768 0 0 1 1 0.226 0 0.402 0 0 0.299 -0.837 0 -1 -1 0 0 0.902 0 -0.109 1 -1 -0.453 -0.099 -0.269 0.109 1 0 -0.785 -0.326 0 0 0 0 -1 0.656 0.97 0.318 1 0 0 -0.126 -0.414 -0.459 1 0 0 0 0.002 -0.941 1 0.479 -1 0 0.936 0.591 1 0 0 0 -0.694 -0.644 0.292 -1 0 -0.452 0.532 0 0 1 -0.546 0.247 -0.734 0.557 0 -0.474 0 0 1 0 0 0.12 0 0.645 0 -0.939 0.521 0 0 0 -0.451 -0.117 0 -0.42 1 0.192 0 -0.494 0.158 0.127 0 0 -1 0 0 0 1 -1 0 0 1 0 0 -0.016 0 -1 -0.994 -0.849 0 -0.489 0.344 0.713 0 0.607 0 1 1 0 0.86 0.568 0 0.048 0 1 0 -1 0 0 0 -0.098 0 0.857 -0.457 0 0 1 -0.997 0.488 0 0 0.382 -0.691 0 0 0 0.057 0.396 0 0 0 0 0 0 -0.332 -1 0 0 0.897 1 0.943 0.501 -0.96 -0.049 0 -1 -0.888 0 -0.477 0 0 0.858 0.616 0 0 0.698 -0.695 0 1 0.787 0.702 0 0 0 0.254 1 0 -0.815 -0.14 -0.96 0 1 0 0 0.959 1 0 0 0 0 0 0 -0.136 -1 0 -0.067 0 0 -0.941 0 0 0.84 -0.502 -0.291 1 0 0.142 -0.851 1 0 1 0.627 1 0 0 -0.67 -0.839 -1 -0.304 -0.102 0 0 1 0.043 0.629 0 -0.962 -0.053 0 0 1 0.35 -1 -1 0.559 0.317 0.058 0 0 0 0 -1 -0.25 -0.219 0 -0.596 0 0 0 -0.968 0.248 -1 1 0 1 0.095 0 0 -0.127 0 0 -0.695 0.684 0 0 0 0 -1 0 0 0 0 1 -0.007 -0.443 0 -0.396 -0.071 -0.122 1 0 -1 0.205 0.076 -0.425 0 0 0.253 0 0 0 0 1 -0.752 0.769 0 0 0 0 1 -0.815 0 1 -0.483 0 0 0.744 1 -0.127 0 -1 0.161 -0.066 0 -1 -1 0 -1 -0.151 -1 0.094 1 -0.33 0.366 0.286 0 0.982 0 0.909 1 0 0 0.36 0 0 -1 0 -1 -0.731 0 0 0.158 1 -0.352 0 -0.545 -1 -1 1 0.584 1 0.234 0 1 -0.63 0.266 0 0 0.603 -0.082 -0.578 -1 -0.722 -1 0 0 -0.06 0 0 0 0 -0.164 0.568 0.317 -1 0 1 0.734 1 0 0 0.325 -0.536 -0.407 1 0 0 0.476 -0.759 0 0.139 0.088 -0.52 1 -0.704 0 0 0.082 0 0 0 0 0 0.756 0 -0.682 0 0 -0.602 0.737 1 0 -1 -0.77 0 0 1 0.089 0 0 0 0 0 -0.518 0.383 -0.783 0 -0.193 0 0 -0.241 0.102 -0.026 -1 0.77 0.979 -0.743 0 0.49 0 0 1 0 -1 -0.87 0 -0.891 -0.01 0.444 0.647 0 0 -0.497 0.289 -0.274 0 1 0 -0.273 0 0 0 0 0 -0.093 0.855 0 0 -1 0 0 -0.707 0 0 -0.405 -0.662 0 1 1 0 1 0 -0.139 0.763 0 0 0 -1 0.969 0 0 0.411 1 0 1 0 0 0 -0.978 -0.529 1 0 -0.922 1 0 0 1 0.68 -0.611 -0.521 1 0 0.689 0 0 0.44 0 0 0 -0.036 0.21 -0.883 -1 0.535 0 0.115 -0.959 -0.287 0 0 0 0.021 0 0.415 0 -0.507 0 0.371 -1 0 0 0.75 0 0.672 -0.387 -0.532 -0.759 0 0 0.019 0 0.655 0.724 0 -1 0.948 0 -1 -1 -0.348 0.373 0 0 0 0.688 0.654 0.136 -0.078 1 -0.062 0 0 0 0 -0.96 -0.445 0 0 0 0 1 0.589 -0.611 1 -0.429 0.197 0 0.067 0.246 0.092 0 -1 1 0 0.519 0.552 -1 -0.732 0.414 0 1 -0.366 0.044 0 -1 0.541 0 0 0 -0.971 0 0 0.924 -0.038 0.051 -0.94 0 -1 0 -0.274 -1 0.828 0 -0.147 0 1 -1 0 -0.776 -0.484 0.336 0 0 0 0 0.981 0 0.697 0 0.37 -0.247 -0.202 0.165 0.071 0.488 0 -0.245 -0.068 0.675 -0.313 -1 1 -0.561 0 0 0.626 0 -1 -0.684 0 -0.202 0 0 0 0 0.443 1 1 -0.747 -0.206 0.075 0.194 0.563 0 0 1 0.78 0.09 0.372 -0.038 1 -0.496 0 -0.963 -0.085 1 0 -0.285 -0.758 0 0.218 0 1 -0.398 0.066 0 0 1 1 0.174 0 0 0 -0.177 0 1 0.09 0.221 0.864 0 1 -1 0.335 0 0.908 0 -1 0 1 -1 0 -0.558 0 1 0 0 0 0.319 0.589 0 -0.104 -0.229 -1 0 0 -1 0 -0.228 0 -0.286 0 0 -1 0 1 0 0 -0.712 0 -1 -0.119 0.54 0 -1 0.205 -1 0.184 0 -0.359 1 0 0 0 1 -0.823 0 0 -0.351 0.744 -1 0 0 -0.736 -0.142 -1 -0.306 0.282 0.843 0 0 -1 0.83 0 -0.842 0 0 0.805 0 -0.584 0.197 -0.947 0 1 0 1 -0.845 -0.452 0 0 0 -1 0 0 0.549 0 -0.988 0 0 0.235 -0.78 0 -0.555 0.801 -0.372 -1 0 0.781 -1 1 -0.422 1 -0.317 0.286 1 0 0.433 0 -0.824 1 0 0 1 0 0 0.942 0 0 0 0 0.106 -1 0 0.514 0 0.88 0 -1 0 -1 1 0 -0.67 0.804 0 0 0.891 -0.743 0 0 -0.489 0.836 0 0 0 -0.017 -0.267 0.486 1 0 -0.775 0.193 0.419 0.334 0 -1 -0.199 0.087 -1 0.875 0 0 0.794 -1 0 -0.886 -1 -0.259 -0.866 -0.89 0 -0.814 1 0 0 -1 1 0 0 -0.285 -0.544 -1 0 0 0.356 1 0 0 0.576 0.284 -0.54 0 0 0 -0.352 1 0.927 1 0.315 -0.488 0 0.145 -0.903 0 0 0.995 0 0.23 0 0 0.864 0 0 0 0 -0.371 -0.582 0 0 0.956 0 -0.227 0 0 0 -0.777 0 1 0 0 0.413 1 -1 -1 -1 0 0 0 0.648 -1 -1 0 0 -1 0 0 -1 0 0.625 0 -1 0.746 -0.767 0.145 -1 -1 -0.937 -0.527 0 -0.938 -0.723 -0.685 -0.39 -0.431 0.72 0.725 -0.968 -0.851 -0.627 0 0 -0.291 0.875 1 0 0 -0.695 0 0.279 0.183 0.148 -1 0.356 -0.084 0 -1 0 0.908 0 -0.509 0 -0.487 -0.548 -0.179 0 1 0.392 0 0 -0.324 0 0.878 0 0 0 -0.708 1 0.315 0.313 0 0 -1 1 -0.894 0 1 0.002 0.482 0 0.972 0 0 0 0 0 0 -0.648 -1 -0.79 0.818 0 -0.949 0 0 -0.419 0 0 -1 0 0.715 -0.995 0.557 -0.008 0.29 0 -1 0 -0.037 -0.866 0 0.587 0 0 -0.795 -0.119 0 0 -1 0 0 0 0 1 0 1 -0.242 -0.561 0 1 -0.311 0 0 0 -0.936 0.799 -1 0 0.789 -0.029 0.253 0 0 -0.388 0 0 0.101 0.731 0 0.031 -0.966 1 0.687 0 0 0.716 1 -0.061 -1 -0.739 0 0 0 -1 -1 0 0 0.651 -1 -0.772 -0.815 1 0.523 0.092 0.277 0 0 -1 0.736 -0.371 0.894 -1 0.31 -0.518 -0.311 0.001 0 -1 -0.834 0 0 0 -0.334 0 0 0.325 -0.498 0 0.478 0 0.142 0 0 0 0.59 0 0 0 0 0 0 0 0 -0.382 -0.49 0 0.053 -1 0.536 -0.362 0.744 -0.048 0 1 0 0 0 -1 0 0 0 0.025 0 0.088 0 -0.96 0.328 0 0 -0.018 0 0 -0.124 -1 0.488 0.139 0 -0.802 -0.241 0 0 -0.478 -0.276 0 -1 0 0.997 0 0.077 0.486 1 -1 -0.306 -0.819 1 0.008 0 0 -1 0 -1 0 -0.083 -1 -1 0 1 1 0 -0.309 0 0 0 0 0 1 -1 0 1 1 -0.17 0.724 0.136 0 0.602 0.442 -0.957 0.454 0 0 0 0.299 1 0.279 -1 0 0 0 -1 0.767 0 0.501 0 0 0.979 -0.551 0 0 1 0 -0.005 0 0 0 -0.661 0 0 1 0 1 1 0.28 -1 0 0.431 1 -1 0 0 0 -0.937 0.844 0 0 0.569 0 0.641 0.63 0.958 0 0.269 0.755 1 1 -0.081 0 0 1 -1 -1 0 0 0.972 -0.922 0.983 0 -0.958 -0.044 0.59 0 0 1 -0.129 0 0 -1 0 -0.748 0 -0.328 0 1 -1 0 0.958 0.198 -1 0 0.441 0.969 0 0.407 0 0 -0.198 0 0 0 0.274 -0.098 -0.872 1 1 0 -0.756 -0.293 -1 0 0 0 0 0 0 0 0 1 0.22 0 0 0 0.958 0 -0.161 0 -0.375 0.579 0.257 1 -1 0.11 1 1 0 -1 0.33 0.468 0 -0.893 0.102 -1 -1 0 -1 -0.307 1 0.062 -0.684 0 0 0 -0.076 -1 0.183 1 -0.695 0 1 0 0 0.228 1 0 1 -0.3 -1 0 1 0 0 1 -1 -0.604 0.954 0 -0.308 0 0.449 0 -0.566 0 0.831 -0.925 0 -1 0 -0.282 -0.748 0 0.138 0.591 1 1 0 0.659 0 -0.438 0 -1 0 -1 0 0 0.632 0 -0.027 0.387 1 0 0 1 0 0 -0.187 0 -0.902 0.886 -0.447 0 0 -1 0 -1 0 -1 1 0 0 1 0.854 -0.532 -1 -0.667 0 0 -0.413 0 0.929 0 0 0 -1 -0.859 0 0 -0.285 -0.704 0.51 0 0.289 -0.124 1 -0.615 0 0 0.891 1 0 0 0 0 -0.741 0 -0.207 -1 -1 0.838 -0.477 -1 0 0 0 0.217 0 1 0 0 -1 0 1 1 -0.455 0 -0.905 0 -0.285 -1 0 0.381 0 -1 0.21 0 0 -1 0 0 -1 0.603 0.082 1 0 0.071 0.638 0 0 -0.797 0 0.028 0 0 -1 -1 0 0 -0.276 -0.267 -0.383 1 -0.929 1 0.488 0 0.377 0 0 0.518 1 0 -1 0.697 0.618 -1 0 0 -0.442 0 0 0.51 0 0 -1 0 0 1 0 1 0.884 0 0 -0.48 0 0.415 0 -1 0.963 0 0 -0.06 1 -0.197 0 0 -1 0.379 1 -1 0 0 0 0 0.227 0 0 0 0 0 0.211 0 1 0 0.024 0.886 -0.606 -0.271 0 0 -0.593 0 0 0 0.21 -0.76 0.73 0 0 -0.386 0 -0.614 0 0 -0.799 0 -0.292 0 0 1 0 0 0.728 0 -0.389 0 0 -0.297 0.022 0 0 0 -0.528 0 -0.143 0 0.063 0 0.281 -0.175 -1 0.952 0 0.343 0.169 0.939 0.695 -0.207 0 -1 0 0 1 -0.899 0 0 -0.888 0 1 -0.465 0.185 -0.365 0 -0.664 0 -1 0 0 0 0 0.562 0 -1 0 0 0.48 0 0 -1 -0.784 1 0 0 -0.426 0 0.874 -0.989 0.861 0.504 0.808 0 0 -1 0 0.815 0 0 1 0 -0.482 -1 -0.923 0 0 -1 -1 -1 -1 -0.367 0 0 0.893 0 -1 0 -1 -1 0.84 0 0.757 1 0.118 0 -1 1 0 0.217 0 0 0 0.146 -0.631 0 -1 1 0.458 -0.594 1 0 0.26 0 0.757 0 0 -0.209 1 0 -0.68 0.671 0 0 0 0 0 0 -0.748 -0.925 0.887 -0.328 -1 1 0 0 0.664 0 -0.386 0.314 -0.974 0 0 0 0.127 -0.297 -1 0 1 0.123 -0.695 0 0 0 0.936 -0.918 0 -0.925 0.995 0 -1 0 0.152 -0.536 0.762 0.701 -0.849 -0.768 0 0.3 0.72 -0.578 0 0 1 0 -0.12 -0.168 0 0 -0.652 -0.848 -1 0 0 0.592 0.946 0.096 0 -1 0 -1 0.175 0 0 0 0 0.675 -1 -0.083 -0.184 0 -1 -0.574 -0.66 0 0.395 -1 0 0 1 -0.383 0 0 0.174 0 1 0.015 0 0 -1 -1 -0.463 -0.671 0 0.252 -1 0 -0.802 0 0.742 -0.087 0.393 0 0.185 -0.888 0.86 0.94 -0.682 0.883 0.189 0 0 0 0.937 0 0 1 -0.836 -0.155 0.98 0.84 0 0 -1 -0.155 -0.473 0 0.196 -0.511 -0.222 -0.796 -0.068 -0.707 1 0.368 0.413 -1 0 -0.718 0 -1 0 0.161 -0.259 0.969 0 0.107 0 0 0 -0.341 0 -0.559 0 0.128 -0.759 0.234 0 -0.002 0 0 0 1 0 0 0 0.393 0 0 0 -1 0.048 0 -0.465 -0.046 0 0 1 -1 0 -1 0 0.965 -0.883 0 -0.223 0 -0.448 0 -0.28 0 -0.775 1 0.627 -0.107 -0.496 -0.458 -0.128 0.438 -1 0 1 0.674 -0.844 -1 0.063 0 1 -0.576 0.835 0 0 0 0 -1 -1 1 -1 0.82 0.193 0 0 0.285 -1 -1 0 0 0 0 0 -0.311 0 -0.643 0 0.058 0 -0.281 0.186 -1 0 -0.834 0 1 -1 0 1 0 0 0 0 0 1 0 -1 0 -0.663 -0.516 1 -1 0 -0.52 1 -0.848 0 0 -1 0 0 0 -1 0 0 0 -0.508 0 0.746 0.84 0 0 0.145 0 -0.202 0 0.56 -0.372 0 0 1 0.899 -0.3 -0.083 0.633 0 -0.989 -0.603 -0.109 0 -0.52 0 0 0 -1 -1 0.925 0.269 0.919 0 1 0 0.646 -0.701 -0.44 -0.86 -1 0 -0.64 0 0 0.282 -0.519 0 -0.989 0 0 0 -0.631 0 0 0 1 0 -1 0 0.849 1 1 -0.42 0.906 -1 0 -1 0 -0.667 1 -1 -0.93 0.301 0 0.502 0 0 0 -0.367 -0.864 -0.06 0.822 -1 0 -0.724 0.735 -1 0 -0.992 0.187 0.061 1 -0.918 -0.785 0 0 0 0.856 0 0 0 -1 1 0.891 -0.289 -1 -1 -1 0.224 -0.566 1 0 1 0.328 -0.795 0 0 0.332 0.669 0 -0.208 0 -1 -0.955 0 -0.385 0.951 0 0 0 -0.889 1 0.929 0.78 0 0 0 -0.123 -0.069 -0.868 1 0 0 0 0.04 0.811 -0.989 -0.798 0 -1 0.269 0 0.013 0 0 0 0 0 0 0 0 -0.853 0 0 -0.736 1 -0.116 0 0 0 0 0.606 0 1 -0.629 -1 -0.285 0.541 0.329 0 0 -0.692 0.959 0 0 -0.554 0 -0.315 1 0 0 0 0 0 -0.859 1 0 0 0 0 0.471 -0.273 -0.029 -1 0 0 0.04 0.16 0 -0.302 -1 -0.092 1 0 0 0.926 -0.086 1 0 0 -0.85 -0.775 0 -0.341 0 0 -1 0.442 0 -0.891 0 -0.452 0.934 -0.261 -0.131 -0.617 -0.699 -0.147 0 0 -0.635 -0.997 -0.38 0 0.352 -0.707 0 0.264 0 0.421 0 -0.673 1 0 0 0 0.823 -1 1 -0.236 -0.211 0.497 0.594 0 -0.707 -0.576 0.516 0.611 -1 0 0 0 0 -1 0 0.333 0 0 0.987 0 0.15 -0.714 -0.08 -0.928 -0.24 0.259 0 0 0 -1 0 0 0.101 0 0 -0.122 0 -0.772 1 -0.594 -0.765 -1 0 0.253 0 1 0 0 -0.856 -1 -1 -0.355 -0.189 -0.463 -1 0 -0.099 0 0 0 1 0 0.307 0 0.504 0.253 0.115 0 0 -1 0.529 -0.701 -0.118 1 0.757 0 0 0.611 0 -0.723 0 0.992 1 0 1 1 -0.292 -0.917 0 0.384 0.116 0 1 -1 0 0 -0.54 0.345 0 0 -0.082 0.566 -1 -0.178 0 -1 -0.249 0 -1 0 -0.589 -0.306 -0.658 -1 1 0.734 -0.632 0 -0.085 0 -0.774 0 0 1 0.331 -0.048 -1 -0.302 0.724 0.726 0.235 0.4 0 0.244 0.477 0 0 1 0 -0.164 0.322 0 0 0 -1 -0.976 0 0.4 1 0 1 -1 0 0.028 0.722 0.96 0 -0.859 0 0 0 0 0 0 0 -0.582 0 -0.796 -0.246 -0.776 0 0 0.551 0 -1 -0.952 0 0.586 0 0 0 0 0 0 0.204 0.992 0 0 0 0 1 -0.61 0 0 0.489 0 0 0 -0.759 -1 1 0 -0.87 0.794 0 0 0 0 0 -0.218 1 -0.571 0.238 0 -0.468 -0.964 0 -1 0.778 0 -0.91 0.423 0 -0.28 0 1 0 0 -1 1 -1 0 0 0.079 0 -0.985 0.879 1 0 0 0 0 0 0.715 0 0 0.562 0.789 -0.057 -0.984 0 -0.684 0.905 -1 -0.989 -1 0 -0.304 0.311 0.592 -1 0 -0.334 0 0 0 0 0 -0.421 0 0 0 1 0.096 0 0 -0.527 0 1 0 -0.098 -0.731 1 0 -1 1 -0.764 0 -1 1 1 -0.4 0.668 0.836 -0.485 0 -1 0.714 0 0 0 0 0 1 -0.268 -0.297 0.596 0.126 0.767 0 -0.425 -0.688 0.284 -1 0 0 1 0 0 0 0 -1 0 -0.173 -0.145 0.128 -0.824 -1 0 -1 0 0.667 0 -0.506 1 0 1 0 -0.526 0 0.76 0 -0.558 0.559 -0.568 0.602 0 1 -0.023 0 1 0 1 1 -0.844 0 -0.318 0.213 0.115 0.249 -0.929 0.216 0 0 0 0 0 -0.682 0.537 0.223 -1 -0.351 0 -0.3 0 1 -1 1 0.814 -1 0 0 0 0 -0.057 -0.038 -0.822 0 0 0.543 0 0 -1 0 0 0.356 0 0 0 -0.572 0 0 0 1 0.243 -1 0.764 0 0 0 0 0 0.899 0.793 -0.904 0 -0.026 0 1 0 0 0 1 0 -0.31 0 0 0 -0.862 0.928 -0.994 0 0.562 -0.45 -0.366 -1 0 -1 -1 0.876 0 0.017 0 0 -0.753 -0.918 -0.786 0 0 0.463 0 -0.096 0 0 -0.396 -0.394 -0.889 0 -0.934 -0.496 -0.919 0.762 0 0 0 -0.119 -1 0 1 0.928 -0.813 0 0.065 1 0 0 0 -0.91 1 0.283 0.933 -0.051 0.644 0.553 -0.71 0 -0.689 0.971 -0.621 0 1 -0.268 1 0.604 0.775 0 0.868 -0.357 1 0 0 -0.37 0.241 -0.08 1 0.232 0 -0.625 -1 0 0.081 0 0 1 0.738 0 -0.817 -1 1 0 0 0 0.957 -0.227 -1 -1 0.757 -0.302 0.601 1 -0.798 0.29 0 -0.818 0 0 0 0 -0.952 0.667 0.17 0 1 0.561 0.634 0 0.522 0.641 -0.444 0.721 -0.998 0.919 0.849 0 -0.621 0.096 0 0 -0.952 -0.869 0 0.636 -0.902 -1 0 -0.813 -1 0.506 0.176 -0.878 -0.585 0 0 0.511 0 0 0.273 0.852 0 -0.417 0.85 0 -1 0 1 -0.605 -0.418 0.499 -0.239 1 0 0 0 0 -1 0 1 0 1 -0.87 0 -0.167 0.573 1 0.388 -1 0.703 -0.908 0 0 -0.87 1 -1 0 -1 0 -1 0 -0.225 0 0 0 -0.864 -1 -0.525 0 0 0.755 -1 -0.078 0 0.385 0 -0.463 0 0 0 0 0.348 0.33 1 -1 -0.595 0.8 0.207 -1 0 0 0 0.611 0 0 0 0 0 0 -0.771 1 0 -0.479 0 0 0 0 0 0 -0.215 0 -0.943 1 0 0.222 0.127 0 1 -0.023 -0.437 -0.191 -1 0 -0.413 0.023 -1 0 1 -1 0 0 0.928 0.621 0 -0.084 0.934 0 -0.775 0.288 0.917 -0.237 -0.629 0 0.887 0 0.058 0 0 0 -0.761 0 1 0 0 0 0 -0.981 -0.054 0 0.931 -0.063 0.57 -0.251 1 0 -0.256 0 0 -1 1 -0.544 -0.394 1 0.86 0.55 0 0 -0.976 -1 -0.789 0.698 1 -1 0 0 0 -0.15 0.511 0 -1 0.967 1 -0.72 0 -0.614 0 0 -1 0 0.547 -0.008 0.109 -1 1 0.998 -1 0.926 -1 0.061 0 0 0 0.406 0 0 0 0.861 0 -0.267 0.058 0 -0.741 0.776 -0.54 0.487 0.614 0.935 -0.025 0.16 -1 0.464 0 -1 0 0.853 0 0 0.455 0 0 0.238 0 -1 0 1 -0.93 -1 -0.581 0.166 0 0.203 0 0 0 0.342 0.84 0 0 0 0.824 -1 -0.376 0 0 1 0 0.608 0.974 -0.139 -0.446 0.11 1 0 0 0 0 -1 0 1 0 -0.699 -1 0.913 -0.797 0 0 -0.857 -0.274 0 0.556 -0.687 1 0 -1 -1 0 0 0 0 0 -0.283 0 0.075 -0.652 0 0 0 -0.991 0.475 -1 0 0 0 -1 1 0 0 1 0 -0.531 -0.195 -0.905 -0.24 -0.886 -0.457 1 0 0.926 0.209 0.955 -0.754 1 -0.074 0.882 -1 -0.574 -0.067 0.629 0 0.432 0 0 0 -0.961 -1 0.294 -1 0.192 0 0 0.473 0 0 0 -0.174 0.992 0 0 -1 -0.417 -1 0 0.521 -1 0.525 0.807 -0.323 1 0.274 0.4 0 0 -0.082 0 0.612 -0.272 0 0 -0.257 0 1 -0.628 0.644 0 0 0.486 0 -0.826 0 -1 1 -0.748 0.214 0 0.246 0 -1 0 0 -0.248 0 0.109 0.354 -1 0.36 0 -0.049 0 -1 0 -0.707 0.384 -1 0.692 0.558 0 -0.277 -0.855 -0.778 0.894 0.925 1 0 0.598 0.039 0 -0.786 1 0 0 0 0 -0.485 -0.899 0 0.849 -0.446 -0.625 -0.607 0 0 0 -0.782 -1 -1 0 1 0.981 0 0.755 0.26 0 0.171 0 0.46 -0.124 0.009 0.189 0 0.191 0 -0.869 1 -1 0.043 -0.618 0.519 0.818 0 0 0 0 0 0 0 0 0.349 -1 0.197 -0.183 0.14 -0.076 0 0.542 1 -0.157 1 0 0 -0.326 1 1 0 0 0 0.393 -0.152 -1 1 -1 0 0 0 -0.042 0 0 0.171 0 1 -0.806 -0.301 0 -0.905 0.678 0 0.222 0 0 0 1 0 0 0 0 0 0 0 1 0 1 1 1 -0.227 0 0 1 0 -1 0.024 0 0.675 0 0 -0.602 0 0.233 -0.124 -1 0.262 0 -0.253 -0.981 0 -0.996 1 1 0.621 0 1 0 0 1 0 0.501 -0.592 -0.19 -0.04 0 -0.325 0 0 -0.767 0.263 0 0 0 0 0 0 -0.396 0 0.358 -0.046 0.42 0.006 1 0.12 -0.466 0 -0.456 0.672 -1 -0.325 -0.161 0.64 0 0 0 0 0.158 0.307 0.208 -0.614 0 0 0 0.504 0 1 0 -0.934 0 0.799 0 1 0 -0.034 0 0 -0.968 0 0 0 -0.766 0 0 0.268 0 0 0 0 0 0 -0.955 0 0.842 0.037 -0.869 0 0.51 0 0 -0.777 0 -0.864 0 0 0.708 -1 0.606 -0.874 0 -0.055 0 0 1 0 0 -0.751 0 -0.054 1 0.145 0.727 1 0 0 0 -0.709 -0.95 0 0 1 -0.021 0.649 0.147 0 -0.586 0 -0.673 0.346 -0.921 -0.42 0 0.115 0.128 -1 -0.716 0 -0.766 0 -1 0.168 0 0 0.584 0 0 0 -0.944 -0.335 0 1 0.266 -0.257 -0.569 0 -1 0 0 -1 -0.855 -0.488 -0.681 0.974 0 0 0 -1 0 0 0.974 0 0 0 0 -0.224 0 1 0 0.94 1 0 -0.663 -0.171 0.57 -1 0.786 0.421 -0.91 0.553 0 -0.413 0 0 0.665 0 0 1 0.914 0.684 0 0 0.067 0 0 0 -0.331 1 0 0.425 -0.093 0 0 0.325 -0.54 0 0 0 -0.207 0.254 0 0.091 0 0 -1 1 0 -0.977 0 0 -0.703 0 0 0 0.225 0.962 -0.807 -0.866 0 0 -0.756 0 -0.646 0 -0.36 0 -0.602 0 0 0.486 0.398 0 0 1 0 1 0 0 0 0 0 -0.824 0 0 -0.028 -1 0 -0.662 -0.795 0 0.175 -0.206 -0.104 0.358 1 -0.21 0.182 -0.942 0 0.331 -1 0.17 -0.93 1 0 0 -0.865 0.996 1 0.818 0 0.339 0 0 0.745 -0.862 0.325 0.266 -1 -0.125 -1 0 0.199 -0.596 0 1 0.816 0 1 0 0 1 1 1 -0.199 0 -0.259 0.454 1 0.843 0.382 0.462 -0.629 -0.671 0 1 1 0 0.69 0 0 0 0.94 -1 0.99 0.03 0.371 1 0.394 0 0 1 1 -0.567 -0.66 0 0 0 -0.405 -1 -1 -0.064 -0.478 0 1 -0.382 0 0.571 1 0.341 -0.129 -1 0 -1 0.088 0 0.559 0 -0.574 0 0 0 -0.39 0 0 0.565 -0.195 1 1 0.355 0 -0.512 -0.129 -1 0 0 -0.906 0.461 1 -0.715 -0.487 -0.469 0.029 -0.799 -0.382 -1 0.518 0.696 1 0 0 0.94 1 0 0.634 1 0 0.473 1 0.111 0 0.857 0.032 -1 0.753 -0.187 0.038 0.743 1 0.277 1 0.332 0 0 -0.079 0.238 0.876 0 1 -1 1 -0.943 0 0 0 0 -1 0 0 -1 0 0 1 0.751 0.201 0.708 -0.15 0 0 0 0 1 0 0 -0.151 0.206 0 0 0 0 0 0 -0.084 1 0 0 1 0 -0.174 0 0 -0.429 0.861 0.258 -0.102 0 -0.711 0 -0.356 0.273 0 0 0.95 1 -1 0 1 1 0 0 0 0 1 0 0 0.898 0.472 1 0 0 1 0.841 0 -0.466 -1 0.178 0.751 -1 -0.903 0.629 1 0 0 0 0 1 0 0 0.188 0.847 1 0 -0.24 0 0 0 0 0.25 -1 -0.514 1 0 -1 -1 0 0 0.729 0 -0.773 -0.778 0 0.234 -0.689 0 -1 -1 0.565 0 -0.815 -1 0.629 0 -1 -0.177 0.258 0.168 0.637 0 -0.674 -0.289 0 0 1 -0.835 0.252 -0.225 -0.12 -0.54 0 0 0 0 0 0 0.574 0 -0.517 1 0 0 -0.46 -0.268 0.058 -1 0 -0.127 -1 0.753 -1 0.764 0 -0.557 0 1 0.34 0 -0.458 0 1 -1 0.997 0 0.393 0 0.373 -0.867 0.948 0 -1 -1 0.326 0.449 0 0.1 -0.504 -1 1 -1 0 1 0 -0.86 0 0.702 -0.826 0 0 0 0.384 -1 -0.332 0 1 0 0 -0.186 0 0 0 0.854 0 0 0 -0.128 0.771 0 -0.219 0.273 -0.896 -0.636 -0.873 0 0.074 -1 0 0.785 1 1 -1 0 0 0 -1 0.614 1 0.182 0 0.763 0 1 0 0.893 0 0 0.96 -1 0 0 -1 1 -0.655 0.338 0 0 -1 1 0 0 -0.759 -0.985 0.441 -1 0.13 0.883 0.534 0 0 0 -0.032 -1 0.621 0 0.026 0 -0.403 0 -1 -0.967 0.15 0 0.03 0.359 0 0 0 0 -1 -0.822 0 -0.17 -1 0.683 -0.475 -0.108 -0.596 -0.505 0.777 1 -0.314 -0.536 0.393 0.168 -1 0.114 0 0 1 0 -0.235 0.327 0 0.956 0 0 0 0 -1 0 0 -1 0 1 0 0.901 0 0.555 0 1 -0.486 0.468 0 0.5 0 -0.165 0.022 -1 0.222 -0.629 -0.876 1 1 -1 0 -0.435 -0.166 0.683 0 0 -0.106 -0.36 1 -0.304 1 0 0 0.605 -0.154 0 -1 0 -0.134 0 0 0.131 0 -0.422 0.014 0 0 0 0.364 0 -0.339 0.692 0.965 -0.395 1 -0.955 0 -0.187 1 -0.301 1 -0.245 0 0 0 0.478 1 0 0.949 0 0 0 1 0 1 -0.799 0 0 0 0 -0.587 0 -0.879 0.836 0 0 -0.227 0 0 -0.692 -0.212 0 -0.402 0 0.694 0.557 -1 0 -0.362 0.999 1 0.271 1 0 0 0 -1 0.401 -1 1 -1 -0.15 0 -0.237 -1 -0.059 -0.077 0 0.504 0 0 -0.791 0.811 0 -1 0.558 0 0.955 0.751 0.599 0 0 0 0.211 -0.908 0 0 0 0 0.506 0.628 -1 0 0 0 0 -0.126 0 -1 -0.603 0.959 0.745 -0.282 0 -0.681 0.602 -0.966 -0.548 0.503 0.559 1 -0.895 0 0 -0.236 -1 0.111 0 -0.361 -0.034 0 0.556 0 0 0.177 0 -1 0 -0.13 0 1 -0.83 -0.21 0 0.263 0 -0.841 1 0 0 0.039 0.545 0 1 0.367 -0.232 0.86 0 1 -0.904 0 0 -1 -0.646 -0.121 -0.689 0.484 0 0.121 -1 1 -1 0 0 -1 0 0 0 0.084 -0.533 -0.19 0 0 -0.954 -0.637 0 0.854 0.621 0.204 -0.217 0 1 0 1 -1 1 0 0.414 1 -1 -0.797 0 -0.302 0.843 -0.621 0 0 -0.355 -0.577 -0.706 -0.926 0.876 0.792 -1 0.911 1 0 -0.379 0 -0.744 0.841 -1 0.816 0 0 -0.538 -0.293 0 0 0.894 0 -0.232 0 0 0 -0.187 0.086 1 1 0 -1 0 0 -1 0.534 0 -0.536 -0.576 0 0.493 -0.659 -0.903 0 0 -0.714 0 1 0 0 0.784 -1 0 0 0.755 0 -0.959 0 0 0.581 -0.576 0.951 -0.077 0.126 0 0.57 0.42 0.328 0 0 -0.216 1 0 0 0.523 0 -0.314 0 0.032 -0.088 0 0 -1 1 0.07 0 1 0 0 0.834 0.355 0 0 0 0.757 1 0 1 0 0 0 0.9 -1 0 0 0 1 0.26 0.41 0 0 -0.249 -1 0.046 0 0 -0.987 -0.509 0.252 -0.963 -0.82 -0.16 0 0 0 -1 0.552 0 0.342 0.142 0.027 0 -1 0 0 0 0.907 0 0.479 -0.146 -0.828 -0.529 -1 0.68 0 -1 0.946 1 0.787 1 0.4 0.345 0.638 0 0.668 -0.844 -1 -0.944 0 0.327 0 -0.436 -0.016 -1 -0.24 -1 0 0 0 0.239 0 -0.553 0 0 1 -0.412 -0.772 -0.987 1 0 0 -0.393 0 0 -0.544 -0.933 0 0.534 0 0.499 -0.667 0.905 0.769 0.442 -0.312 0 0 0 -0.74 0 0 0 0 0.509 -1 1 0 -0.842 0.126 0 0 0 0.426 0 0.853 0 0 0.576 0.118 0 0 0 -0.247 0.698 -0.492 -0.486 0 0 0 0 0 1 0 0 1 -0.302 0.382 -0.338 0.569 0.796 0.503 0 0.789 0.38 0 0 0 0 1 0 -0.362 0 0 0.912 0 -1 0.537 0 0 -0.303 0 -1 -1 0.631 -1 0 0 0 0 0 0 0 0 1 0.917 -0.324 1 0 0 0 1 0 0 0.6 0.833 0 -0.565 1 -0.088 0 0.37 0.652 -0.518 0 -0.041 0 -0.771 0 0.808 0.41 -0.73 -1 -1 -1 0.185 -0.065 0 -0.074 0 0.578 -0.037 0 -0.601 -1 -1 0 0 0 0 -0.338 1 0 -1 0.304 1 0 0 0 0.176 1 1 0.568 -0.23 1 0 0 0 0 0 0 0 0.741 0 -1 0 1 -0.521 0 -0.81 -0.381 0 0.725 0.704 -0.271 -1 0 0.775 0 1 -0.111 1 0 1 0 0 0 -0.311 0 0 -0.219 0 0.048 0 0.734 0 0.342 0.21 1 -0.769 -0.676 0 0 0 -0.721 0 0 0 0 0.241 0 0.409 -1 -0.636 0 0 -0.726 0 0 1 0.605 0 0.31 0 0 0 0.825 -0.768 1 1 0 1 1 0 -0.308 0 -0.419 0.557 0.057 -0.981 -0.887 0 1 0.534 -1 0 -0.686 -0.787 0 0 0 0 -0.924 0 0 0.686 0 -0.002 0.01 1 -0.968 0 -1 -1 -0.55 0.302 -1 1 0 0.354 0.03 1 -1 0 -0.716 -0.318 0 0 0 -0.994 0 0 0.705 0.311 0.153 0.838 0 -0.453 0 0 -0.989 0 0 -0.458 0.314 0 -0.758 1 0.932 0 0.833 0 -0.526 -0.994 0 0 0 -1 -0.276 -1 0 0 0 0.859 -0.675 0 0 0 -0.638 0 -0.42 0 1 0 0 0 0 0 0.811 0 0 0.04 0 -1 0.199 0.746 -0.874 0 0 0.921 0 -0.885 0 0 -1 -0.142 0 1 -1 -0.017 -0.966 -0.235 0.952 -0.753 0 0 0 0 -1 0 -0.163 0.391 -1 0.567 0 0 -0.269 -0.885 0.377 -0.634 -0.736 0.466 -0.093 -1 0 0.475 0 0 0 -0.045 -0.525 0 1 0 0 -1 -0.41 0 0 1 0 0 0 0 0 -0.791 0.585 -0.561 0 1 0 0 -0.377 0 0.459 0.996 0 0.444 0 -1 -0.539 1 0 0.988 0.867 -0.614 0.747 -0.219 0 0 -0.539 1 0 -1 -0.091 0 0.403 -1 0.193 1 0.075 -0.724 -0.703 0 -0.802 0 0 0.117 -1 0.933 1 1 0 0 -0.855 0.779 1 0 -0.837 0 1 -0.361 0 1 1 -0.527 0.841 1 -0.955 0 0.394 -1 0 -1 0.161 0.549 0.025 0.788 1 0.017 1 -0.734 0.053 0 1 0 -0.505 0 0 0 0 0 0 0 0 0.019 -0.485 -0.883 0 0 -1 0 -1 -0.753 0 0 0.761 0.466 0 0.941 0 0 1 -1 0.403 -0.64 0 -0.114 0 0 0.812 -1 -0.678 0.189 0.432 0 -0.534 0.986 1 0 0 -0.022 -0.402 0 0 -0.475 -0.905 -0.14 1 -0.864 -0.609 0.535 -1 0 0 -0.339 -0.938 1 0 0.609 0.171 0 0 -0.701 0 0.526 0 1 -1 0 0 0 0.572 0.634 1 -0.11 0.342 0.047 -0.637 0.771 -1 0 -0.805 0 -0.056 0.86 1 0 0 0 -0.218 0 -0.961 0 -0.946 0.111 -0.53 0 -0.333 1 0 1 0.618 0.482 0 -0.261 0 0 0 -0.967 0 0 0 0 -0.712 0 0.845 0 0.978 0 0 0 0.905 0.036 1 -0.904 0 0 0.199 0 0 0 0 -1 0.449 1 -0.473 0 0 -0.835 0 -0.522 0 1 0 -1 -1 -1 0 0.119 1 0.39 0 -0.702 0 -1 0 1 0.046 -1 0.079 0 -1 0.256 -1 0 1 -1 0 -0.327 0 0 0 -0.439 0 1 1 0.073 0 0.303 0.154 1 0 -0.905 -0.883 1 0.584 0.028 0 0.101 0 0 0.532 1 0 0 0 -0.276 -0.716 0 0 0.73 0 -0.666 0.996 0 0 -1 -0.769 -0.102 0 0.033 0 0.02 0 -0.507 0 0 0 -1 0 0.236 0 0.978 -0.462 -1 0 0.787 0 0.255 0 -0.129 0 0 -0.281 -0.234 -1 -0.588 1 -0.523 0.736 0.821 -0.831 0.874 -0.57 1 -1 0.67 -0.137 0.048 0 0 -0.461 0.107 0 0 -0.351 -0.4 0 0 0 -0.942 -0.39 -1 -0.157 0.696 -0.012 0 1 0 -0.009 -0.091 0 -0.944 0 0 0.845 1 0.992 -0.738 0.468 0 -0.862 0 -0.654 0.39 1 0.343 0 0 0.2 0 -1 -1 0 -0.604 0 0.217 0 0 0 -0.002 0.186 0.462 0 1 0.426 0 -1 0.432 0 0 0.918 0.104 0 -0.669 0.737 0.601 -0.841 -0.708 -0.881 -0.884 -0.738 0 0 0 0.688 -1 -1 -1 0 0.517 1 -0.253 0 1 -1 0 0 -0.808 0 0 0.853 0 1 0 -0.837 0.324 0 0 0.102 0 0 0.408 0 0 1 0.699 0 -0.078 1 -0.185 0.802 -0.92 0 0 -0.504 0.236 1 0.664 0 0 0 0.724 0 -0.865 0.803 0 -1 0 -0.203 -0.842 0 0 0 -0.53 0 0.53 0.786 0 0.652 1 -1 0 1 0.252 0.124 0 -0.625 1 0 0 -0.703 0.771 0 0.379 0 0 0 0.971 0 -0.909 0 0.725 0 0 0.258 1 0 -0.539 0 0.698 0 0 -0.754 0 1 -1 0 0 0 0 0 0 0 0 0 0.974 -0.146 0.552 -0.075 -1 -0.41 0 -0.968 1 0 0.696 -0.108 1 0.012 0 -0.505 0 0 1 0.29 -1 -1 -0.221 1 0 0 -0.518 0 0.497 0 0 0 0 -1 0 -1 -0.873 0 -0.806 0.36 0 -1 -1 0 0 0.981 0 0 0 -0.979 0 0 0.964 0.711 0 0.115 -1 0 -0.633 -0.69 0 0.804 0.061 -1 -1 0 -1 -0.407 -0.645 0 1 0 0.52 0 -0.76 0 -0.572 -0.446 0 -0.66 -1 0 0 0 1 0.714 0.719 0 0.073 0 -0.288 0.607 0 0.567 0 0 0 0 0 0.515 0 0 0 -0.184 -0.814 0 -0.279 0 0 0 0.08 0 0.279 1 0.462 0 0 0.728 0 1 -1 -0.517 -0.797 0 0.557 1 0 0.266 1 1 0.564 0 -0.173 1 0 -0.504 0.471 0 1 -0.173 0 0 0 -1 1 0.425 0.767 -0.19 -1 0 1 0.104 0 -0.812 -0.899 1 -0.441 0.993 0 0 0.842 0.988 0 -0.988 0 0.482 1 1 -0.656 0 0 0 0 -1 -1 -1 0 -1 1 0.884 0 -0.784 0 -1 -0.499 0.052 -1 -1 0 0.348 0 0.422 0 0.549 -0.659 0 -0.144 -0.372 -0.795 0 -0.236 -1 1 0.826 1 -0.907 0 -1 0.352 1 0 0 0 0 0.312 0.545 -0.257 0 -1 -0.416 0 -0.932 -0.968 0.228 -1 0 0.492 0 -0.914 0 0.108 0.726 0.649 0 -1 0.21 0 1 -0.205 0 0 0 0.586 -0.049 0 -0.141 0 -0.767 0.917 0.728 -0.477 -0.022 0 0 -0.676 1 0 -1 0 -0.024 0 0 0 0 0 0.161 0.556 -0.407 0 0 -0.56 -0.671 0 0 -0.339 -1 0.211 0 0 -1 0 -0.455 0 1 0 0 0 0 1 0 -0.964 -0.017 0 0.512 0 0 0.116 0 -0.56 0.222 0.085 0.872 0 -1 -0.661 1 0 1 -1 0.254 0 -1 0.83 0 -0.76 1 0.285 0 0 0.275 0 0.687 0.383 0 0.642 0 -1 0 0.705 -1 0 0 -1 0.02 0 0.613 -0.076 0 -0.957 -0.138 0 0 0 0 -0.228 0 0 -0.293 1 0 0.614 1 1 0 -0.784 -0.334 -0.318 1 0 0 0 1 0 0.841 0.645 0 0 0 0.731 -0.413 0.375 0 -1 0.616 0.746 1 0 0.158 0.691 0.992 0 0 -1 0 -0.857 -1 0 -1 0.742 1 0 -1 0 -0.851 -1 -0.522 0 0 0 -1 -0.805 0.645 0 0.416 -0.322 1 0 0 -0.568 0 1 -1 0 0.302 0 -1 0 0.803 -0.902 0 0 0.959 0.828 0 -0.406 0 -1 0 0.344 0 0.713 0 0 0.719 -0.226 1 0 0 1 0.01 0 -0.273 0 0 -0.222 0 0 -0.904 -0.41 0.9 1 0 0.414 0 1 0 0.214 -1 0 -1 -1 0.296 0 0 1 1 0 -0.169 0.229 0.064 0 0.045 0 0 0 0.587 0 0.48 0 0.148 0 0 -0.727 0.805 1 0 1 -0.825 0 -0.543 -0.838 0 -1 -0.524 0.108 -1 -0.701 0 -0.926 0 -1 -1 -1 0 -0.793 -1 0 0 0 0.604 -1 -0.557 0 0 -1 1 -0.307 0 -0.461 0.229 0 0 0.919 -0.441 0.265 -0.269 0.028 0.681 -1 0.392 0.509 0 0 0 0 0.026 -0.427 -1 0.058 1 0 0 0 0 0 0.816 0.013 0.155 0 -0.678 -1 -0.392 0.673 -1 -0.388 0 0 0 0 0.682 1 -0.868 0 0 0 0 0.159 0 0 0 1 -0.245 0.131 0 1 0 0 -0.311 0.601 -0.276 0 0 0 0 0 1 1 0 0.415 1 1 0 0.424 -1 0.053 0 0.654 -0.614 0 0 0.644 0 -0.837 0 -1 -0.465 0 0 0 0.926 -1 -0.223 0 0 1 0.496 0 0 1 0 0 1 0.103 -1 -1 -0.492 0 0.324 -0.627 0 0 0 1 0.684 0 -0.937 0 1 -0.165 0.815 1 0 0 0 0.912 -0.77 0 -1 -0.202 0 0 0.89 -1 0 0 1 0 -1 1 -1 -0.733 0 1 0 0.622 0 1 0 0 0 0 0.789 -1 0.512 0.749 -0.016 -1 0.128 0.158 0 0.717 0.498 -0.089 0 0 -0.934 0.483 -0.805 0 1 0 -0.509 -0.832 0 0 0 -0.949 0 0 -0.716 0 -0.825 0 0 -0.17 0.53 0 -1 -0.358 0.129 -1 0.923 0 0 -0.703 1 0.649 0 1 -0.32 0 0.908 0.677 0 1 0 1 0.001 0 0 0 0 0.434 -0.764 -0.231 0 1 -0.527 -0.323 0.46 0 -0.174 1 -0.413 -0.848 0 -0.272 -1 -1 1 0 0 -0.713 0.011 0.815 0.835 0 -1 0 -0.714 0 0 0 0.453 0 -0.798 0 -0.704 -0.782 0 0 0 0 0 0 -0.401 0 -0.213 0 0.684 0 0.526 0 1 0.889 -0.803 0.543 0 0 0 0 -0.192 -0.546 0 0 -1 1 0.236 0.012 -0.027 -1 0.48 0.27 0 0.518 -0.762 0 1 0.871 -0.28 0.154 -0.085 -0.619 -0.561 -0.045 -0.458 0 -0.593 0.125 -0.523 0 0 0.88 1 0 -0.793 -0.325 -0.222 -0.256 1 -0.717 -0.092 1 0 -0.795 0 -1 -1 0.687 0 1 0 -1 -0.793 0 -0.909 -0.568 -0.883 0 0 0.661 0 0.46 0.972 0.938 0 0 -0.232 -0.13 0 -0.899 0 0.861 1 0.178 0.165 0.95 0 1 0 -0.912 0.841 1 -0.015 1 -0.537 0 0 -0.496 0 0.888 0 0 -0.734 -1 0.931 -0.449 0.685 0.794 0 0.11 0 0 0 -1 0 0 0 -0.969 0 0 0 0 0 0.887 0 -1 0.338 -0.71 0.938 -1 0 1 0 -1 0 -1 0 -0.936 0 1 -0.377 0 0 1 1 1 -0.46 -1 0.888 0.173 0 -1 0 0 -0.631 -0.894 -1 -0.997 -0.151 0 0 -0.013 0.818 -0.741 -1 0.817 -0.149 -0.244 0 0 1 0 -0.603 -1 0.562 0 0 0.73 0 -0.55 0 0 0 0 0 -0.515 0 0 0 0 -0.272 -0.92 -0.714 1 0.119 -0.913 0 -1 0 0 -0.325 -0.81 -0.217 0 -1 0.663 0 0 1 -0.983 0 0 -1 0.379 0.35 0 0 -0.931 1 0 0 -1 0 0 0 -0.287 0 1 -0.496 -1 -1 0 0.867 -0.708 0 -1 0.223 0.776 0 0 0 0 -0.568 0.304 0 0 -0.808 -1 0.409 -0.034 0 1 0.974 -1 0.516 1 0 -0.562 0.777 0 0.578 -1 0.536 0.589 -0.134 1 0.567 0 -1 0 -0.555 -1 0 -0.454 -0.522 -0.106 0.238 0.912 0 0.014 0 0 0 -1 0 0 0 0 0 0.603 0 0.197 -0.251 0 -0.19 0 0.618 0 0 -0.846 0.511 0.795 -0.91 0 0 -1 0 0 0.979 -1 1 0.879 0.414 0 0 0 0 -0.189 -0.692 0 0.771 0.319 0 -0.02 -1 0.399 -0.392 -1 0 -0.02 -1 -0.904 -0.589 -0.009 0 -0.531 0 -0.472 0 0.748 -0.625 -1 1 0 0 0 0 0 0 -0.8 -0.747 0 0 -0.616 0 1 1 0.316 -0.843 0 -0.848 0 0 0 0 -0.724 0 0.636 0 0.819 0.723 0 0 0 0 0 1 0 0 0.12 -0.333 0 1 1 0 -0.523 0.655 -0.608 0.627 -0.037 0.763 0 0 0.968 0 -1 -0.163 0.556 -0.001 0 -0.037 0 -0.665 0.369 -0.306 0.501 0 1 -1 0 0 0.721 0 0 -0.849 0.96 0 0.516 0 0 -1 -0.923 0 -1 0.387 0 -0.147 -0.817 -0.755 0 0.42 0.051 0 -1 0 0 0.602 0.804 -0.243 0 0.773 -0.421 0.169 -0.118 0.465 -0.309 0.939 1 0 1 0 -1 -1 -0.067 0 0.953 1 0 1 0 0 1 1 -0.734 0 0 0 1 1 -0.101 0 1 1 -0.609 0 0 0 0 0 0.588 1 -0.476 -0.192 0 0 0 1 0.53 0.175 1 0 0 1 -1 0 -0.76 -1 0 0 0 0 0 0.515 -1 0 0.229 0 0.329 -0.983 1 0 1 0 -0.243 0 0 -0.225 -1 0 -0.862 1 -0.897 1 -0.467 0.706 0 0.376 -0.525 0 -0.049 -0.208 0 1 0 0.648 0.18 0.368 0 0 -1 0.846 0 0 0 0 -1 -0.973 0 -0.294 1 0 0.53 0 0 0 1 0.394 -1 0 -0.19 0 0 0.607 0 0.622 -1 0 0 0 0 0 0.843 0 0 1 0.187 -1 0 -0.975 -0.244 0.036 0 0 0 1 0 -1 0 -1 0 0 0 1 0.244 -1 -0.541 -1 0 1 0 -1 0 -0.444 -0.72 0 0 -0.999 0 0 0.659 0.779 0 0 0 0.475 -0.741 -1 0 0 0 0.866 0.644 -1 0.972 -1 0.413 0 -1 0 0.843 0 0 -0.405 0 0 0 0 0 0 0.627 0.594 0.1 -0.296 0.721 -0.067 0 0 0 0.462 1 0 -0.638 -0.976 -0.937 0 1 1 -1 -0.846 0.938 0.244 0 0 0 1 1 0 0.322 0 0.827 -0.512 0 -0.577 1 0 -0.479 0.854 0 1 -0.346 1 -0.551 -0.164 0.138 0 -0.09 -0.664 -1 0 0.329 -1 -0.733 1 0.267 -0.843 -1 0 -0.609 1 0 0 0 1 0 0 -1 0.84 -0.624 1 1 -0.556 0.632 -1 -0.443 0.291 -0.524 -0.254 0 0 0 -1 0 -0.997 0 -1 0 -0.157 0 1 0 0 1 1 0 -0.92 0.074 -0.662 0 1 1 0 0 0 -1 -0.733 0 0.299 -0.487 0.545 1 0 0.865 -0.4 0 -1 -0.367 -0.076 -1 0 -0.069 0.047 -0.611 0 0 0 0 0 -1 0 -1 -0.792 -0.322 0.054 0 0.976 1 0 1 0.935 0.2 0 0 0.996 0 0 0 -1 0.95 0 0 -1 0 -0.368 0.559 0 1 0 1 0 -0.448 -0.254 1 -0.374 -1 1 -0.939 1 0 -1 0 0 0.234 0 0.906 0 -1 -0.332 0 0 0 0 0 0.308 -0.373 -0.612 0 0.828 0 0.622 -0.258 -1 0.939 -1 0 0 0.61 0.548 -1 0 -0.848 1 -0.319 -0.884 -0.078 -1 0.593 0 0 -0.958 -0.154 0 0 -0.686 0.494 0 1 0 0 -0.031 0 0 0 0 1 -0.555 0 -0.129 0 0.337 0 0.767 -0.857 -0.17 0.787 -0.859 0 -0.51 0 0 0 0 0 1 0 0 0.683 0 -1 -1 0 0.742 0.87 0 0 0 0 1 0 0 -0.208 0.89 0 0.905 0.071 0 -0.469 -0.469 0 0 1 0 0 0 0 -0.848 0 0 0 0.091 0.827 0 0.861 0.359 0 0 0.185 0 1 0.665 0.641 0 -0.41 -1 0.3 1 0 0 0.122 0.855 -0.108 0 -0.969 1 -0.368 0 -0.878 1 0 0.652 0 0 -0.557 1 0.648 -0.059 0.613 0.569 -0.033 0 0 0.258 0 0 -0.944 0.572 0.441 0.779 -0.315 -1 0.052 -0.344 0.692 -0.446 -0.669 0 0.52 -0.584 0 0.641 1 0 -1 -1 1 0 0.376 0 0 0 -0.739 0.518 1 0.146 0 0.42 0.669 0.814 0 0 1 -0.017 0.594 0.893 0 0.6 0 0 0 -0.615 0 -1 0.163 -0.529 0.079 0 0 -0.349 0 0 -1 0.044 0 0.521 0 0 0 -0.448 0 0 -1 0 -0.369 0 0 0 0 -0.929 0.594 0.315 1 -0.557 -0.698 0 0 0 0.027 0.87 -1 -0.548 0.257 -1 0 -0.757 0 0 0.362 0.276 1 0 -0.765 0 -0.537 -1 0 0 0 -0.548 0 0.37 -0.899 -1 0 0.759 -0.089 0.043 -0.003 0 0 0 -1 1 0.183 0 1 0 0 1 -0.961 0 -1 0.046 0 0 -0.814 0 0.188 0.974 0 0 -1 0.526 0 0 -1 0 0 0 0 0.543 0.561 1 0 -0.863 -0.445 0.347 0 0 -0.423 -1 0 0.767 -0.148 0 -0.185 0 0 -0.812 -0.966 0 -1 -1 0 0 0.923 0.601 -0.016 -1 -0.833 0 0 0.94 1 0 -1 0 -0.879 0 0 0 0 -1 0.195 0 0 0 0 -1 0 0 -0.624 0.989 0.824 0 1 0.697 -1 -0.849 1 0.87 0 0.924 0.923 0 0 1 0 -1 0 0 0.119 0.246 1 -0.53 0 0 0 0 -0.59 0 1 -0.15 0 0.786 -1 -0.568 -0.502 1 0 0 0 0 0 0.824 0.739 0 0 0 0 -1 1 -0.709 1 -0.019 0.657 -0.16 0 0.736 -1 0 0.676 0.947 0 1 0 0 -0.574 0 0 0.082 0.242 -0.174 0.87 0 1 -1 0 -0.99 0 -0.09 0 0.701 0 -0.042 0 0.897 0 0.344 0.621 -0.701 0 0.389 1 0.965 -0.516 -1 -0.217 0 0.826 -0.915 -0.548 0 1 0 -1 0 0 -0.848 0 0 0 0 0 0 -0.999 0 0 1 -0.433 1 -0.924 0 0.173 0.364 0 0 -0.606 -1 -0.116 0 0.851 0 0 -0.637 0.355 -1 0.511 0 0 0.193 0 0 0.478 0 0 0 0 1 -0.076 0.086 0 1 -1 0 -0.476 0 -0.094 -1 0.834 -1 -0.168 0 0.215 0 1 0 0.705 -0.828 1 0.493 -1 0 0 1 0 0 0 0 0 0.525 0 -0.574 1 -0.269 1 0 -0.769 1 1 0 -0.063 0 0 0.366 0.517 0 0 0 1 -0.993 0.431 -0.793 0.608 0.462 -1 0 0 0 0 0.96 -0.77 0 0.043 0 0.724 -0.96 1 0.697 -1 0.924 -0.019 0 0.878 -0.19 -0.215 1 -1 0 0.736 -1 -0.905 -0.293 -1 -1 -1 0 -1 0 0.138 -0.853 0 0 0.571 0 0 0 0 0 -0.116 0 0 0 -0.74 0 1 0.383 -1 -0.789 0 -0.29 -0.331 0 0 -0.862 0 0 0.521 -0.828 0.496 0.011 1 1 0 -0.939 0 0 0 0 -0.379 -0.804 0 0.077 0 0 0.569 0.623 -1 0 0 -0.952 1 -0.131 -1 -0.002 0.301 0 -0.378 0.264 0.763 0 0 0 0 -1 -1 -0.618 0 0.921 -0.766 1 0 0 0.141 0 0 0.985 -1 0.751 0 -0.192 0 0.959 0 -0.008 0 0 0 0.229 -0.406 0 -1 0 1 -1 -0.822 0.373 0 0 1 -0.183 1 -0.522 0.955 -0.024 0.969 0.489 0 0.734 0 0 -0.544 0 0.663 0 0 0 1 0 0 -0.158 0 0.133 0 0 0.493 -0.282 0 0.042 0.979 0.605 -0.901 -0.993 0 0 0 0 -0.773 0 0 0 0.257 0 0 0 0.804 -0.088 0 0 0 0.374 -0.261 1 -0.757 0 0.32 0 0.192 0.782 0 1 0 0 0.439 0.243 -1 0.851 -0.755 -0.949 -0.423 0 0 -1 0 0 -0.771 -1 1 0.449 -0.227 -0.981 0 0 0.788 -0.373 1 0 0.312 -1 0 0 -1 0.621 0.187 0.149 1 0 0 0 0.529 0 0 0.6 0 -1 0.339 -0.891 0 0 -1 0 -0.6 -0.326 1 0.52 0 1 -0.013 0 -0.987 0.149 0 0 0 0.536 0.493 0 -0.294 -0.969 -1 0 0 0 0.224 -0.12 0 0 0 0 0 -0.547 0.54 -0.063 0 -1 0.179 -1 0 0.361 0 0 -0.705 -0.395 0 0 -1 -0.711 0 0 0.233 0.682 1 -0.479 0.374 0.688 0.37 0.353 0.551 0 -0.45 -1 0 1 0 0 -1 -0.636 -0.859 0 0.443 0 -1 0.023 0.439 0 -0.125 0.209 0 -1 0 0.945 0 -0.505 -0.423 0.484 0 -0.205 0 0 -0.644 0 0.391 0 -0.817 -1 -1 0.813 -0.163 -0.806 0 -0.816 -0.046 0.858 -0.246 0.748 1 0 -0.791 -0.473 0.846 -0.558 -0.139 0 0 0 1 0 -0.794 -1 0 0.009 0 -0.622 0 -0.811 1 -0.302 0 0.672 -0.498 -0.587 -1 0.514 -0.39 0 0 1 -1 -1 -1 0 0 0 0.401 0.77 -1 0 0 0 0 -0.748 -0.136 0 0 0 0 0 0 -0.765 -1 0 -0.472 0.565 0.209 -1 0 -0.697 0 -1 0 0 0 0.372 0 0 0 0 -0.008 -0.779 0 0.549 0.983 0 0 0 1 0 0 -0.493 1 0 1 0 0 0 0 0 0 0 0.368 0.596 0 0.922 0.598 0 0.598 0 -0.302 0 0 -1 0.829 0 0.936 -0.266 -1 0 0 -0.109 1 0 -1 0 0.16 -0.503 -0.268 0 -1 0 -0.344 -0.599 -1 1 0 0 0 -1 0 -0.26 0 0 0.783 0 0.826 0 0 0 -0.864 -0.6 -0.658 0.492 1 -0.507 0.087 0 -0.761 0 -0.85 0 -0.184 -0.035 -0.483 0.584 0 0.851 -0.953 0 0 -0.52 -0.946 0 0 -1 -1 0.066 -0.81 0 0 0 0 0 0.561 0 1 -0.506 0.137 -1 -0.271 0.403 0.184 0.542 -0.922 0 0 -0.444 -0.795 0.283 0 -0.867 0 0 -1 0.21 0 -1 0 0.438 0 0 0 0.244 0.297 -0.226 0.752 -0.192 0.59 0 0 1 -0.132 0 0 0 0.863 -1 -0.524 1 -0.325 0 0 -0.134 0 0 0.297 0 1 0 0.22 1 0 0 0 0 -0.783 0.965 0.775 0.946 0 0 -1 0.071 0 -0.981 1 -0.752 0 1 -0.179 0 -0.876 0.557 0 0.304 0 0 -0.292 -0.7 1 -0.738 -0.667 -0.101 0 0 -0.377 0 -0.097 1 -0.491 0 1 -0.051 -0.062 0.83 0.565 0.17 -1 1 0 -1 0 0 0.715 0.957 0 0.493 0 0 1 0 0.534 0 0 -1 -1 0 0.111 0.883 0 0 -0.293 0.519 0 0 0 0 0.241 0 0 -1 0.026 0 0 0 0 0.988 0 0 0 -1 0 0.851 0.899 -0.368 -0.018 0 0.651 -0.257 -0.02 0.556 -1 0 0 0 0 -0.719 0 0.426 0 0 -1 -0.632 -0.276 1 0 1 -1 0 1 -0.059 0.488 0.78 0 0 0.33 -0.136 -0.716 -1 0 -0.535 0 0.093 -0.526 -1 0.826 0.27 0 0 0.978 0.003 1 0 0 0 0 -0.928 0 0 -1 -1 -1 0.073 0.802 0 -1 0.465 0.812 0 1 -1 -0.416 0.775 0.641 0 -1 0 0 0.962 0 -0.32 0 -0.032 1 0 0.172 0 1 0.777 -0.517 0 0 0 0.069 -0.471 0 0 -0.579 0 0 -0.049 0 -0.434 0 0 0 -1 0 0 -0.983 0.367 1 0 0 -0.009 1 0 0.261 0.056 0 0 -1 -0.329 1 -0.019 0.503 0 0 0.219 0 0 0 0 1 1 0.977 0.792 1 0.503 0 -0.229 0 0 -0.322 0 0 0 0 0 0.731 0 -0.782 0.611 0 0 0 1 0.157 0 0.996 0 0.155 0.922 1 0 0 0 0 0 -1 -0.711 0 0.938 0 0 0 -1 0 0 1 -1 0 -1 0 0 0.898 0 -1 0.46 1 0.957 0 -0.726 0.644 -0.875 -0.336 0 -0.342 0 0 0 1 0 -0.555 0.857 0 0 -1 0 -0.351 -1 0 0 -0.939 -0.016 0 1 -1 0.195 0.008 -1 0 -0.826 1 0 0 0.282 0 1 0.888 -0.202 0 0 0 -0.945 -0.211 0 -0.389 0.9 0 0 1 0 0 0 0 0 0 0 0.409 -0.714 -1 0 0 -1 0 0.506 1 0.747 -0.001 0 1 -1 0 0 1 0 0.966 0 0.564 0 -1 0 0 -0.12 1 1 0.985 1 0 0 1 -1 -1 0 0.074 0 0 0 1 -0.622 1 -0.635 0 0 -1 0.828 0 0.769 0 0 0 0 0.733 -1 0 0.797 1 0.09 1 0.202 -0.134 -0.333 1 0 0.846 0.222 0 -1 0 0 0 0 0 -0.889 -1 -0.276 -1 -0.829 1 -0.125 0 0 0 1 0 0.959 -0.759 0 0 0 0 0 0.454 0 0.801 -0.226 0.811 0 0 0 0.066 -1 0.334 0 0.29 0 0 -0.291 0.72 0 0 0 1 0 0 0 -0.896 -0.342 1 0 0.617 0 1 -1 0 -0.231 -0.131 -0.47 -0.872 0 1 0.888 0 0 0.56 0 0 0.865 0 0.807 -1 1 0.283 0 0 -1 0.294 0 0 0 -1 0 1 -0.461 0 0.017 0.199 -0.183 0.182 0 0 0 0 0.217 0 -0.582 0.532 0.142 0 0 -1 -0.613 0 1 0 0.103 -0.473 0.23 1 -0.748 0 0 -0.517 0 1 0.66 0 -0.809 0 -0.623 -0.954 0.703 0.939 0 0 0.316 1 0 0 0 0 0 0 0.014 -0.788 0.737 0.69 0.536 0.549 0.301 0.82 -0.341 -1 -0.591 0 0.13 -0.793 -1 -0.351 0 -0.385 0 -0.093 0.006 0.142 0 -0.329 0.564 -0.385 0 0.414 0 0.001 -1 0 1 -0.656 -0.013 0.84 0 0 0 0.117 0 0 0 0.715 0.408 0.53 0 0.856 -1 0.303 0.123 -1 0 0.486 0.259 0.15 -0.167 0 -0.156 -0.487 0 -1 0 -0.436 0 0 0.669 0.494 0 -0.916 1 1 0 0 0.205 0 -0.568 0.359 0.104 0 1 0 0.083 0 0 0 0 0.659 0 1 -0.37 0 0 0 0 0 -1 0.57 0 0 -0.243 0 0.966 -0.85 0.355 0 1 0 0.17 0 0 0 0 0.198 0 -0.408 0.482 -0.191 0 0.466 0 0 0 1 0 0.866 -1 -0.395 0.882 0 0 0 0 0 -1 0 0 1 0 0 0.862 0.454 0 0.432 -1 0 0.743 0 -1 0.295 1 -0.083 0.706 -0.79 0 -0.081 0 1 0 0 1 -0.722 -0.091 0 0.448 0.406 1 0 0 0.75 0.785 0.078 1 0 0 0 0.978 1 -0.043 0 0.334 -0.178 0 -0.779 -1 -1 0.838 0.972 0 0 -1 0.313 0 0 0 -0.293 0.466 -0.65 0 0 0 0 0.49 0 -0.876 0.009 -0.411 0 -1 -1 -0.804 -0.706 0.869 -0.665 0.176 -0.087 0 0 0.371 0 0 0.47 0 0 -1 -0.807 0 -0.895 0 0 0.753 1 0.399 0 0.665 -0.967 0 0 1 -1 0 1 0.944 0 -0.663 1 0 0 0.009 0.473 -1 -0.688 0 -0.087 0 1 1 -1 0 0 -0.742 0 0 0 0.824 -0.542 0 -0.681 0.813 -1 0 -1 -1 0 1 0.154 0 -0.94 1 0.074 0 -1 -0.66 0 -0.546 0 0 0 0 -1 0 0.419 -1 0 -0.621 0.526 -0.518 0 -0.481 0.901 0 0 -0.35 0 -0.316 0 0 0 -0.178 0 0 -1 0.308 0 0 -0.525 -0.316 0 0 0 1 0 0 0.43 -1 -1 -0.321 1 -1 0.126 -1 -1 -1 -0.547 0.572 -1 -0.355 0 0 -1 -0.055 0 0.281 0 0 -0.464 0.843 0 0 0 0 0 0 0 -0.804 0.229 -1 0 0 0 0 -0.279 0 1 1 1 0 0 -0.375 0 0.954 -1 -1 0 -0.645 0 0 1 0.314 0 -0.473 0.577 0 0 -0.723 0 0.164 -0.168 0.224 -0.277 0 0.334 0 -0.576 0 0 0 -0.648 -0.605 0 -0.362 0 0 0 0.692 -0.584 -0.803 0.559 0 0 0 1 1 0 0.291 0 -0.453 -1 0 0 -1 0 0.046 0 0.779 0 0.312 1 -0.821 0 0 0.866 -0.737 0 0.71 0 -0.831 -1 0 1 0 0 -0.872 0 -0.907 -1 -0.683 0 -0.357 0 0 -0.504 0 -1 0 1 0 0 0.511 0 0 0 0.928 0 0 -1 0.785 0.025 0 0.754 -0.111 0.941 0 -1 0 0 0.81 0.058 -0.602 1 0.341 0.375 0.288 -0.185 -0.596 0 0 0.01 -0.333 0 -0.033 0 -0.741 -0.595 -0.886 1 0 0.003 -1 -1 0 0.375 -0.693 -0.877 -0.674 0 0.119 0.308 -1 0 0 0 0.894 1 0 0 0 0 0 0 0.047 -0.601 0 0.103 -0.582 -0.022 1 0 0 0.891 0 0.146 0 -0.364 0.611 0 -0.2 0 1 0.654 -0.657 0.133 0.166 0 1 0 -0.273 -0.953 -0.92 0.47 0.274 -0.345 -0.516 0.803 0.705 0.528 0.346 -0.191 -0.566 -0.397 0 0 0 0.626 0 1 0 0 0.197 0 0 0.801 0 0 0 -0.422 0 -0.735 -0.069 1 1 0.153 0.642 1 0 0 0.863 0 0.907 0.438 -0.728 0 0 -1 -1 1 0.989 0 0 0 0 0.971 1 -0.25 0.134 -0.506 0 -1 0 0 -0.479 1 0.556 0 1 -0.951 -0.724 0.162 0.365 1 0.582 0 0.485 0.115 0.517 1 0 0.925 0 0.059 -0.15 0 0 0.135 -0.453 0 1 0 -1 0.303 -1 0 -1 0 -0.735 0.507 -1 -0.009 0 -1 1 -0.558 0 -1 0 0.992 0 0 0 0 0 0 0 -0.479 -0.027 0 0 0.851 1 0 0.287 1 0 -0.64 -0.876 0 -1 0 0.301 0 0 0 0 -1 0.574 0 -0.558 0 0 -0.18 0 0 -1 -0.416 0 0 0.82 -0.526 1 0 0 0 0 0.266 0 1 0.134 0 0.493 0.937 0.379 0 -1 0 1 0 0 0 0 0 -0.631 0 0 0 0.698 -1 -1 0 -0.797 0.332 1 -1 0.629 0.143 -0.082 -0.846 -0.447 0.735 -1 0 0 1 0 0.231 0.468 1 0.422 -0.369 -1 0.044 0.422 0 -0.715 0 0 0 -1 0.333 0 1 1 0 0 0 1 -1 -1 1 0 0.322 0 0 0 0 -1 0.865 0 0 0.801 0.582 0.486 -0.55 -0.078 -0.076 -1 -1 0 0 -0.798 0 0 -0.846 0 0 -0.78 0 0 0 -0.197 0 0.128 -0.289 -0.635 0 -1 0 -0.551 0.622 0 1 0.684 -0.411 0 -1 -1 0.599 -0.788 -1 0 -0.262 0.046 0 0 0 0 -1 0 0 0 0.616 -0.527 0.926 0 0 0 0 -1 0 0 0 -0.379 0 -1 0 0 -0.039 0 -1 0 0 -0.91 0.707 -0.416 0 0.503 0 0.273 0 0 0 0 0 -0.981 0 0.804 -0.578 0 0.582 -0.976 0.62 0 1 0 1 0 -0.109 -0.375 0.769 0 0 0 0 1 -0.92 0.045 -1 0 0.146 0 0 -0.843 0 -0.702 1 0 0 -0.611 0 -0.158 -0.592 -1 0.716 -0.843 -0.224 -0.215 0.069 0.493 0.989 0.188 0 0 0.325 0 0.354 0 0 0 0 0.055 -0.267 -1 1 0.776 -0.793 0.068 -0.499 1 -1 -1 0 0 0 -0.656 -0.038 0 -0.83 1 0.206 0.873 -1 0.368 0 0 -1 -0.345 0 -0.405 0 0 0.905 1 1 0 0 0 0 1 -1 -1 -0.481 0 -0.762 0.022 -0.332 0 1 -0.174 0 -0.062 0 0.807 0 -1 0 -0.846 0 0.517 0.499 -0.688 0.446 -1 -0.716 -0.231 0.491 0 0 1 -0.132 0.056 0 0.512 0 -0.584 0 -1 0 0 0.203 0.243 1 -0.916 0 0.458 0.43 1 0 -0.274 0.62 0 0 0 -0.375 0 0.175 0.44 0 0 0 -1 0 0.837 -1 0 0.603 0 0 0 0 0 -0.407 0 0 0 -0.478 -0.812 0.101 0 0 0 0 -0.4 0.23 0 0 0 0 -0.075 0 1 -0.571 0 0 1 -0.059 0 -0.546 0.344 0.932 0 0 0 0 0.704 -1 1 0 0 0 -0.514 0.271 0 -0.803 -0.776 -0.867 0.957 -1 1 0 -1 0.846 0.766 0.255 0.097 -1 -1 0 0 0 -0.918 0 0 -0.073 -1 0 0 0 0 -0.491 1 1 0.486 1 0 -1 0 0.644 0 0.757 -0.04 0 -0.672 0 0 0 0 0.075 0.789 0 0 0.493 0.726 0.021 0 -0.681 0 -0.327 0 -0.486 0 1 -1 1 0 1 0 1 0 0 0.317 -1 -0.288 0.517 -0.047 1 -1 0.778 1 1 1 -0.61 0 0 1 -0.106 -1 -0.772 0 0.148 0 0 -0.864 0.262 0 0 0 -0.807 0 0 0 0 0 0 -1 0.586 0 -1 0 0 -0.426 -0.047 0.653 0 0 -0.261 -0.359 0 0.433 1 0 -0.815 0 0.291 -1 0.752 0 0 1 1 0.705 0 0 0 0 -0.382 0 -0.463 1 0 0 0 0.515 -1 -1 0 0 -0.619 -0.338 1 0.433 0.025 -0.169 0 -0.822 0.541 0 0 0 1 -1 0 0 1 0 0.627 0 0 0 -0.754 0.567 0 0.758 0.844 0.392 0.638 0 1 0 0.747 0.865 0.66 0 0.757 -0.081 0.08 0.157 1 0.17 1 0 0 -0.658 -0.727 0 0.589 -0.73 0 0 -0.068 -0.57 0.704 0.08 0.711 0 0.95 0 0 0.523 0 0 0 1 -0.628 -0.413 -0.849 -0.693 0 0.236 0 -0.691 -0.92 1 0 1 -0.467 0 0.837 0 0 0.962 0.915 0.302 0 -0.131 -0.807 -0.921 -1 -1 -1 0.925 1 0.599 1 1 1 0 1 -1 0 1 0 0 0.106 0.976 1 -0.426 0 0.002 0 0.746 -1 0 0 0 0.006 0 0 0 1 0 0 -0.668 -0.046 0 0 -1 -1 0.747 0 0 0.867 0 0.521 0.315 0 0 1 1 -0.11 -0.096 0 1 1 1 0 -0.065 0 0.896 -0.932 0.648 -0.344 0.874 0.773 0.798 -0.731 0.747 -0.773 -0.378 -0.969 0.662 0 -0.704 1 1 0 1 0.384 0.861 0.703 0.275 -1 -0.625 0 0 0.64 1 0.167 0.813 -0.059 0.49 0 -0.612 0 -1 1 0.517 0 0 0 0 -0.202 0 0 -0.541 0 -0.499 0 0 -0.115 -0.782 0 0 0.57 0 -0.789 0 -1 0.899 0 0 0 0.189 -0.847 1 0.262 0.091 -1 -0.67 -0.092 0 0 0.999 -1 -0.196 0 0 0 -0.258 0 0 -0.804 0 0 0.5 0 -0.857 -1 0 0 -0.713 -0.564 0 0 0 -1 1 0 0 1 -0.289 0 -0.915 0 -0.798 -0.61 0 0 0 -1 1 -1 -0.43 0 0 -1 -0.895 0 -0.668 0.131 1 0 0 0 0.953 -0.411 0.551 0.504 0 0 -0.905 0 0.907 -1 -0.031 0.991 0 0 0.555 1 0 0 0.182 0 0 0 -1 0.566 -0.266 0 -0.925 0 0.78 -0.712 0 0 0.978 -0.103 0 0.726 0 0 0 0.801 0 0.014 0.046 0 0 0 0 -0.023 -0.465 -0.221 -1 -1 0 -0.489 -0.361 0.033 0.539 0.576 -1 0 0 -1 0 0 -0.215 -1 -0.65 0 0 0 1 0 -0.72 -1 0 -0.368 -0.478 -1 0 -0.521 1 0 0 -1 0 0 -0.139 0 -0.665 -0.206 0 0.667 1 0 -0.873 -1 0.881 0 0 0 0 0.93 -0.933 0 1 0 1 -0.396 0 0 0.324 0 0 1 0 -0.982 -1 0.017 0 0.018 0 0.361 0.197 0.036 -0.698 0 -1 0.623 0 -1 0 -0.638 0.794 0 0.224 0 0.124 -0.537 0.157 0.376 -0.41 0 0.116 1 0 0.178 -0.888 1 -0.734 0 0 -0.309 0 0 0 0.003 0 0 0 0 0.799 0 1 0.522 0.806 1 -1 0 -0.583 0 0 1 0.195 0.155 -0.249 0.754 0 0 0 0 1 0.592 0 -1 0 -0.994 1 -1 0.333 0.004 0.841 0.535 0 0 0 0.335 1 0.727 0.043 0.952 0 0 1 -0.089 0 0 0 0 -0.705 0 0 0 0.261 -0.854 0 1 0.018 0.521 1 0 0.353 -0.427 1 0.852 0 0 0 0 0 0 0 0 -0.484 -0.925 0 0 0 0 -0.194 1 0 -0.099 0 -0.672 -0.833 -0.491 0 1 0 0 -1 -0.627 -1 -0.563 0 0 1 -0.754 0 -0.504 0 -0.264 -0.655 -0.964 0 0 0 -1 0 0.799 0 0.157 -0.061 0 -0.181 0 1 -0.743 0 0.283 0 -1 0 0 0 -0.599 0.063 -0.679 -0.583 0 1 0 1 0.07 0.884 1 0 1 0 0.123 0 0.668 0 0 0.889 0.123 0 1 0 -0.884 0.933 0.928 0.895 0.98 -0.333 0.114 1 0 -0.367 -0.726 0.655 0 0 0.856 1 -0.776 0 0 -0.064 -0.949 1 -0.567 0 1 1 0 1 -0.022 1 -1 0 1 0 0 0 0.599 1 -0.217 0 0 0 0 -0.694 0 0 -0.809 0 -0.947 -1 0 0.561 -1 0 0 -0.227 0 0 0.554 1 0 0 0.97 0 0 0 0 -0.216 0 0.568 -0.026 1 1 -0.112 0 0.238 -0.773 -1 0 -0.996 -0.969 1 -1 1 -0.38 0 0.412 0 -0.468 0.198 -1 -0.61 0.124 0.46 -0.909 -0.358 0 0 -1 0.152 0 0.131 0.328 1 0 -1 0.52 -1 0 1 1 -1 0 -0.993 0.337 0.649 1 0.104 -1 0.068 0 -0.314 0.372 0 0.094 0 -0.302 0 1 0.15 0 0 -0.318 0 0.654 0 0 0 -0.666 0 1 0.396 0.877 0 -0.755 1 1 0 0.311 0.38 -1 0.749 0 0.076 0 0 1 -1 0 0 0 0 0.863 -1 0.738 -0.961 0 0 -1 -0.221 0 0 1 0 -0.016 0 0 0 0 -1 -0.391 0 0 0 0 0 0 0 0 -0.625 0 0 1 0 -1 0 -0.151 0.338 0.745 0 0 -0.663 0.328 0.112 0.692 -0.608 0 -0.532 0 0.302 0 1 0 -1 0.737 -0.047 -1 0 0.774 1 -0.444 -1 -1 0 0 0 0.406 -0.976 0.837 0 0 0 0.745 0 0 0 -1 -1 -0.29 0 1 0 1 0.147 0 -0.615 -0.435 1 0 0.706 -0.309 0 0 0 0.74 0 0.744 -0.28 0.556 0 -0.701 0 1 0 0 0 -1 0.018 0 -0.645 0 -0.117 0 0.346 0 0 0 1 0 -1 0 0 0 0.905 -0.706 0 0 0.018 0 1 -0.159 0 -0.8 0 0 0 0 0 0 -1 0 -0.667 0 -0.043 -0.678 0 0 0.089 0.232 0.352 0 1 0 0.068 -1 0.487 -0.767 0 -1 -0.406 -0.429 0 0 0 0 0 0.912 -1 -0.799 0 0 0.537 -1 0 0 0.035 0 0 -0.466 0 0 0.893 0.541 0 0.631 0 0 0.76 0.543 1 0 -0.878 1 0.774 0 0.075 0 0 0 1 0 0.072 0 0.9 0 1 1 0 -1 0.084 -0.53 -0.038 0 0.943 0 0 1 -0.459 0.081 0.555 0 0 -1 0.985 -0.235 0.288 0 0 0 -0.134 -1 -0.273 -1 -0.046 0 0 0.56 -0.054 0 0.192 -0.518 0 0 0.148 0.351 -0.812 -0.414 0.752 0.819 0 0.735 -0.665 -0.737 0 0.671 -1 1 0.781 0 -0.95 -0.704 0 -0.358 1 1 0.318 -0.996 0.712 -0.067 0 0 0 0.92 0 0.012 0 